9996 16
. -0.18175375 -0.10406484 -0.15596715 -0.16734602 -0.16544622 -0.16692986 -0.20419161 -0.1567696 -0.20787276 -0.20098495 -0.18473941 -0.20176831 -0.16576394 -0.22863315 -0.1974736 0.24651898
영화 -0.18254921 -0.1510919 -0.12611735 -0.16079086 -0.17906532 -0.16537991 -0.15600507 -0.15261261 -0.16884407 -0.20703039 -0.19231118 -0.17406023 -0.15798518 -0.1482213 -0.18118705 0.009323648
다 -0.18038967 -0.14186546 -0.10198144 -0.17858088 -0.17173918 -0.1519782 -0.1877225 -0.16938205 -0.20048259 -0.21597628 -0.12348822 -0.1945475 -0.14867328 -0.2065928 -0.18975888 0.08497032
고 -0.15566108 -0.15732789 -0.16812845 -0.14790832 -0.16641946 -0.114589974 -0.16664997 -0.12506752 -0.1348183 -0.1698775 -0.18065043 -0.13749757 -0.15067999 -0.21913746 -0.13393517 0.46535113
하 -0.1387161 -0.13585076 -0.15731372 -0.16407363 -0.17379591 -0.16844845 -0.09681006 -0.1061544 -0.18787396 -0.10151542 -0.13942206 -0.1464142 -0.15248539 -0.11636787 -0.13316308 -0.011924239
을 -0.1513575 -0.12105396 -0.14635631 -0.114568114 -0.16651222 -0.15803078 -0.15948468 -0.14553124 -0.1564667 -0.1779048 -0.16234256 -0.13877556 -0.14348534 -0.16365632 -0.13912897 0.06967451
보 -0.17002632 -0.16512592 -0.14424603 -0.14159948 -0.16835889 -0.10045591 -0.15118814 -0.1703232 -0.16705647 -0.20442672 -0.1833671 -0.100318104 -0.13426939 -0.14297608 -0.07159775 -0.04645759
.. -0.16576193 -0.09935546 0.03297536 -0.10775093 -0.17343435 -0.12036052 -0.20639133 -0.16278285 -0.18455979 -0.20482537 -0.17479303 -0.16374916 -0.13593586 -0.2224178 -0.14731075 -0.040830255
게 -0.114302814 -0.15166344 -0.14413385 -0.14333345 -0.17559558 -0.116429634 -0.123637915 -0.091443494 -0.118495576 -0.20859118 -0.113303766 -0.14960164 0.12735498 -0.08771516 -0.1394429 -0.046158064
, -0.15621245 -0.17078449 -0.0841152 -0.052193437 -0.18168218 -0.10345741 -0.111156285 -0.1717179 -0.15821022 -0.20733958 -0.1922707 -0.09346738 -0.13487223 -0.08361953 -0.111790806 -0.030998252
! -0.15601824 -0.17757657 -0.07463162 -0.16014065 -0.12517014 0.20455131 -0.10655099 -0.16650365 0.06753745 -0.20488785 -0.18772522 -0.1641848 -0.15537465 -0.13565779 -0.18779741 -0.049073875
지 -0.16246404 -0.15661378 -0.15010077 -0.15983006 -0.17612183 -0.1552743 -0.12297511 -0.116402365 -0.16839747 -0.19647491 -0.13102798 -0.10179166 -0.12708025 -0.14290698 -0.079129696 0.11803551
있 0.14463101 -0.16112565 -0.15000674 -0.12653717 -0.03446927 -0.1683952 -0.06774099 -0.16187099 -0.152773 -0.14507179 -0.17626818 0.09753656 -0.1563986 -0.09074702 -0.13001327 0.032555413
없 -0.15933344 -0.05995646 0.122437365 -0.16584355 -0.13781454 -0.1592957 0.07600288 -0.12908132 -0.16571283 0.17091267 -0.07248775 -0.062232774 -0.139162 -0.15548486 -0.17001137 -0.02777204
? -0.11744627 -0.16681403 -0.01734157 -0.085566714 -0.1304501 -0.12514491 0.057657123 -0.14408629 -0.11688102 -0.20305753 0.14138082 -0.17318135 -0.13165164 -0.21037789 -0.17922148 -0.047398057
좋 -0.11809224 -0.16391723 -0.12918398 0.24867275 -0.17837974 -0.09990542 -0.15179597 -0.17574723 0.055005804 -0.20188174 -0.14679065 -0.1431195 0.060885288 -0.1373454 -0.08892476 -0.006589129
나 -0.11316789 -0.081806876 -0.1685606 -0.17430404 -0.14333373 -0.12434987 -0.15790021 -0.10659577 -0.12662937 -0.16720513 -0.1299448 -0.16351864 -0.15525648 -0.18858668 -0.108376674 -0.0434888
었 -0.07897493 -0.15692908 -0.10817096 -0.00028416765 -0.17281215 -0.14417656 -0.18153188 -0.17266892 -0.14717722 -0.20816375 -0.20493884 -0.14288877 -0.08478522 -0.15953909 -0.15421902 0.06152666
만 -0.12972231 -0.13674249 -0.10159462 -0.09854528 -0.16966632 -0.11625864 0.1439 -0.07432435 -0.12695539 -0.16696657 0.020192107 -0.13971387 -0.09626524 -0.16962059 -0.0518025 -0.037950385
는데 -0.10962059 -0.15349372 -0.15242597 -0.0144464625 -0.17749175 -0.07077806 -0.16362697 -0.15763757 -0.1512195 -0.19965196 -0.18672699 -0.13793246 -0.06855009 -0.17372476 -0.14530596 -0.04890721
너무 -0.15743904 -0.16153365 -0.16800825 -0.15218903 -0.1765707 -0.16217013 -0.15505631 -0.15488274 -0.17077191 -0.21262383 -0.18919262 -0.16024654 -0.13192694 -0.17109245 -0.16090333 0.032061312
봤 -0.14799805 -0.15659559 -0.11497671 0.11886513 -0.13295732 -0.15436536 -0.19341931 -0.17488141 -0.12191189 -0.20421296 -0.1721986 -0.14291812 -0.106630825 -0.09247445 -0.14458181 0.015491162
적 -0.17458367 -0.15764073 -0.026104901 -0.16519403 -0.08676486 -0.16205628 -0.092634164 -0.067981616 -0.04787242 -0.18183553 -0.19091693 0.0884657 -0.13898659 -0.024573179 -0.17580958 -0.03374338
안 -0.15834792 0.01671622 -0.06953459 -0.1320436 -0.14117339 -0.111938365 -0.069272585 0.11843518 -0.041665222 0.07507568 -0.013773405 -0.11262544 -0.14983886 0.11774964 -0.049293682 0.032615505
정말 0.1382696 -0.17462777 -0.12159335 -0.08835232 -0.033889648 -0.16050906 -0.07321999 -0.16440414 -0.18172707 -0.21453798 -0.19046459 -0.13581935 -0.14516202 0.019403271 -0.17944108 0.027595485
로 -0.14650191 -0.056144632 -0.009295528 -0.13484779 -0.14055805 -0.15627363 -0.033668775 -0.064739004 -0.19723777 -0.09054151 -0.06149952 -0.1444424 -0.12279308 -0.07815284 -0.15375932 0.025032945
음 -0.15214184 -0.16541927 -0.14789847 -0.14871934 -0.16874802 -0.1543631 -0.13169852 -0.16332287 -0.16507646 -0.1972183 -0.18552779 -0.13749109 -0.13040549 -0.14983785 -0.14947878 0.08020076
것 -0.12784596 -0.14170107 -0.16963515 -0.00024214647 -0.15892379 -0.10416557 -0.1638419 -0.044627093 -0.1218651 -0.15408568 -0.16074407 -0.13426222 -0.12630941 -0.14278822 -0.10785032 0.046023883
아 -0.13010135 -0.07930293 -0.120217174 -0.16615757 -0.15757884 -0.14993864 -0.20454785 -0.11064191 -0.1320583 -0.11532557 -0.17314225 -0.1465612 -0.0014004181 -0.13709834 -0.1684349 0.05706841
네요 0.09267621 -0.010154073 -0.1665268 -0.13269562 -0.17139493 -0.17368515 -0.18538114 -0.051461365 -0.16246285 -0.22503603 -0.04162876 -0.1557585 -0.14075783 -0.19235961 -0.14679617 0.009734258
재밌 0.16733554 -0.17425118 -0.16148879 -0.060462613 -0.17052087 -0.016081192 -0.16498359 -0.16357906 0.26797193 -0.2069765 -0.18987736 0.048195243 -0.1397278 -0.21312472 -0.17749898 -0.02201698
어 -0.13096358 -0.05209955 -0.16109 -0.14364354 -0.058447912 -0.15284716 -0.1645527 -0.03757071 -0.17512907 -0.20224342 -0.17987818 -0.15567626 -0.13803849 -0.083622545 -0.16159353 -0.02906928
같 -0.1585096 -0.14643334 -0.10541627 -0.13788022 -0.082941435 -0.16209617 -0.15024836 -0.08524307 -0.16453525 -0.10980459 -0.15914577 -0.13999161 -0.12541018 -0.08808299 -0.17412414 -0.014588643
점 -0.123783335 0.06882474 0.07066479 -0.14732927 -0.17517895 -0.103399456 -0.19043528 0.10218188 -0.1265308 -0.19858952 -0.117271915 -0.11609771 -0.107631356 -0.2194955 -0.09599569 0.063137144
지만 -0.034346186 -0.031497356 -0.14630274 0.22629629 -0.08491536 -0.15957373 -0.15094614 -0.15698361 -0.12505457 0.050613876 -0.011937231 -0.09981741 -0.13681355 -0.07499307 -0.13229012 -0.016194485
진짜 -0.13337159 -0.15287298 -0.16879947 -0.15984885 -0.17201301 -0.07768397 -0.16468275 -0.17244658 -0.17705528 -0.21043356 -0.13298151 -0.07566708 -0.11166619 -0.2235031 -0.16621685 0.13943009
했 -0.15111549 -0.09567054 -0.09810497 -0.121157266 -0.009693421 -0.114340015 -0.08236393 0.028088655 -0.16122098 -0.09428357 -0.15558279 -0.18575649 -0.14972886 -0.0571169 -0.16313715 0.027809035
에서 -0.15210915 -0.15059614 -0.14470139 -0.12284458 -0.1466966 -0.14729296 -0.072760016 -0.13049375 -0.1620075 -0.1823026 -0.15537529 -0.11275506 -0.12510107 -0.15922222 -0.15664247 0.018386655
기 -0.12330805 -0.15229113 -0.069107786 -0.1147729 0.059691265 -0.15808536 -0.14159125 -0.18193632 -0.10705153 -0.21228309 -0.037975974 -0.13925886 -0.040315993 0.001473511 -0.16035019 0.0075109876
네 -0.17585832 -0.103123374 -0.15584688 -0.1615191 -0.049519543 -0.16005339 -0.1600188 -0.16892822 -0.16587983 0.08104765 -0.18365744 -0.18075182 0.20059049 0.18205602 -0.13565806 -0.04750867
않 -0.14305171 0.0035544583 -0.039244294 -0.093768455 0.05647159 -0.1352129 -0.10985051 0.09845188 -0.061835416 0.027523048 -0.14064038 -0.09493308 -0.099954806 -0.031187192 0.0026289443 -0.02321421
거 -0.1011347 -0.12612611 -0.1508706 -0.1339966 0.13751376 -0.13962883 -0.1620598 -0.10639012 -0.12180241 -0.16320871 -0.13584541 -0.1343393 -0.13212425 0.045172818 0.042047955 0.02077903
았 -0.14491054 -0.027847022 -0.04558577 -0.11240536 -0.16546024 -0.08769507 -0.16245475 -0.1612489 -0.1432011 -0.19728819 -0.19332485 -0.13590631 -0.09790742 -0.16742873 -0.15265088 -0.04578376
수 0.1453651 -0.14584011 -0.08457799 0.07358076 -0.11183798 0.011721999 -0.038648147 -0.11376416 -0.16611977 -0.15342651 -0.05090128 0.021274148 -0.14971562 -0.08477701 -0.1270102 -0.007228542
되 -0.14776622 -0.15194796 -0.1381522 -0.13121663 -0.14675392 -0.14460057 -0.09497774 -0.14818235 -0.1494405 -0.177035 -0.13316375 -0.12720706 -0.12632321 -0.14448085 -0.13326819 0.024182634
면 -0.1280654 -0.15690833 -0.07363888 -0.11305403 -0.04512054 -0.021223305 -0.15507334 -0.15585588 -0.13383225 -0.14109133 -0.00062435225 -0.13338292 -0.109772384 -0.009640189 -0.12357404 -0.008431286
ㅋㅋ -0.16081944 -0.13250479 -0.060745828 -0.17053103 -0.16654895 0.060335245 -0.12882079 -0.17595166 -0.18828623 -0.080967605 -0.17112926 -0.17983171 -0.14706509 -0.09926834 0.13413376 -0.032584406
말 -0.16374117 -0.13782193 -0.0073458515 0.009782465 -0.13918528 -0.13425028 -0.06501148 -0.12859514 -0.17982613 0.029435806 -0.06447142 -0.1470962 -0.15420482 -0.16509004 -0.1470991 0.008713605
연기 -0.10656656 -0.16229977 -0.16196224 -0.086670935 -0.16423991 0.08521992 -0.16802116 -0.16539384 -0.13841467 -0.11769133 -0.16963542 -0.024149785 -0.11051555 -0.16186859 -0.068995744 -0.013614832
인 -0.13157652 -0.1527161 -0.1073573 -0.12025359 -0.1018638 -0.078801885 -0.16088995 -0.14313173 -0.1539518 -0.17878106 -0.19016926 -0.13716812 -0.14401665 -0.15017012 -0.11016406 0.020313265
주 -0.103764825 -0.14012763 -0.15831527 -0.051073503 -0.1755742 -0.031482268 -0.1562073 -0.16850872 -0.13853715 -0.17803651 -0.1449239 -0.07811453 -0.039022483 -0.17085972 -0.12212707 0.036847565
내 -0.13267477 -0.14502822 -0.11895371 -0.11256076 -0.09942198 -0.12101811 0.022461373 -0.12502879 -0.16189289 -0.066679016 -0.16649577 -0.16292986 -0.15235464 -0.11214354 -0.1463741 0.04345297
최고 0.19711293 0.042863764 -0.053614452 0.048120186 -0.17943186 0.24358207 -0.077761374 -0.0046336395 0.06254295 0.08353136 -0.12914233 0.18730746 -0.15026 -0.017663255 -0.16890737 0.2907138
~ -0.069055215 -0.17779218 -0.13755439 -0.08410079 -0.06371905 0.10966611 -0.10437243 -0.1640954 -0.051411133 -0.2071427 -0.06422985 -0.11378025 -0.09850831 -0.010279017 -0.13456139 0.06606814
평점 -0.1087563 -0.16696142 -0.008846877 -0.11157857 -0.13748065 -0.06566624 -0.09095525 0.07836773 -0.116220534 -0.2053766 -0.13279206 -0.14470781 0.14436199 -0.06956442 -0.103274964 -0.0210222
이런 -0.13809454 -0.17096917 -0.1625988 -0.06945902 -0.17600355 -0.15609227 -0.15361452 0.04723834 -0.1876357 -0.18686871 -0.16751245 -0.14918402 -0.13599299 0.0251921 -0.13384306 -0.046252456
던 -0.1488121 -0.1206699 -0.12688076 -0.12779035 -0.1728247 -0.11625835 -0.17049016 -0.16282426 -0.14475577 -0.176885 -0.08318029 -0.124917306 -0.12505133 -0.078849636 0.120894164 -0.026722718
어요 -0.04892382 -0.1858897 -0.18383597 -0.13925363 0.0029308542 -0.15946727 -0.069698445 -0.16603637 -0.07099373 -0.21209995 -0.18396708 0.12873846 0.22228937 0.027473124 -0.16422148 -0.012206012
할 -0.14163505 -0.021438569 -0.107194066 0.037521705 -0.15500697 -0.10736483 -0.02960121 -0.036777046 -0.13721724 -0.046825014 -0.14374565 -0.11907038 -0.14600304 -0.08706121 -0.095846884 -0.010177277
왜 -0.06847373 -0.05952923 -0.012813401 0.056402724 -0.11768354 -0.16413286 0.025023598 -0.15248047 -0.13017039 -0.12430369 -0.019384323 -0.15581268 -0.15977138 -0.098257646 -0.14618643 -0.025884379
겠 -0.040754788 0.010896088 -0.115699805 -0.14550963 -0.16661115 -0.13664807 -0.16874415 -0.019843848 -0.06473489 0.0662772 0.16176747 -0.057390116 -0.107876495 0.01368996 -0.124545686 0.0052029765
1 -0.14408922 -0.15394472 -0.11213325 -0.16519897 0.15321869 -0.12823462 0.08877352 -0.16379187 -0.15889159 0.04249294 0.037954994 -0.15727349 -0.13843462 0.04835697 -0.1523245 -0.03111267
스토리 -0.14795633 -0.11263451 -0.091502175 -0.15507413 -0.15395823 -0.1625298 -0.1746463 0.10983609 -0.15682514 -0.08176579 -0.15029882 -0.12975138 -0.122305244 -0.13762164 -0.15292889 0.03239131
해 -0.13271561 -0.1661418 -0.16474478 -0.13780794 -0.12490501 -0.1489521 -0.014806171 -0.10095765 -0.16358545 -0.04942824 -0.09359606 -0.119283035 -0.073410615 -0.06504858 -0.16436581 0.035518996
습니다 -0.11929756 0.0660561 0.0025183463 -0.12131363 -0.005435385 0.09416759 -0.025169903 -0.010831108 -0.13477181 -0.20529576 -0.18803173 -0.11082237 -0.11395607 -0.21763013 0.14242934 -0.0021147148
ㅋㅋㅋ -0.17323457 -0.18177219 -0.13376358 -0.16620448 -0.062557586 -0.13150653 -0.046134364 -0.099037014 -0.16484006 -0.071543105 -0.14231601 -0.15797894 -0.10748295 0.03150203 0.10709476 -0.043214332
... -0.1649639 0.0058931387 -0.15220188 -0.13892238 -0.048741426 -0.14063409 -0.07502576 -0.05970517 -0.18192776 -0.078929715 -0.123032175 -0.16174342 -0.16003478 -0.21542194 -0.17577457 -0.04036268
드라마 -0.16408437 -0.16402236 -0.17549747 -0.0067009954 -0.1655692 0.03267643 -0.082278535 -0.18265563 0.041969936 -0.20558321 -0.14232314 -0.049636453 -0.13260068 -0.10371149 -0.14295904 -0.032454986
생각 -0.15814094 -0.020724883 -0.13925083 0.15004864 -0.13171068 -0.14763361 -0.13457619 -0.06609602 -0.18729502 -0.10319835 -0.07368553 -0.16354795 -0.10345979 -0.046903893 0.098164156 -0.04255588
아니 -0.12021256 0.007917269 -0.12109464 -0.150662 0.050429694 -0.1571603 0.13418476 -0.053247288 -0.1197326 -0.04377999 0.016530076 -0.10784605 -0.0018935415 -0.07661953 -0.17897701 -0.00264249
더 -0.11077656 -0.14621525 -0.044265117 -0.15673397 -0.082578376 -0.15125036 0.07073643 -0.16251065 -0.1415356 -0.042001653 -0.043200083 -0.15159306 -0.1377618 -0.12197024 -0.15402736 -0.028809786
그 -0.05187624 -0.08893556 -0.043109167 -0.12756765 -0.10460052 -0.15633518 -0.08758096 -0.10108868 -0.005690189 -0.050264537 -0.09465667 -0.1507906 -0.030862292 -0.1695328 -0.051799405 -0.047986712
싶 -0.10269677 -0.14564653 -0.14520255 0.0061086677 -0.16728564 -0.1201123 -0.11903662 -0.12801619 -0.13354555 -0.16960995 -0.17828616 -0.15036732 0.07919814 -0.15688135 -0.11128152 -0.006179344
사람 -0.11278522 -0.015260773 -0.13784978 -0.09004932 0.010666727 -0.121381775 -0.16384923 -0.10996525 -0.03747208 0.00033018552 -0.034123126 0.1306019 -0.078413926 -0.14657782 -0.09784702 -0.043373883
듯 -0.15075326 -0.0129224295 -0.13681982 -0.035818852 0.037589207 -0.17062609 -0.11056938 -0.114051916 -0.16942975 -0.1982903 -0.06667444 -0.15148152 -0.1300204 -0.13185824 -0.15519914 -0.048803985
때 -0.13213536 -0.12748526 -0.13892598 -0.11759161 -0.16080755 -0.1290228 -0.06618474 -0.0062674135 -0.14879555 -0.16295485 -0.12271175 0.14199452 -0.096217096 -0.07416146 -0.09998739 0.008811664
감동 -0.17073892 -0.17495614 -0.17397903 -0.14704636 -0.1785084 -0.12538487 -0.104823165 -0.16682096 -0.16151184 -0.14741436 -0.19191484 0.2652857 0.115525216 -0.043120876 -0.1713271 -0.03714205
함 -0.116175085 -0.06294748 -0.060684804 -0.1025954 -0.16048092 -0.08167376 -0.107443385 -0.041801922 -0.15923332 -0.104952596 -0.019570364 -0.14835566 -0.15110184 -0.010772634 -0.142989 0.04309954
배우 -0.10014352 -0.14732607 -0.15353492 -0.0987409 -0.112792455 -0.14947404 -0.1899064 -0.13277672 -0.18995711 -0.014669399 -0.14670084 -0.16631521 -0.14654878 -0.15012197 -0.1202744 0.04520844
본 -0.16174698 -0.14433053 -0.12015606 -0.12964264 -0.17253187 -0.14242187 -0.13321339 -0.14716987 -0.16193317 -0.14996156 -0.18066125 -0.15933517 -0.14608511 -0.12690698 -0.13215551 -0.0016143029
까지 -0.083730675 -0.1253274 -0.16707483 -0.08827879 -0.14062577 -0.12142773 -0.13861969 -0.11136494 -0.14032738 -0.15392722 -0.13139544 -0.14314915 -0.04421428 -0.15311457 -0.113915965 -0.04593873
뭐 -0.18744233 0.019676607 -0.11977728 -0.14753711 0.10628122 -0.15567578 0.08267235 0.076852314 -0.17793842 -0.15341042 -0.051935162 -0.16215388 -0.13551824 -0.08085747 -0.16451998 0.0517074
알 -0.10405183 0.015221311 -0.011061683 -0.13260704 -0.17530875 -0.154667 -0.13759261 -0.124897696 -0.16194269 -0.15146153 0.03306941 -0.117537186 -0.149055 -0.15953976 -0.031006752 0.0061373543
만들 -0.14923756 0.1469612 -0.13178146 -0.12184007 -0.17052177 -0.025091149 -0.18160984 -0.18482165 -0.055343304 -0.2053183 -0.026753724 -0.09902867 -0.12930882 0.018290393 -0.08850846 -0.04065969
내용 -0.1455012 -0.15745167 -0.000706455 -0.1234777 -0.17180355 -0.13632758 -0.14201176 0.16827205 -0.16285533 -0.19714127 -0.18830816 -0.13164605 -0.12522385 -0.16317311 -0.14418869 0.0076731388
볼 -0.04097838 -0.15639049 -0.10503682 -0.14883809 -0.17187338 -0.16758874 -0.029546201 -0.10718753 0.046730828 -0.16792691 0.04121029 0.011342945 0.19790535 -0.16093914 -0.16899179 -0.014037313
감독 -0.04723859 -0.18422845 0.17341314 -0.09777169 -0.11055495 -0.017586827 -0.19364044 -0.15465996 -0.026234804 -0.060489707 -0.11771243 -0.033663817 -0.017650452 0.15180703 -0.041637007 -0.020346064
보다 -0.10489033 -0.033933498 -0.1374158 -0.107237294 -0.04516735 -0.096471004 -0.026325375 -0.15035158 -0.1354337 -0.14405072 -0.11771005 -0.1602331 -0.11015994 -0.16704363 -0.10592926 -0.005813741
라 -0.1555591 0.020074572 -0.12805472 -0.116060756 -0.038112346 -0.070108704 0.0483699 -0.13045515 -0.17004971 -0.096538156 -0.13381207 -0.11524634 -0.056499094 -0.09405047 0.008115068 0.035209745
그냥 -0.16892096 -0.049994405 0.008513616 -0.15230694 -0.17107597 -0.16258644 0.18738092 -0.13335438 -0.20586264 -0.20027211 -0.15123981 -0.16991764 -0.009293073 -0.17842174 -0.116055064 0.020431807
재미 -0.054057464 -0.15475762 -0.16371535 -0.10348169 -0.123110935 -0.07479485 -0.15295014 0.0019284382 -0.12925862 -0.18630949 0.07259716 -0.049329698 -0.15337627 -0.21017952 -0.06634269 0.09505334
시간 -0.09891202 0.11737476 -0.055579446 -0.06248136 -0.054127485 -0.15787724 -0.02954607 -0.043058332 -0.11733645 -0.026851578 -0.16773216 -0.11181243 -0.00064069824 -0.008471755 -0.14692268 0.07873658
지루 -0.15452428 0.0067343432 0.049105376 -0.13720429 0.115929335 -0.15914282 -0.10840245 0.2150422 -0.17872822 0.06170368 -0.11500381 -0.15897523 -0.1253568 0.19532 -0.16210823 0.049031448
중 -0.15935287 -0.15608676 -0.09839339 -0.07711424 -0.1392381 -0.15354119 -0.074560866 -0.09308364 -0.16279824 -0.17540188 -0.13704428 -0.15057069 0.2484596 -0.1575583 -0.14358957 0.03948115
재미있 -0.1669598 -0.04342092 -0.16601796 0.1863099 -0.14768095 -0.003244365 -0.14796291 0.033552617 0.25557822 -0.01614877 0.03058009 0.10077896 -0.15581079 0.11845234 0.006045103 0.049585037
년 -0.05476266 -0.11639703 -0.1478563 -0.08069585 -0.17434676 -0.12711233 -0.16533533 -0.13856983 0.0035410183 -0.13091876 -0.14956218 -0.13743566 0.071827516 -0.14426652 0.020613637 0.0008030249
10 0.11204326 0.10782939 0.09488618 -0.13731748 -0.17858325 -0.16465059 -0.17695443 0.1294299 0.12475884 -0.20260027 -0.17942761 0.2583464 0.13378513 -0.21912391 -0.09000597 -0.01840542
였 -0.16237158 -0.16278356 -0.12244476 -0.12399157 -0.17125148 -0.13151495 -0.07262196 -0.08174896 -0.14511202 -0.1988737 -0.16758163 -0.13344303 0.0031296804 -0.11473884 0.12513362 -0.048438217
잼 -0.1375035 -0.17196986 -0.10659476 0.08552587 -0.18104471 -0.1562937 -0.041378606 -0.1755805 0.22188473 -0.20683472 -0.18810506 -0.06689724 -0.13650413 0.054060914 -0.13344616 -0.04743141
사랑 0.07044837 -0.15238895 -0.17316188 -0.10428098 -0.16219507 0.059611056 -0.1637508 -0.09726295 0.066656485 -0.17049046 -0.14842692 -0.1525282 0.19133146 -0.07257006 0.057771504 -0.00910338
못 -0.12556122 -0.140492 -0.06801789 -0.13508132 0.1159091 -0.029794471 0.05860397 0.15650906 -0.16567746 -0.07814067 0.07717658 -0.16025732 0.15556127 -0.09608046 -0.015269685 -0.0028960109
냐 -0.16614276 -0.069284245 0.07135468 0.16704337 -0.029033918 -0.11246657 0.069888845 0.21744078 -0.17159332 -0.08017305 0.053089578 -0.04255608 -0.1568535 -0.11105894 -0.1611417 0.034705486
재미없 -0.15176551 0.18413432 0.018810887 -0.15117711 0.06387685 -0.15481293 0.13967083 0.21180116 -0.17984006 -0.0008114858 0.16190647 -0.15020116 0.22763984 0.2111635 -0.18500848 -0.048584428
쓰레기 -0.15919095 0.20905861 0.030365426 -0.16578405 0.27524498 -0.15263589 0.06547391 0.16736552 -0.16683942 0.031096928 0.1792802 -0.13883096 -0.15538794 0.06265273 -0.19085863 0.33616045
서 -0.1162884 -0.13182291 -0.123201825 -0.109057 0.016247978 -0.11093078 -0.10447665 -0.1718969 -0.119862735 -0.17457353 -0.15856989 -0.1360386 -0.104259945 -0.13619572 -0.08043374 0.010163749
2 -0.13055064 -0.096840285 -0.059473068 -0.16058263 0.070265345 -0.12849349 -0.047012627 -0.096834585 -0.16688658 0.06199985 -0.066000715 -0.14026718 -0.14106858 -0.011848883 -0.14687815 -0.007926538
라고 -0.15485467 0.029383281 -0.09052139 -0.07303887 -0.11314885 -0.09766309 0.052154608 -0.08371101 -0.16069913 0.0269454 -0.084454216 -0.15168941 -0.14041469 -0.12080627 -0.15741296 -0.03471172
야 -0.08127384 -0.140378 0.049790718 -0.080457985 -0.019254686 -0.058579016 -0.19536877 -0.16241753 -0.089187786 -0.1555399 -0.1861978 -0.09237175 -0.14097726 -0.22375093 -0.08020909 -0.041675188
니 -0.1550577 -0.03605204 -0.13744871 -0.16124468 -0.068587594 -0.15218398 -0.16390103 -0.07079271 -0.15088508 -0.12967822 -0.15151174 -0.1353732 -0.07731049 -0.01533878 -0.1381456 0.006569533
면서 -0.15141332 -0.10607433 -0.0967017 -0.13129152 -0.1259781 -0.11654301 -0.13322185 -0.13695031 -0.14233544 -0.13809013 -0.120999664 -0.102506295 0.17807993 -0.11662897 -0.029813707 -0.04078293
번 -0.045189347 -0.14532186 -0.08537241 -0.118428096 -0.16941744 0.06930503 -0.11162531 -0.15576157 -0.08395611 -0.16794395 -0.13540478 -0.089617155 0.19524203 -0.15824421 -0.06260814 -0.0011445968
다시 -0.1557046 -0.14831406 -0.13351968 0.18347485 -0.16743627 0.1886843 -0.13982053 -0.1475197 -0.16690978 -0.04833028 -0.17377615 -0.13332756 -0.13245082 -0.14704345 -0.05454908 0.036054086
나오 -0.009698728 -0.003388044 -0.13899125 -0.1549379 -0.14088617 -0.056598764 -0.082418546 -0.14639299 -0.1702282 -0.08604521 0.036752183 -0.15794295 0.0016230474 -0.1336852 -0.13275409 -0.0018984141
작품 -0.09406458 -0.1325327 -0.097550236 -0.13719814 0.008520374 0.14643185 -0.10548435 -0.16181296 -0.040897924 -0.044801828 -0.13636614 -0.0051857634 -0.008579381 -0.09780181 -0.078104556 -0.03781383
이거 -0.14880025 -0.05667592 -0.13960125 -0.11215785 -0.16169061 0.008810105 -0.06856398 -0.13147034 -0.1286591 -0.11087122 -0.1409879 -0.15113777 -0.12584814 -0.14286847 -0.15476929 0.03881738
하나 -0.15062639 0.09523739 -0.07352253 -0.1293172 -0.14874126 -0.1454661 -0.12425475 -0.07350278 -0.14035553 -0.13623033 -0.1386239 -0.13962124 -0.11685959 -0.06583666 -0.13150299 -0.014727224
줄 -0.14317112 -0.10802146 -0.098826766 -0.0818151 -0.12586874 -0.061038643 -0.019174783 -0.02109841 -0.13636468 -0.04519577 -0.17853439 -0.15196277 -0.04860423 -0.006820307 0.010636073 -0.046263814
해서 -0.15463413 -0.14211343 -0.14227842 -0.07590652 -0.12567829 -0.10621699 -0.07566659 -0.095603876 -0.16221355 -0.09677361 -0.067817405 -0.057354808 -0.121468775 -0.071620665 -0.14453144 -0.010896187
개 -0.15514044 -0.062097717 -0.13084213 -0.12214408 -0.05841258 -0.16785733 0.10169156 -0.13532582 -0.16593902 -0.079501905 -0.10612639 -0.14089103 0.0009967013 -0.13750583 -0.15458809 -0.04238225
남 -0.12533703 -0.14533624 -0.12734574 -0.17105259 -0.16641946 -0.043825634 -0.15917304 -0.14849848 -0.13772032 -0.18206799 -0.1678062 -0.09434417 0.06053587 -0.09286409 -0.08533962 0.05930299
정도 -0.103444375 -0.11408594 -0.060867585 0.056733906 -0.15297389 -0.13916709 -0.07651226 -0.13405055 -0.124965385 -0.1466742 0.011429868 -0.013296507 -0.089046925 0.009275274 -0.11347582 -0.039041676
마지막 0.00874035 -0.14797822 0.025482126 -0.014406506 -0.017486362 0.11344975 -0.16997078 -0.11820013 -0.04019497 -0.055212542 -0.11315713 0.12699297 -0.1039196 -0.14706312 -0.102788515 0.01067539
끝 -0.033792023 0.081506915 -0.15777811 -0.0025849477 -0.056816198 -0.026709 -0.15454146 -0.1419576 -0.10952467 -0.15742992 0.06544403 -0.093408786 0.036577743 -0.17466803 -0.11269119 0.010282426
이건 -0.16522437 0.2769031 -0.16726139 0.17430757 0.16505305 -0.15813069 -0.17194772 0.09812115 -0.053128432 -0.053152863 -0.14409429 -0.1800932 0.13610353 -0.19373138 -0.1768358 0.0027143788
액션 -0.12871772 -0.11483139 -0.08907769 -0.1026847 -0.16511726 0.04265894 -0.09013255 -0.16442126 -0.16843243 -0.17018607 -0.11830916 0.032073867 0.07843969 -0.14722162 0.04301026 0.007401588
임 -0.15300441 -0.14873391 -0.13210447 0.017217616 -0.16743542 -0.119924136 -0.119614385 -0.07164384 -0.056099277 -0.178446 -0.18588512 -0.18022484 0.04370393 -0.09185143 -0.037184507 0.03828484
ㅋ -0.15877788 -0.09228213 -0.18273984 -0.15557797 -0.17140168 0.025566826 -0.15542817 -0.09101148 -0.10307993 -0.1088663 -0.05817776 0.12128724 -0.05197392 -0.010180208 -0.17610063 -0.04914662
3 -0.1128995 0.11232942 -0.170255 -0.10260233 -0.09906724 -0.12365966 -0.044461075 -0.13744858 -0.16088589 -0.006873282 -0.12908344 -0.15089147 -0.13748862 -0.08422819 -0.055805493 0.06516013
기대 -0.119132385 -0.14546375 -0.14814748 -0.10016073 -0.17784187 -0.10339124 -0.12406135 -0.15140171 -0.12618968 -0.18306002 -0.058145814 -0.1521783 -0.059001654 -0.14546831 -0.09917861 -0.013380053
입니다 0.010635038 0.013040701 -0.14359193 -0.12108253 -0.17291756 0.051576875 -0.042518616 -0.14231047 0.124851145 -0.17331126 0.037492134 0.01558912 0.004879679 -0.16124533 -0.17073457 -0.035385083
건 -0.08544698 -0.09557796 -0.11236939 -0.14071694 0.21745107 -0.11058954 -0.048518702 -0.07239416 -0.13700369 -0.15349793 0.071845196 -0.10770809 -0.07802367 0.007157996 -0.067125656 -0.028606225
라는 -0.13393374 -0.12060723 -0.10882109 -0.048481386 -0.15743978 -0.12074467 -0.08952051 -0.13929844 -0.16209242 -0.14706904 -0.09275781 -0.1250144 -0.06866141 -0.13045976 -0.14615929 0.02074068
분 -0.124265246 -0.0067245043 -0.005612592 -0.13023601 0.16191757 -0.1019997 -0.14589135 -0.10354169 -0.024095317 -0.09467891 -0.07189717 -0.14283365 -0.045138158 0.13312137 -0.056813717 0.016595615
완전 -0.117312364 -0.15464836 -0.167618 0.03664756 -0.1595166 -0.083105646 -0.17862599 -0.14843363 -0.11606728 -0.19665849 -0.14634861 -0.17480776 -0.068333335 -0.20787257 -0.041521337 -0.011793972
다는 -0.1205122 -0.11647971 -0.14878814 -0.048704125 -0.10088956 -0.13840245 -0.108594574 -0.12714212 -0.13678633 -0.15517314 -0.13257946 -0.1280206 -0.098175146 -0.12970823 -0.12940113 -0.00084601186
참 -0.16692068 0.0029953916 -0.10899452 -0.15104763 -0.00621405 -0.14137094 -0.08750415 -0.0190211 -0.16159259 -0.10580913 -0.12372809 -0.07243152 -0.10120066 -0.024001112 -0.13689418 -0.013019249
많 -0.15442306 9.204801e-05 0.01789823 -0.13405173 -0.085155964 -0.1576488 -0.08260012 -0.009111539 -0.16721423 -0.0978189 -0.12336703 0.07213629 -0.13448913 0.018202156 0.16335301 -0.026847923
처음 -0.14530529 -0.013546615 -0.10013978 -0.12362202 -0.11943991 -0.14286223 -0.12760963 -0.053385187 -0.1526805 -0.056350004 -0.0032394498 -0.107148744 -0.1289892 -0.11581305 -0.13077636 0.04980183
장면 -0.07598922 -0.10115514 -0.018970424 -0.114200294 -0.1153256 -0.09563436 -0.14152493 -0.13226835 -0.07578345 -0.15133597 -0.12517896 -0.021277793 -0.12561883 -0.15353844 -0.11373043 0.002488993
대 -0.10503664 -0.114985935 -0.08216315 -0.096320756 -0.15436883 -0.11319223 -0.09719622 -0.113524824 -0.0046236785 -0.10447081 -0.12161049 -0.13996635 -0.0041962974 -0.09747665 -0.0846471 0.03910686
아깝 -0.14151981 0.27373755 -0.044437125 0.155102 0.06413605 -0.17092389 -0.15463726 0.23412412 -0.16662808 0.028881231 -0.12135498 -0.1624718 0.08953869 0.12215794 -0.14798197 -0.009442356
다가 -0.15336299 0.14874287 -0.13822253 -0.1351945 -0.060556013 -0.12558731 0.018988062 0.1033877 -0.1617587 -0.049322966 -0.06186588 -0.12520245 -0.038169138 -0.08480703 -0.12521379 0.037674926
으면 -0.11767537 -0.05078865 -0.13030645 -0.1136264 -0.050663106 -0.12809774 -0.111119084 -0.11997686 -0.12416588 -0.14396328 -0.11984334 -0.1233702 -0.1235681 0.08745953 -0.12535758 -0.037477184
지금 0.05613704 -0.09454071 -0.13085404 -0.13977446 -0.16536129 -0.062429518 -0.16340822 -0.14549106 -0.10754608 -0.08951908 -0.13426772 0.17525476 -0.14622352 -0.13833144 -0.05756242 -0.008998099
모르 0.057439066 -0.09855575 -0.06607278 -0.14683002 -0.050523475 -0.135124 -0.013320026 -0.11485168 -0.04862614 -0.18001543 -0.18292917 -0.0072105066 -0.13315493 -0.11098457 -0.122721076 0.041983657
이렇게 -0.11266131 -0.08610467 -0.10055992 -0.078704044 -0.058629073 -0.110086076 -0.022024874 -0.14124317 -0.11410986 -0.13140564 -0.14213245 -0.14288446 -0.07462637 -0.1525964 -0.12735133 0.07362751
' -0.073715396 -0.08988296 -0.068946436 0.08831018 -0.026038457 -0.101746164 0.017735258 -0.031654794 -0.05234201 -0.12936775 0.055710044 0.0046938905 -0.12008472 -0.062992 -0.020592878 0.015954973
편 0.10888167 -0.0068532634 -0.06797233 -0.1223027 -0.06722101 0.054710053 -0.026274005 -0.07141621 -0.1795281 -0.095262036 -0.11191952 -0.17056404 0.06509284 -0.09811266 -0.15114368 0.023833506
일 -0.008691454 -0.10000248 -0.10480664 -0.14047486 -0.045207456 -0.16567017 -0.044754032 -0.044243746 -0.16567619 -0.09230889 -0.108828925 -0.065588064 -0.076654986 -0.08663156 -0.05821574 0.040404856
돈 -0.13944255 0.13575476 -0.061696474 0.17593157 0.25520706 -0.11908144 0.020443985 0.06746974 -0.15346368 -0.08382105 -0.032644387 -0.14278087 -0.13814925 0.19332299 -0.14767513 -0.022484291
이게 -0.16942737 0.12640448 -0.0012256277 -0.15114765 -0.05658876 0.096148394 0.015125584 -0.17905302 -0.03287256 0.083659485 -0.10751477 0.02324354 -0.1234012 -0.058672857 -0.15916961 0.07773681
성 -0.14444281 -0.12943593 -0.10955773 -0.13650398 0.049992356 -0.1274781 -0.07600209 -0.0625658 -0.133672 -0.073437594 -0.12143418 -0.13475531 -0.12062699 -0.10928327 -0.12460318 0.009496865
느낌 -0.16283867 -0.113474146 -0.11740842 -0.13317138 -0.175303 -0.15446116 -0.114968136 -0.15583055 -0.176912 -0.1993088 -0.12383047 -0.13764244 -0.14530426 -0.037447188 -0.13288978 0.0026759438
시 -0.028379295 -0.12386301 -0.08753555 0.024133276 -0.09439997 -0.14770505 -0.16210632 -0.08942392 -0.15198287 -0.150148 -0.1159659 0.010732353 0.01892476 -0.13910852 -0.101442315 -0.007843331
이야기 -0.14273243 -0.12506193 -0.02427837 0.042279866 -0.0790223 -0.14668888 -0.026078012 -0.035093043 -0.1581801 -0.048575647 -0.18378511 -0.1030384 -0.16047 -0.07233487 -0.15397178 -0.022654487
최악 -0.16749036 0.3084478 0.062762246 -0.111511864 0.17428316 -0.15703098 -0.036315963 0.2677689 -0.17243429 0.27429822 0.1338655 -0.15578201 -0.15940396 0.3185611 -0.18249239 -0.016885418
된 -0.0013599797 -0.110013045 -0.104926094 -0.10034592 -0.13101164 -0.13414316 -0.128077 -0.121281445 -0.15334219 -0.086736694 -0.13803744 -0.005543885 0.100887164 -0.12949562 -0.12632729 -0.04242171
봐도 -0.14120534 -0.1385927 -0.12918536 -0.13342755 -0.14431131 -0.029957905 -0.1583772 -0.13173713 -0.1026543 -0.16556546 -0.14129126 -0.050025392 0.019538969 -0.14825751 0.21555632 -0.008961
님 0.13286203 -0.12903059 -0.114818044 -0.103867665 -0.10142451 -0.11470834 -0.13681898 -0.1464455 -0.06556212 -0.146482 -0.15008275 -0.109502986 -0.12898721 -0.1532373 0.08463222 0.013394061
어서 -0.13891174 -0.0031343917 -0.09400968 -0.10307858 -0.039293353 -0.1258225 -0.09684104 -0.10880556 -0.1424422 -0.11045753 -0.044559438 -0.13948 -0.14888342 -0.020717528 -0.15307793 -0.020983316
애 -0.10081606 -0.16559203 -0.18272112 -0.060461238 0.09576879 -0.09129971 -0.17906293 -0.07459193 -0.10706064 -0.16782792 -0.0017108461 -0.11667181 -0.104617216 0.027372165 -0.051034734 0.026623974
전 -0.13423534 0.016427081 -0.14639722 -0.11898759 -0.15743415 -0.12115808 -0.1215708 -0.0701534 0.101570755 -0.18831363 0.007682761 -0.14479098 0.010640438 -0.13850594 -0.10858769 0.027963903
넘 -0.06761924 -0.1632535 -0.1661669 -0.1473816 -0.13332808 -0.13360585 -0.14782958 -0.0584337 -0.045031067 -0.06848003 0.016384544 0.031243933 0.12291882 -0.1935176 -0.17062171 -0.0016221254
ㅠㅠ -0.16236864 -0.15422931 -0.14930713 -0.10616891 -0.17518191 0.1422938 -0.15562455 -0.15227787 0.083320126 -0.2128957 -0.06561871 0.030355638 -0.109575175 -0.21250746 -0.16321032 -0.026063597
인데 -0.14742422 -0.14487332 -0.049980804 -0.09568389 -0.04685468 -0.16151857 -0.0065873736 -0.03428472 -0.13684581 -0.14805272 -0.12808174 -0.12585923 -0.13314942 -0.019990496 -0.15872395 -0.015832923
다고 -0.018466562 -0.16718338 -0.17537947 -0.036708824 0.086605966 -0.108111046 -0.042544052 0.13032795 0.18221542 -0.008649061 -0.026228918 -0.14546604 -0.11979006 0.17412652 -0.06727039 -0.03585174
이해 -0.14828618 0.0206714 -0.17424773 -0.07011536 -0.026118008 -0.032048337 0.0361864 -0.10874567 -0.09118583 -0.10328563 0.021886881 0.11184131 -0.09783785 0.04178414 -0.0862942 -0.035045017
별로 -0.11173367 0.04980064 0.09218836 -0.09719047 0.3025193 -0.16951528 -0.024611367 -0.028184632 -0.18239892 0.17039882 -0.010808944 -0.04945192 -0.11914547 0.11717691 -0.18051812 -0.016601019
그리고 -0.0112033915 -0.10525277 -0.09014716 0.0060371095 -0.07343824 -0.01463859 -0.16289902 -0.06616746 -0.12758628 -0.08605069 -0.071205996 -0.097298585 0.18778946 -0.15091248 0.04299114 -0.012777422
명작 0.1902361 -0.13935503 -0.14281046 -0.12618847 -0.017466536 -0.15703538 -0.16315486 -0.06153786 0.06520106 -0.20653428 -0.03338332 0.10938399 0.18576793 -0.18995352 0.18668553 -0.026888514
여자 -0.13942175 -0.114127345 0.19319414 -0.12659012 0.058588095 -0.11836268 -0.16002242 -0.15027107 0.061694477 -0.08360868 -0.1512033 0.112672865 -0.1357608 0.02077152 -0.12477123 -0.021414125
^^ -0.12820166 -0.18671753 -0.04932248 -0.13807036 -0.035490658 0.02976057 -0.07551246 -0.014352401 -0.11762822 -0.2035027 -0.17688048 0.19872913 0.22801006 0.06860876 -0.12705147 -0.022452641
역시 -0.15435319 -0.1249939 -0.077244096 -0.11704704 -0.069038935 0.03792641 -0.13002206 -0.15205097 0.06020069 -0.09116644 -0.17224148 -0.1366884 -0.13611522 -0.12241323 0.13681853 -0.030883098
난 -0.014687136 -0.14034218 -0.090058364 -0.14344981 -0.16062097 -0.13129762 -0.17359583 -0.11562444 -0.10563555 -0.16962816 -0.12222469 -0.07423019 -0.11031848 -0.16409937 0.16528364 0.0051052333
이상 -0.027697148 -0.08897062 0.07001696 -0.15450816 -0.1511518 -0.15993834 -0.11485355 -0.14447734 -0.18149692 -0.11471178 -0.074184 -0.153678 -0.15365283 -0.14647979 -0.13214621 -0.049498715
또 0.034515984 -0.13336755 -0.12959844 -0.012830404 -0.15195239 0.035302535 -0.14337209 -0.13732551 -0.11455297 -0.16946106 -0.16689064 -0.04908203 -0.12892962 -0.14519002 0.14959492 0.0366396
걸 -0.12432058 -0.012141055 0.09431694 -0.09991411 -0.14819326 -0.11031483 -0.12157554 -0.13847207 -0.16848566 -0.14441259 -0.14507826 -0.12918246 -0.08735843 -0.12561552 -0.12849157 -0.042371273
한국 -0.15918028 -0.16817833 -0.1243172 -0.12939921 -0.1554715 -0.048770774 -0.06841581 -0.020398412 -0.090425976 -0.06980715 -0.060400944 -0.09808064 -0.14048447 -0.023145862 -0.14842564 -0.03729546
는지 -0.12020808 -0.044210535 -0.017558938 -0.13286306 0.21422027 -0.14924563 -0.09262463 -0.07492862 -0.1485402 -0.083295576 -0.087765686 -0.033194765 -0.12524201 -0.11106122 -0.10505185 0.062684
많이 -0.14304517 -0.15946522 -0.14398953 -0.0969226 -0.16425772 -0.15952958 -0.1214217 -0.14667115 -0.10938314 -0.033043068 -0.17818698 -0.13755715 -0.097718984 0.07142147 -0.14533976 0.032022208
에게 0.0021149858 -0.113135055 -0.010092298 -0.021914316 -0.1097704 -0.07733952 -0.15962116 -0.14490503 -0.0040404503 -0.10253505 0.04642902 -0.05211675 -0.095434725 -0.16725542 -0.08100869 -0.00908014
부터 -0.08828151 -0.11571607 -0.11827226 -0.1096154 -0.020467397 -0.14477289 -0.116689056 -0.14814734 -0.087730564 -0.0909289 0.028470917 -0.115419336 -0.12967137 -0.095335394 -0.11505998 -0.025054455
만든 -0.0923627 -0.067669004 -0.089097075 -0.09706923 -0.17005254 -0.11599246 -0.1236326 -0.042342585 -0.10641138 -0.1986417 -0.17691796 -0.15620135 0.011776264 -0.0006857484 0.09746193 0.06652727
주인공 -0.13351557 0.01659122 -0.069687404 -0.13633375 -0.041109942 -0.13080768 -0.11997393 -0.0834677 -0.12578171 -0.16053785 -0.13872574 -0.116520755 -0.119354665 -0.044122227 -0.12918878 -0.04397415
받 -0.14110966 -0.13958377 -0.11350287 -0.07073044 -0.14499538 -0.1195995 -0.066887945 -0.15403715 -0.10669313 -0.08925903 -0.12137113 -0.11326349 -0.10605873 -0.09825322 0.011164284 -0.03140954
합니다 -0.07603005 -0.14143345 -0.14947097 -0.15912525 -0.11284117 0.020507984 -0.038314752 -0.05750898 -0.17218201 0.03986923 -0.11200577 0.12816644 -0.13605624 0.024795612 -0.082404375 0.0074409586
우리 -0.02058183 -0.10035236 -0.115934975 0.20317012 -0.12245171 0.0149628185 -0.13973112 0.03427149 0.08108843 -0.17816445 -0.15177496 -0.124536626 -0.102528945 -0.08945521 -0.03595574 0.018754328
두 -0.12350896 -0.11137949 -0.07256446 0.07255267 -0.09263044 -0.108701296 -0.15035698 -0.011426338 -0.1003745 -0.17650346 -0.1338992 -0.09450195 -0.046969492 -0.17867422 0.0017697234 -0.037395
살 -0.1469634 -0.09782293 -0.0749246 -0.10212878 -0.093403995 -0.10546646 0.007023754 -0.1220395 -0.03445188 -0.13081653 -0.07325322 -0.1374975 0.098888166 -0.13349365 0.12952203 0.018618952
!! -0.14638633 -0.15875795 -0.123743385 -0.13927653 -0.1501757 0.032722145 -0.07233285 0.02923555 0.06751715 -0.19544724 -0.16974996 -0.14918852 -0.14853589 -0.116913654 -0.14274725 -0.028142164
길 -0.14527358 -0.15146405 -0.0006441979 -0.13326901 0.0036539221 -0.14560434 -0.04549403 -0.06420175 -0.096378855 -0.09206792 -0.06519459 -0.1563608 -0.1230631 -0.11156614 -0.028664347 -0.034687568
엔 -0.14862703 0.029513663 -0.108888455 -0.018133055 -0.104813874 0.036697425 -0.14012355 -0.029546853 -0.06937628 -0.16821276 -0.12385725 -0.060892817 -0.10525379 -0.08873344 -0.07120202 0.017464677
괜찮 -0.0027774698 -0.15459332 -0.14459975 -0.092065334 -0.16399279 0.07986253 -0.16810015 -0.15658611 0.18650971 -0.19556384 -0.1766745 0.06895019 0.011961783 -0.16392992 -0.025294343 -0.009917033
기억 -0.11623422 -0.1390802 -0.12797382 -0.06151737 -0.17076316 0.03828996 -0.1404242 -0.1376037 -0.08507576 -0.17392607 -0.16571201 -0.10287231 -0.111834265 -0.11719202 0.14785151 -0.0065307245
연출 -0.10633755 0.0025742962 -0.10444326 -0.1392733 -0.16359171 -0.12127794 -0.15852365 -0.027415153 -0.15303391 -0.09441697 -0.03630646 -0.10174792 -0.12320628 0.12151817 -0.13555144 0.037477855
한다 -0.073582776 -0.045772504 -0.007260807 0.02162999 -0.01520435 -0.12183439 0.0028397138 -0.06419506 -0.02168703 -0.01677376 -0.088769846 -0.113281794 0.09418522 -0.14995234 -0.15603891 -0.014408004
때문 -0.16382545 -0.17385134 0.009306102 0.057057567 -0.024500603 -0.053926125 -0.18592829 -0.15444179 -0.08233768 -0.053101096 -0.13666727 -0.12665366 -0.0879249 0.071660906 -0.14513746 0.06912797
이나 -0.12428167 -0.13334991 -0.08546251 -0.117416196 -0.173998 -0.12096575 0.067285806 -0.14045705 -0.15558605 0.10772362 -0.09901611 -0.12351176 -0.10983 0.115819946 -0.124494724 0.027550511
ㅎㅎ -0.15871406 -0.16267896 -0.0391425 -0.15490708 -0.11398055 -0.16527824 0.036976766 -0.090817034 0.081576295 -0.16234456 -0.06368098 0.2944731 -0.1753231 0.025096053 -0.094019376 -0.019290967
요 0.05110522 -0.15867412 -0.15117843 -0.13478972 -0.15981886 -0.057059493 -0.18649127 -0.14947547 -0.15384659 -0.19159822 -0.13892767 -0.08676573 -0.106475875 -0.18007043 0.09952472 0.019148119
저 0.12536418 -0.14478512 -0.086168654 -0.108756796 -0.08488233 -0.15234172 -0.097393684 -0.15577832 -0.1193075 -0.13604566 -0.1389831 -0.14463474 -0.1354143 -0.1499959 -0.12946132 -0.03324683
재 -0.06688036 -0.15976068 -0.099574514 -0.095867924 -0.18112342 0.09430265 -0.123402074 -0.15725063 0.16486956 -0.2160217 -0.056074813 -0.07499831 -0.15716378 -0.0114064645 -0.16396174 -0.04204117
꼭 0.27128568 -0.06285838 -0.045690786 -0.024392586 -0.17522943 -0.052293543 0.09597825 -0.16864754 -0.101584524 -0.19698514 -0.16472603 -0.05919851 0.1749961 0.12734962 0.036362782 -0.020372093
랑 0.020359293 -0.10684092 0.008684613 -0.14289956 0.00064956746 -0.06413718 -0.1362293 -0.101448864 -0.14879408 -0.1417633 -0.12435168 -0.1297458 0.09212622 -0.12936813 -0.12420838 -0.048821032
며 -0.04481497 -0.110686004 -0.11027288 -0.01265082 -0.12112262 0.010714991 -0.12214906 -0.114879236 -0.14023349 -0.111579075 -0.11984262 -0.055116907 0.029084146 -0.10483398 0.09406065 0.023211673
현실 -0.16744483 0.038845196 -0.10373897 -0.14710212 -0.1547361 -0.16631314 -0.037322037 -0.045656357 0.086928874 -0.10235523 -0.12515812 0.22974692 -0.1436169 -0.092311785 -0.16925995 0.009847552
긴 -0.12658635 -0.04507747 0.0075222393 -0.13292138 0.14847812 -0.093976915 -0.021590905 -0.023832647 -0.13276654 0.028035302 -0.022192555 -0.1318376 -0.04179058 0.053631745 -0.13616921 -0.0062539936
ㅡㅡ -0.17398022 0.20681727 0.07401386 -0.16781601 0.13985577 -0.15389138 -0.0688478 -0.14616078 -0.1638398 0.03824989 0.06042102 -0.14931504 -0.059219245 0.03472153 -0.07884974 0.115053356
무슨 -0.14301509 -0.080458604 -0.037106015 -0.11615976 0.28869396 -0.17764409 0.09794014 -0.1434941 -0.17669268 -0.05943376 -0.048680145 -0.14164856 -0.1485695 -0.010769208 -0.05000185 0.06916245
내내 -0.14868225 -0.11482479 -0.09150419 -0.049840245 -0.08904459 -0.12036706 -0.15813322 -0.11617366 -0.17498645 -0.15679826 -0.12908497 -0.10257267 0.067352265 -0.11295708 -0.09573806 -0.02433375
결말 -0.069072135 -0.06399514 -0.0956393 -0.14564204 -0.0055743414 -0.15269068 -0.080562584 -0.07607074 -0.10992966 -0.06777892 -0.005948737 -0.07013958 -0.14723709 -0.15804368 -0.13947742 0.00661112
죽 -0.046962164 0.0012906806 -0.14919852 -0.064464636 -0.05830604 0.029448796 -0.07263371 0.09332772 -0.015288506 -0.10435817 -0.1099136 -0.084223546 -0.024846677 -0.15514739 -0.092660576 0.017431408
남자 -0.066548504 -0.11793819 -0.12628293 -0.058824066 -0.15646182 -0.14182103 -0.15494826 -0.1454099 -0.15591183 -0.19575332 -0.115392424 -0.08765618 -0.083901815 -0.11904524 -0.117763326 -0.007231185
세요 -0.013985888 0.031285696 -0.15336579 -0.09980764 -0.16758206 -0.1338042 -0.14876921 -0.16328274 -0.018833768 0.048791047 -0.16669536 -0.11050982 -0.12704049 -0.16255952 -0.005143282 -0.012334204
전개 -0.1315135 0.21654297 -0.09777347 -0.13286282 -0.047391456 -0.089625806 -0.063242756 -0.10222589 -0.16204101 0.041695535 -0.14744222 -0.111412235 -0.12678318 -0.08876835 -0.1417063 -0.031754456
마음 -0.14964962 0.06986366 -0.14374556 0.15283498 -0.12949742 -0.114173636 0.00580184 -0.016250491 -0.13276011 -0.13722624 -0.15792598 -0.08155112 0.04735975 -0.15529038 0.21563402 -0.037901092
소재 -0.13820288 0.2680363 -0.015575997 -0.12350865 -0.005810526 -0.13201794 -0.111848414 -0.041572057 -0.14839861 -0.0963012 -0.036411125 -0.13993515 -0.12957096 -0.04325412 -0.13131142 -0.020239962
속 -0.10139484 -0.0023242815 -0.07961519 -0.10971191 0.016262038 -0.063188374 -0.023585012 -0.09437259 -0.05111079 -0.007583284 -0.012275852 -0.09606492 0.1526692 0.029279102 -0.131307 -0.030984974
공포 -0.14371893 -0.018631378 -0.13547336 -0.15809031 -0.051672548 -0.15178987 -0.1087499 0.110047884 -0.15724707 -0.16928878 -0.083755136 -0.15730913 -0.118803404 0.093597084 -0.079323664 0.011512592
아서 -0.12856853 -0.1290249 -0.0050114617 0.012304265 -0.016285483 -0.03667833 -0.06916283 -0.051431328 -0.13999088 -0.14555353 -0.15471007 -0.14263801 -0.08712233 -0.017173903 -0.11485562 -0.0057672486
다른 0.016028043 -0.09947263 -0.133127 -0.08511577 -0.08864762 -0.11320787 -0.1163421 -0.10930444 -0.066545054 -0.049924247 -0.09986471 -0.08758799 -0.10773978 -0.20159172 -0.00947216 0.028389398
씨 -0.091070406 -0.08590858 0.013244514 -0.010884607 -0.1293971 -0.14302817 -0.108957365 -0.11059559 -0.12811974 -0.12986659 -0.08604267 -0.07489358 -0.10749391 -0.07876593 0.038371626 -0.016062211
인생 0.059110355 -0.12290719 0.028463177 -0.108411804 0.042538892 0.18867317 -0.15442717 -0.068638235 0.04425753 -0.18844378 0.055911865 0.01096598 -0.14845732 -0.18869087 0.10495362 -0.008408201
~~ -0.10256874 -0.1575633 -0.08890021 -0.09769358 -0.16641243 -0.09261659 -0.13223864 -0.16629985 -0.12112978 -0.19571957 -0.13329758 0.11600067 -0.06974468 -0.12482234 -0.09902073 -0.040613137
짜증 -0.13866419 0.19100438 -0.07159849 -0.16650568 0.035813145 -0.16512486 -0.022583148 -0.029971655 -0.14863725 0.2854319 0.11330441 -0.14338869 0.13932595 0.20458071 -0.14308058 -0.036749206
짱 -0.1847346 -0.18639752 -0.17814827 0.053944815 -0.020101782 0.043581538 0.0680414 -0.074653044 0.12711845 0.01373836 -0.053412106 0.27489993 -0.13981019 -0.06289739 -0.03505768 -0.035538245
뿐 -0.075585954 -0.059689507 -0.0042072493 -0.14719872 0.0115347 -0.16414312 0.049682375 0.1623415 -0.13210715 0.11325826 -0.07163591 -0.038660396 -0.1047711 -0.13253608 -0.06267723 -0.020763947
은데 -0.026432738 -0.15054332 -0.018844789 0.05094779 -0.1629617 -0.1363428 0.12248787 -0.14724013 0.053387295 -0.18943109 -0.14965269 -0.045512494 -0.07690333 -0.079968885 0.076896444 0.06465472
별 -0.14474972 0.03680735 -0.12066443 -0.124338165 -0.056183655 -0.037676048 0.030206628 0.13453665 -0.14978766 -0.11031839 -0.1039844 -0.13971116 -0.12753029 -0.086797245 -0.14668852 -0.034019135
아요 -0.1456229 -0.16237843 -0.105540834 -0.11665726 -0.117011786 0.1325724 -0.0631822 -0.05667165 -0.12069626 -0.042813648 -0.1930925 -0.14584628 0.13114105 -0.06969109 -0.11087832 -0.035700895
유치 -0.16375676 -0.041180518 0.008281165 -0.16973783 0.23472407 -0.16918191 0.06306853 -0.0879446 -0.17208016 0.031483226 -0.025840104 -0.17073351 0.035120357 0.22509001 -0.16738127 -0.03780216
가장 0.117287256 -0.14342345 -0.13779454 -0.046425886 -0.1459068 -0.13737388 -0.15125264 -0.13901277 -0.15857784 -0.15523084 -0.120645806 0.0068635396 -0.07438388 0.050225805 -0.1421271 0.002591542
필요 0.13370107 -0.13231477 0.12717354 -0.13911064 -0.08463394 -0.027999736 0.0941774 -0.12859501 -0.0085275825 0.06701251 -0.026842253 0.09046559 0.24081972 -0.1607179 0.11444423 -0.0028052325
음악 -0.13015182 -0.14078666 -0.1662139 -0.08804388 -0.035169456 0.05522794 -0.1657336 -0.15379912 -0.008815812 -0.18859252 -0.16990295 -0.14761205 -0.12487426 0.014179486 0.14835474 0.018291542
) -0.06513087 -0.09096761 -0.08189164 -0.07125813 -0.123505026 -0.058837567 -0.10610714 -0.1160272 -0.113211006 -0.14241476 -0.111028165 -0.07440324 -0.0062940125 -0.10770722 0.055128116 -0.012911982
일본 -0.056314636 0.017821668 -0.12259862 -0.11536095 -0.14234032 -0.13141057 -0.046582516 -0.13330244 -0.092816435 0.07094859 -0.004024494 -0.13669913 -0.040940285 -0.0208306 -0.07544298 -0.013350822
낮 0.24694343 0.034017503 0.06469361 -0.13646907 -0.046067376 -0.0457118 -0.122506335 0.17844704 0.025347054 -0.121260345 -0.11233039 -0.08655087 -0.10607893 -0.13640043 0.27916685 0.0127324285
아이 -0.0585086 -0.1334566 0.04867237 -0.14799818 -0.15620317 0.009985475 -0.16433544 -0.14469677 -0.07301058 -0.19530697 -0.16260532 -0.1245042 0.11713501 -0.17176047 -0.12037892 0.027860094
;; -0.16325203 0.07818211 -0.08782911 0.07513003 0.13614684 -0.11245133 0.03351598 -0.14205515 -0.16763386 -0.11367325 0.1111223 -0.12194127 0.113209225 -0.14332847 -0.042900085 0.012715029
오 -0.09132436 -0.16094738 0.015118514 -0.012809146 -0.096074894 -0.04611505 -0.121438056 -0.110256 -0.070425004 -0.20020972 -0.04742975 -0.1185993 -0.11420161 -0.2157258 -0.07437099 0.051524907
반전 -0.087221526 -0.13425225 -0.13170332 -0.07065502 -0.12698227 -0.0032686538 -0.10993214 -0.14577977 -0.15769535 -0.15603182 -0.13014214 -0.13306086 -0.123210266 -0.10421946 0.059606668 -0.018820478
수준 -0.14710884 -0.012847292 0.21754162 -0.16069873 0.14637664 -0.15881643 -0.100258805 -0.15850227 -0.13642688 -0.08318553 -0.061457645 -0.13241358 -0.15349019 0.0944134 -0.13530752 0.06451442
다니 0.016846048 -0.15656872 -0.02404434 -0.048549525 -0.14718416 0.026883459 0.03257924 -0.061028864 -0.15943716 -0.090150304 -0.023980968 -0.07508782 -0.068100095 -0.09558863 -0.08291702 -0.006857384
웃 0.11511702 -0.038223337 -0.16034625 -0.066184185 -0.028170895 -0.08009191 -0.1855067 -0.09250258 0.105772585 -0.112615384 -0.08789245 -0.16145353 -0.13092515 0.01115779 -0.10345642 0.054829013
매력 -0.13740681 -0.1640174 -0.173074 0.2177602 -0.18707635 -0.16462371 -0.18377852 0.018623505 -0.12174656 -0.09671875 -0.18796898 -0.10806096 -0.1488691 0.11546275 0.17246418 -0.015166012
맞 -0.117901124 0.15613812 -0.0060009314 -0.13712998 -0.005272308 -0.11707891 -0.11359132 -0.07249819 -0.13122635 -0.11289923 0.058641933 -0.13218248 -0.057165883 0.074745595 -0.13514166 0.060923796
인지 -0.14175753 0.1295438 -0.0145402495 -0.114455596 -0.09269246 -0.1371683 -0.13925897 -0.078147 -0.17892455 -0.1397975 -0.118279256 -0.13308965 -0.12673914 -0.11069313 -0.12335941 0.0047985804
가슴 -0.12077293 -0.15007262 -0.1347848 -0.12795825 -0.15097152 -0.07790731 -0.1234118 -0.14759932 0.17073356 -0.1579112 -0.15169749 0.18609762 -0.12695424 -0.1758091 0.041850444 0.032168776
없이 -0.13906914 -0.13889152 -0.14310116 -0.07775586 0.039478127 -0.12184787 -0.16165948 -0.11019776 -0.08809031 -0.0006573166 -0.08906198 0.02783323 -0.06088009 0.011611634 0.053230323 0.04681468
원작 -0.05954065 -0.04445877 -0.037614606 -0.049441446 -0.101361826 -0.0037647763 0.015138542 0.04414713 -0.025736114 0.10964347 0.09964489 0.012144465 -0.03253793 -0.09971826 -0.1029378 0.047394786
ㄷ -0.18122593 -0.10724899 -0.009782339 -0.16374148 -0.07094249 -0.10605023 -0.032463912 0.03115968 -0.077046305 -0.08753259 -0.07328701 -0.2005411 0.1476647 -0.10123881 0.116848305 -0.014831167
인간 0.115515016 -0.12822185 -0.12162649 0.008281227 0.10108021 0.10645754 -0.1273051 -0.09145044 0.035713755 -0.13547416 -0.12173068 -0.15374017 -0.13443375 -0.12959924 0.100975744 0.042664923
데 -0.14883068 -0.103360064 -0.13944414 -0.115462296 -0.03880934 -0.15260991 -0.12033091 -0.0867241 -0.16212013 -0.11262992 -0.1146353 -0.08208993 -0.12761159 -0.1225592 -0.12744834 0.04067749
굿 0.23854032 -0.14175847 -0.14567137 -0.13466816 -0.15178351 -0.13447928 -0.123472095 -0.14550559 -0.012880377 -0.1804198 -0.17575821 0.12471852 0.22996677 -0.15823543 0.022100048 0.031527564
ㅠ -0.09355477 -0.14832829 -0.05555444 -0.01339843 -0.057309687 -0.15924485 -0.048529405 -0.16457759 -0.03498117 -0.18720603 -0.15017942 0.09281374 -0.050177693 -0.15720521 0.0823978 0.016818775
높 -0.103912234 0.057737194 0.16484669 0.07966162 -0.01680883 -0.05171421 0.1618175 -0.1392564 -0.14547849 0.020523248 0.03180372 -0.14819713 0.14459297 0.088365495 -0.12835751 -0.008463633
밋 0.09746041 -0.16618098 0.0857303 0.12895994 -0.1841976 0.13352624 -0.13190718 0.057684515 0.20046434 -0.20200053 -0.088442594 0.15556899 -0.15480986 -0.10697804 -0.15763885 0.0045461594
( -0.10313887 -0.106405266 0.009064819 -0.0812867 0.062340006 -0.12018935 0.06372424 -0.07315834 -0.026471063 -0.15074703 -0.012213199 -0.065044366 -0.045656946 -0.059021853 0.04928854 -0.047899343
만드 -0.14214456 0.055761613 -0.11792538 -0.11141897 -0.13063613 -0.115337 -0.07427379 -0.1070711 -0.12773646 -0.14267446 -0.11405609 -0.11067716 -0.13002855 -0.09331657 -0.090009496 -0.03224279
급 -0.15432644 -0.11524005 -0.13757214 -0.11031416 -0.0028720852 0.06048288 -0.16737352 -0.027795238 -0.044277266 0.059573915 0.01266974 -0.03361583 -0.14843628 -0.13015056 -0.027328264 -0.038227666
눈물 0.20754111 -0.14546484 -0.14486262 -0.11992104 -0.16819614 -0.1295201 -0.13056812 -0.15880385 -0.046620682 -0.1737619 -0.15276688 -0.055273652 -0.1001729 -0.17404091 0.22735116 0.029970359
보여 -0.046046734 -0.09582907 -0.14481167 -0.1303555 -0.075157166 0.03529351 -0.15403005 -0.15730381 -0.025106356 -0.10368552 -0.14279644 -0.13811935 0.015407241 -0.13234931 -0.051160514 -0.04176899
준 0.09946235 -0.1101391 -0.122140184 -0.08333568 -0.12552084 -0.06996454 0.012309828 -0.05176888 -0.15889268 -0.06083843 -0.10131909 0.17644034 -0.10967492 0.03115666 -0.10676391 -0.022732759
찍 -0.13655978 0.15041307 -0.026215455 -0.101333246 -0.12054024 -0.12260242 0.17061433 -0.11343568 -0.025098668 -0.16121803 -0.089790285 -0.06877328 0.10419868 -0.1284349 -0.07963627 0.035401303
인가 -0.155252 -0.09562449 -0.010138794 -0.1493536 0.12844671 -0.14134377 -0.030609554 -0.10986532 -0.12707423 -0.046397775 -0.060134843 -0.1492537 -0.13846576 -0.13006236 -0.13228077 -0.023785284
노 -0.11630212 0.003349658 -0.12422841 0.19212824 0.270294 -0.10884053 0.099954404 0.058651235 0.22042848 0.2812506 -0.07155596 -0.064737596 -0.021435248 0.31146887 -0.0980517 0.010009695
을까 -0.11281904 -0.14814843 -0.119527504 -0.10423746 -0.08473462 -0.13399334 -0.054527633 -0.051166773 -0.13972092 -0.06696242 0.010625415 -0.13581349 -0.076421544 -0.108851105 -0.14365229 0.001038668
용 -0.1295594 -0.02550384 0.050789017 0.07479406 -0.16025499 -0.15669237 -0.13244842 -0.13043004 -0.085645795 -0.07264289 0.095786154 -0.13354567 -0.12160974 0.00928635 -0.13596526 -0.008962964
코미디 -0.15677081 -0.12398437 -0.09663574 -0.14744925 -0.17236745 -0.14683628 -0.12489489 -0.1619333 -0.1578511 -0.033733286 0.026905257 -0.14248022 -0.12660232 0.025528615 -0.13098651 0.041113593
마 -0.1445244 -0.08627601 -0.04657323 -0.1381021 -0.105391644 -0.06568126 0.081823535 0.09357673 -0.12895986 -0.060257927 -0.1460317 -0.092726976 -0.095154345 0.07435801 -0.10790888 -0.012232613
화 -0.112456605 -0.042658456 -0.011109748 -0.11425085 -0.084095344 -0.14133213 -0.08238037 0.14728187 -0.1320923 -0.015376169 0.06764868 -0.055550583 -0.10957644 -0.0834562 -0.10977693 -0.0064921975
신 0.0922158 -0.13908859 0.06335841 0.08590972 -0.1306357 0.01635905 -0.1302194 -0.15859249 -0.15710299 -0.1448654 -0.08310449 -0.13910562 -0.11763139 -0.094532914 -0.08842572 -0.046685945
모든 -0.12099048 -0.14060903 -0.14527784 -0.10719808 -0.089907296 -0.10358309 -0.091153756 -0.13214546 -0.13007301 -0.15277539 -0.07038084 0.007608203 0.26531917 -0.125819 -0.09807378 0.018068077
쓰 -0.13867314 0.10976238 0.037806567 -0.11832387 -0.073036045 0.07519942 0.12177599 -0.12840572 -0.15243706 -0.080564655 -0.09450776 -0.13621983 -0.08452447 -0.07853481 -0.11788094 0.020856338
여 -0.15922487 -0.13230228 -0.016578378 -0.1457571 -0.033156037 -0.14489537 -0.08648585 -0.15611501 -0.15714319 -0.04622364 -0.14165634 0.040961664 -0.048694648 -0.17914112 -0.13498005 -0.038521934
5 0.07344102 -0.10811086 -0.14022252 0.10247885 -0.033621944 -0.009203196 0.05025711 -0.14527722 -0.11934273 -0.052194927 -0.093328334 -0.13810657 0.028226068 -0.13661626 0.009265405 0.0013745539
아직 -0.023376469 -0.11759793 -0.11926 0.121952645 -0.101366594 -0.13070539 -0.066910565 -0.063362435 0.029893873 -0.011691972 -0.11670458 0.11286986 -0.026363093 -0.019548427 -0.14792982 0.041753285
추천 -0.040451672 -0.13642916 -0.15398304 -0.07286094 -0.1577264 0.23641898 -0.073555954 -0.14658435 0.033201788 -0.1782717 -0.15347037 -0.13284416 0.12675911 -0.1352767 -0.07193972 -0.0045536114
처럼 -0.14318687 -0.11591506 -0.041434787 -0.06183406 -0.11623096 -0.087684184 -0.07802794 -0.058879953 -0.08062004 -0.14590761 -0.10911873 0.04756688 -0.08374288 -0.11718833 -0.089481845 -0.036599945
눈 -0.007056541 -0.039055023 0.02087699 -0.110403664 -0.028257009 -0.14530432 -0.14282204 -0.04132576 -0.15857723 -0.13803515 -0.10511262 -0.14109348 -0.13917923 0.03531583 -0.13109012 -0.00021038204
아닌 -0.14343326 0.039905567 -0.04169144 -0.0015146275 -0.1444692 -0.15802023 0.028990995 0.03192719 -0.13768394 0.032010935 0.102779 -0.14701387 -0.14104396 0.016722819 -0.1301106 0.0089116525
자체 -0.1466943 -0.09003858 -0.11698885 -0.1395827 -0.11802638 -0.013988395 -0.05243345 -0.127184 -0.15653215 -0.1128589 -0.09793433 -0.16045657 -0.14547248 -0.162386 -0.13032164 0.02830415
울 0.022513552 -0.13922253 -0.12730616 0.101156056 -0.1380941 0.19273081 0.08312836 -0.1345637 0.20474796 -0.17399743 0.001938673 -0.14335243 0.054997075 -0.13858478 0.016246425 -0.03734014
몰입 -0.07361988 -0.096328646 -0.13708723 0.23134317 0.016817946 -0.09341596 -0.13754815 -0.1212564 -0.02560103 -0.16594504 -0.13241643 -0.038691457 -0.033888295 -0.14092423 -0.014193497 -0.026765525
4 -0.15271506 -0.066421226 -0.16053225 -0.06870358 -0.14438532 -0.1379335 0.007731929 0.15029451 -0.13620739 -0.12233814 0.02710115 -0.14730465 -0.08730176 0.0061669704 -0.13555816 -0.038195718
대박 0.2856482 0.06717702 -0.17293079 0.028609496 -0.060760964 0.08764468 -0.1969074 -0.068858154 -0.00016702528 -0.058518764 -0.01281404 0.04456305 -0.15751445 -0.22141874 -0.0742546 -0.03428811
몇 -0.015750902 -0.11095397 -0.10313389 -0.033648998 -0.13409325 -0.1067074 -0.10975014 -0.122643985 -0.102112405 -0.15393525 -0.11543311 -0.10591889 -0.12074931 -0.12339879 0.13026167 0.025060693
스럽 -0.14816368 -0.1523114 -0.10359623 -0.13214087 -0.1443584 -0.13623454 -0.10299029 -0.13630886 -0.15426317 -0.16622739 -0.08505088 -0.14147475 -0.06900658 -0.11019033 -0.1276753 0.038404528
실망 -0.1527986 0.24176046 -0.042663157 -0.13515905 -0.03823483 -0.16076751 -0.11442606 0.1260274 -0.18990584 0.26749414 -0.05562971 -0.1508045 -0.15698558 0.17578653 -0.17874208 0.05996837
는다 -0.1409942 -0.085906334 -0.12685385 -0.07584095 -0.14399989 -0.141829 -0.13791436 -0.12808795 -0.15590689 -0.050071113 -0.109864704 -0.09292719 -0.06255832 -0.047514506 -0.11443358 -0.0036745667
대한 -0.089850724 -0.09774236 -0.11602595 -0.09617309 -0.08434612 -0.055486705 -0.12542021 -0.12518026 0.14358412 -0.14637685 -0.1133728 0.08086283 0.11742705 -0.054871585 -0.078577906 -0.023448098
죠 0.085238814 -0.1416279 -0.1366867 -0.09872244 -0.1477444 0.14840682 -0.117915675 -0.13741653 0.078334175 -0.16813684 -0.12886673 -0.13871503 -0.098978505 -0.15265605 -0.06718725 -0.016235244
란 -0.11641645 -0.10049489 -0.11842296 -0.11257367 -0.0426747 -0.09060974 -0.03207932 -0.104850784 0.03911408 -0.1457114 -0.1294723 -0.016125653 -0.03658305 -0.116362885 0.0072970088 -0.04564854
그런 -0.14544363 -0.0793155 -0.016150028 -0.1263747 0.041056477 -0.14823896 -0.004130274 -0.052643694 -0.15209906 -0.026611893 -0.010707508 -0.15254821 -0.1225306 0.01935575 -0.12618469 0.043632776
솔직히 -0.12597388 -0.12972508 -0.012032066 -0.13845387 0.10791555 -0.15284467 -0.055870194 0.004991569 -0.14799823 -0.08624594 0.020176662 -0.1327203 -0.108343035 -0.08459853 -0.100990094 0.043806728
캐릭터 -0.13819198 -0.12575948 -0.11010122 -0.11565171 -0.17080146 -0.090607464 -0.0746684 -0.051321883 -0.12152516 -0.19153534 -0.08737463 -0.11785332 -0.12089949 -0.16602707 -0.018599618 -0.015637767
ㅎ -0.12936299 -0.1579613 -0.062096816 -0.12805855 0.0047295145 0.08535454 -0.022535603 -0.011836799 -0.19301932 -0.11030683 -0.03503012 -0.13563132 -0.15463248 -0.08787088 0.24525174 0.009354368
모두 0.0041413982 -0.11892013 -0.09431766 -0.11395237 -0.12634003 -0.11854735 -0.060988538 -0.1300761 -0.0027596895 -0.15047777 -0.11849576 -0.020384531 0.22788547 -0.14265934 -0.118081614 0.03405339
아주 -0.13299651 -0.13078679 -0.13631727 -0.09022741 -0.15457898 0.051287945 0.047594044 -0.15786475 -0.03300525 -0.20181942 -0.18662935 -0.13801855 0.07890635 -0.17631625 0.07569022 -0.005091179
- -0.09397403 -0.1752917 -0.117825 0.00352157 -0.0130296135 -8.0458645e-05 -0.015080865 -0.050358433 -0.07975916 -0.2105034 0.010196631 -0.07956801 -0.029855317 0.080620125 -0.08695126 0.053416826
가족 -0.1370505 -0.12408464 -0.14557123 -0.09220753 -0.16943498 -0.09109047 -0.18047932 -0.15396078 -0.14019638 -0.17604747 -0.046819434 -0.06566817 0.1904862 -0.1791139 -0.1565165 -0.04397401
여운 0.22481439 -0.10511707 -0.10262941 0.0047162664 -0.113214515 -0.11582027 -0.10438895 -0.12630466 0.08372045 -0.13912442 -0.11823507 0.24100405 0.19229357 -0.1273688 0.086214855 0.009153658
건지 -0.11619029 -0.010961006 -0.07825471 -0.08857475 -0.03010108 -0.13647178 0.067326464 0.05645587 -0.14867754 -0.00948756 -0.021862522 -0.17148575 -0.13891765 0.21200502 -0.13155945 -0.037980042
전혀 0.09572785 -0.009753399 0.032447167 -0.13450722 0.11576183 0.05845862 -0.1481194 0.21456847 0.029008327 -0.056344308 -0.029660752 0.036386225 -0.15077187 0.19092548 -0.14733914 -0.023990666
연기력 -0.13598715 -0.12698719 -0.12970696 -0.09088832 -0.11377043 -0.11902268 -0.01553003 -0.11161704 -0.15319759 -0.12917519 -0.11963726 -0.14780588 -0.066752724 -0.049807526 -0.1145009 -0.0053827045
나라 0.029699553 0.111956604 0.10668928 -0.037606962 -0.14356513 0.14791255 -0.13396975 -0.10449648 -0.0059812223 -0.1819792 -0.15020922 -0.10480588 -0.052728556 -0.00216095 0.05839994 0.009422894
후 -0.11358676 0.06614475 0.021101953 -0.12282755 -0.10997214 -0.12709834 0.008502173 -0.014159254 -0.13573754 -0.017791905 -0.09265197 -0.12038234 -0.07593216 -0.073789686 -0.14633447 0.0015252829
될 -0.14358224 -0.11783855 0.02550514 -0.025761466 0.04054139 -0.090134546 -0.050406188 -0.12687618 -0.13732898 -0.09748545 -0.13825051 -0.10346857 -0.08933825 -0.08951324 -0.081063166 -0.0032309224
다면 -0.13095675 -0.015500813 -0.03720026 -0.10077294 0.026961561 -0.1273766 0.049773477 -0.034246653 -0.12777986 -0.101220995 -0.07783707 -0.016546393 -0.11193604 -0.047722325 -0.10644969 -0.007357288
뭔가 0.0059740264 -0.07407135 -0.13418023 -0.008812743 0.045985058 -0.087579 -0.11390627 0.06857188 -0.14694092 -0.12026277 -0.14331965 0.049287003 -0.12822661 -0.12934993 -0.03169181 -0.036014415
그래도 0.097463906 -0.14041509 -0.02408723 0.022560466 0.055454448 0.14581862 0.0020564091 -0.0012769869 -0.02669838 0.0059746043 -0.04263746 -0.08787173 -0.0029577345 -0.061775666 -0.13966994 -0.048835266
; -0.06413512 0.099230796 -0.018734606 -0.06549427 -0.18522426 -0.043584116 -0.034684543 0.04854766 0.061066005 -0.21019535 -0.18020192 -0.075682506 -0.033431627 0.11057913 -0.06805115 -0.0055748513
시리즈 -0.04537834 -0.08157842 -0.07624532 -0.104391016 -0.10128681 -0.051001463 -0.076392695 -0.11460946 -0.10890413 -0.13409072 -0.07580242 0.014553241 -0.015145925 -0.11638466 -0.14243104 -0.019000007
근데 -0.15030266 -0.11490569 -0.10706654 0.16489375 -0.118906535 -0.01158376 -0.096883774 -0.12032344 -0.071075484 -0.14008927 -0.024150431 -0.1274292 0.16392258 -0.11716278 0.022869581 0.015754977
작 0.044953387 -0.13381957 0.08712342 -0.12794651 -0.0944279 -0.13959718 0.008005013 -0.13698612 -0.15098207 -0.10892234 0.022001835 -0.13306414 -0.111505724 -0.036597725 -0.105870016 0.055072363
표현 -0.08325719 -0.07507065 -0.10212576 0.15817738 -0.14435928 -0.14147654 -0.099881046 -0.10234804 -0.091567196 -0.10735599 -0.117891185 -0.046956964 0.23603642 -0.10989717 -0.0033379286 0.020716839
모습 -0.14502311 0.034851782 -0.093967065 0.06101875 0.02432377 0.22252356 -0.11205313 -0.0565028 -0.14046225 0.009498449 -0.12680212 -0.08110384 -0.12392293 -0.010350791 -0.014031192 -0.039075684
공감 -0.14576976 -0.1263423 -0.1302741 -0.09457583 -0.17748246 -0.021484755 -0.12366453 -0.15420255 -0.07527284 -0.1917451 -0.17796478 -0.08737316 0.03876109 -0.1720093 0.062051553 -0.04291706
계속 -0.12879719 -0.09274325 -0.123109706 -0.12494766 -0.1388209 0.06564945 -0.118236594 -0.12200373 -0.16470684 -0.13669582 -0.049539514 0.09646969 -0.09523193 -0.122852 0.068523236 -0.020040918
먹 -0.13781586 -0.09937735 0.09128361 -0.13087298 -0.0033214036 -0.14616995 -0.14567567 -0.114671044 -0.13581032 -0.06069407 -0.10840078 -0.13290116 -0.0058382736 -0.004936194 -0.114557385 -0.04486395
"" -0.122900404 -0.095497414 -0.08093058 -0.07921331 -0.074696235 -0.031375192 -0.107789725 -0.09850358 0.010639757 -0.04517876 -0.10516321 -0.09868732 -0.0744926 -0.087301604 -0.0825133 0.048622217
제목 -0.10568768 0.071320064 0.002957922 -0.14457111 0.037356004 -0.13765763 -0.12510629 -0.146345 -0.14426076 -0.060894944 -0.119917266 -0.088394105 -0.1180733 0.085585594 -0.006570749 -0.038371705
7 0.10069594 -0.037008233 -0.116775334 -0.14309599 -0.113339975 0.031604454 -0.08823056 0.0035001293 0.023884403 -0.13909741 -0.056003623 0.11356675 -0.14141451 0.0026858763 0.006193319 -0.03555292
이랑 -0.0047721434 0.035665154 -0.12664667 -0.12598628 -0.11066678 -0.089924395 -0.10782755 -0.10955574 -0.119313054 -0.07603695 -0.101564005 -0.1376544 -0.121011086 0.059171226 -0.054395244 -0.024040246
극장 0.0006883331 -0.13673438 -0.031904552 -0.08060196 0.16876425 -0.1458512 -0.1011151 -0.036960077 -0.102080315 -0.058114175 0.018992327 -0.07728664 -0.1120556 -0.001332611 -0.13318305 0.05252458
치 -0.13347398 0.041236818 -0.08685055 -0.111934625 0.09381205 -0.10829338 -0.055588115 0.03208474 -0.13972966 -0.067909464 0.00012861384 -0.112391815 -0.12126965 -0.09336889 -0.13467602 -0.012320854
비 -0.087991185 -0.035452176 -0.106883645 -0.058043335 -0.13942449 -0.06874998 -0.19875978 -0.11266596 -0.045383707 0.0300968 -0.12337286 -0.08188246 -0.016363129 0.22276838 -0.056690007 0.020397464
이걸 -0.14848803 -0.09687866 0.03113098 0.17876734 0.12034298 -0.12472945 0.11989465 -0.056371212 -0.15252145 0.19109279 0.01697612 -0.14573748 -0.14347035 -0.097635195 -0.1405997 0.06208256
진 -0.0061080605 0.15344296 -0.11106869 0.12241152 -0.078655556 -0.1322203 -0.09621977 -0.0860545 -0.11274946 -0.12759295 -0.04061601 0.056045808 -0.12566172 0.13068138 -0.0054590367 -0.046527326
바 -0.07812279 -0.07313631 0.045958176 -0.13441746 -0.07818469 -0.14124186 -0.09384653 -0.0015685098 -0.1342751 0.20866871 -0.1181308 -0.12935014 -0.022148803 0.23862696 -0.05675979 -0.012087572
대사 -0.13603659 -0.1398659 -0.10639575 -0.08731519 -0.042723175 -0.09520926 -0.034367766 -0.12212884 -0.15517284 -0.15749174 -0.11554711 -0.10872889 -0.01791743 -0.109959565 -0.078612894 -0.014648892
부분 -0.15107541 -0.13733466 0.010235635 -0.1284706 0.058160853 -0.074534796 -0.0021507277 -0.096918225 -0.16801909 -0.02532232 -0.06803067 -0.13620321 -0.12791783 -0.1317683 -0.09820975 -0.041956745
그렇 -0.15898937 0.058274347 0.05584495 -0.12405149 0.18749835 -0.13286872 -0.018022398 -0.12588657 -0.14693503 0.07323501 -0.008389946 -0.1487594 -0.11097241 -0.06610836 -0.1571396 -0.02694044
개봉 -0.063598834 0.0064719236 -0.018326389 -0.10997302 -0.122067526 -0.122289725 -0.04245556 -0.13836882 -0.14378442 0.11725146 -0.026353346 -0.13292637 -0.02426595 -0.104135185 -0.111596175 -0.030992437
0 -0.14009313 -0.1529618 -0.1333065 -0.1523483 -0.06850788 -0.105435826 0.017164906 -0.010843142 -0.16193667 0.2407241 0.027636554 -0.13794677 -0.06807558 0.19441603 -0.12365369 -0.019282926
OO -0.15463309 -0.09138876 -0.04795644 -0.15309805 -0.14155923 -0.15510732 0.18657781 -0.046873003 -0.17049657 -0.061263 0.012302299 -0.14356264 0.0013224964 -0.1004447 -0.05719718 -0.045348514
대단 0.2445248 -0.15797113 -0.17008679 0.08539777 -0.059435293 0.066996515 0.0014062442 -0.079990834 -0.19582064 -0.22602859 -0.04218828 -0.09800177 -0.14343701 0.1073148 -0.11181198 -0.020648742
어디 -0.1384548 -0.06557661 0.048976593 -0.12137264 0.009853724 -0.113649115 -0.01087933 -0.09103352 -0.12856382 -0.047283925 -0.12835483 -0.117121756 -0.14750867 -0.070195585 -0.14533551 -0.045511782
작가 -0.12359605 -0.11609628 -0.03262339 -0.103429615 -0.08717105 -0.119046524 -0.09089783 -0.099862546 -0.13882542 0.24610892 -0.07383315 -0.13308613 0.093490034 -0.027453732 -0.08796421 0.012894977
된다 -0.13930988 -0.062280472 -0.110336185 -0.09727832 -0.09602324 -0.114805266 -0.019612895 -0.03718755 -0.15799111 -0.13017221 -0.12994342 -0.13427895 -0.13858157 -0.02533008 -0.11667871 0.027025683
아쉽 -0.1363286 -0.14498761 -0.027374575 0.02225622 -0.047770962 0.17489041 0.113557056 -0.039474666 -0.06758683 -0.20497017 0.046591777 0.09762855 -0.13187894 0.01075571 -0.14466089 -0.021824518
기분 -0.13734502 -0.050265796 0.005404068 -0.10429382 -0.17122123 -0.112380795 0.08164449 -0.13461396 -0.17199591 -0.058368053 -0.07044547 -0.13947737 -0.11343434 -0.010728667 -0.12131387 0.008186518
제 0.00562408 0.013148339 -0.10904125 -0.11220469 -0.080205016 -0.1117035 -0.18351099 -0.13773285 -0.11999043 -0.13372126 0.0010323969 -0.08077267 0.08995507 0.06316954 0.07585798 -0.010862887
진심 -0.14900343 0.002663102 -0.0941318 -0.11478566 0.05070014 -0.14074601 -0.008738265 -0.15177105 -0.16522396 -0.023292132 -0.13538006 -0.14968504 -0.11530678 -0.12522447 -0.10524139 -0.008401953
타임 -0.12776624 -0.05656685 -0.066293836 0.09568108 -0.030110262 -0.019222833 -0.13103077 -0.06448198 -0.15701061 -0.05958695 -0.06524279 -0.12820537 -0.06623668 0.002894027 -0.1341583 -0.029563248
/ -0.16223536 -0.077639 -0.038542055 -0.030043054 -0.088170305 -0.19868444 0.05474996 -0.08114052 -0.17962405 -0.071011476 -0.0796148 -0.16236351 0.02826323 -0.14235991 -0.1647904 0.024211459
웃기 -0.11366645 -0.028625611 -0.16525012 0.089540645 -0.047858205 0.01140509 0.09271487 -0.16961579 -0.012763603 -0.112842426 -0.14512075 0.036740765 -0.078830026 -0.109323986 -0.11286972 -0.019359196
보이 -0.11018794 -0.10706392 -0.1375477 -0.13060692 -0.1299853 -0.019991826 0.047288895 -0.09624066 -0.044955112 -0.15149254 -0.115039974 0.020235946 -0.071136415 -0.07425441 -0.11244198 -0.00044656917
놓 -0.12918429 -0.09000425 0.107170664 -0.031214904 -0.090374686 -0.09920895 -0.10887059 -0.07883483 -0.13042791 -0.13873069 -0.062651895 -0.096915655 -0.0976328 0.054965544 -0.11808084 -0.045851685
해도 0.027333409 -0.11865714 -0.14518346 -0.018996555 0.13116221 -0.11651624 0.0126243355 -0.15259609 -0.047418457 -0.14528881 7.05164e-05 -0.16131431 -0.11561178 -0.10568014 -0.11046298 0.014602387
이제 -0.14188473 -0.12238886 -0.09972742 -0.12123565 0.11993194 -0.13749701 0.060076192 -0.13501363 -0.012117343 0.11893472 -0.14779124 -0.14659746 0.09392253 -0.1322429 0.044987176 -0.021205926
물 -0.12769003 -0.01830855 0.022421315 -0.11860273 0.003243816 -0.14163522 -0.05323125 0.06583908 -0.13263184 -0.050037645 0.025758523 -0.121811666 -0.13506617 -0.11374327 -0.120004795 0.01661655
봐야 -0.1459797 -0.010864743 -0.1326909 -0.1481363 -0.15328433 -0.105195135 0.055510692 -0.124695785 0.13884538 0.013631119 -0.14299199 0.14711359 -0.1434044 -0.04038787 -0.11558886 0.014824443
막장 -0.0388246 -0.17779611 -0.18331316 -0.024852455 0.10723222 -0.035963506 0.28260177 -0.1727501 -0.03212518 -0.20849337 0.10298077 -0.058978822 0.074514344 -0.111016504 -0.06840794 -0.025394691
삶 0.031522367 0.05763445 -0.13422038 -0.04581815 -0.012055049 0.21134792 -0.10789503 -0.04703151 0.17569807 0.023405049 -0.13273941 0.026247768 -0.0920157 -0.12411747 -0.11860224 0.02653285
친구 -0.027653078 -0.12244873 -0.119446814 0.0032949941 -0.12057015 0.023163503 -0.14727229 -0.12496812 -0.005706264 -0.15164688 -0.122685224 -0.108077824 0.051252093 0.02771792 -0.06536375 -0.004607162
잔잔 0.21254835 0.06315695 -0.08361273 -0.030203268 -0.031983666 -0.13448697 -0.16555476 -0.16755643 -0.16040859 -0.20979433 -0.18958656 0.008041457 0.06260137 -0.16345464 -0.1454063 -0.032525502
조금 -0.13546647 0.066110305 -0.14261708 0.104016006 0.047016066 -0.14783934 -0.11919456 0.075623915 -0.16543648 0.04097082 -0.09463724 -0.15672816 0.089409865 0.11700341 0.20020768 0.0031760607
씬 -0.039368108 -0.09741042 -0.12120814 -0.03338338 -0.13341676 -0.0020233616 -0.011245294 -0.07418174 0.024245666 -0.12535416 -0.11666426 -0.025675459 0.017531948 -0.12632027 0.029314302 0.049481153
딱 -0.13395315 -0.14552487 -0.15772867 -0.14004216 -0.061687313 0.008876098 -0.15470684 0.28229618 0.052736398 -0.016240157 -0.127074 -0.02217606 -0.082563624 -0.11389954 0.08290949 -0.04563434
영상 -0.12396435 -0.1442115 -0.14782472 -0.066614605 -0.09273841 -0.052013632 -0.099619724 0.075206354 -0.020594468 -0.11385517 -0.16067947 -0.12405811 -0.09239891 0.027244374 -0.07087531 0.03071258
억지 -0.13967328 0.02266335 0.13928743 -0.14649615 0.22839649 -0.13320196 -0.06512321 -0.058029782 -0.1773106 0.027957315 0.14492713 -0.12344739 -0.13892001 -0.024236945 -0.1289251 0.034193464
찾 -0.12216339 -0.090649836 -0.11745418 -0.03111209 -0.1334615 -0.10360103 0.0192591 -0.14405239 -0.14035432 -0.1407943 -0.1236707 -0.13329473 -0.10875925 -0.12599756 -0.11302794 0.010837376
요즘 -0.037418537 -0.042122453 0.009386768 -0.11020472 -0.031978864 -0.13337816 0.07880581 -0.11654931 0.16324967 0.01664834 -0.12601468 -0.13482109 0.18697605 -0.109012716 0.13484156 -0.013743103
같이 -0.14792992 -0.13362205 -0.03557911 -0.072447024 -0.021516176 0.05244214 -0.09304669 -0.097068645 -0.11112446 -0.08071098 -0.09254453 -0.14524178 -0.13586043 0.055736065 -0.13389148 -0.029951429
중간 -0.12992688 0.039108135 -0.11313021 -0.08895596 0.10361669 -0.10823295 0.027216861 0.09138934 -0.13090643 -0.019293286 0.03619561 -0.14488612 -0.12248746 -0.018450147 -0.10161861 0.036414545
" -0.11254596 -0.08068919 -0.078280665 -0.12305298 -0.0705319 -0.051219232 -0.1289751 -0.080888204 -0.06633692 -0.053653166 -0.09805464 -0.10064455 -0.034720395 -0.092624806 -0.08252183 -0.006813787
구 0.030162664 -0.10474557 -0.13741136 -0.05393948 -0.09080872 -0.0003038332 -0.14078231 -0.12479731 -0.105968036 -0.1582163 -0.09196431 -0.0317575 0.11705957 -0.14426611 0.008481215 -0.009583963
라도 -0.11432648 -0.12177816 0.07865163 0.05527846 -0.06010552 -0.117328785 -0.10731158 -0.03661876 -0.14042202 -0.09259321 -0.116185136 -0.09864382 -0.102144845 0.10329944 -0.09452628 -0.012139868
스릴러 -0.14980587 0.043003246 -0.115941375 -0.13874874 -0.16824345 -0.016897792 -0.12395442 -0.0671506 -0.15940373 -0.18731244 -0.18065143 -0.12271531 -0.13257411 -0.08743925 -0.13028978 -0.01148994
가지 -0.13127999 -0.11684525 -0.07572157 -0.10369848 -0.042930014 -0.030329594 -0.029191934 -0.059072863 -0.14904876 -0.094804674 -0.11582355 -0.11023242 -0.14299043 -0.09664692 -0.12841688 -0.0051205643
8 -0.13548267 0.100179575 -0.11908849 -0.1353951 -0.15389496 0.17271121 -0.13944495 -0.09028002 0.08609378 -0.17441308 -0.11374876 -0.029509492 0.03319385 -0.14900267 0.14832705 0.007482454
믿 0.08337771 -0.108426265 -0.13912527 0.13096291 -0.027493523 -0.11845871 -0.1428084 -0.12192243 -0.13929431 -0.14460233 -0.109473586 -0.13179573 0.016186913 -0.1351585 -0.13065408 -0.0031543747
싫 -0.13375837 0.1171042 0.022791961 -0.14517544 0.21680023 0.0323556 0.032044817 0.10395117 -0.17703402 0.09880147 0.013379679 0.010933046 0.16542232 0.12449682 -0.096597135 0.00075243786
.... -0.11577271 -0.11928016 0.129131 -0.12627815 -0.029900873 -0.14975546 -0.04130692 -0.18210898 -0.12114973 -0.018249346 -0.1963596 -0.15119731 -0.14973195 0.02293207 -0.05952837 -0.04865942
나왔 -0.106771134 -0.1013056 -0.10214089 -0.016672486 -0.16029187 -0.100141115 -0.09061473 -0.048850298 -0.13661498 -0.16137096 -0.13019195 -0.14676777 -0.13753869 0.08327186 -0.14048314 0.023925323
아까운 -0.13528265 -0.1105654 -0.032318152 0.0076634777 0.0064394376 -0.15608318 -0.09332376 0.23262852 -0.15829928 -0.06255378 0.11416735 -0.14095065 -0.1275688 0.2183642 -0.13229717 0.076792285
긴장감 -0.15600139 -0.12532693 -0.118292436 -0.11564534 -0.117488004 -0.12986813 -0.12535515 -0.049700018 -0.048597988 -0.13935886 -0.12794973 0.039362382 0.13804327 -0.10457133 -0.13120233 -0.048939645
점수 -0.12910338 0.0004529435 0.10141964 -0.13477585 -0.02494128 -0.035725195 -0.07936464 0.018362375 -0.110322505 -0.047873273 -0.12901299 -0.003015405 0.072924644 0.115510754 -0.08512527 0.04692737
개인 -0.09289909 -0.12644915 -0.11535307 -0.09675178 -0.10157344 -0.13224965 -0.10374285 -0.123160735 -0.046206955 -0.1432183 -0.11662895 0.07306071 -0.12098031 -0.06885713 0.037999835 -0.002700843
제대로 0.073968716 -0.11567557 0.046632532 -0.12710743 -0.17855419 -0.15338826 -0.046681534 -0.1565719 -0.13643216 -0.079398304 -0.14538825 -0.13394737 -0.13478851 -0.014433726 0.08237471 0.04804262
부족 -0.13929649 0.12739791 -0.010023736 0.0036516162 -0.121357605 -0.14170958 0.0061648707 0.06974401 -0.15989487 0.19236282 -0.12064701 -0.14863126 -0.100191295 -0.12931837 -0.11120249 -0.017155312
이유 -0.1193218 -0.102622285 -0.14313836 -0.1255493 0.06315836 -0.068894796 0.11945058 -0.10246523 -0.13648383 -0.064828776 -0.11189056 0.0704635 -0.10982572 0.09337329 -0.11819603 -0.021782672
노래 -0.11351882 0.002539125 -0.1626988 -0.091995664 0.0037015853 -0.08839033 -0.063870855 -0.058099754 0.023632774 -0.038363777 -0.03172407 -0.097963035 0.15665829 0.042989872 -0.073375 -0.024025394
만큼 -0.07141462 -0.09931536 -0.13463983 -0.03630561 -0.120679 -0.11027222 -0.0761576 -0.121599846 -0.13802269 -0.1297361 -0.07485527 0.0889307 -0.031637043 -0.13592014 0.060453128 0.029500915
라면 -0.13296741 -0.05338616 -0.104909524 0.031369384 -0.07992383 0.0856765 -0.026335249 -0.14326598 -0.11371393 -0.11936638 -0.11815847 -0.080188245 -0.08294042 -0.14968026 -0.10856082 -0.039377283
시작 -0.048092324 -0.11092647 -0.12237967 -0.09292339 -0.1406441 -0.067250684 -0.16420959 -0.13795224 0.020638483 -0.1488413 -0.18286702 -0.099196196 0.0033723777 -0.19452092 -0.09151989 -0.04602462
구나 -0.029638201 0.17889357 0.015368847 -0.076069206 -0.0066676647 -0.1143737 -0.15383525 -0.1502453 -0.09433725 -0.099096656 -0.15328166 -0.13629301 -0.01428557 -0.06445656 -0.0929052 -0.0056801327
잇 0.10751426 -0.11481656 -0.15287821 -0.06220296 -0.06786627 0.13361947 -0.14835191 -0.038238883 -0.005103383 -0.084629826 -0.028656084 -0.12571304 -0.12936863 -0.17259659 0.02402622 0.036013298
특히 -0.041248787 -0.086967014 -0.109384045 -0.117814615 -0.10128048 -0.037786894 -0.08704266 -0.08932093 -0.14705618 -0.110407196 -0.090049185 -0.036113854 -0.04056529 -0.08396392 0.2181083 -0.026729155
한테 -0.13259207 -0.026761029 -0.12574892 0.06233703 -0.07653941 -0.092376314 -0.15592462 -0.110477604 -0.14044651 -0.109650426 -0.13393095 -0.03955444 -0.10271701 -0.122854754 -0.11083546 -0.02229637
날 -0.132848 -0.041550975 -0.016207697 -0.049404256 -0.033214428 -0.11375798 -0.05900139 -0.093790345 -0.14285582 -0.05034054 -0.042058416 -0.12756827 -0.062261105 -0.083326936 -0.07229983 -0.029183043
려고 0.014222203 0.13022023 0.003654903 -0.075893 -0.12906672 -0.123660125 -0.014065742 -0.094216615 -0.113562465 -0.04788144 0.027993368 -0.1260283 -0.062236983 0.13347024 -0.08314351 -0.03873477
제일 0.01139487 -0.12059491 -0.06529085 -0.11937477 -0.0667033 -0.1292897 0.017844984 -0.08804262 -0.10009011 0.08765327 -0.12569004 0.0872333 -0.09246632 -0.21471979 -0.0397501 -0.013053797
아름다운 0.027815608 -0.13076952 -0.15617631 -0.11057202 -0.16145775 -0.049473215 -0.14403428 -0.13669859 0.19197921 -0.1782297 -0.15407985 -0.071000904 0.045282148 -0.15515538 0.121028684 0.032520067
시대 -0.035751887 -0.12282841 -0.14710818 -0.07798879 -0.076146476 -0.111781456 -0.041613217 -0.08340909 0.11661246 -0.053905793 -0.14880714 -0.11622961 -0.13392709 -0.2065343 -0.1413642 0.011058029
ㅜㅜ -0.07787788 -0.15255454 -0.1757022 -0.10708005 -0.13741483 -0.051424485 -0.0973192 -0.116417415 0.026793147 -0.1821434 -0.18147185 -0.13777146 0.014581624 -0.108585365 -0.1251027 -0.040394496
어떻게 0.098991394 -0.09387507 -0.0031998756 -0.0844461 0.18853535 -0.11818145 -0.08014903 -0.12179005 -0.12577906 -0.014969826 -0.11895265 -0.14809777 -0.12874909 -0.12576525 0.10808751 0.0062923636
엔딩 -0.05387206 -0.10154476 -0.11264999 -0.120203435 -0.13237764 -0.062313393 -0.09591949 -0.12974669 -0.0020858813 -0.18666297 -0.14823465 -0.08958182 -0.03594937 -0.08808239 0.047995247 0.037682503
당시 0.13095087 0.04476936 0.05463208 -0.095203854 -0.15583545 -0.11802415 -0.01926664 -0.09343619 -0.061504886 -0.024237998 -0.13629267 -0.10935056 -0.026407352 -0.1242686 -0.13786496 0.008847809
하지만 0.12965272 0.002388225 -0.09128341 -0.13678905 -0.06756937 -0.14283106 -0.048243783 -0.050285522 0.11418522 -0.07082773 -0.042282283 -0.0626973 -0.024382511 0.15741518 0.04818641 0.03224376
나름 0.119025916 -0.062482934 -0.11165366 -0.15942915 -0.10923111 -0.16239817 -0.050425645 -0.05943823 -0.17617053 -0.006513795 0.008298623 0.031116376 -0.15246579 -0.20630679 0.07364719 0.0140586095
봐 -0.070251115 0.019843522 0.16538991 0.026835142 -0.15010172 0.02987014 -0.16915603 -0.12920704 0.048208263 -0.10815829 -0.12363962 0.02125291 -0.033962227 -0.13897392 -0.013492978 0.061210513
무섭 -0.057581775 -0.006639087 -0.0011076615 -0.14661293 -0.008081774 0.019055266 -0.114725985 -0.020448113 -0.05656549 -0.075099096 -0.0454184 -0.06135155 -0.045685742 -0.098560125 -0.049049422 -0.019019783
나온 -0.098324105 -0.123011224 -0.13959578 -0.08859154 -0.12241597 -0.107136756 -0.1415381 -0.033185735 -0.10565602 -0.11172811 -0.044476215 -0.11196147 -0.09899177 -0.08846347 -0.024661599 0.042967975
명 -0.107470214 -0.015027245 -0.1124731 0.036413763 -0.105185196 -0.117952295 -0.08749716 -0.06157021 -0.13576895 -0.011622372 -0.13861297 -0.098172516 -0.090900764 -0.09403991 -0.07035498 -0.03997848
사 -0.05465673 -0.11112677 -0.105835244 -0.027551468 0.0014351456 0.06340284 -0.10492866 -0.13031195 0.096550934 -0.13511975 -0.11349762 0.14037979 -0.011579903 -0.12715708 -0.12911274 -0.04559925
니까 -0.14572759 0.056014743 0.04834922 0.039692093 -0.028575854 0.17420135 0.018397354 -0.15187751 0.0070934948 -0.08779334 0.00418094 0.008429906 -0.11308461 -0.05557106 -0.075867854 -0.04474039
오랜만 0.22318128 -0.12954225 -0.14252844 -0.121924214 -0.11933545 -0.051252335 -0.12367343 -0.12483367 -0.06699933 -0.1578925 -0.11560312 -0.14030242 -0.09673881 -0.14389332 0.13875239 -0.010966732
이것 -0.100971974 -0.11443573 -0.12247691 0.11367191 0.020433009 -0.14491643 -0.16762361 0.12766306 -0.1599798 -0.16670927 -0.115838595 -0.15002555 -0.14041783 0.105128154 -0.082810074 -0.037069093
해요 0.07784163 -0.13496643 -0.06557818 -0.11418493 -0.15130375 -0.0117259845 -0.062000085 -0.13972224 -0.011334175 -0.17032975 -0.14796801 0.06590234 -0.06143621 -0.15181886 -0.008436267 -0.04422704
9 -0.10696144 -0.10166286 0.111835025 0.16593543 -0.17096476 0.01088675 -0.16146587 -0.11376277 0.15315455 -0.17310621 -0.12746824 0.19064532 -0.033834018 -0.14864911 -0.061643053 -0.023743821
팬 -0.010310631 -0.09862249 -0.13461807 -0.06530655 -0.12761992 -0.11427891 -0.13372082 -0.13989791 -0.047079947 -0.09970191 -0.12029599 -0.071118936 0.11432757 -0.15766716 -0.03932943 -0.034269728
차라리 -0.11874553 0.1852884 0.043662593 0.026942438 0.30620596 -0.122060075 0.09397928 0.002955092 -0.12627876 0.2735603 0.15118316 -0.09828096 -0.12285172 0.04572627 -0.103808686 0.06042267
절대 -0.08187577 -0.1215042 -0.1531671 -0.015168629 -0.11339746 -0.08064827 -0.08920258 -0.1319757 -0.10730659 0.1085414 -0.15251881 -0.04153533 -0.024291681 -0.20417604 -0.052444816 -0.04528886
세상 -0.15423077 -0.054829948 -0.048465334 -0.13386784 -0.11117043 0.111527786 -0.11680197 0.0026802688 0.16571978 -0.14520012 0.07061476 -0.17286177 -0.089738816 -0.12195329 -0.08873035 -0.00589501
세 -0.12119861 -0.10511426 -0.021495782 -0.05264659 -0.0060494617 -0.11512563 -0.12831198 -0.10451233 -0.15228143 -0.12474769 0.0062922398 -0.09271312 0.05335607 -0.1263154 -0.08141944 0.0034669347
못하 -0.11543777 0.061284393 -0.12409533 -0.09373632 -0.017056812 0.07773271 0.059829477 0.042071667 -0.038099296 0.070026696 -0.09498735 -0.12661925 -0.058147788 0.21691293 -0.095635355 -0.038018763
의미 -0.12786359 -0.1506357 0.0682436 0.006071507 -0.030092563 0.030811558 -0.086104505 -0.15462391 -0.17928898 -0.1629948 -0.12720528 -0.1195066 0.09454073 0.0088640535 -0.15988736 -0.022667421
던데 -0.16170038 -0.13562962 -0.15345904 -0.13584149 -0.16718888 -0.16025232 -0.1481764 -0.14509894 -0.18821038 -0.18894708 -0.13699383 -0.066974595 0.20051058 -0.11891739 -0.13022344 -0.034374118
봄 -0.10608359 -0.081753075 -0.13443689 -0.030676315 -0.072037585 -0.12637372 -0.14077337 -0.07733493 -0.12064408 -0.022963919 -0.100452356 -0.15749645 0.0150404405 -0.07017505 -0.057026744 -0.0038796836
욕 0.028150234 0.07029898 -0.15530589 -0.055266682 -0.027353296 -0.12512992 0.085353635 0.028320247 -0.064189695 0.26113296 -0.1378515 0.022795686 -0.12043383 -0.1475634 0.008185774 0.0010232441
훌륭 -0.004146275 -0.11420588 -0.11810557 0.1910934 -0.14751396 -0.106881745 -0.14880367 -0.11957246 -0.06721296 -0.14990258 -0.13486144 0.25379378 -0.12025569 -0.15446366 0.08693007 -0.026246632
너무나 -0.16161685 -0.009320676 -0.119023904 -0.13662513 -0.15653633 -0.12847945 -0.12753116 -0.12742841 -0.044404577 -0.17965859 -0.14976977 -0.0963188 0.016086366 -0.11005946 -0.12960799 -0.025757695
강추 0.20230871 -0.03460739 0.060968503 -0.0019654534 0.06165748 -0.060903963 0.06173592 -0.16426887 0.059493043 -0.011924351 0.032426655 -0.025797945 0.21816581 -0.15608945 0.144121 0.068775274
감 -0.13795729 -0.038697895 -0.02481335 -0.1195689 -0.13686419 -0.1346943 -0.09442064 -0.11260072 -0.119124226 -0.08853232 -0.049091518 -0.053559996 -0.11054586 0.008509722 -0.12506726 0.043180365
됨 -0.14121386 -0.13382913 -0.03993962 -0.06352396 -0.12711842 -0.1270687 -0.1389183 -0.13583766 0.0045892615 -0.1500325 -0.064074494 -0.031222574 0.10499486 -0.14221197 -0.096133 -0.01660664
ㅡ -0.07124392 -0.017154474 0.12136867 -0.13286552 -0.004611083 -0.1260305 0.016634995 -0.096017644 -0.17877194 -0.09543467 0.0021752534 -0.13280654 -0.10300834 -0.006173838 -0.12812008 -0.025665455
따뜻 0.20043133 -0.16999571 0.10265775 -0.080643475 -0.18349025 0.12707844 -0.12605582 -0.14849682 -0.06938624 -0.21231216 0.061041843 0.26373515 -0.12537982 -0.15129986 -0.16410148 -0.018656356
빼 -0.03250671 0.16121434 -0.09925422 -0.12784036 -0.09954696 -0.12903643 0.09873665 0.042579096 -0.12204015 -0.17041631 -0.029394567 -0.11466478 -0.11458202 0.08130894 0.020752037 0.034384392
느끼 0.008601459 -0.10016502 -0.09678487 -0.06078806 -0.12673216 0.14222033 -0.12788907 -0.10794002 -0.04219427 -0.10955772 -0.12088018 0.02215733 -0.12267028 -0.05373828 -0.026452117 -0.011743378
해야 -0.114931114 -0.115933865 -0.115823105 0.022181813 -0.022472708 -0.12926479 -0.022520326 -0.10125277 -0.040668108 -0.10905231 -0.03517918 -0.12365704 -0.12385942 -0.02303328 0.024502624 0.007934141
드 -0.12108981 -0.028222358 -0.0778935 -0.08158834 -0.111779645 -0.124671884 -0.019256057 -0.014491225 -0.15684323 0.03391263 -0.16700661 -0.119810104 -0.07487898 0.019760273 -0.1304596 -0.036435805
도대체 -0.14264923 -0.11145097 0.1414451 -0.13972948 0.077573456 -0.14966053 0.13164234 0.025152326 -0.046339363 -0.05412995 -0.12332745 -0.07250875 -0.13257103 0.21158104 -0.15931615 0.022430882
어야 -0.14450024 0.074279405 0.15318194 -0.10160961 0.08938909 -0.041160144 -0.08636478 -0.045065615 -0.055490714 -0.07234289 -0.11073187 -0.034058042 -0.12675971 -0.113962255 -0.075187564 0.03210759
답답 -0.1494666 0.048247784 0.13346538 -0.15005673 0.10239682 -0.11945756 0.022281712 0.044088647 -0.1569841 0.17419323 0.008832137 -0.11768075 -0.11000349 0.07349729 -0.03641104 0.03158859
마다 0.019665202 -0.1137487 -0.13552354 0.009698448 -0.104018435 0.004872925 -0.07991529 -0.10037635 0.032220315 -0.14511955 -0.067963056 -0.057117708 -0.00040414082 -0.12197088 0.0015067986 -0.024136627
준다 -0.13430178 0.1195418 -0.13146278 -0.0024745595 -0.16186471 -0.10426259 -0.17608972 -0.10076476 -0.059551973 -0.1313569 -0.0337061 -0.12866285 -0.10344766 0.099397905 -0.12545389 0.0037146918
글 -0.12573245 0.030196588 -0.08422976 -0.11297294 -0.04123837 -0.08497795 0.15381658 -0.04718972 -0.13049366 0.02381539 0.0011541888 -0.13001378 -0.12425869 -0.10091279 -0.11544693 -0.039613284
전쟁 0.09982783 -0.1112759 0.012400751 -0.085902184 -0.031000178 0.07099489 -0.039789435 -0.0032317813 0.081709854 -0.013996987 -0.025159921 -0.14235297 -0.06919338 -0.06230142 -0.01466844 -0.013420869
놈 -0.1175901 -0.10461672 -0.050020266 -0.1401492 -0.12474947 -0.008629764 0.12866554 -0.013316747 0.12325487 0.0008509799 0.09180981 0.08033857 0.053612284 0.040410105 -0.114133805 0.041666094
설정 -0.13144334 0.23696171 -0.06488136 -0.09762361 -0.01711874 -0.10388619 0.058540713 -0.13003509 -0.14435172 0.15149623 0.022761332 0.064075164 0.11614586 -0.024498457 -0.11981438 -0.02446629
무엇 -0.08266631 -0.10852019 -0.09072788 -0.0060433685 -0.0449838 -0.047567487 -0.13752876 -0.12576386 -0.13332143 -0.116014324 -0.12347377 -0.0870582 -0.121398084 -0.14584143 0.17475 -0.020923806
수작 -0.09574567 -0.09457474 -0.11061994 0.23428507 -0.12767869 0.3055925 -0.09832941 -0.1168268 0.11348957 -0.1368004 -0.11695437 0.1856731 -0.05417099 -0.16185172 0.03811042 0.046511766
만화 -0.06320431 0.13463591 -0.15091477 -0.09496726 0.0793237 -0.011022261 -0.10316609 -0.110709615 -0.100551136 -0.1880824 -0.070326336 -0.08235582 -0.06736429 -0.008735683 -0.17949694 0.00892565
흥미 -0.0074300696 -0.1320829 -0.11890315 0.106562205 -0.10600084 0.011778035 -0.09032695 -0.114214234 -0.10624679 -0.14275555 -0.1149957 0.019813998 -0.12275737 -0.12780847 -0.14440614 -0.032512773
그저 -0.147554 0.09780544 -0.006430462 -0.1229529 -0.12641342 -0.13440499 0.027063355 0.10370151 -0.15371992 -0.03556906 -0.13824694 -0.15251204 -0.13049053 -0.110870026 -0.12770417 -0.026886368
감정 -0.0019362716 -0.10777412 -0.08252645 0.12516621 -0.118499555 -0.10397687 -0.116256855 -0.0771557 -0.026966825 -0.059497353 -0.09938185 -0.067508526 -0.0002594986 -0.102288745 0.12847988 -0.021345282
미국 -0.17602594 -0.028750226 -0.013211782 -0.03468877 0.00025790592 0.07755567 0.053534128 -0.10994337 -0.12683533 -0.13655497 0.0064782486 0.13309601 -0.14220859 -0.108379275 -0.043929134 -0.016938346
신선 -0.041640896 -0.14510095 -0.029505664 0.025453575 -0.15236574 0.06595559 -0.14996253 -0.16095571 -0.15166657 -0.14776775 -0.13159844 -0.040913843 -0.07822696 -0.122992076 0.194412 -0.023820532
행복 0.009839216 -0.13849181 0.0069152266 -0.1243217 -0.109322764 0.19419985 -0.10959312 -0.11804296 0.113523565 -0.12415137 -0.03893814 -0.08058769 -0.09973062 -0.11922558 0.12260379 -0.046944298
뻔 -0.13246588 0.12055423 0.070570394 -0.11805307 0.074379645 -0.12664658 0.030939624 -0.12000172 -0.1642055 -0.13231938 -0.107727356 -0.13508224 -0.10144009 -0.09720316 -0.14117557 0.03272311
형 -0.019306287 -0.106900744 -0.15899912 -0.1051245 -0.1168325 -0.11582465 -0.16896196 -0.13103329 -0.107308656 -0.13744588 -0.09122437 -0.10608153 -0.04622273 -0.12542701 0.06409399 -0.02345872
앞 -0.007219399 -0.13467675 -0.09372284 0.038259722 -0.09594724 0.061637815 -0.08590302 -0.13444787 -0.014722937 -0.11644389 -0.08720324 -0.06530494 0.024751673 -0.16088766 -0.047898144 0.018907994
허접 -0.14169647 0.20716049 0.21582133 -0.11127193 0.19943321 -0.08449238 0.0868261 0.06791298 -0.14837714 -0.10753655 -0.014396344 -0.13582878 -0.15779652 0.088633925 -0.15183504 -0.014078248
어도 -0.11712099 -0.034715906 -0.006562668 -0.11190273 -0.09395457 -0.088528045 -0.091456085 -0.095756456 -0.0893253 0.0035506864 -0.057951637 -0.10489282 -0.116456315 -0.11375652 -0.13972509 0.031665005
군 0.07487683 -0.17039731 0.06890319 0.030103933 0.108862706 -0.06053373 0.07864137 -0.17366153 -0.09001948 -0.20175318 0.043165382 -0.09789464 -0.024456536 -0.17581281 -0.024793437 -0.044912457
시절 -0.053960007 -0.109534964 -0.09556872 -0.12360073 -0.11610482 0.12380434 -0.103382714 -0.105284914 -0.15261655 -0.126336 -0.1026346 0.07173875 -0.09299713 -0.12527218 -0.110619485 0.02000936
관객 -0.07420905 0.18035729 -0.07567875 -0.0900654 -0.120930724 -0.102786265 0.024868177 0.18188497 -0.12806244 -0.12719612 0.008277525 -0.08240113 -0.07448737 0.10691505 -0.11178705 -0.0074630156
배경 0.029865582 -0.10754633 -0.1229801 -0.0955649 0.0045818985 -0.11275511 -0.0749048 -0.13971785 0.0886532 -0.12451284 -0.13377513 -0.036364596 0.015769714 0.020806512 -0.064177245 -0.043844488
6 0.008834709 0.037869636 -0.054839116 0.1274726 0.08308367 -0.038873374 0.060642473 -0.115934886 0.13245967 -0.048424438 0.021833312 0.06326055 -0.14631855 -0.10320434 -0.14986171 -0.008889139
초반 0.05308426 0.012905119 0.057258733 0.094228104 0.10722413 -0.12828438 -0.0036742438 0.12103675 -0.112856925 -0.070378385 -0.12720537 -0.007833999 -0.0048784544 0.02612476 -0.10497931 -0.02556771
사실 0.10700332 -0.021619972 -0.0071703466 -0.096097514 -0.027497416 0.0682977 -0.10244337 -0.103552334 0.052606978 0.007334657 -0.10883296 -0.12874408 -0.0634155 -0.09869894 0.07418898 -0.004940737
웃음 -0.101051375 -0.13683763 -0.11088269 -0.06742446 -0.11798133 0.01888443 -0.044244923 -0.002504101 -0.13802989 -0.15054691 -0.1346023 -0.11343406 -0.0074772346 -0.03828718 -0.062169667 0.04081221
답 -0.17239745 -0.11178711 0.04490143 -0.13755538 -0.10687659 -0.13258608 -0.12788546 -0.062324114 -0.16794972 -0.093159966 -0.12361716 -0.14089713 -0.16736922 -0.05743045 -0.14239605 -0.015730333
엄청 0.017315554 -0.042029154 -0.11247075 -0.12863757 -0.05235409 -0.10619676 -0.06280853 -0.051029716 -0.040257033 -0.06155211 -0.076259516 -0.079762965 -0.019372277 0.025895376 -0.049177688 -0.019928528
더라 -0.08042441 -0.14176358 -0.10661446 -0.11158351 -0.1714331 -0.15127422 -0.04502149 0.032600254 -0.11307534 -0.17317879 -0.15049535 -0.10919449 -0.051456485 -0.14578602 -0.14163606 0.03610468
라니 -0.14976919 -0.04888192 0.053924415 -0.14470822 -0.019067403 0.089717306 -0.14881997 -0.06426622 -0.14437616 -0.023738537 -0.13917908 -0.14796849 -0.120722905 0.017515427 0.061847627 -0.0044696927
질 -0.07521154 0.13540778 -0.041196134 -0.1342186 -0.113053575 -0.029872803 0.007885883 -0.07816084 0.02589281 0.16072424 -0.078798346 -0.12341597 -0.10321233 -0.065213315 -0.12023856 0.038667973
자신 -0.09395916 -0.10806844 0.007266291 -0.113507815 0.009163617 -0.057962522 -0.03782211 -0.03310663 -0.12621889 -0.017531915 -0.03760196 -0.10560049 -0.115630694 0.0066061215 -0.11676844 -0.009880554
추억 -0.04851184 -0.109885015 -0.14551926 0.19611284 -0.16164292 0.112370394 -0.14948265 -0.1465607 -0.11542799 -0.17300886 -0.13043171 -0.039107017 0.019905461 -0.13082345 0.0030097486 -0.008514005
캐스팅 -0.13140757 -0.14743146 0.18074532 -0.11030535 0.03714451 -0.04833616 -0.043061122 -0.13784619 -0.07579932 -0.041060284 -0.06637353 -0.044907644 -0.1522171 -0.14940962 -0.16396824 -0.026051914
첨 -0.095631614 0.065962784 -0.027232157 -0.102442294 -0.106530994 -0.1319235 -0.14911635 -0.13537748 -0.15301335 -0.07752941 -0.09270473 -0.13365254 0.0322967 6.088824e-05 -0.12578472 -0.009926736
멋있 -0.17182308 -0.013194249 -0.012513947 0.02547199 -0.16144608 0.2487302 -0.16315286 -0.15530138 -0.1796084 -0.18153471 -0.025539419 0.1962579 0.059108466 -0.15994343 0.0022231243 0.02236154
류 -0.07448449 -0.14416826 -0.10787822 -0.09705811 0.15062767 -0.1269154 -0.14286296 0.13818192 -0.13745192 -0.17948249 -0.15088263 -0.15132469 -0.123361275 0.22682367 0.07704631 0.022890547
어색 -0.14438774 0.00051869365 -0.002506527 -0.109800264 -0.050086975 -0.021771647 0.27706614 -0.07578872 -0.15492655 0.04317399 -0.018856578 -0.13113175 -0.0116576785 0.14481683 -0.13696772 0.04766803
시나리오 -0.12623608 0.030625047 0.06342392 -0.10218188 -0.1525624 -0.116895236 -0.14987004 0.085281864 -0.13620536 -0.08242573 0.1839922 -0.120488636 -0.09651269 0.06138162 0.015365775 0.026217753
머 -0.1539445 -0.008925076 -0.11159288 -0.059203167 -0.09058192 -0.11716424 -0.021002743 0.03807471 -0.13710783 0.05437079 0.13563432 -0.083582945 -0.106249996 -0.06263175 -0.16586082 0.04164282
밖에 -0.0017396916 -0.122758515 0.015975213 -0.058629915 -0.022840781 -0.14972995 -0.06680292 -0.12298772 -0.023830336 -0.11754337 -0.08923869 -0.12883484 0.063645646 -0.12917964 0.0943733 0.009197831
OOO -0.15374014 0.113607496 0.02842389 -0.1588101 0.1977161 -0.14102814 -0.06524214 0.09993624 -0.1697085 0.12790598 0.02152424 -0.17974672 -0.124371365 0.013700012 -0.15571411 0.01382282
슬프 0.07721091 0.0001308154 -0.15102121 -0.17241375 -0.018294726 0.19470689 0.06299397 0.08845421 0.2219011 -0.047916565 0.089563556 -0.18671724 0.26473135 -0.018429702 -0.1927604 -0.037916552
정신 -0.1477061 -0.12091587 -0.14350058 -0.13019963 0.011684928 -0.06157131 0.094534956 0.012741288 -0.16121572 0.11726626 -0.13370317 -0.13433088 -0.04449052 -0.14878687 -0.07172653 -0.04314524
분위기 -0.04054388 -0.005185708 -0.12174749 0.009763149 -0.15372275 -0.04459639 -0.13104792 -0.14136113 -0.025452387 -0.18059921 -0.1128373 0.026985131 0.04164365 -0.14868045 0.06014464 -0.024952162
소름 -0.027573535 -0.10312094 -0.12532137 -0.06265073 -0.16388413 0.14434949 -0.12105206 -0.15432714 0.2482919 -0.18111157 -0.1798055 0.023956325 -0.11101797 -0.1450815 -0.04754415 -0.04892521
멋진 -0.046111804 -0.12026543 -0.12536258 -0.02553476 -0.13524073 0.31627285 -0.14163701 -0.1321257 -0.13713546 -0.18769549 -0.1628537 0.11410587 -0.11282648 -0.13805118 0.02378043 0.056268178
힘들 -0.066506684 -0.0017196555 -0.12126034 -0.035172645 0.06967068 -0.15236029 -0.084014155 0.04237358 -0.058215607 0.10195361 0.097446695 -0.10932789 -0.15060423 -0.033536818 -0.1557691 -0.018439949
오늘 0.051161524 0.025755895 -0.12663145 -0.036895502 -0.090172604 0.052781343 -0.10818188 -0.007684373 -0.10688846 -0.15438618 0.007360082 -0.036325783 0.0049490617 -0.09965908 -0.047067463 -0.010871076
어이없 -0.12012743 0.15262423 0.21266429 -0.111058235 0.15928406 -0.13311046 -0.059544865 0.10602631 -0.16550179 -0.025428547 -0.036753543 -0.14617883 -0.15573362 0.1425376 -0.15922946 -0.027508974
봐서 -0.14232014 -0.14117745 -0.05330798 -0.10465819 -0.008467765 -0.09861638 -0.08568074 -0.13317525 -0.0895613 -0.13810305 -0.11879846 0.008821682 0.05793986 -0.11992199 0.023294965 -0.032200027
잡 -0.080155246 -0.11270055 -0.07881543 -0.10502627 -0.15136598 -0.052978158 -0.1556434 -0.101722196 -0.1069119 -0.13078474 0.008649368 -0.13486561 -0.055838414 -0.06793641 -0.1430387 0.021301126
구성 -0.1335979 -0.10554165 -0.12071166 -0.10001032 -0.11217098 -0.1303426 -0.12256293 -0.028740313 -0.15394264 -0.14903057 -0.08586645 -0.12302498 0.09900504 -0.10069278 0.08334132 -0.023682833
엄마 0.019963186 -0.07112704 -0.107393384 -0.09068994 -0.10508701 -0.1199533 -0.1215349 -0.098980755 0.016921913 -0.1342408 -0.08635815 -0.05959984 -0.099878766 -0.032067165 0.13256006 0.019360134
함께 -0.098605044 -0.1029065 -0.13282938 -0.081196986 -0.11952212 -0.08534133 -0.14654359 -0.11639673 -0.12039972 -0.1328737 -0.11829547 0.17837599 0.094233826 -0.11810332 0.08638046 -0.012677193
문제 -0.117833145 -0.10086492 0.0772105 -0.0909962 0.07360318 -0.0966284 0.06803039 -0.050891817 -0.12767503 0.053125862 -0.11589399 -0.118326254 -0.012068103 0.076708965 -0.09971769 -0.03453753
위해 -0.07686652 0.023828985 -0.1150365 -0.026868261 -0.026226696 -0.11301058 -0.12473794 -0.14373182 -0.14456597 -0.017305225 -0.09483618 -0.04657321 -0.10996502 -0.09288126 0.026867552 0.030788502
졸작 -0.025335839 0.25328875 0.029514056 -0.14078991 0.14477041 -0.03505888 0.1435114 0.20971705 0.01830452 0.21913326 -0.011160109 -0.018272271 -0.151752 0.0786072 -0.15257472 -0.0030193296
잊 -0.10609343 -0.04202847 -0.12252371 -0.0030839157 -0.13437916 -0.10248722 -0.02160041 -0.12742013 0.31632522 0.1361368 -0.06568945 -0.09934675 0.08613833 -0.098513596 -0.057020593 -0.044841122
이딴 -0.13611011 -0.048428085 0.11055277 -0.11794739 -0.025104238 -0.05906885 0.19628255 0.19041452 -0.156876 0.27481183 0.12910533 -0.039395437 -0.14459404 -0.100904286 -0.04295147 -0.027810812
등 -0.034655064 -0.11021787 -0.12338713 0.01034701 -0.11914216 -0.014461048 -0.12855992 -0.18012677 -0.003339373 -0.032112755 -0.1109987 -0.040055867 0.051209595 -0.08943391 0.042066377 0.035668362
집 -0.12969679 0.008375366 -0.1081338 -0.11991917 -0.03465493 -0.13849097 0.04055785 -0.0081825005 -0.12707804 -0.10293441 0.037067432 -0.14034474 -0.043519102 -0.0065640933 -0.10616841 -0.0074264295
유쾌 0.16676764 -0.1266001 -0.0656564 -0.026608298 -0.13366473 0.1393505 -0.12664883 -0.11322077 0.21905111 -0.17100611 -0.13418028 -0.086551756 -0.08365838 -0.10532584 -0.05440756 0.020859467
뻔한 -0.14240061 -0.09354596 -0.035029497 -0.1455408 0.17632134 -0.13006711 0.014019467 0.030404994 -0.1506123 -0.071976684 0.08870822 -0.1451958 -0.065650016 0.09667855 -0.14133473 -0.02913624
킬링 -0.14048001 -0.07076031 -0.08641102 -0.08251994 -0.09690293 -0.07628191 -0.012705536 -0.08846999 -0.14799406 -0.05784474 -0.020834688 -0.06722178 0.11755202 0.04915762 -0.13467522 0.049102556
스러운 -0.024886219 -0.13342749 -0.11768095 0.08445957 -0.12599073 0.027446896 -0.13818926 -0.14248474 -0.034528255 -0.16666432 -0.12754625 -0.06528148 0.0717816 -0.12486319 -0.17461315 -0.010070321
결국 -0.12424426 0.070203476 -0.10839853 0.014927577 -0.07618865 -0.068523236 -0.12555642 -0.060770027 -0.06889301 0.10483467 -0.105293706 -0.140226 0.038601704 -0.13513042 -0.11148443 -0.010705151
낫 -0.087254845 0.024773942 0.019053532 0.05088987 -0.050394606 -0.13602625 0.0008657359 0.12125844 0.026297415 -0.006389599 -0.124272704 -0.13606 0.057076983 -0.05277245 0.033212394 0.011151673
한데 0.087792955 -0.12954041 -0.10753749 -0.13657804 -0.006143823 -0.10970338 0.12635443 -0.14246441 -0.035916727 -0.12579365 0.09820109 -0.14374956 -0.12241466 0.049450178 0.13323374 -0.023714876
나요 -0.10067068 -0.044454295 -0.12177018 -0.15012567 -0.133827 0.084772974 -0.09459073 -0.114936925 0.005772507 -0.10681882 -0.10776354 -0.002390241 0.18691942 -0.12577397 -0.06623211 -0.029615927
뭘 -0.11508822 -0.094959594 0.1204212 -0.11092329 -0.09815669 -0.0014790914 0.092534125 -0.12392426 -0.14543176 -0.16361065 -0.03937062 -0.12250294 -0.13945386 0.06679461 -0.1088304 -0.028758312
소리 -0.1377347 -0.00053722796 0.04214555 -0.12006146 -0.017789116 -0.12186523 0.06442886 -0.003818787 -0.14428256 -0.14431043 -0.02312735 -0.13057067 -0.11313294 0.013150194 -0.040296115 0.022965064
간 -0.107963994 -0.08459451 -0.08284015 -0.11646324 -0.057315826 -0.13524292 -0.12759356 -0.08932673 -0.13770688 -0.12580487 -0.020021282 -0.08932521 -0.10378455 -0.08687012 -0.12680154 -0.00044326857
20 0.060481198 -0.089149415 -0.081316285 -0.07781713 -0.11923782 -0.078580566 -0.13417558 -0.11892127 -0.03572936 -0.15847033 -0.11473948 -0.12986916 -0.028375046 -0.08663211 0.011060505 -0.037450254
