9996 16
. -0.14744514 -0.13502473 -0.17342106 -0.12994538 -0.14319977 -0.14214785 -0.1315635 -0.12379054 -0.1225267 -0.13693243 -0.11889442 -0.11459213 -0.16345906 -0.14479372 -0.17313245 -0.13100825
이 -0.12451372 -0.14424862 -0.115930654 -0.11828914 -0.1558211 -0.12471694 -0.12896018 -0.103731215 -0.124839574 -0.14309627 -0.13613242 -0.09941526 -0.13597047 -0.13509086 -0.15283489 -0.12921292
는 -0.1319912 -0.1323547 -0.14834236 -0.0858517 -0.13702884 -0.109648265 -0.1434996 -0.102356404 -0.09065818 -0.10911871 -0.039537296 -0.11552536 -0.14897043 -0.13083364 -0.1498946 -0.059414923
영화 -0.12181256 -0.12253045 -0.15533125 -0.14503638 -0.118797 -0.12288768 -0.14064933 -0.0975594 -0.101329386 -0.11928875 -0.12257489 -0.11245134 -0.1605009 -0.13488053 -0.17287207 -0.13568813
다 -0.13792112 -0.14081734 -0.16056363 -0.12562396 -0.13368139 -0.12737052 -0.14101207 -0.0752012 -0.1298584 -0.12188144 -0.13321145 -0.11401005 -0.16038351 -0.13829504 -0.19219482 -0.09338149
고 -0.1454628 -0.1310639 -0.10543992 -0.1381579 -0.1339939 -0.10574953 -0.14108184 -0.0995181 -0.13910477 -0.14442904 -0.12967782 -0.056752626 -0.12755255 -0.13067366 -0.1654289 -0.1350385
하 -0.12280815 -0.13059002 -0.12781742 -0.13584122 -0.13562763 -0.13622758 -0.12268637 -0.08931259 -0.05595343 -0.09468897 -0.051890098 -0.11704503 -0.14458798 -0.14536783 -0.125031 -0.056895096
도 -0.10766404 -0.13051774 -0.12441916 -0.09859684 -0.1421739 -0.11980745 -0.12625937 -0.09399685 -0.08232329 -0.09085401 -0.11776896 -0.10167334 -0.14528936 -0.15263422 -0.124648936 -0.09475196
의 -0.10275551 -0.1251487 -0.008606086 -0.09395339 -0.1326067 -0.12928893 0.12078046 -0.0634609 -0.12950885 -0.102990024 -0.104501896 -0.11344884 -0.15513267 -0.12560625 -0.09876689 -0.06307778
가 -0.123196915 -0.12955199 -0.13739632 -0.091334626 -0.1327365 -0.13805021 -0.12486438 -0.122616984 -0.07434059 -0.09546878 -0.06318001 -0.10933591 -0.14299923 -0.13535437 -0.079369485 -0.09776412
은 -0.123864666 -0.13023095 -0.12671417 -0.12956396 -0.13017452 -0.1159668 -0.121025406 -0.10767713 -0.11873193 -0.131584 -0.13032718 -0.10593758 -0.1401267 -0.13209482 -0.17182851 -0.11273325
에 -0.1364117 -0.11608897 -0.10358704 -0.13481413 -0.10364459 -0.11922678 -0.11702451 -0.10661082 -0.11354631 -0.11991493 -0.10899798 -0.096518874 -0.14718385 -0.12715602 -0.14819987 -0.09588717
을 -0.13558522 -0.12866955 -0.13564183 -0.14075844 -0.11388253 -0.13583669 -0.10229428 -0.075675234 -0.1050038 -0.11695697 -0.07763654 -0.08646453 -0.14476492 -0.12143224 -0.15661347 -0.109906495
보 -0.09937411 -0.13138074 -0.0930135 -0.12848812 -0.12678415 -0.038362157 -0.1124844 -0.1256197 -0.1307207 -0.113793224 -0.1005392 -0.08694449 -0.12173547 -0.09596718 -0.14430887 -0.12858973
한 -0.13662927 -0.13505554 -0.14013533 -0.135816 -0.111586615 -0.10360545 -0.13480492 -0.104450315 -0.10807587 -0.12768148 -0.06123243 -0.113092504 -0.15510488 -0.11382361 -0.16651215 -0.13537298
.. -0.100825496 -0.115736775 -0.0772527 -0.12768742 -0.14167441 -0.07234831 -0.12561566 -0.12312494 -0.124139756 -0.14596546 -0.121513724 -0.06316549 -0.10868912 -0.14025883 -0.17008728 0.10517788
게 -0.147396 -0.12180626 -0.09394559 -0.09719087 0.11148731 -0.13281326 -0.12854603 -0.09316815 -0.12883304 -0.13401282 -0.11514012 -0.10110931 -0.11935913 -0.12457484 -0.17973593 -0.11187294
, -0.13056888 -0.13067266 -0.05020592 -0.093505025 -0.12253026 -0.10903922 -0.11455013 -0.08714881 -0.10870228 -0.10976167 -0.13238998 -0.12077429 -0.12804863 -0.108501986 -0.106545344 -0.12788504
들 0.0052851075 -0.1288723 -0.1246574 -0.053877667 -0.13344648 -0.12143963 -0.09901322 -0.08612263 -0.067979336 -0.120926835 -0.06286674 -0.11169533 -0.15112124 -0.13130824 -0.12385786 -0.08272506
! -0.11391581 -0.14481609 0.011378375 -0.1204497 -0.13220398 -0.13388082 0.21540684 -0.01585336 -0.10803734 -0.12598073 -0.12331684 -0.111263745 -0.1576998 0.15188591 -0.09564509 -0.0596211
지 -0.11790079 -0.12897094 -0.1616374 -0.13730627 -0.03146017 -0.12612166 -0.09911898 -0.08829549 -0.119767204 -0.118851796 -0.10564477 -0.068378784 -0.15268424 -0.04892677 -0.11354619 -0.07152804
를 -0.10847637 -0.11183451 -0.096958935 -0.12120117 -0.10047212 -0.12219738 -0.09370078 -0.07498641 -0.12492644 -0.14631303 -0.08459214 -0.0998515 -0.13592216 -0.105766535 -0.1802525 -0.073815666
있 -0.13461031 -0.054739833 -0.13182159 -0.13782929 -0.12140187 0.05031185 -0.13187036 -0.10658895 -0.13959002 -0.09354001 -0.13413703 -0.07036788 -0.09620938 0.18673365 -0.14653976 -0.097274564
없 -0.0151442215 -0.13385682 -0.13160619 0.03587431 -0.14745882 -0.11335174 -0.13438757 -0.06145495 -0.11519198 0.15940604 -0.039358865 -0.11777805 -0.14368454 -0.1530051 -0.111652486 0.18702121
? -0.13869274 -0.0797263 -0.16183451 -0.1255561 -0.106051415 -0.117252864 -0.085180536 -0.12527625 0.15992959 -0.14323443 0.12198123 -0.105529726 -0.12916397 -0.0993104 -0.1693223 -0.114784606
좋 -0.15107891 -0.066645816 -0.08895212 -0.13861105 0.122757025 -0.09932757 0.28351122 -0.123606876 -0.1229323 -0.13397463 -0.12333342 -0.10132104 -0.043798953 -0.060831007 -0.17948982 -0.14991052
나 -0.14103374 -0.11096987 -0.0387023 -0.13941863 -0.13426435 -0.088050865 -0.09567862 -0.122741826 -0.13264044 -0.15282753 -0.08043251 -0.0767021 -0.13802634 -0.13812889 -0.16958205 -0.1233221
었 -0.10244081 -0.1320202 -0.115338 -0.13657044 -0.13528843 -0.038661383 -0.12911613 -0.09230893 -0.13705379 -0.08715515 -0.13910483 -0.10921616 -0.11849344 -0.14417306 -0.07406514 -0.052545276
만 -0.14260662 -0.06678482 -0.07853634 -0.13081798 -0.12557992 -0.071566075 -0.07265132 0.09707956 0.0055066654 -0.11388878 0.088896245 -0.101031646 -0.041884203 -0.12554507 -0.07807832 -0.13243526
는데 -0.13444148 -0.08092756 -0.10044912 -0.13239756 -0.057958994 -0.10397781 -0.07612943 -0.039430797 -0.1218898 -0.1306222 -0.1250577 -0.09493588 -0.07348742 -0.05479132 -0.170023 -0.12340253
너무 -0.10634053 -0.14116508 -0.15422498 -0.14920692 -0.1222908 -0.12710403 -0.12863182 -0.09918585 -0.13042937 -0.11536274 -0.11402159 -0.10488092 -0.16479728 -0.12754627 -0.13419187 -0.1360892
봤 -0.14648932 -0.108787544 -0.10845501 -0.009080607 -0.123525426 -0.11950776 -0.11391668 -0.084516406 0.047225356 -0.13848856 -0.12616791 0.16103005 -0.13662967 -0.13138795 -0.18054353 -0.1084936
적 -0.03578896 -0.0628494 0.08907546 -0.072660126 -0.12806372 -0.13431866 -0.11702582 -0.118683785 -0.039815553 -0.08661109 -0.12826891 -0.108179316 -0.16590384 -0.118571304 -0.06905864 -0.13402519
안 0.030901747 -0.10796978 -0.13567562 0.07971273 -0.075039275 -0.12806097 -0.053160872 -0.034288242 -0.029337829 0.1833862 -0.109323606 -0.10213329 -0.14116001 -0.11076505 -0.055212732 -0.100355126
정말 -0.08684306 -0.13002513 -0.15310526 -0.11029571 -0.10894914 0.05563492 -0.13786644 -0.0034222647 -0.02090553 -0.08883406 -0.12831157 0.13407978 -0.14433631 -0.15033463 -0.061855327 -0.056588214
로 -0.11523769 -0.13709764 -0.17375039 -0.1131408 -0.12020621 -0.12131362 -0.13020086 -0.098656505 -0.063430786 0.009278662 -0.002381142 -0.1093703 -0.1537396 -0.14884326 -0.08101839 -0.044583265
음 -0.124073565 -0.14008415 -0.08268004 -0.13202876 -0.1361078 -0.10737891 -0.11407374 -0.10108332 -0.13214038 -0.10783095 -0.13248654 -0.093165904 -0.1534647 -0.12479036 -0.15171142 -0.14409295
으로 -0.106671005 -0.025020218 -0.12077905 -0.08695557 -0.12531497 -0.10370445 -0.09124602 -0.08256134 -0.11864285 -0.10408257 -0.08265454 -0.022355424 -0.09486534 -0.070405215 -0.12753019 -0.13084939
것 -0.12063549 -0.12834732 -0.1100628 -0.08685311 -0.090255484 -0.11067088 -0.08867701 -0.10129297 -0.08974713 -0.12232652 -0.10439448 -0.088689655 -0.13601518 -0.12162633 -0.13898978 -0.10704894
아 -0.10490547 -0.10615374 -0.12524197 -0.13196106 -0.12973395 -0.090307295 -0.10958503 -0.079514325 -0.101856284 -0.10659756 -0.090304025 -0.07302308 -0.15304728 -0.1332602 -0.13827471 -0.10797051
네요 -0.1608129 -0.13954966 -0.11844529 -0.04132958 -0.12527153 0.079752065 0.064463586 -0.116997525 -0.07378055 -0.13766578 0.033086468 -0.10217501 -0.13259783 -0.13418318 -0.18963341 -0.13996619
재밌 -0.1632415 -0.13545477 0.0455705 -0.13874792 0.09745982 0.25176054 -0.0660699 -0.119819604 -0.13376392 -0.14310938 -0.13350537 -0.08447509 0.14140157 -0.019612525 -0.1807086 -0.15074581
어 -0.13862956 -0.13789208 -0.09391484 -0.13756162 -0.14209703 -0.116156936 -0.13201736 -0.040874872 -0.07579319 -0.06316336 -0.12298854 -0.11745993 -0.14720857 -0.13872422 -0.17425226 -0.06729529
같 -0.10592941 -0.13367724 -0.13505064 -0.098780654 -0.12438541 -0.13050812 -0.114213 -0.04513596 -0.0070778653 -0.034269754 -0.079652436 -0.10285541 -0.15187337 -0.1349715 -0.11166115 -0.060955543
점 -0.14874819 -0.13045678 -0.12699486 -0.039400533 -0.11065404 -0.10432246 -0.14680898 -0.11930148 -0.12984231 -0.14583927 0.12787573 -0.11285276 -0.14040744 -0.14562595 -0.13644604 0.13799334
지만 -0.11106445 -0.058240574 0.19072577 -0.12004692 -0.07391839 -0.09000596 -0.1225758 0.039393447 -0.056948587 -0.12538522 0.029075503 -0.08955502 -0.13780534 -0.13213567 -0.14246745 -0.09000493
진짜 -0.13108164 -0.13000023 -0.13811308 -0.09337703 -0.14877866 -0.08088062 -0.1478756 -0.11203657 -0.13407567 -0.13569747 -0.12472856 -0.06865836 -0.1482667 -0.13749176 -0.17595586 -0.13285518
했 -0.07130031 -0.13461235 -0.14722793 -0.036671974 -0.1317211 -0.12766774 -0.12119563 -0.08624132 -0.02941084 -0.01005498 -0.0031895076 -0.10003529 -0.14857411 -0.14917117 -0.07598663 -0.108783975
에서 -0.09596245 -0.053147428 -0.1081136 -0.048982263 -0.1163779 -0.10961404 -0.10098774 -0.070510596 -0.046739455 -0.025598926 -0.09327392 -0.09418356 -0.13567556 -0.135447 -0.10825231 -0.09444038
기 -0.079962626 -0.0819393 -0.06948629 0.12075562 -0.047855284 -0.12896505 -0.019834593 -0.10470441 -0.07180479 -0.07252263 -0.0860771 -0.10493901 -0.069045484 -0.13223952 -0.071899064 -0.055927582
네 -0.028736996 -0.12709689 -0.13685533 -0.14705335 -0.14376967 -0.12010808 -0.11499354 -0.10422152 0.11494189 -0.09407666 -0.12765497 -0.116737984 -0.13654056 -0.14345255 -0.18272296 -0.16014798
않 -0.13011818 0.055413503 -0.12639682 0.007659225 -0.016208764 -0.118162684 -0.099275336 0.025034554 -0.1057114 0.120118245 -0.10031042 -0.09940919 -0.030012757 -0.056460734 0.020391442 -0.030739387
거 -0.1057101 -0.07395475 -0.11984854 -0.11246452 -0.07647537 -0.122202605 -0.11528568 -0.099694714 -0.103950135 -0.07352742 -0.063367344 -0.037114765 -0.08319407 -0.113535866 -0.09079508 0.05397355
았 -0.14345676 -0.10967061 -0.12668504 -0.05513224 -0.1267821 0.0422955 -0.11654921 -0.10056204 -0.13202934 -0.1075135 -0.12681735 -0.09331111 -0.055154502 -0.13542122 -0.17309627 -0.02135957
수 -0.013164178 -0.13273472 -0.10534696 -0.11575261 0.04552061 -0.13164742 -0.12804669 -0.083271444 -0.08975517 -0.05789621 -0.03485958 0.16846037 -0.15006834 -0.03379527 -0.09979232 -0.07067805
되 -0.13408682 -0.0662068 -0.1241137 -0.10933249 0.038451217 -0.10840246 -0.073854364 -0.10198689 -0.11629164 -0.10777646 -0.082927845 -0.1082334 -0.04614153 -0.12474351 -0.12358893 -0.108243026
면 -0.042886313 -0.11118926 -0.053576868 -0.04017009 -0.0628583 -0.11222693 -0.07195881 -0.10097232 -0.0026866966 -0.11358921 -0.113267235 -0.11535523 -0.13553636 -0.14192508 -0.05165388 -0.07027413
ㅋㅋ -0.0036496867 -0.1233438 -0.15286927 -0.11512233 0.08046749 -0.12625661 -0.12573431 -0.13603103 -0.09309371 -0.044769548 -0.024170816 0.19370796 -0.16206706 -0.14460158 -0.13300028 -0.03308271
과 -0.030538628 -0.12767157 -0.119874604 -0.1209593 -0.12785155 -0.13393036 -0.13334297 -0.07252464 -0.074697316 -0.046546463 -0.06844419 0.112500735 -0.092436984 -0.13362627 -0.11697822 -0.088589266
말 -0.1287842 -0.0020405645 -0.04153872 0.019166622 0.02288013 0.08848627 -0.12065928 -0.08386356 -0.12961805 0.0848627 0.008173695 -0.11424396 -0.021448579 -0.13922916 -0.12914085 0.064290114
연기 -0.13832863 -0.063482136 -0.11850394 -0.11194745 -0.12549682 -0.09257759 -0.036689993 -0.099497356 -0.11010288 -0.13775377 -0.12859713 -0.029015904 -0.1217318 -0.13242744 -0.15878154 -0.10671261
인 -0.06840444 -0.07082999 -0.12247526 -0.071997 -0.07982705 -0.11160762 -0.12164471 -0.06422193 -0.1060191 -0.11380703 -0.1252572 -0.06941875 -0.15588969 -0.11749976 -0.09428884 -0.078539684
잘 -0.07583118 0.11820328 0.13809673 -0.12730008 -0.102920376 -0.11724189 -0.09852353 -0.021056283 -0.07995969 -0.1489203 -0.12923813 -0.10363156 0.02349198 0.11318718 -0.063454375 -0.118870825
주 -0.13767831 -0.12150746 -0.13237071 -0.13369705 -0.0009564521 -0.10456941 -0.005329363 -0.09376584 -0.111828856 -0.10309821 -0.09023364 -0.105362885 -0.13521728 -0.11861567 -0.12780765 -0.09135944
내 -0.12899213 -0.11258986 -0.1128659 -0.06833351 -0.12608139 -0.10799218 -0.10298144 -0.035686113 -0.12768163 -0.13009833 -0.12724243 -0.102212854 -0.1132263 -0.1247045 -0.14899907 -0.08940238
최고 -0.08353976 -0.10353885 0.25189728 -0.15736 0.23034368 0.05937813 0.05609054 -0.12662667 -0.1358534 0.07379353 0.024289854 -0.108736865 0.17838065 -0.12354521 -0.056230344 -0.14444567
~ -0.04522364 -0.1388251 -0.123249896 -0.09841306 -0.12252404 -0.07408421 -0.12632416 -0.1274835 -0.08137427 0.004785668 -0.08474288 0.15575722 -0.09917179 0.053817503 -0.07310712 -0.06924014
평점 0.024990594 0.070287146 -0.11713586 -0.07587753 -0.06129546 -0.09603652 -0.115015425 0.09410657 -0.12749073 -0.08789638 -0.104637146 -0.10127469 -0.08920138 -0.09223101 -0.12559704 -0.105635434
이런 -0.121992365 -0.13210462 -0.13405798 0.093913905 -0.13780807 0.014476506 -0.13742508 -0.09834006 -0.10153891 -0.11283482 -0.10360159 -0.123192415 -0.14106797 -0.14036244 -0.13186823 -0.112043306
던 -0.13688889 -0.1304827 -0.02731221 -0.121092685 -0.10763127 0.06102022 -0.116587624 -0.11184967 -0.09100257 -0.106484585 -0.13244347 -0.062115803 -0.13001911 -0.12573847 -0.15532082 -0.08046298
와 -0.13348068 -0.1183268 -0.13437195 -0.07202394 0.046062794 -0.072982326 0.061130308 -0.116258964 -0.1279861 -0.012200787 -0.12452632 -0.10683662 -0.020372158 -0.08725639 -0.08146181 -0.14125109
어요 -0.11061329 0.17588343 -0.08076899 -0.12322053 -0.13295701 -0.09139625 -0.14378259 -0.009294537 -0.04448783 -0.030550698 -0.13848501 -0.108792886 0.051101267 -0.14918838 -0.17234653 -0.004606709
할 -0.05220248 -0.10291731 -0.11564758 -0.122685395 0.024000395 -0.07862749 -0.12066232 -0.067807585 -0.00733935 -0.12780578 -0.11280594 -0.10988103 -0.13826276 -0.1348841 -0.062421605 -0.1203977
왜 -0.0130082825 -0.12850931 -0.12071592 -0.11050819 -0.13408168 -0.12510736 -0.10290482 0.09890147 -0.12113961 -0.059153143 -0.075601004 0.1430787 -0.117628396 -0.1488941 -0.08127212 -0.114175946
겠 -0.02596525 -0.074242845 -0.12398966 0.20012896 -0.11159124 -0.11916722 -0.11147114 -0.09526893 -0.12466446 0.09358346 0.0042156875 -0.096370146 -0.055462454 -0.084269896 -0.07258621 -0.15408024
1 0.10129864 -0.13315165 -0.1276646 -0.12458061 -0.1395749 -0.1072535 -0.12884647 0.1246814 -0.0016460994 0.07976962 -0.062508136 -0.12929806 -0.14669968 -0.14295511 -0.016962064 -0.08779017
스토리 -0.10960291 -0.12751819 -0.13578224 0.04530911 -0.13246801 -0.11952778 -0.13273418 -0.09568956 -0.072465494 -0.011663817 -0.111397736 -0.1114984 -0.13835458 -0.12921193 -0.035953455 -0.035040535
해 -0.13282928 -0.13603356 -0.111907765 -0.11511068 -0.066113725 -0.12581255 -0.092910364 -0.117545456 -0.1300226 -0.13298853 -0.098213285 -0.115426846 -0.12052249 -0.15395771 -0.1457462 -0.06936976
습니다 -0.14274754 -0.099281296 -0.081590496 -0.15792963 -0.124211326 0.15497607 -0.028469246 0.021555481 -0.13677546 -0.08443741 -0.1365404 -0.08118231 -0.14097671 -0.12309972 -0.17885067 -0.01246496
ㅋㅋㅋ -0.059648883 -0.13661827 -0.12337468 -0.15505204 -0.0800633 -0.08669157 -0.117158175 -0.08617135 -0.02126091 -0.09730984 -0.13424578 -0.06425553 -0.15880407 -0.13808742 -0.096664295 -0.15149073
... -0.07189997 -0.1196497 -0.13702498 -0.09429123 -0.12680003 -0.12336311 -0.13439395 -0.009903943 -0.06128196 -0.090102084 -0.12308279 -0.1169816 -0.14002874 -0.14742948 -0.16689268 -0.074764684
드라마 -0.094082005 -0.11141905 -0.16789931 -0.09482696 0.026259795 -0.077923134 0.048717905 -0.065817505 -0.07803315 -0.09581009 -0.05609924 -0.120815285 -0.024878854 -0.09696624 -0.11570279 -0.08164122
생각 -0.11923289 0.19459255 -0.11294943 -0.061125234 -0.13982935 -0.08542229 -0.103873715 -0.07913564 -0.07509243 -0.105821304 0.04448147 -0.10674321 -0.13646413 -0.012546598 -0.11211801 -0.13910401
아니 -0.010618817 -0.1428813 -0.034465943 -0.054544576 -0.13405016 -0.08924666 -0.12630299 0.07115693 0.08679613 0.012683832 0.03504231 0.042762946 -0.14045459 -0.12368994 -0.06288876 0.08701468
더 -0.037974402 -0.119017035 -0.11644958 -0.049398404 -0.084504426 -0.08041904 -0.11060637 -0.08499883 -0.06441395 -0.05256537 -0.059143618 -0.09867602 -0.14074948 -0.14549646 -0.02091967 -0.066361584
그 -0.10823138 -0.06786777 -0.08299582 -0.08499632 -0.09716828 -0.1381609 -0.11282463 -0.086757325 -0.10964112 -0.09846781 -0.047834292 -0.096414186 -0.02374223 -0.0028882225 -0.1137449 -0.023459591
싶 -0.11864256 -0.03183549 -0.10908462 -0.14668506 -0.080357276 -0.11772507 0.016142016 -0.09751199 -0.10648956 -0.11791028 -0.11011052 -0.09966144 -0.043171793 -0.112874486 -0.15729396 -0.12346103
사람 -0.045498025 -0.0775566 -0.115526274 -0.12459484 -0.035597418 -0.0821885 -0.09707698 0.017778661 -0.038628247 -0.11385636 -0.099839345 -0.06474327 -0.031060485 0.13847746 -0.14531937 -0.051275805
듯 -0.124715 -0.12423906 -0.12711094 -0.035097454 -0.12566578 -0.11544905 -0.118911915 -0.101356536 -0.045721114 -0.12691806 -0.11957377 -0.08056321 -0.14413364 -0.12124589 -0.12566416 0.01643254
때 -0.024895318 0.061447218 -0.09243831 -0.109980755 -0.10034612 -0.11908751 -0.09585178 -0.09283572 -0.068992116 -0.1318411 -0.12299792 -0.09907582 0.08438712 -0.11098149 -0.09729455 -0.08402532
감동 -0.1365335 -0.13946305 -0.08853241 -0.16228785 0.07682055 0.21504441 -0.11227316 -0.12044504 -0.14179458 -0.08417167 -0.12841436 -0.082231134 0.080990635 -0.13372919 -0.09335201 -0.1452603
함 -0.12775497 -0.1003308 -0.15959288 -0.08820853 -0.12689051 -0.09852492 -0.12949032 -0.041123997 -0.093350984 -0.103195876 -0.05888495 -0.087676935 -0.14603932 -0.13254346 -0.09753601 -0.12275182
배우 -0.040485185 -0.13093972 -0.1333127 -0.1101807 -0.123424485 -0.095042825 -0.09878849 -0.11418702 -0.09986779 -0.11274263 -0.1321571 -0.11348765 -0.14830418 -0.13505682 -0.1464066 -0.104223385
본 -0.10549466 -0.116810426 -0.06499375 -0.10487652 -0.12399784 -0.119572654 -0.086373866 -0.103071585 -0.11603299 -0.09230013 -0.10606603 -0.07080582 -0.13421384 -0.12516691 -0.10093736 -0.102831624
까지 -0.10901086 -0.04564586 -0.096526936 -0.10235426 -0.026350686 -0.09109772 -0.11678818 -0.12019213 -0.12967445 -0.13265687 -0.04683693 -0.08329076 -0.09385808 -0.061659135 -0.122411676 -0.11934838
좀 -0.1264322 -0.1444832 -0.15662229 -0.14206018 -0.06269641 0.09702025 -0.12930553 0.049943842 -0.113794364 0.13911773 0.010896492 -0.038822576 -0.047457494 -0.058409147 -0.17370594 -0.10720891
뭐 0.11415311 -0.12957223 -0.16281334 -0.058213394 -0.14896816 -0.09566468 -0.05136927 -0.009439731 -0.055001386 0.13730288 -0.10081519 -0.10825782 -0.15291871 -0.1380744 -0.07166908 0.002667882
알 -0.121334724 -0.07226233 -0.098124094 -0.07173045 -0.08741558 -0.102309026 -0.08042439 -0.109575994 -0.12525645 0.038316116 -0.08394327 -0.077199146 -0.08831559 -0.14145334 -0.075660616 -0.11447332
만들 -0.12498522 -0.10868196 -0.120002225 -0.12885201 -0.12098221 -0.10685199 -0.10505944 -0.02655048 -0.09370816 0.06946895 -0.122526616 -0.07716503 -0.1361191 -0.15109277 -0.15686816 0.1765316
내용 0.15941273 -0.13952886 -0.12529323 -0.1232333 -0.13038985 -0.12497249 -0.13091749 -0.11034177 -0.010333984 -0.14385904 -0.1289613 -0.10468478 -0.12795617 -0.13270961 -0.12671532 -0.13245349
볼 -0.14107195 -0.1347358 -0.08205602 -0.12969999 0.10889115 0.036602158 -0.12864995 -0.11590635 0.005975346 -0.08853389 -0.079673424 -0.05112872 -0.14324276 0.13932654 -0.08750802 -0.13185471
감독 -0.0627514 -0.063703254 -0.032616373 -0.14466788 -0.076354034 -0.072601035 -0.04940593 -0.11709332 0.027413774 -0.13089646 0.29187858 -0.058479954 -0.058679376 -0.09721928 -0.19248801 -0.14322624
보다 -0.010932952 -0.13748339 -0.07423676 -0.103330806 -0.13697152 -0.09270022 -0.062415604 -0.0029869198 -0.005745445 -0.092770934 -0.101143844 -0.10384077 -0.11521886 -0.100302994 -0.14949365 -0.1319491
라 -0.03366864 -0.04041711 -0.11274352 -0.10035026 -0.11793155 -0.10768 -0.13614155 -0.055277247 -0.046044633 0.0035541367 -0.091239326 -0.10861237 -0.11645483 -0.14184111 -0.08410437 0.050101273
그냥 -0.13007015 -0.10971937 -0.08716994 -0.15946276 -0.119867854 -0.0619665 -0.08807031 -0.074773565 -0.13105667 -0.13859761 0.26636335 -0.09191147 -0.12527886 -0.07127774 -0.16348393 -0.15553863
재미 -0.1345795 -0.13175 0.024931159 -0.12534171 -0.14437428 0.0029337327 0.037447475 0.09014072 -0.13114345 -0.13487215 0.103792 -0.0746035 -0.09759167 -0.13680053 -0.18103832 -0.12883088
시간 -0.019538578 -0.11407815 -0.063363194 0.04019776 -0.14105822 -0.11678134 0.008451015 -0.11189727 -0.03637578 -0.090564296 0.1620926 -0.07392793 -0.11760601 -0.116681084 -0.03808129 -0.0176791
지루 -0.11660858 -0.13230512 -0.15607457 0.011462011 -0.12931119 -0.11783689 -0.12333984 0.10994397 0.17025383 0.17217177 0.17257556 -0.08253048 -0.15046582 -0.13841033 0.017673522 -0.048078477
중 -0.11886375 -0.13298145 -0.024432223 -0.1204339 -0.12719268 0.15982486 -0.09396649 -0.09962564 -0.0884238 -0.11071164 -0.0709743 -0.07200781 -0.13739577 -0.122316755 -0.10489668 -0.09525262
재미있 -0.1415866 0.041857783 -0.15173148 -0.02623731 0.3136039 0.048582412 0.14221512 -0.03416099 -0.088850886 -0.04615883 -0.022910967 -0.042424854 0.0059994413 -0.083376065 -0.041508168 -0.1377813
년 -0.12401457 -0.039536007 -0.1334436 -0.11874997 -0.076770514 -0.10641959 0.025665376 -0.10948938 -0.120464005 -0.13271852 -0.10094152 -0.103553645 0.010170922 -0.08088731 -0.1556176 -0.09891304
10 -0.12664253 0.1532304 0.04238794 -0.1390312 -0.12115134 0.17488147 -0.07869514 -0.10077785 -0.11625768 -0.13711445 0.076234154 -0.11092772 0.018693086 0.14737506 -0.13878003 0.16649088
였 -0.12874244 0.011231969 -0.11662199 -0.08031099 -0.11935645 0.04672503 0.16859938 -0.06261437 -0.14537035 -0.11335283 -0.12432967 -0.09110111 -0.14139983 -0.13976674 -0.041656252 -0.09324136
잼 -0.080624826 -0.13531187 0.058909908 -0.15321153 0.19122632 0.15168346 -0.12928851 -0.092484996 0.08676842 -0.14689212 -0.13660587 -0.11247809 -0.16134016 -0.1556926 -0.18839718 -0.14769903
사랑 -0.13323072 0.040296882 0.2154388 -0.14313634 -0.1196605 -0.08079316 0.057756454 -0.06361469 -0.11602172 -0.13800031 -0.0393296 -0.048894405 0.09043966 -0.10970965 -0.17429338 -0.1223704
못 0.10956646 -0.12941724 -0.116729416 -0.060631063 -0.12101013 -0.119065054 -0.12418567 0.04693967 0.10935118 -0.09581887 -0.018030653 -0.103667125 -0.1284796 -0.13203363 -0.10568469 -0.06410016
냐 -0.06290358 -0.13060115 -0.09531692 0.09044585 -0.14055328 -0.07608807 -0.08593617 0.086730376 -0.017660048 0.10391404 0.062809095 -0.11832337 -0.16605777 -0.13364306 0.05339811 -0.08129427
재미없 0.17728972 -0.1311074 -0.15042445 -0.053796615 -0.135418 -0.118769616 -0.12874196 0.082254075 0.1638844 0.053650785 0.17444707 -0.110268325 -0.15098181 -0.13907643 0.14265448 -0.0701236
쓰레기 0.16899349 -0.094325826 -0.155229 0.08221792 -0.13041426 -0.07301724 -0.09169268 0.017270165 0.17114168 0.18631005 0.095682725 -0.09944773 -0.14862981 -0.13233934 0.15178294 0.05635384
서 -0.07072 -0.028273221 -0.10166759 -0.0940752 -0.0995478 -0.09863841 -0.118067585 -0.029432612 -0.08493919 -0.12640195 -0.09766782 -0.10610213 -0.13914748 -0.09391601 -0.123453446 -0.10634634
2 0.051835533 -0.12512839 -0.13326623 0.03754307 -0.12698756 -0.08774483 -0.12424338 -0.03198551 -0.0802499 0.06954712 -0.1043669 -0.03222727 -0.14219365 -0.10130413 -0.05255913 -0.111004174
라고 -0.100826934 -0.12782052 -0.12690431 0.003052243 -0.11254136 -0.09715979 -0.11577892 0.087721944 -0.107474156 0.041937355 -0.023209909 -0.11179204 -0.14859585 -0.12574877 -0.06298145 0.12169971
야 0.03614981 -0.084976465 -0.15307781 -0.041412704 -0.06518021 -0.08988654 -0.05082336 -0.118033834 -0.12771727 -0.15354715 -0.12250922 -0.09788756 -0.12218648 -0.05142668 -0.14667583 -0.13560747
니 -0.0846791 -0.12096167 -0.13596913 -0.063393906 -0.124536 -0.11094008 -0.12194319 -0.036384545 -0.013772268 -0.11946224 -0.08351968 -0.06758351 -0.14430413 -0.1367372 -0.054199733 -0.03168617
면서 -0.10502337 0.12182857 -0.11240086 -0.10343749 -0.12846546 -0.0447301 -0.09872814 -0.047277715 -0.11352981 -0.088742234 -0.048823662 -0.105072975 -0.12911884 0.069140546 -0.13058123 -0.10343047
번 -0.12944382 -0.06995282 0.032631535 -0.12034762 0.05436577 -0.05841729 -0.03059562 -0.09296875 -0.1120908 -0.11100151 -0.12336394 0.08885218 -0.08253628 0.11385005 -0.14706436 -0.1206297
다시 -0.10843126 -0.038385008 0.16310194 -0.0554216 -0.07339351 -0.09733821 -0.11559034 -0.10983047 -0.06488847 -0.113294244 0.07799798 0.2369795 -0.13862227 -0.11674552 -0.15628777 -0.11153139
나오 -0.069777854 -0.052419517 -0.05110799 -0.10680314 -0.12712607 -0.10758018 -0.13374054 -0.07329232 -0.03836537 0.056084283 -0.07839887 -0.09565023 -0.06842969 -0.12834568 -0.07252029 -0.09882119
작품 -0.10108821 -0.1111348 -0.09716187 -0.1325967 0.008434869 -0.003703449 0.18414527 -0.033967968 -0.12553857 -0.03162453 -0.11001664 -0.06549165 -0.08930589 -0.10172416 -0.07601506 -0.03066089
이거 -0.11224027 -0.11589211 -0.14201891 -0.11557866 -0.10362939 -0.04964364 -0.11367992 -0.11601989 -0.12166749 -0.10768637 -0.07103919 -0.12632339 -0.1296542 -0.13411325 -0.12463663 -0.12689598
하나 0.04400271 -0.121308796 -0.09486652 -0.14021371 -0.13800707 -0.10470673 -0.13101622 -0.009296501 -0.036776155 -0.11065878 -0.0899358 -0.10585231 -0.027474554 -0.11763732 -0.08853806 0.0720822
줄 -0.020052724 -0.075108506 -0.12679408 0.08063652 -0.06797259 0.076001145 -0.08605072 -0.1036964 0.04690293 -0.11668704 -0.08836917 -0.09357631 -0.12749615 -0.11277892 0.0043946714 0.009059045
해서 -0.126225 -0.10024106 -0.072874516 -0.10241109 -0.06131343 -0.09234315 -0.09493429 -0.09298422 -0.12671639 -0.13160893 -0.105056606 0.013301125 -0.1344927 -0.13075344 -0.14417058 -0.11678299
개 -0.041677803 -0.14178325 -0.07690234 0.1577105 -0.12373281 -0.117001325 -0.13162403 -0.11365643 -0.12528583 -0.09912856 -0.085270025 -0.08403934 -0.08189988 -0.13569644 -0.13020289 -0.045669727
남 -0.13242811 -0.06075073 -0.11972348 -0.14040303 0.07627359 -0.108763255 -0.10864714 -0.10471996 -0.1022203 -0.133103 -0.070210345 -0.119710155 -0.10100727 -0.13423708 -0.1569194 -0.10123423
정도 -0.11615876 -0.12307281 -0.1242729 -0.0219884 -0.13026197 -0.09015171 -0.03188834 -0.033896487 -0.052633844 -0.03783473 -0.10022427 -0.079475954 -0.08282286 -0.0006342847 -0.06644865 -0.08596728
마지막 -0.074775435 -0.12895396 0.14235142 -0.12819953 -0.04459439 -0.02740148 -0.08691072 -0.10062498 -0.07219113 -0.11130403 -0.1260137 -0.060645364 0.050374307 0.120364524 -0.06414922 -0.06697714
끝 -0.11120802 -0.04931113 -0.06638241 -0.11771717 -0.040715363 -0.09581183 -0.040700987 -0.11732597 -0.13606942 0.035593547 -0.09195112 -0.04698824 -0.06930864 -0.08552315 -0.14606224 0.122546196
이건 -0.08395705 -0.13380966 -0.055276603 0.028498938 -0.14455162 -0.12023761 0.09510177 0.25862098 -0.1351906 -0.08113409 -0.08270351 0.047663186 -0.15205708 -0.043073762 -0.12835707 -0.13302203
액션 -0.06377753 -0.12573758 0.05100506 -0.087490596 -0.008037477 -0.09297884 -0.101231545 -0.05407373 -0.07884711 -0.079439186 -0.12062173 0.008722979 0.043112874 -0.1167635 -0.052565135 -0.047005598
임 -0.105893925 -0.12413189 0.0057106977 -0.098997355 -0.13366489 -0.120821156 -0.02240007 -0.12076287 -0.11430652 -0.09662547 -0.11764548 0.04745679 -0.14727968 -0.082383655 -0.09823991 -0.08341117
ㅋ -0.05133516 0.081655145 -0.06691461 -0.07224499 0.0069648144 -0.12070966 0.096981935 -0.08078115 -0.1324824 -0.101563476 -0.060463518 -0.11155004 -0.012993145 -0.107434236 -0.09115155 -0.12977819
3 0.06501518 -0.12524511 -0.13094626 -0.00014953854 -0.12382924 -0.095258325 -0.13468787 0.06728979 -0.020699695 0.028486151 -0.09726695 4.39477e-05 -0.14000654 -0.057748493 -0.04272083 -0.13262618
기대 0.032763176 -0.10890544 0.07474993 -0.13404213 -0.10548471 -0.040988036 -0.07605427 -0.08839605 -0.08506795 -0.10474937 -0.11183418 -0.11406799 -0.1353198 -0.12690239 -0.10565341 -0.10843294
입니다 -0.12674814 0.14359084 0.021588711 -0.13310142 0.018172877 0.0063751778 -0.13037029 -0.07281266 -0.116769165 -0.12318632 -0.060150187 -0.036303844 -0.13778584 0.002688162 -0.17061675 -0.1317751
건 0.06198676 -0.055031203 -0.05181323 -0.11822716 -0.120972715 -0.10364526 -0.0964017 -0.07462562 0.006877074 -0.02156295 0.19565487 -0.0929323 -0.14218037 -0.09176178 -0.05873059 0.0072908257
라는 -0.09122697 -0.1218851 -0.08399172 -0.051897973 -0.08038248 -0.07261504 -0.10603297 -0.0055602742 -0.009605004 -0.117538854 -0.0713095 -0.08636792 -0.13995555 -0.09824667 -0.08853389 -0.024916692
분 0.05998178 -0.055151448 -0.114351384 -0.07660054 -0.10703717 -0.086263075 -0.11107258 0.093874864 -0.03863329 0.09927022 0.12091119 -0.08091115 -0.114484265 -0.111726016 -0.0067047756 -0.07680644
완전 -0.14143613 -0.00049659394 -0.15051083 -0.1320185 -0.1047284 -0.10700218 -0.07084033 -0.1044271 -0.13932359 -0.14312948 -0.09743715 -0.08312757 -0.101890974 -0.054173663 -0.1739925 -0.13199523
다는 -0.1113319 -0.09907607 -0.110944055 -0.13350195 -0.08819879 -0.10886939 -0.074321054 -0.08740797 -0.103971295 -0.11746007 -0.04628838 -0.070865184 -0.121542454 -0.09856458 -0.13781962 0.022842873
참 -0.13934852 -0.10361471 -0.1156539 -0.029153828 -0.11499069 -0.11949177 -0.114652194 0.08926142 -0.10577704 -0.13229482 -0.13585547 -0.09101407 -0.15007101 -0.11493243 -0.17168657 -0.004229998
많 -0.12739636 -0.12679584 -0.1303344 -0.059186995 -0.12159221 0.13811915 -0.13476123 -0.049293004 -0.0461235 -0.041204467 -0.0062820315 0.103574775 -0.14255863 -0.14524862 -0.01026085 -0.022945004
처음 -0.07769341 -0.1414609 -0.117704 -0.017877538 -0.1264583 -0.025495421 -0.12212866 -0.11299598 0.031601038 -0.02302592 -0.04715993 -0.10412443 -0.1385946 -0.14911518 -0.121228375 -0.00544353
장면 -0.10398676 -0.0329821 -0.10844559 -0.04200604 -0.07393413 -0.030099135 -0.1268125 -0.096941754 -0.09597537 -0.0823655 -0.11850536 -0.08374317 -0.075196534 -0.059328515 -0.05126462 -0.07025127
대 0.017645886 -0.069599554 -0.025538864 -0.05150271 -0.113444865 -0.08043818 0.09479819 -0.00919483 -0.09693061 -0.070321664 -0.047222134 -0.10260064 0.018365055 -0.106213376 -0.08437398 -0.08903149
아깝 0.17622957 -0.13184015 -0.11477557 0.12628333 -0.13580497 -0.11761058 -0.13186786 0.0034217637 -0.1166132 0.17045666 -0.111149594 -0.109612636 -0.13643478 -0.12838663 0.017029759 -0.04800212
다가 0.021011643 -0.15127814 -0.09887608 -0.029405925 -0.12321674 -0.10317508 -0.09612218 -0.007464477 -0.04101179 -0.09361474 -0.097698756 -0.09277191 -0.13750088 -0.13591145 0.085138485 0.11433572
으면 -0.08299585 -0.116538934 -0.12313378 0.093075015 -0.0968258 -0.09349824 -0.11750107 -0.07572041 -0.06788223 -0.092139885 -0.078045495 -0.08831816 -0.10078902 -0.119409196 -0.10696765 -0.09439747
지금 -0.061749466 -0.019893892 0.0018939525 -0.12481471 -0.12708716 -0.112151384 -0.04579685 -0.06991474 -0.05162887 -0.08805503 -0.026127553 -0.066961445 0.18994194 0.0036904423 -0.09405358 -0.04631024
모르 -0.12055182 0.02514076 0.00935702 -0.03909147 -0.10960833 -0.118857265 -0.11057646 -0.10064094 0.027922872 -0.09559353 -0.06852449 -0.1062016 0.045371056 0.029454177 -0.13945678 0.05036064
이렇게 -0.12198024 -0.09902947 -0.10814683 -0.11636356 -0.12068743 -0.09655303 -0.11108412 -0.09648322 -0.038389094 -0.1199989 -0.100436226 -0.06230938 -0.0909115 -0.116884895 -0.092973806 -0.06906273
' -0.04563493 -0.07231395 -0.117052026 -0.054753833 0.008852421 0.062312752 0.03611794 -0.10246147 -0.04014615 -0.05309394 -0.029981993 -0.11746713 0.025450123 -0.06070333 -0.049166158 0.05110144
편 -0.025230663 -0.037967827 -0.109098755 -0.0670561 0.1369147 0.033640664 -0.12807703 -0.10231491 -0.07841377 -0.019907927 -0.099949196 -0.12261592 -0.12423056 -0.1319773 -0.08492122 -0.10166262
일 -0.021504749 -0.12279812 -0.05304232 -0.09247781 -0.111283354 -0.008130576 0.010948924 -0.05161048 -0.106512524 -0.053713225 -0.0797373 -0.105808206 -0.06436989 0.05899942 -0.07775183 0.007332836
돈 0.10714445 -0.12683123 -0.11502186 0.21127035 -0.13381441 -0.11862242 -0.120093994 0.11932157 -0.011151565 0.115070686 -0.10231429 -0.11045536 -0.13445458 -0.12752895 -0.02865754 -0.043365546
이게 -0.023106158 -0.08837121 0.063255586 -0.09553129 -0.13222882 -0.12579565 0.0048789545 0.13966241 -0.08672078 0.013767386 0.018336784 -0.108901426 -0.15859039 0.006122514 -0.012542199 -0.0787169
성 0.047028475 -0.1114481 -0.106067024 -0.10663173 -0.10163815 -0.11187343 -0.06683291 -0.06868597 -0.1293337 -0.105532 -0.085023694 -0.0987041 -0.1416504 -0.12160351 -0.081840046 0.009494074
느낌 -0.11785517 -0.12642084 -0.110162936 -0.056638945 -0.09563478 -0.10995785 -0.11810439 -0.023733832 -0.08014163 -0.11146369 -0.11665999 -0.109189436 -0.14644568 -0.12980154 -0.048579164 -0.10042892
시 -0.13214944 -0.061290856 -0.045692235 -0.12773824 0.01699068 -0.106470324 -0.0017093443 -0.09799508 -0.08677827 -0.081972905 -0.090107895 -0.073261805 -0.013455603 -0.012336371 -0.14190947 -0.09942405
이야기 -0.12245023 -0.13085699 0.079149544 -0.06115445 -0.086147554 -0.10192962 -0.12444295 -0.09186313 -0.07959095 -0.069613665 -0.087270424 0.0011835055 -0.15635662 -0.097412504 -0.12682912 -0.11620369
최악 0.16375968 -0.125967 -0.1057069 0.22053142 -0.122617826 -0.09422379 -0.09553887 -0.017259223 0.20604762 0.23671797 0.23436074 -0.10988979 -0.14654933 -0.11347768 0.23731636 0.22544862
된 -0.12104753 0.041639186 0.023213377 -0.10384737 -0.12693626 -0.12121683 -0.04958529 -0.039912738 -0.10972931 -0.023843115 -0.08234697 0.039018605 -0.03773208 -0.08775827 -0.14049338 -0.061915793
봐도 -0.13714778 -0.118424 -0.094298355 -0.12413493 0.019824022 0.17112109 0.1254272 -0.10979352 -0.11479966 -0.12686709 -0.034529828 -0.08822715 -0.125086 -0.13046004 -0.16070063 -0.099224865
님 -0.04983358 0.014821696 -0.037103914 -0.10899496 -0.09298414 -0.082531944 -0.1045714 -0.0753663 -0.09695828 -0.12031146 -0.09234051 0.15691626 -0.1034442 0.10084113 -0.16041683 -0.110539526
어서 -0.073963925 -0.11936014 -0.1275178 -0.110080354 -0.113579035 -0.12419108 -0.11879231 0.00938355 -0.07473194 -0.08617906 -0.042237185 -0.10217653 -0.12734437 -0.117224954 -0.11974761 -0.064153835
애 -0.09114458 -0.08999518 -0.08538276 -0.14761126 -0.04752835 -0.086725235 -0.014791752 -0.11898695 -0.11037622 -0.085142516 -0.020893589 -0.08653905 -0.087487206 -0.050833978 -0.1741821 0.12991895
전 -0.12782265 0.0025160194 -0.086455666 -0.114468835 -0.07111867 -0.09104907 -0.024209246 -0.045230076 -0.10993176 -0.112094805 -0.028536323 -0.04123577 -0.06517769 -0.08250623 -0.1564406 -0.04137545
넘 -0.13580005 -0.11426649 0.06078506 -0.09953144 -0.12659487 -0.104701534 -0.12657432 -0.09784617 -0.05705811 -0.100082226 -0.07253385 0.1246375 -0.15088378 -0.1393459 -0.16607387 -0.08927024
ㅠㅠ -0.12101235 0.18904647 -0.039900575 -0.13271415 -0.059000038 0.011122599 0.005136308 -0.11834993 -0.12199752 -0.12795356 -0.13096288 -0.11331429 -0.14882658 -0.122900486 -0.1454644 -0.09713108
인데 -0.032148108 -0.11110054 -0.08153692 -0.008639276 -0.12576449 -0.11820906 0.06395615 0.019220196 -0.033844896 0.015704796 0.0034549672 -0.07303403 -0.14190151 -0.12234113 -0.09825506 -0.096573055
다고 -0.14048001 -0.08440997 -0.11650475 0.05818628 0.11203536 -0.08377875 -0.1280592 -0.10539563 0.17892149 -0.14005002 0.08311617 -0.09630261 0.04989838 -0.07664966 -0.13983482 -0.017825238
이해 0.022620216 -0.024662811 -0.1353876 -0.13208458 -0.04247342 -0.027230207 -0.040475834 0.07261553 -0.13312867 -0.15196693 -0.10312991 -0.099398114 -0.077430345 0.030200137 -0.13684155 -0.11632151
자 -0.096541055 -0.06670668 0.056875482 -0.064841874 -0.12789406 -0.08160513 -0.10021061 0.048769925 0.031240944 0.10683506 0.005574587 -0.09803199 -0.049156826 -0.10624915 0.03225651 -0.11314511
별로 0.029617118 -0.12424781 -0.14487296 0.15903352 -0.097975135 -0.12230809 -0.14342375 0.015265908 -0.005901202 0.2438181 0.2118592 -0.09300234 -0.15150474 -0.11141284 0.034220178 -0.06291862
그리고 -0.11092864 -0.0010580713 0.03309924 -0.10661412 -0.109374486 0.11252647 0.036691952 -0.1059724 -0.10285067 -0.12466713 -0.0684169 -0.09357046 -0.075969346 -0.099239595 -0.16049387 -0.094247945
명작 -0.118662104 0.20809948 0.10865344 -0.12769766 0.21341017 -0.1105255 -0.11815595 -0.12690262 -0.11665621 -0.1349721 -0.101089984 0.013852586 0.13994546 -0.112380475 -0.16775294 -0.1383164
여자 -0.116677664 -0.1338059 0.040397953 -0.06176601 -0.11281578 -0.053092945 -0.06716677 -0.12653413 0.004048193 0.14165944 0.19582604 -0.09775161 0.0224282 -0.063269444 -0.12628393 -0.10106634
^^ -0.13351592 -0.13415068 0.12958106 -0.06220792 0.22275504 -0.09991816 -0.04460026 -0.08646961 -0.090434134 -0.06938949 0.14776315 -0.11594891 -0.011462482 0.10717704 -0.17351076 -0.13014066
역시 -0.13154656 -0.08810954 0.12781504 -0.11933578 -0.10052161 -0.107700825 0.05895507 -0.04695233 -0.07512958 -0.12618335 -0.11921241 -0.07550584 0.122433856 -0.10926378 -0.17487797 -0.15217227
난 -0.1308166 0.15007204 -0.11365257 -0.1180799 -0.119892865 -0.12754619 -0.11340039 -0.07304995 -0.12719804 -0.14572595 -0.11936262 -0.10478029 -0.13791817 -0.11772753 -0.1706111 -0.10703986
이상 -0.016560556 -0.13509165 -0.15156448 -0.07769744 -0.1258816 -0.123177804 -0.13102649 -0.09092847 -0.100002944 -0.04745903 -0.02079721 -0.041508555 -0.153515 -0.07310895 -0.090126224 -0.057587955
또 -0.11085322 0.048512112 0.063328385 -0.12494804 -0.08651465 -0.10127556 0.21252105 -0.09768102 -0.12100948 -0.12090051 -0.09204905 -0.09798687 -0.060714867 0.001794899 -0.15747242 -0.11467307
걸 -0.123406105 -0.11586628 -0.122166425 -0.061750956 -0.1278542 -0.10328399 -0.10287274 -0.04155479 -0.102829605 -0.06064061 0.08487089 -0.0831173 -0.11378381 -0.12623334 -0.040142115 -0.06583437
한국 -0.016903833 0.033058856 0.09917953 -0.12830672 -0.100374594 -0.12570226 0.04135564 -0.10222238 0.07319506 -0.028768547 -0.123510614 -0.107109204 -0.14665987 -0.1214883 -0.06666006 -0.10757532
는지 -0.11358706 -0.11541814 -0.13115647 -0.029522287 -0.09176017 0.05314579 -0.123758145 -0.016694007 0.14262393 -0.06770603 -0.00030962747 -0.115153894 -0.11872354 -0.09288703 -0.0569736 0.13364252
많이 -0.14702612 -0.13273132 -0.1487888 0.06508106 -0.1182577 -0.11698623 -0.112589516 -0.057745676 -0.12878913 -0.0035820967 -0.06516677 -0.10715784 -0.14053486 -0.13429524 -0.14813147 -0.08922094
에게 -0.1267004 -0.060932245 -0.10822252 0.025054194 -0.069887854 -0.062280796 -0.118190974 -0.040196307 -0.038932446 -0.10585857 -0.09939269 -0.09192754 -0.0970411 0.13955313 -0.13946155 -0.094766766
부터 -0.11381834 -0.12327921 -0.097488925 -0.03439182 -0.10845952 -0.10700125 -0.10062748 -0.11680022 -0.098669395 -0.10438589 0.0005798242 -0.104881234 -0.10958964 -0.12281738 -0.13792662 0.0023921235
만든 -0.13317119 -0.110217646 -0.089641936 -0.011069039 -0.07425686 -0.07747796 -0.09151751 0.002105717 0.02486932 -0.1378756 0.056884397 -0.040221643 -0.10378246 -0.14054295 -0.09553066 -0.13337123
주인공 -0.07675788 -0.107347436 -0.111709766 -0.0475439 -0.12965 -0.10127205 -0.109674364 -0.07327123 -0.07411458 -0.132263 -0.019858366 -0.11783206 -0.10541584 -0.12205872 -0.12305501 0.041985877
받 -0.11941579 -0.085029826 -0.09084782 -0.11555026 -0.099516585 -0.0958441 -0.042559408 -0.06704731 -0.086779654 -0.10527872 -0.03875238 -0.056164626 -0.14605132 -0.004169757 -0.12807305 -0.054795258
합니다 -0.0151912775 -0.13077793 0.057244375 -0.0049578757 -0.13004753 0.0013852476 0.051889364 -0.12793177 -0.071709305 -0.004685551 -0.05689903 0.08541366 0.017528763 -0.08826478 -0.17140454 -0.12766632
우리 -0.114289284 0.03189053 -0.1159615 -0.10136109 -0.11714917 0.20348135 -0.037617166 -0.11037134 -0.088524275 -0.11174424 -0.08030592 0.08388173 -0.069777645 -0.10307095 -0.08024836 -0.066440046
두 -0.1326984 -0.0016567619 -0.06404478 -0.12487735 -0.05650341 -0.076017745 -0.07420998 -0.11519628 -0.11937746 -0.14848731 -0.09388856 -0.09307083 -0.12256292 -0.10142078 -0.15825337 -0.06430478
살 -0.045985647 -0.13916634 0.118966475 -0.09782426 -0.12963693 0.0023915565 0.0023606555 -0.09036007 -0.10562255 -0.08156922 -0.017705271 0.09088977 -0.006075196 -0.1427414 -0.05675204 -0.051897902
!! -0.11596183 -0.1258625 -0.019519046 -0.1203615 -0.11474893 -0.10880752 0.12241854 -0.071124375 0.047870964 -0.11695754 -0.13945663 -0.073753186 -0.13392198 -0.030695016 -0.1613994 0.042666692
길 -0.020986976 -0.12605612 0.103133306 0.023346778 -0.12410679 -0.1268656 -0.101966076 -0.05602721 -0.057558637 -0.037295375 -0.0397442 -0.111727886 -0.14520936 -0.12955427 -0.058425393 -0.06198721
엔 -0.10358029 -0.13132559 0.07074299 -0.004422054 0.018836299 0.0006769841 0.040395375 -0.008053094 0.03019835 -0.055165533 -0.026444705 -0.07317688 -0.020186007 -0.12479181 -0.05812556 -0.10814235
괜찮 -0.13527158 -0.10255968 -0.040984362 -0.124599904 0.07755942 0.081321485 0.26965573 -0.11899142 -0.12002392 -0.14451118 -0.12289002 -0.08572038 0.10608628 -0.066060096 -0.17372276 -0.09215939
기억 -0.124597155 -0.12122853 -0.12504406 -0.13277061 0.091230296 0.13622999 -0.05177844 -0.099876165 -0.11993342 -0.119116016 -0.12777759 -0.09724191 -0.13607073 -0.07836677 -0.1459227 -0.10834532
연출 -0.005008169 -0.13499792 -0.08863757 -0.109734595 -0.09946268 -0.097288564 -0.09683455 -0.08128414 -0.12254036 -0.028697036 -0.09731533 -0.09251181 -0.13409358 -0.09788674 -0.106747344 0.00434963
한다 -0.012381736 -0.008096652 -0.047670376 0.05151326 -0.11316403 -0.06437881 -0.12309233 -0.023372112 -0.14279594 -0.14453319 -0.03422806 0.021312976 -0.08419735 -0.1352505 -0.07216688 -0.12937368
때문 -0.035325263 -0.10827404 -0.076100975 -0.07087081 -0.010375271 -0.06342721 -0.11792339 -0.11290424 -0.0010170774 -0.027168142 -0.12230074 0.11429232 -0.13647653 -0.074555114 -0.14646617 -0.025141647
이나 -0.1318131 -0.121814735 -0.058616146 -0.13101588 -0.10563556 -0.10140125 -0.10179563 -0.08515227 0.18740709 -0.026200444 0.033274893 -0.09008204 -0.11847148 -0.10493233 -0.08046358 -0.107464544
ㅎㅎ 0.04304161 -0.040008537 -0.16662756 -0.0854867 0.19127278 -0.1305498 -0.12730668 -0.05026481 -0.13421366 -0.06401558 -0.03717369 0.22435437 -0.15733197 0.13271637 -0.023588868 0.026510043
요 -0.12830767 -0.09666881 0.0054292856 -0.1339162 0.14979912 -0.044245094 -0.09020555 -0.104288414 -0.12889367 -0.12650347 -0.11200751 -0.09477059 -0.033643175 -0.032279022 -0.15852152 -0.13170137
저 -0.11165341 -0.098023914 -0.10393758 -0.05220683 -0.11207144 -0.018642215 -0.11995364 0.011182624 -0.10798413 -0.11008857 -0.038823415 0.034244113 -0.13705637 0.08907021 -0.02319174 -0.036977727
재 0.068213776 0.09017237 -0.102530986 -0.12821655 -0.028050628 0.17672202 -0.09013434 -0.1255216 -0.13131814 -0.11799887 -0.13548818 -0.11144354 -0.016158128 -0.1061301 -0.17853598 -0.13903236
꼭 0.03051544 0.029853527 0.031032873 -0.0551082 -0.059415177 -0.06438107 -0.08004699 -0.097506136 -0.03379639 -0.11605147 -0.10936852 -0.089627706 0.30739716 -0.10177963 -0.13982213 -0.11967958
랑 -0.12442523 -0.12668079 -0.09192322 -0.1172925 -0.11423519 -0.043846663 -0.085914046 -0.111807235 -0.097036235 -0.09835837 -0.031978846 -0.042819638 -0.14695258 -0.107059285 -0.12443389 -0.07972812
며 -0.109533526 -0.046549186 -0.028437087 -0.09706302 -0.09267576 -0.035583355 -0.08224275 -0.08376543 -0.063496135 -0.071644455 -0.07898037 -0.037728574 0.04201307 -0.067102686 -0.12526667 -0.06874617
현실 -0.06784104 0.14328526 0.040907197 -0.055285785 0.018486641 -0.12891419 0.15164714 -0.06414036 -0.01120173 -0.0132046435 -0.05486591 -0.10171287 -0.1528881 0.012662436 -0.044847578 0.009867545
긴 0.011420742 -0.13655132 -0.106797025 -0.01096867 -0.11215763 -0.082057744 -0.079660684 0.09541539 -0.07699366 0.05586614 0.07859938 -0.09757668 -0.151241 -0.12171849 -0.014312151 -0.13425665
ㅡㅡ -0.08190737 -0.12970051 -0.12100718 0.15746737 -0.1360158 -0.06113515 -0.11939933 -0.116857 0.036459 -0.097755454 0.15150452 -0.10032918 -0.13598767 -0.13484794 0.11998676 0.09419746
무슨 -0.042536132 -0.13184711 -0.116915435 -0.04827324 -0.12871604 -0.10978473 -0.009185515 -0.11805993 -0.06246605 0.034077756 -0.06099055 -0.1110873 -0.13914849 -0.14077963 0.18818392 0.15523629
내내 -0.114088155 -0.11308311 -0.09539029 -0.1118635 -0.0779212 -0.05590547 -0.115691796 -0.058367174 -0.08391564 -0.11187681 0.005952349 -0.09602562 -0.13628858 -0.106645614 -0.1220978 -0.086891495
결말 -0.13055743 -0.14251845 -0.12003854 -0.115987465 -0.13854411 -0.12385324 -0.13211857 -0.04660896 -0.045267846 -0.022110729 0.0023041293 -0.08840991 -0.08498989 -0.11458304 -0.01857707 -0.07070292
죽 -0.014443506 -0.09287222 -0.008147757 0.040170833 -0.09937725 -0.014276953 0.03829389 -0.06966414 -0.11724293 0.024456453 -0.094607644 -0.104354486 -0.097270705 -0.115077175 -0.12363447 -0.05933043
남자 -0.12338864 0.051972046 -0.099661976 -0.12659153 -0.12076004 -0.009022994 -0.06222535 -0.047516067 -0.110543296 -0.111107826 -0.09418641 -0.07625202 -0.04293929 -0.117037944 -0.14932933 -0.118893184
세요 -0.09104702 -0.083747804 -0.11108025 -0.12377473 -0.10322084 -0.052810624 -0.09897464 -0.09577446 -0.1274245 0.102579705 -0.118714005 -0.057790976 -0.03401895 0.08496834 -0.13642606 -0.12748325
전개 -0.11129874 -0.12645015 -0.079163894 -0.057401225 -0.11901024 -0.08897566 -0.122918166 -0.09971837 0.2017267 -0.11828575 0.13265048 -0.10230867 -0.116872266 -0.11634723 -0.11006635 -0.07014724
마음 -0.123120844 -0.07855952 -0.12270263 -0.12501563 -0.10685348 -0.116294295 0.20916608 -0.123549834 -0.04342896 0.083872 -0.049780507 0.10585531 0.16708249 0.11387999 -0.13623877 0.09966188
소재 -0.034939732 -0.12322436 -0.12852569 0.180768 -0.119293116 -0.10296357 -0.050592273 -0.10057215 -0.0696332 0.10421284 -0.07070282 -0.10492109 -0.029394407 -0.11446947 -0.011928 -0.09959278
속 -0.10504724 -0.115420476 -0.07729992 -0.04343267 -0.08342298 0.044669718 -0.11833716 -0.04389518 -0.026358746 -0.022927037 0.031473964 -0.093757614 -0.03857464 -0.122923635 -0.03291144 -0.117600255
공포 -0.10855124 -0.13307916 -0.04150158 0.12124778 -0.11856933 -0.047310196 -0.020716012 0.08181792 -0.10588272 -0.082652695 0.06132461 -0.08214982 -0.1452848 -0.12788373 -0.05367362 -0.06371976
아서 -0.036257938 -0.11074558 -0.09749543 -0.058100976 -0.05445365 -0.08901374 -0.086450696 -0.04619176 -0.05829804 -0.015571566 -0.020117795 -0.1183017 -0.123415545 -0.07419268 -0.071327455 -0.0062594865
다른 -0.08140028 -0.045846526 -0.08750809 -0.0823549 -0.11075992 -0.079449646 -0.112607986 -0.043728236 -0.076963276 -0.0067904983 -0.021077652 -0.0888781 0.064557426 -0.093627214 -0.08350078 -0.0709226
씨 -0.11654348 -0.10978583 -0.10320785 -0.116864204 -0.116552524 -0.100245476 -0.09159602 -0.10611641 -0.0518091 -0.11880652 -0.11469487 -0.062267922 -0.114280924 -0.118569195 -0.08609283 0.00052435143
인생 -0.03635862 -0.061796613 0.10025288 -0.09536812 0.22140515 -0.093395375 -0.023055047 -0.07784205 -0.127212 -0.11694606 -0.09958205 -0.12518296 -0.11021544 -0.0040144916 -0.15581036 -0.12285044
~~ -0.08643322 0.021704733 -0.09498618 -0.13436392 -0.12307477 0.00718963 0.14294289 -0.08594843 -0.080663554 -0.08222028 -0.06137312 0.0023482845 -0.13714907 -0.1294092 -0.1684263 -0.10161662
짜증 0.20931955 -0.11913266 -0.10953279 0.13661999 -0.12715618 -0.109497294 -0.003320503 -0.012387253 -0.083300054 -0.025269536 -0.051187318 -0.10239088 -0.14029704 -0.14065139 0.17638606 0.21755676
짱 -0.13800223 -0.13684611 0.22612213 -0.15566862 0.039807815 0.11092057 -0.12648 0.0073176976 -0.07892162 -0.14628115 -0.07140657 -0.1110471 0.08380318 0.046001792 -0.1761907 -0.13540858
뿐 -0.086601384 0.014981043 0.14352669 0.046160214 -0.051580217 -0.026780637 -0.123512045 0.18285404 0.061007887 -0.0904705 -0.03743341 -0.111584716 -0.057060454 -0.1104226 -0.09126311 0.14688817
은데 -0.13794827 -0.001840193 -0.0763173 -0.040680923 0.022111287 -0.08863478 -0.109477736 -0.0036224823 -0.12721568 -0.13742077 -0.106709756 -0.028681174 -0.12253008 0.030797841 -0.17256673 -0.12332633
별 -0.10198577 -0.13255465 -0.11468876 0.048581064 -0.0196253 -0.10530214 -0.11993634 -0.06962751 -0.09899188 -0.111354224 0.07467344 -0.0289521 -0.12683572 -0.12741268 0.03215163 -0.07265872
아요 -0.07447725 -0.120220855 0.16934122 -0.104453996 -0.114495605 0.0069318614 0.013975516 -0.017677767 -0.09376758 -0.06600333 -0.07269895 -0.10115134 -0.13055813 -0.009833302 -0.088655725 -0.04632437
유치 -0.08053412 -0.1293187 -0.12286629 0.03857821 -0.12713313 -0.12951264 -0.1302241 0.09054184 -0.059771206 0.12761681 0.238042 0.102450594 -0.14239122 -0.12911265 -0.0053356388 0.13333389
가장 -0.082623005 -0.040249623 -0.025534038 -0.114955485 -0.009283664 -0.081825554 -0.08699094 -0.09540764 -0.09412731 -0.10690534 -0.100441314 0.08522088 -0.08989673 -0.12223605 -0.14686412 -0.09541849
필요 -0.124498114 -0.11787599 -0.116788775 0.012734616 -0.11047891 -0.12576212 0.19497727 -0.10063267 -0.1261105 0.10428876 -0.018764514 -0.10414435 -0.15235299 0.3510525 -0.13591126 0.20208181
음악 -0.085478604 -0.08138241 0.10660241 -0.04116285 0.09216758 0.06591148 -0.029372966 -0.1037362 -0.09958382 -0.12824954 -0.12148405 -0.110041864 0.04209172 -0.14030875 -0.18080196 -0.005555668
) -0.11619726 0.051896792 0.07796924 -0.056706376 -0.12340808 -0.03673765 -0.077589385 -0.100970976 -0.09192457 -0.05733598 -0.033151038 -0.038191404 -0.055858284 -0.036453124 -0.11324507 -0.05580269
일본 -0.09816138 -0.09552166 -0.12911542 -0.12017001 -0.09639032 -0.12397184 -0.09182632 -0.08167037 0.012335863 0.055700384 0.13695116 -0.028630534 -0.06829582 -0.062418602 -0.12313193 -0.07318532
낮 0.06655129 -0.10680492 -0.0536151 -0.09730039 0.019140255 0.045322962 0.11166184 0.1214189 -0.03801723 -0.07689063 -0.086813316 0.028999519 0.40562618 -0.10473743 -0.13172358 -0.080326915
아이 -0.08955042 -0.10573665 -0.016420921 -0.004283053 -0.13262494 -0.1121636 -0.02830351 -0.05006084 -0.040799603 -0.1023771 -0.020983463 0.060479738 -0.07330961 0.010558313 -0.053188544 -0.013914454
;; -0.12971154 -0.077507265 -0.0064623784 -0.12840171 -0.12951133 -0.12488504 -0.08456324 0.092197955 0.09969214 -0.06316616 0.14421389 -0.1061399 -0.15431054 -0.13510557 -0.0049448097 -0.12025057
오 -0.02054837 -0.08901207 -0.14531364 -0.05191205 -0.08740653 -0.10978875 0.011214472 -0.066890895 -0.11695937 -0.11667865 -0.09895474 0.054850057 -0.00531787 -0.052517015 -0.15682322 -0.039836694
반전 -0.08079382 -0.039531846 -0.10094899 -0.118833825 0.039776035 -0.10294137 -0.1229592 -0.102757625 -0.09103407 -0.1016674 -0.05758951 -0.079551235 -0.06400751 -0.04470172 -0.14639302 -0.09553057
수준 -0.094046734 -0.12391551 0.040044554 0.26172405 -0.12204037 -0.10973208 0.118763775 -0.09276317 0.11747612 -0.03643944 0.19177362 -0.080440596 -0.07662705 -0.12386495 -0.026143977 -0.07501623
다니 -0.028954253 -0.101839006 -0.14138255 -0.12873471 -0.09174922 -0.1045434 -0.120762676 -0.006305498 0.019993773 -0.07958459 -0.02293644 0.113138475 -0.019355278 -0.12377864 -0.06733548 -0.021872995
웃 -0.04884769 -0.037780188 0.075813204 -0.08259986 -0.14170432 0.020935237 0.035855968 0.001951574 -0.050244384 -0.13451132 -0.030326555 0.039752655 -0.05893647 -0.11213964 -0.16387048 -0.09545159
매력 0.084411815 -0.094790734 -0.12985694 0.028591905 -0.1277873 0.17852604 0.20962174 -0.121991456 -0.14199048 -0.091467865 -0.12990355 0.09366847 -0.114467405 -0.13003136 -0.066077136 -0.0653676
맞 -0.104057714 -0.11419122 0.047433563 0.0055811466 -0.10362279 -0.14464533 -0.10018978 0.17254896 0.08351666 -0.110434465 -0.013457447 -0.07959449 -0.13622944 -0.115581594 -0.038808372 -0.07310806
인지 -0.118825644 -0.12631069 -0.13154416 0.075028725 -0.13360605 -0.11104288 -0.10300186 -0.038477417 0.01682039 -0.036879588 0.03287806 -0.083072744 -0.12548883 -0.112762585 -0.11669224 -0.06900602
가슴 -0.03327619 -0.017959883 0.1682641 -0.13561583 -0.12172768 -0.106046036 -0.091082856 -0.06874007 0.061467916 -0.0912387 -0.13390711 -0.1022224 0.1651643 0.17588176 -0.10583831 -0.11136666
없이 -0.07850855 -0.09882877 -0.023355491 -0.10877121 0.0048760893 -0.04234196 -0.010746881 0.03405713 0.01569792 -0.10353787 0.04188465 -0.09328221 -0.061926343 -0.12601432 -0.00788902 -0.09392462
원작 0.08171357 -0.06890351 -0.015746212 0.03392685 -0.08013258 -0.09917033 0.0029197612 -0.07827768 0.06438044 0.10100075 0.097155645 -0.07150459 -0.04243402 -0.0132961655 -0.05916353 -0.076363385
ㄷ 0.020600518 -0.09459883 -0.0675182 0.008417544 -0.13479342 0.15822095 -0.0055776094 0.04785226 -0.014798867 -0.039404184 -0.013209803 0.14474708 -0.15546781 -0.070382945 -0.09865071 -0.06261312
인간 -0.03928746 0.1102636 -0.075485915 -0.04108119 0.008620663 0.087906644 0.048954844 -0.07734505 -0.08467127 0.022710543 -0.05447491 -0.049694333 0.0244268 0.04459147 -0.13496463 -0.110857815
데 -0.060007676 -0.12087845 -0.11265877 -0.12180784 -0.113864586 -0.12398829 -0.101201825 -0.111336835 -0.06870845 -0.09694651 -0.09703915 -0.05449846 -0.14295985 -0.13145608 -0.10580301 -0.09655071
굿 -0.13774516 -0.07975711 0.20095316 -0.12633765 0.07900815 0.15815198 -0.09095356 -0.13673183 -0.12922542 -0.035543818 0.10544394 0.009078108 0.2156039 -0.011190278 -0.18258446 -0.14290501
ㅠ -0.09183913 0.037918113 0.004069115 -0.12946314 -0.13812746 -0.048020743 0.14106618 -0.08410053 -0.11090204 -0.07101756 -0.06507849 0.10030996 -0.04409514 -0.048236553 -0.15324101 -0.13712856
높 -0.08707734 -0.12799506 -0.12815891 0.26691028 -0.13407157 -0.1260371 -0.11933333 -0.09960462 0.021446956 0.02914809 -0.07256737 -0.08350388 -0.14573297 -0.12774177 -0.011136746 0.053639904
밋 -0.10275016 0.10840016 -0.09863577 0.09668497 -0.01609385 0.1782001 0.16490874 -0.11637039 -0.13107283 -0.12863782 -0.057661097 -0.10245019 0.031561173 0.19758186 -0.045619983 -0.1435916
( -0.009815551 0.013386991 0.086667925 -0.09522579 -0.11953957 -0.013683398 -0.09290611 -0.04440005 0.0065963683 0.100131765 -0.048987914 -0.060816307 -0.023774473 -0.1047896 -0.090883054 -0.04467064
만드 -0.13248621 -0.11884703 -0.10369933 -0.00049518445 -0.10639807 -0.103722036 -0.113935225 -0.07745475 -0.07994268 -0.018789072 0.010752014 -0.096083194 -0.13352396 -0.0867167 -0.13003163 0.054666992
급 -0.09504459 -0.026360778 -0.040944353 -0.11875914 0.023853017 -0.047651224 -0.039206076 -0.084703006 -0.01510375 0.042262696 0.086597465 -0.06089617 0.030791594 -0.114003435 -0.11084615 -0.07544101
눈물 -0.13287322 -0.021138594 -0.11969129 -0.11923006 0.040865514 0.12524776 0.06675212 -0.054353356 -0.03363992 -0.11827488 -0.10580923 -0.10368951 0.27626252 -0.032854337 -0.13550624 -0.1297173
보여 -0.1265986 -0.029544229 0.011698376 -0.11634796 -0.0144717675 0.011144978 -0.11807784 -0.10832978 -0.106930345 -0.097859636 -0.10038744 -0.05025993 -0.04222082 -0.10636023 -0.14890046 -0.09060689
준 -0.10196464 -0.059948042 -0.09515367 -0.114367746 -0.07042676 -0.11329228 -0.088297576 -0.087928295 -0.11427893 -0.06790671 -0.0733628 -0.08625736 0.036338203 0.08640778 -0.08931563 0.005048863
찍 -0.10854268 -0.07600114 0.0055513326 -0.11888951 0.02085984 -0.0962535 0.04405965 0.2177966 -0.03794113 -0.10749881 -0.07121326 -0.054470714 -0.11694454 -0.0026099524 0.021180721 -0.05309188
인가 -0.07240677 -0.12282446 -0.1238941 0.033342935 -0.12055671 -0.12566839 -0.12963437 -0.06767248 0.017637724 -0.011533653 -0.012184204 -0.08490894 -0.15311615 -0.13829309 -0.04412638 -0.1001025
노 0.10466499 -0.13042961 0.06573598 0.11548197 0.20052266 -0.061853915 -0.048002634 0.19990744 -0.11613498 0.002053173 0.09907399 -0.08407353 -0.120647326 -0.14550689 0.27450585 0.06144142
을까 0.0022168544 -0.08197064 -0.120346695 -0.03520968 -0.130729 0.064061955 -0.100128904 -0.04695281 -0.07708144 -0.008299723 -0.022348674 0.003353288 -0.11920692 -0.12944087 -0.088623025 -0.02216792
용 -0.042006545 -0.0931604 0.037478037 -0.09861599 -0.028855037 -0.101858586 -0.118770555 -0.043522485 0.11669583 -0.100397386 0.09662512 -0.09888611 -0.075699456 -0.11464741 0.009411567 -0.029163523
코미디 -0.104039796 -0.12166859 -0.09494573 -0.0175568 -0.11784906 -0.07606103 -0.107065424 0.0901653 -0.07997601 -0.091074154 -0.10979446 -0.106578626 -0.13895807 -0.11693153 -0.092654146 -0.027236717
마 -0.049378455 -0.13066095 -0.08378568 0.048144527 -0.037161533 -0.08130076 -0.10501584 0.007450442 -0.06289616 -0.04403029 0.12785575 -0.02584781 -0.13481696 -0.05643202 0.026798967 -0.08274041
화 0.059539817 -0.08291731 -0.10091005 -0.0339109 -0.112320155 -0.10627854 -0.11111402 -0.052950706 0.075270444 -0.061569244 -0.07822491 -0.07665606 -0.11595978 -0.07421687 -0.009657143 0.10047318
신 -0.034924895 -0.13188206 -0.012233252 -0.11389809 -0.052535877 0.030464502 0.0926334 -0.10664928 -0.11294191 -0.12833993 -0.092943124 0.052594546 -0.014314114 0.025987701 -0.13673952 -0.076090984
모든 -0.109018356 -0.113324605 0.04253083 -0.038859267 0.017892726 -0.05427193 -0.12566307 -0.08509267 -0.073888056 -0.06679583 -0.06920587 -0.09512657 0.12529372 -0.10210553 -0.14627968 -0.06935693
쓰 0.11976037 -0.13962439 0.008047619 0.04391148 -0.11905815 -0.04089332 -0.115378946 -0.07724291 -0.09347767 -0.037402064 -0.013827174 -0.08936052 -0.042389017 -0.12613389 0.060386308 -0.08229563
여 -0.13770209 -0.121897824 -0.04484253 -0.0485912 -0.036441058 0.012553452 -0.107036866 -0.0070127067 -0.094578154 -0.00935946 -0.016678454 -0.088740304 -0.1342934 -0.11891836 -0.13234994 -0.035915747
5 -0.10134131 0.036157172 0.010074867 -0.047667533 -0.12848318 0.042746224 0.005266202 -0.097405724 -0.08732365 -0.11563019 -0.078437105 -0.050176345 -0.0076789064 -0.13074763 -0.02628266 -0.065124705
아직 -0.11606115 -0.08532262 0.0010466038 -0.061395984 0.010891627 0.12634037 0.07685414 -0.055439122 -0.10161329 -0.10808008 -0.1123424 0.08283272 -0.1102189 -0.13105899 -0.13430412 -0.106139295
추천 -0.13040264 0.00785403 -0.05596504 -0.12945414 0.20391725 -0.10918828 0.103422776 -0.13247947 -0.109922096 -0.12038841 -0.12658878 -0.09321182 -0.09420362 -0.00757493 -0.17189163 -0.12427705
처럼 -0.095328756 -0.09968881 -0.033787236 -0.06899244 -0.033031642 -0.058609676 -0.05921045 -0.10974471 -0.102608874 -0.109737046 -0.057241406 -0.06343735 -0.09368384 -0.11323957 -0.11245845 -0.06833517
눈 -0.03966103 -0.12591314 -0.099067755 0.0147266155 -0.1395242 -0.12249474 -0.11043245 -0.08902207 0.07307277 -0.087433524 0.040556334 0.04941416 -0.13315827 -0.12196702 -0.08514211 0.018200265
아닌 -0.023567436 -0.11915582 -0.10344174 0.09638132 -0.116015635 -0.12648433 -0.104698226 0.0575788 -0.066579945 -0.0017165771 -0.0515477 -0.10757807 -0.14897 -0.13767341 -0.023216208 0.05844963
자체 -0.1366637 -0.0981574 -0.076608606 -0.10551292 -0.084372945 -0.066161856 0.0139835905 -0.10716109 -0.10938328 0.0055203065 -0.07087648 -0.031182727 -0.08273991 -0.11027571 -0.11100666 -0.08690579
울 -0.0187594 0.068194054 -0.114300534 -0.120995685 -0.09016076 0.13465934 0.24129908 -0.08187901 -0.12785836 -0.09633675 -0.10647823 -0.043980695 0.118260495 -0.11233874 -0.13571368 -0.106190346
몰입 -0.11685868 -0.10752399 -0.11241044 -0.11126877 0.035784796 0.020410657 -0.06818988 -0.08835377 -0.1047465 -0.097872384 -0.09599598 -0.09687402 0.12465291 -0.0935291 -0.14486031 -0.116063796
4 0.048895095 -0.101415634 -0.1294322 -0.08132772 -0.13442625 -0.11926054 -0.03625221 0.12109118 -0.040099338 0.07928497 -0.08712089 -0.02862335 -0.1517516 -0.12174951 -0.074211106 -0.12693882
대박 -0.06368207 -0.11236896 0.056374654 -0.14642888 -0.1265408 -0.12284848 -0.13242431 -0.1305101 -0.00895075 -0.14113712 -0.06979915 0.18940711 0.121498615 0.23752967 -0.06857782 0.00069794327
몇 -0.11497906 -0.016205002 -0.00058734824 -0.111773685 -0.081558645 0.014191979 0.03136464 -0.082762256 -0.100270905 -0.10458751 -0.073119104 -0.09135095 0.057488114 -0.11580183 -0.14517112 -0.098389156
스럽 -0.11472789 -0.12483868 -0.11372128 -0.10822847 -0.08792628 -0.12556747 -0.11510935 -0.09111323 -0.07608233 -0.11630224 -0.0956468 -0.07903409 -0.12688541 -0.11778176 -0.13113695 -0.11472809
실망 -0.11981201 -0.13138287 -0.12050631 0.013795868 -0.12587757 -0.11309603 -0.14029697 -0.00046985215 0.2175632 0.11347 0.10056984 -0.08723337 -0.13356265 -0.11834966 0.17825343 0.15072855
는다 -0.07650556 -0.11599262 -0.09589726 -0.076716855 -0.10564776 -0.075684085 -0.091042705 -0.118761934 -0.12565362 -0.12471867 -0.09325605 -0.09161834 -0.12752976 -0.10754349 -0.13780503 0.045774765
대한 -0.06509822 -0.056356974 -0.1029644 -0.10429299 0.04912216 -0.04704289 0.20611264 -0.075047754 -0.08511546 -0.105916165 -0.08193655 -0.0063833687 0.00804652 0.01624609 -0.124103546 -0.066759214
죠 -0.0012893592 0.12372659 0.057590183 -0.042992473 -0.10155687 -0.12135001 0.16622509 0.02490848 -0.0696067 -0.007960139 -0.0068063173 0.1015379 -0.04676575 -0.1222486 -0.07872166 -0.12042985
란 -0.041843787 -0.019761173 -0.0934214 -0.09823618 0.105867945 -0.09762338 -0.024672916 -0.074121155 -0.10627551 -0.12236538 -0.10057421 -0.045542948 -0.1288139 -0.12788141 -0.12782708 -0.07055956
그런 -0.06202085 -0.12412913 -0.12429119 -0.06774538 -0.13654467 -0.046184994 -0.12339404 -0.030943505 -0.066655606 -0.06978774 0.016880415 -0.07422772 -0.1399605 -0.0927174 0.019829262 -0.022578087
솔직히 0.11541828 -0.11920566 -0.11026231 0.0055604153 -0.12594572 -0.09876673 -0.009557228 -0.046892256 0.09845526 -0.080703445 -0.017162772 -0.07336065 -0.13588098 -0.062049445 -0.06583213 0.030449094
캐릭터 -0.075459 -0.06973843 -0.10900672 -0.051187854 -0.09938573 -0.100425735 -0.11130375 -0.050208937 -0.09707782 -0.05062216 -0.03351039 -0.09976171 -0.12827565 -0.10500683 -0.11526761 -0.048666876
ㅎ -0.048053645 -0.118203446 0.14070043 -0.025812393 0.1656497 -0.1327907 -0.12245238 -0.115506835 -0.13264295 -0.041314207 0.020674113 0.18040708 -0.15733713 -0.13824604 -0.03565853 -0.052174184
모두 -0.10039619 -0.1269252 0.09524777 -0.09294336 -0.053539705 0.14753193 0.03849899 -0.089111306 -0.063023545 -0.10191709 -0.10877127 0.030181773 -0.08640641 -0.12823434 -0.13503624 -0.09514504
아주 -0.14106375 -0.08388748 0.06591496 -0.13441859 -0.10367988 -0.083866276 0.052617505 -0.11802156 -0.12040846 -0.11981638 -0.039312728 0.03915087 -0.05707048 0.043340694 -0.17154749 -0.12565069
- -0.07870818 -0.08376781 -0.0027233465 -0.042649105 -0.05757194 -0.07440705 -0.018522913 -0.09788386 -0.0010081489 -0.006932823 -0.06838555 -0.058202762 -0.104720086 -0.023219934 0.017695121 -0.13421147
가족 0.002721586 -0.064175434 -0.02663916 -0.13096681 0.17837565 -0.10095361 -0.08654081 -0.098412834 -0.10496362 -0.14015225 -0.011831079 -0.071150765 -0.08230362 -0.114961796 -0.17374557 -0.12944347
여운 -0.12174115 -0.0045302375 0.027366253 -0.10220323 0.14700215 0.27014 0.32123327 -0.09828847 -0.12986961 -0.11364168 -0.055980705 0.008463783 0.0027745483 0.09584952 -0.14749433 -0.08949337
건지 -0.11895419 -0.11270764 -0.11007927 0.07222239 -0.11107526 -0.09931192 -0.09833854 0.16990738 -0.10552148 -0.018596975 -0.084675595 -0.08367289 -0.123978175 -0.020534478 -0.018670458 0.04936894
전혀 -0.09402703 -0.084729746 0.08827173 -0.017014079 0.066610314 -0.04666397 0.05829436 0.013136801 0.17739609 0.16197734 0.17883493 0.07047031 -0.010911994 -0.00056279125 0.0011657393 -0.07703189
연기력 -0.11086702 -0.08973897 -0.10309529 -0.04434643 0.017822152 -0.08590747 -0.053760998 -0.059669476 -0.075041726 -0.09979509 -0.06196083 -0.106277786 -0.08800932 -0.08923853 -0.0885641 0.06295508
나라 -0.004170983 0.041202407 -0.044422172 -0.112741075 -0.065893345 -0.07065986 -0.027204225 -0.1135594 -0.09156535 -0.06936334 -0.10189977 0.037094854 -0.062910795 -0.071065426 -0.07577938 0.15521975
후 -0.14118361 -0.13152651 -0.034395654 -0.068543464 -0.13284077 -0.07206883 -0.029564923 -0.100697316 -0.13777636 0.030143874 0.068830885 -0.1042587 -0.038239956 -0.14804024 -0.054575033 -0.1221271
될 -0.07903059 -0.11434051 -0.098968014 0.0064354483 -0.11728376 0.01304274 -0.11149067 0.09031776 -0.090444766 -0.103549846 -0.08424051 -0.089191236 -0.12647828 -0.11354967 -0.09140451 -0.0016695978
다면 -0.05736069 -0.102096595 -0.108628 -0.0974284 -0.0661912 -0.09193159 -0.12895717 -0.048199914 -0.07180129 -0.063793555 -0.066318154 -0.0998592 -0.07536035 -0.082394026 0.037870288 -0.066831656
뭔가 -0.049268983 0.024427546 -0.14052574 -0.059209343 -0.1477918 -0.12823993 -0.121447764 -0.066076204 -0.06164758 -0.12457086 -0.030578537 0.00085227564 -0.051138405 0.0038199513 -0.014671103 0.024518613
그래도 -0.12205619 -0.13150938 -0.1112881 0.0046503916 -0.00021542827 -0.012406967 0.113105014 -0.0060876114 -0.04219936 -0.03720887 -0.07114959 0.07438786 0.059569202 0.019587679 -0.029137308 0.014828263
; -0.07343506 -0.08087113 0.07976464 0.08252895 -0.032165874 0.016940467 0.017408952 0.053797174 0.0891948 -0.10465831 0.14213267 -0.055471465 -0.040175326 -0.07575098 -0.12156175 -0.022163955
시리즈 -0.08665888 0.027557718 -0.12542458 -0.08861483 -0.11688046 0.0884573 -0.13377203 -0.041122627 -0.07410173 -0.07292579 -0.03726125 -0.085732386 -0.07913878 0.050609846 -0.06216155 -0.025625926
근데 -0.09642243 -0.06832475 0.10793284 -0.09041068 -0.085689224 -0.106126964 -0.08192108 0.017375732 -0.07002355 -0.09242289 -0.07817123 -0.10102974 -0.054070953 0.17277633 -0.014185963 -0.05224589
작 0.06191057 -0.12609895 -0.124454 -0.086113855 -0.118400075 -0.08062597 0.07270613 -0.09234093 -0.07438552 -0.10806878 -0.11180931 0.0091041215 -0.1342885 -0.12681715 -0.0027151497 -0.06801802
표현 -0.08952629 -0.10012409 0.09427459 -0.09197261 0.1709354 -0.10378827 0.091229185 -0.08824489 -0.030393068 -0.105062 -0.051043496 -0.024172522 -0.13175738 -2.8984343e-05 -0.12314769 -0.07063318
모습 0.031009361 -0.09190808 -0.042315092 -0.06596405 -0.009321674 -0.08921939 -0.070842534 -0.037274074 -0.08632314 0.057737216 -0.07630484 -0.08731283 -0.101297356 0.22853257 -0.08167407 0.030038234
공감 -0.11801669 0.0507212 0.046501327 -0.12995963 0.012765762 -0.07889676 -0.0035047154 -0.101789095 -0.09398999 -0.111614235 -0.10683411 -0.037237115 -0.039749205 -0.021093698 -0.15958442 -0.08017226
계속 -0.11904861 0.0017826598 0.044276718 -0.12371824 -0.082107365 -0.11118873 -0.13392162 -0.10330675 -0.09461802 -0.10513393 -0.07618943 -0.048256442 -0.1215351 0.16872385 -0.14606743 -0.104812644
먹 -0.10204741 -0.105852686 -0.09771048 0.027678989 -0.11704082 -0.09436498 -0.09656005 -0.080427155 -0.07974441 -0.091959104 -0.092381746 -0.090189435 -0.1456391 -0.13183422 -0.06418538 0.11427117
"" -0.058043074 -0.054783586 -0.08679791 0.014057635 0.021223912 -0.049969018 -0.07852407 -0.039121762 0.02850285 -0.09717997 -0.0854176 -0.049154323 -0.062948406 -0.0799628 -0.08585615 0.09465994
제목 0.022884745 -0.13973111 -0.13079652 0.026866665 -0.13670553 -0.12490387 -0.088104345 0.033285383 -0.10711893 0.050910592 -0.1217782 -0.07002507 -0.057354916 0.036275543 -0.14168529 0.09648672
7 -0.05387708 -0.15065983 0.111066766 -0.09304829 0.05860699 -0.10410984 -0.122958094 -0.09544679 0.009238204 -0.073104255 0.022112656 0.1668911 -0.13121991 0.100253396 -0.16842948 0.037611686
이랑 -0.020406716 -0.026994437 -0.08988686 -0.0993642 -0.017112836 -0.07378462 -0.08785025 -0.091147035 -0.077490844 -0.070852414 -0.084987 -0.05084018 -0.10699586 -0.0846931 -0.10074712 0.0016474492
극장 -0.03910809 -0.10709777 -0.10318034 0.054912206 -0.09402424 -0.033147115 -0.102956645 -0.059932746 0.047734465 -0.03184479 -0.0129372 -0.09504288 -0.15352207 -0.13509522 -0.08918596 -0.004246791
치 -0.070910804 -0.120247886 -0.09893909 0.07350731 -0.10058165 -0.11244221 -0.096062295 0.11244708 -0.06882085 0.091335535 -0.098431535 0.026606798 -0.12764825 -0.09039359 -0.043276034 -0.040571593
비 -0.10812474 0.003681975 -0.057240885 -0.057385 0.050473884 -0.12680516 -0.037520334 0.009330711 -0.03421525 0.11391819 -0.05599574 -0.08804437 -0.11634458 -0.019228427 0.08655382 0.042198572
이걸 -0.10590704 -0.12147438 -0.11334151 0.121805586 -0.11485892 -0.107015856 -0.1041748 -0.016854845 0.13775744 0.013525129 -0.065145105 -0.084453925 -0.12440138 -0.12513256 0.01604087 -0.052754126
진 -0.11419821 0.044760525 -0.09107124 -0.08505411 -0.027699351 0.10523203 -0.05509862 -0.050805677 0.022815028 -0.025255786 -0.07886519 -0.11417509 -0.03939507 -0.06985058 -0.091745876 0.17838949
바 -0.035398353 -0.11410186 -0.01325103 -0.111756444 -0.04222198 -0.0966382 -0.09879436 -0.047130994 0.19000845 0.117170714 -0.06691511 -0.080370665 -0.119238496 -0.13355148 0.061505705 0.14342687
대사 -0.10614498 -0.11712075 -0.08431163 -0.117928475 -0.10115199 -0.07574439 -0.08855644 0.02426101 -0.10710365 -0.09190742 -0.060831722 -0.08355657 -0.092656605 -0.103947006 -0.11788101 -0.07533021
부분 -0.082199186 -0.122604914 -0.1043522 -0.08225728 -0.09069102 -0.10459359 -0.10926403 0.028265968 -0.039370585 0.012538181 -0.059006244 -0.06788576 -0.14264958 -0.12207043 -0.08830305 -0.06869039
그렇 -0.03946177 -0.12748635 -0.12505841 0.14482242 -0.11028914 -0.0955183 -0.11465827 0.12268661 9.0669666e-05 -0.085327156 -0.058705006 -0.07491251 -0.13189517 -0.10206388 -0.056177486 -0.07352962
개봉 -0.0938428 -0.10068642 -0.11007145 -0.06588324 -0.100945786 -0.09997749 -0.09717562 -0.0108463485 -0.0039000288 0.13475469 -0.016564302 -0.051110707 -0.11918509 -0.123202324 -0.031809244 -0.06631954
0 -0.04850331 -0.12589486 -0.13130794 0.26766065 -0.122946635 -0.10886128 -0.12727748 0.10106945 -0.030476067 -0.013777199 -0.05250764 -0.12144838 -0.14307225 -0.12659606 0.04591192 -0.117033586
OO -0.020235412 -0.13644816 -0.14403814 -0.13113716 -0.063041665 -0.13821349 -0.12760626 -0.07151992 -0.11724859 0.15516579 -0.048961572 -0.122002624 -0.089477874 -0.1474072 -0.08108055 0.102104284
대단 -0.104074724 0.1638448 0.049314268 -0.14385314 -0.14460249 -0.12619346 -0.11933701 -0.10049489 -0.1494194 -0.0040750876 0.1044234 0.05441329 -0.09656361 0.1715654 -0.06732364 -0.08685817
어디 -0.00280632 -0.11095553 -0.10702525 0.0043785456 -0.1067737 -0.09992274 -0.11944883 -0.032592047 -0.04933686 -0.11055984 0.024652777 -0.047697376 0.049208496 -0.028264333 -0.0741279 -0.06731426
작가 -0.087912016 -0.09951811 -0.106113404 0.071996175 -0.12362686 -0.08995313 0.094699465 0.2273283 -0.11720451 -0.10115777 0.0257829 -0.057198692 -0.117452815 -0.13573089 -0.10998339 -0.08213204
된다 -0.1223835 -0.12705109 -0.11139402 -0.06632791 -0.12254545 -0.06858417 -0.12331243 -0.07272954 0.0032849922 -0.101325735 -0.07199313 -0.059164982 -0.13645595 -0.12494591 -0.047672164 -0.019028304
아쉽 -0.03690127 -0.13776265 -0.13992243 -0.10878445 -0.12728274 -0.13742335 0.19851881 -0.121712685 0.09220732 -0.081068896 -0.09004348 -0.09871187 0.11149413 -0.028435122 -0.093704365 -0.10073954
기분 0.0101662055 -0.117248155 -0.1337302 -0.08963914 -0.11102268 -0.091197215 -0.10943187 -0.08278229 -0.046089184 0.041342303 0.024940876 -0.09352658 -0.12256024 -0.115076855 -0.0818029 -0.0709868
제 -0.13192604 -0.08478495 -0.01855264 0.047778785 -0.062936775 -0.032774944 -0.06867023 -0.05094966 -0.107067004 -0.08806791 -0.09640635 0.028606381 -0.09215858 -0.11386362 -0.16177222 -0.12101712
진심 -0.1124654 -0.11275763 -0.10993711 -0.029339619 -0.10719615 -0.11155533 -0.110745065 -0.09866793 -0.050225664 -0.14180818 -0.0058126734 -0.08325192 -0.1719663 -0.1337846 -0.08395109 0.0023106704
타임 -0.050677214 -0.054523278 -0.099609934 -0.06739016 -0.03032851 -0.10103869 -0.077323236 -0.0655361 -0.039907947 -0.10460614 -0.09806944 -0.030012118 -0.052122615 -0.013265899 -0.052037004 -0.024897363
/ -0.0021137383 -0.13359085 -0.15591511 -0.10362354 -0.057458628 0.034510344 -0.12958637 -0.0339241 -0.03732524 -0.09465958 -0.03224679 -0.106310904 -0.15243055 -0.14125754 -0.048929464 -0.060609456
웃기 0.06789407 0.04233523 0.0057900865 -0.11828076 -0.0823689 -0.06811665 0.016844187 -0.054477014 0.035116665 -0.105947524 -0.08639076 -0.097828425 0.01453079 0.06289721 -0.10954268 -0.074858084
보이 -0.10759369 -0.09412193 -0.071018025 -0.11912751 -0.08229482 -0.034951072 -0.11095136 -0.09422073 -0.012473669 -0.13206966 -0.017402936 -0.09230361 -0.052250158 0.014326978 -0.13893265 -0.089330606
놓 0.0037517445 -0.0061262245 -0.08784946 -0.06824069 -0.08589145 -0.11674308 -0.09662866 -0.08211782 -0.11958863 -0.024004497 0.16859996 -0.08753713 -0.101690456 -0.10552833 -0.0888448 -0.06632687
해도 0.08158384 -0.12512949 -0.10285681 -0.09804519 -0.059112433 -0.10271298 -0.08898881 -0.038779836 -0.0618751 -0.09198988 -0.09326873 -0.0028102265 -0.056211416 -0.03842502 -0.097549334 0.105305806
이제 0.0434682 -0.13419022 -0.12743519 -0.018996341 0.0066488157 -0.094435565 -0.06650787 -0.032666456 -0.10805325 0.012276723 -0.07282854 -0.088511266 -0.14286909 -0.113836214 -0.12375863 0.0062918696
물 0.018907089 -0.1275329 -0.09607601 -0.09565096 -0.1140706 -0.10312527 -0.12734263 -0.057191495 0.05145922 -0.08222104 -0.06288875 -0.099433504 -0.11848397 -0.120226555 0.06333363 -0.06077986
봐야 -0.105338246 0.08054538 -0.097340666 0.047497496 0.16886301 -0.120241515 0.1577653 -0.09641999 -0.111064695 -0.12565741 -0.11040226 -0.06821212 -0.071234226 -0.026585976 -0.08776052 -0.12496838
막장 0.13247444 -0.13195838 0.061688926 -0.14833726 -0.1310212 0.008895155 0.02493381 0.21997769 0.22338873 -0.10947355 0.06299928 -0.007663878 0.06837798 -0.018205564 -0.21094544 -0.13476676
삶 -0.11589642 0.23185092 -0.047598645 -0.10806849 0.068739176 -0.0806533 -0.06902464 -0.050506685 -0.11099552 -0.098570056 -0.08319128 0.10544018 -0.04049479 -0.08740028 -0.12248804 -0.10076391
친구 0.0027698511 0.0007990995 -9.246106e-05 -0.046197813 0.016008625 -0.05299192 0.0015081039 0.005821487 -0.06265189 -0.12306841 -0.111267105 -0.034391463 -0.05259041 0.02160861 -0.14362244 0.039326534
잔잔 -0.13805293 0.105790205 0.027518535 -0.054152247 -0.05151299 -0.098796286 -0.06989712 -0.01575167 -0.02360959 -0.009826439 0.002178003 0.04144246 0.16101508 -0.13357405 -0.055542793 -0.035996493
조금 -0.06690732 -0.123372644 0.008678583 0.024303053 -0.094109945 0.07850433 0.063626476 0.023366679 0.01870504 -0.045011792 -0.028752327 -0.007010521 -0.14589097 0.14191143 0.020485949 0.012137184
씬 -0.11207739 -0.010025677 -0.05445982 0.042784274 -0.063243106 0.00941403 0.013918789 -0.075832084 -0.09346695 -0.052867744 -0.08221221 -0.0697491 -0.034873825 -0.04048983 -0.12910599 -0.004734585
딱 0.144954 -0.04360424 -0.05280538 0.16421504 0.10158741 0.07419408 -0.004598719 -0.08335387 -0.07248715 -0.13267821 -0.038244814 -0.080354005 0.04911938 0.033066224 -0.13806143 0.090309314
영상 -0.034780383 -0.07811509 -0.09544569 -0.09236054 -0.030936036 -0.047909196 -0.038564708 -0.10199069 -0.071603864 -0.0051298835 -0.11127553 -0.09078129 -0.06610754 -0.09266895 -0.14142367 -0.042822808
억지 0.084461495 -0.13142216 -0.1285608 -0.057413857 -0.12118005 -0.11377126 -0.11648171 0.03958125 0.06253408 0.16865982 -0.01217311 -0.085960306 -0.13226245 -0.12413186 0.18258211 0.05402884
찾 -0.12741658 -0.118037574 -0.08274125 -0.10504681 0.032701682 -0.08190592 -0.033872355 -0.06928762 -0.062491193 -0.107207686 -0.055537157 -0.058156457 -0.13277204 -0.10988953 -0.13375254 -0.05271656
요즘 -0.053482074 -0.11825879 0.19824405 -0.09226632 -0.104575805 -0.09495776 -0.109292135 -0.021694515 0.033260778 -0.06445696 0.03066296 0.19771114 -0.14770485 0.17156817 -0.14739437 -0.02098644
같이 -0.029748075 -0.09305933 -0.104873985 0.0040799556 0.0017509008 -0.10074044 -0.038396366 0.02252805 -0.056763202 -0.06157739 0.009472179 -0.09914849 -0.14983462 -0.08270089 -0.059343148 -0.04042678
중간 -0.0862103 -0.08908319 -0.06164217 0.069581956 -0.09552605 -0.0829114 -0.08422288 0.0058940803 0.05841689 -0.013612171 -0.06995011 -0.084928535 -0.11572999 -0.1039391 0.021635491 0.037743434
" -0.058723535 -0.025864527 -0.10056558 -0.012748844 -0.095672585 -0.046185568 -0.08343878 -0.039074536 -0.034002915 -0.09308738 -0.0822026 -0.03778215 -0.06549372 -0.08675336 -0.08321831 0.08744593
구 -0.13206159 0.01375781 -0.07951713 -0.11043988 0.017106563 -0.018108163 0.059055082 -0.027982816 -0.04925792 -0.13178691 -0.04887872 0.017749945 -0.114349335 -0.046592392 -0.07093157 -0.10310179
라도 -0.0083875405 -0.115310274 -0.1054834 -0.019146938 -0.1090747 -0.08724331 -0.1043769 -0.045677975 0.107450604 -0.0022426732 -0.08262947 -0.06603907 -0.091496795 -0.09241694 -0.09624621 0.05138752
스릴러 -0.062197126 -0.12087659 -0.10944203 -0.059504274 -0.11639149 -0.1146129 -0.10325505 -0.09130969 -0.051015306 -0.093185656 -0.11566084 -0.10844097 -0.15421078 -0.121553995 -0.092213966 -0.064622134
가지 -0.09840588 -0.10686863 -0.07408258 -0.056497928 -0.08001727 -0.081674 -0.07645199 -0.078389935 0.030125884 -0.06825578 -0.014685943 -0.06933736 -0.12988093 -0.08675507 -0.025508942 -0.060035728
8 -0.13469252 0.09812115 -0.08082905 -0.020362375 0.20579192 0.09554489 -0.11297556 -0.10090819 -0.11086583 -0.1095609 0.14891662 -0.016325546 -0.1350845 0.114854194 -0.123813994 -0.10244408
믿 -0.10693061 -0.04067349 -0.096198305 -0.10780841 0.068061516 0.051919885 -0.107301354 -0.09888409 -0.11699534 -0.14333075 -0.022370026 -0.0846526 -0.02005412 0.07089705 -0.13474022 0.016964123
싫 0.06731003 -0.00673461 -0.052815583 0.06783047 -0.085308984 -0.089486666 -0.10914024 -0.029891724 0.10497456 0.13805498 0.09125013 -0.08315029 -0.06548601 -0.047327433 -0.12411425 0.1347212
.... 0.1167616 -0.1047387 -0.14066018 0.08117657 -0.1300273 -0.13128686 -0.12938564 -0.06993178 0.014133338 -0.08386622 0.054359425 -0.0596289 -0.099161334 -0.11555815 -0.09358915 -0.13419689
나왔 -0.11920628 -0.11188321 -0.09131647 -0.1024483 -0.13178329 -0.10782975 -0.09964676 0.03144447 -0.09814662 -0.000108827066 -0.00026663317 -0.04289871 -0.114689924 -0.12763922 -0.12537532 -0.10837039
아까운 -0.07439693 -0.12663922 -0.1460242 -0.0679993 -0.12308172 -0.1343443 -0.100085124 0.019188907 0.017093845 0.2735694 -0.0933894 -0.07833039 -0.1385577 -0.12753199 -0.07265391 0.20223309
긴장감 -0.07727855 0.010344029 -0.1197681 -0.11143291 -0.05688402 -0.075693734 -0.11842905 -0.11715311 -0.08566396 -0.099722296 -0.046942744 0.03328852 -0.13670594 -0.12924723 -0.11959994 -0.011832388
점수 -0.048550025 -0.02024593 -0.06171629 0.1267877 0.07268918 -0.083219886 -0.059848927 -0.030274538 0.018233335 -0.04651018 0.015940595 -0.056736007 -0.06918922 -0.008921558 0.021375101 0.07427333
개인 -0.067700244 -0.006417996 -0.025851402 -0.09925701 -0.0999751 -0.09293135 -0.10153005 -0.10232615 0.039738573 -0.12052321 -0.08759687 -0.074819244 -0.10655167 -0.04296657 -0.08794056 -0.1086141
제대로 -0.010828147 0.05300075 -0.11837979 -0.0655624 -0.123248056 -0.100691654 0.1390717 -0.047526926 -0.08406161 -0.107177764 -0.09458797 -0.014235091 -0.006368005 0.023473905 -0.06717856 0.033655014
부족 0.045873612 -0.12669434 -0.1333292 0.19608997 -0.113790736 -0.11343725 -0.10678253 0.08842956 -0.08272681 -0.09583498 -0.0960433 -0.0743325 -0.13923383 -0.112250604 -0.14118811 -0.028930629
이유 -0.11766262 -0.11357516 -0.11310228 -0.11726661 -0.089425966 -0.106797 -0.11329957 -0.07566434 -0.091875896 -0.089687236 0.016699173 -0.089689046 -0.12879805 -0.06344951 0.09487952 0.027542809
노래 -0.0182732 -0.09213249 -0.10131482 -0.028356183 -0.058821805 -0.10542991 0.08561262 -0.12279037 -0.12510422 0.001671504 -0.13748148 -0.023199202 -0.06179117 -0.08002219 -0.0030919234 -0.14068738
만큼 -0.120973 0.037942797 -0.12796283 -0.09373953 -0.08655973 -0.09355817 0.085028805 -0.08159742 -0.039341915 -0.022466576 -0.0742431 0.056545265 0.014855715 -0.08638568 -0.08265911 -0.09081416
라면 -0.06366421 -0.02652303 -0.118461825 -0.05854469 -0.112685874 -0.08489203 -0.095806435 -0.09645206 -0.10435551 -0.10889285 -0.1088526 -0.08778647 -0.10808015 -0.015750352 -0.12143079 -0.050654966
시작 -0.124006 -0.08749731 -0.008476397 -0.13161576 -0.014064919 0.0040896134 -0.057706058 -0.1023563 -0.10198016 -0.12139593 -0.11533511 -0.046243407 -0.028281849 -0.08992242 -0.12213574 -0.122128315
구나 -0.13963836 -0.13484962 -0.12781551 0.034305003 -0.06509337 0.029077498 -0.12416928 -0.1272882 0.06449887 -0.009622655 0.07275163 -0.038056068 -0.08052654 -0.13695423 -0.0017119432 -0.1325917
잇 -0.12276246 0.047080103 -0.11957641 -0.11134655 0.07547411 0.048757996 0.044254564 0.07656594 -0.124520555 -0.06866033 0.028979963 -0.061869238 0.080282465 0.034624226 -0.1064277 -0.09223452
특히 -0.08731642 0.17633425 -0.042925008 -0.0717201 -0.10292105 -0.033379287 0.036552243 -0.08854075 -0.09990728 -0.10021021 -0.061048385 0.06797156 -0.019503605 -0.056652408 -0.08608462 -0.09745986
한테 -0.10014602 0.0063060573 -0.08776979 -0.093007475 -0.085020386 -0.060086634 -0.07653165 -0.02377866 -0.024110751 -0.09299957 -0.06839244 -0.0692702 -0.093919806 -0.047276445 -0.10305983 -0.073124975
날 -0.119534135 -0.09644895 -0.095102794 -0.021538343 -0.09046569 -0.0950361 -0.12364512 -0.034142952 -0.030879159 -0.087705076 -0.02846703 0.072993405 -0.11262525 -0.12988494 -0.08545675 -0.026719471
려고 -0.036478862 0.051006965 -0.11527449 -0.1103226 -0.1020392 -0.10362032 -0.104171306 0.014445243 -0.101269536 0.06308217 0.16123654 -0.035265774 0.007981875 -0.08762357 0.07251982 -0.0039728386
제일 -0.106269486 -0.009242042 -0.061655954 0.0058872597 -0.10242664 -0.012216838 -0.0011618659 -0.102611355 -0.11523206 -0.13929161 -0.06725659 -0.09007043 0.027985541 -0.046203814 -0.01301459 0.040523227
아름다운 -0.122859314 -0.013541884 0.1402469 -0.12480111 0.06784861 -0.07696252 0.20320447 -0.09699086 -0.114613056 -0.12833433 -0.12563439 -0.0113661 0.15300031 -0.037485797 -0.18966913 -0.12258594
시대 -0.13774164 -0.08606801 -0.078053616 -0.08367586 -0.073437 -0.06487684 -0.068581395 -0.1178227 -0.11382919 -0.09249956 0.01649521 0.006483195 -0.021639017 -0.07674609 -0.07897996 0.008104079
ㅜㅜ -0.06976145 -0.10799283 -0.12545742 -0.13445178 0.015638586 -0.05373158 -0.03460103 -0.11804578 -0.060652982 -0.098792 -0.10027135 0.11496402 -0.091973 -0.06610125 -0.17259726 -0.13143362
어떻게 -0.106823586 -0.077384174 -0.12651666 0.11498809 -0.10131584 0.0064041647 -0.091764115 0.0106965145 -0.110183954 -0.018212898 -0.05270262 -0.087215625 -0.03160537 0.17885192 -0.04939551 0.089008406
엔딩 -0.110737726 -0.07223819 0.09415101 -0.05955688 -0.07904011 -0.029884892 0.10664755 -0.097037405 0.045583956 -0.1137021 -0.094475426 -0.04259608 -0.13530234 0.011830128 -0.07054485 0.07560768
당시 0.073172115 -0.0846248 -0.0888879 -0.11690239 -0.10628073 0.14595535 -0.13043274 -0.037190616 -0.11824349 -0.1059956 -0.11838801 -0.099540874 -0.11888826 -0.08968882 -0.11461673 -0.0878231
하지만 -0.11324733 -0.14073479 -0.031905837 0.02231512 -0.060257725 0.036631282 0.14277115 -0.03051748 0.08183323 -0.08281885 0.053539224 0.055236407 -0.11863064 0.09676368 -0.011063641 -0.084397465
나름 -0.12334111 -0.037230246 0.08092569 -0.1374705 0.023137407 -0.1250252 0.024241898 -0.09669349 0.047687028 -0.13729954 -0.008236756 -0.081393786 -0.08434091 0.13421743 -0.06933041 -0.12096331
봐 0.10109926 0.007735419 0.07226223 -0.14734617 0.06926456 -0.007238022 0.065616265 0.006955882 -0.075829506 -0.1411627 0.09687553 -0.0402353 -0.062711984 -0.09840282 -0.039243888 -0.09138823
무섭 -0.10555334 0.03859791 -0.16710865 -0.021250684 -0.00707704 -0.06428459 -0.11640589 0.07402378 -0.107325695 -0.0843927 -0.08093566 -0.06336403 -0.16738774 -0.006438226 -0.017662486 -0.08730963
나온 -0.108945966 -0.0917783 -0.017128969 0.008735056 -0.10168067 -0.117667645 -0.11530007 -0.09261443 -0.0973317 -0.049605045 -5.7413024e-05 -0.095331736 -0.11516048 -0.11020417 -0.03407928 -0.055614155
명 -0.06441105 -0.07792188 -0.070966944 -0.082050465 -0.1067733 -0.0910799 -0.095772155 -0.061274033 -0.09486842 -0.08983965 -0.08738843 -0.072036676 -0.10425968 -0.12983744 -0.0057395133 -0.08755185
사 -0.08610886 0.004899461 -0.04658116 -0.08880597 -0.00042849628 0.12529102 0.09823466 -0.0944673 -0.08953859 -0.103749715 -0.060302228 0.080235824 0.05427706 -0.028713856 -0.122297116 0.052735765
니까 -0.06697929 -0.024080064 -0.10598653 -0.104643896 -0.029071122 -0.08207682 -0.042139504 -0.096407875 -0.030886529 0.068079844 -0.10911755 0.043206997 0.07912935 -0.020658629 -0.041868363 -0.099748045
오랜만 -0.12294118 0.014765356 0.08374229 -0.12399165 -0.055316333 0.081467345 0.1038792 -0.119217135 -0.09943585 -0.12290663 -0.1035862 0.016470335 -0.1296154 0.14424327 -0.08881797 -0.11867385
이것 -0.018901173 -0.12757911 -0.12516548 -0.09844578 -0.05344112 -0.08443563 -0.12596628 -0.046796486 -0.10491333 -0.09635686 -0.10571612 -0.10021372 -0.14590667 -0.1261282 -0.14431338 -0.10566518
해요 -0.12070089 0.024527082 0.020618513 -0.05265372 -0.09658294 0.08679335 0.023226691 -0.09248936 -0.092731684 -0.113194436 -0.068647444 0.0353069 0.020231724 -0.07514061 -0.15615109 -0.11167478
9 -0.12632376 -0.0875425 0.030253915 -0.07510248 -0.102657594 0.17809688 0.20060866 -0.10869914 -0.13974823 -0.08702534 -0.048096254 -0.091002725 0.096046835 0.11049171 -0.14000665 -0.11215765
팬 -0.124586105 -0.051012017 -0.07084948 -0.11677764 -0.061754376 0.074883856 -0.08112431 -0.092008844 -0.09761303 -0.117491 -0.10842074 -0.059320778 -0.084005944 -0.04540425 -0.15034533 -0.051727314
차라리 0.2673996 -0.02295575 -0.08944784 0.17117952 -0.09690148 -0.106435336 -0.09743512 -0.03955986 0.2113686 0.073879644 0.26405323 -0.09877122 -0.11882212 -0.11576731 -0.08126378 -0.06909017
절대 -0.019425604 -0.040923517 0.05151315 0.12269881 -0.06759505 -0.022477156 0.07143588 -0.0949369 0.040931847 -0.118101455 -0.09883879 -0.0515513 -0.097937375 -0.078394316 -0.1607499 -0.02713817
세상 -0.08873052 -0.12302162 -0.10096259 0.06441028 0.008766691 0.14368422 -0.12908313 -0.049229763 -0.10411581 -0.12343541 -0.10576014 -0.09575033 -0.021190029 0.062515184 -0.1467823 -0.084276624
세 -0.09546545 -0.0046445155 -0.073063396 -0.09386588 -0.0951525 -0.1019789 -0.090184815 -0.09682991 -0.04299826 -0.13414359 -0.027411982 -0.08513472 -0.1284348 -0.08531121 -0.116970465 -0.0014208284
못하 -0.018059846 -0.11001651 -0.09064604 0.07834904 -0.048636537 -0.052322533 -0.09970235 0.05214406 0.14388308 -0.048392914 0.13140327 -0.05297698 -0.133324 -0.059527054 -0.1068467 -0.065815166
의미 -0.1181713 -0.12775177 0.045019794 -0.0935973 -0.12531391 -0.10260928 -0.05050716 -0.069771126 -0.08485211 -0.113091104 -0.062250152 -0.11482568 -0.13080373 -0.13766442 -0.11747277 -0.08951306
던데 -0.11322211 0.060570497 0.037679613 -0.13298187 0.069486916 -0.1177227 0.076595746 -0.11326696 -0.12972663 -0.1370122 -0.10646864 0.0734823 -0.14567442 -0.14940792 -0.15059796 -0.11472255
봄 -0.14828241 -0.11498463 0.060505632 -0.041512076 -0.09306467 -0.09297648 -0.10189594 -0.09641485 -0.10271138 -0.07274048 -0.09470634 0.060078915 -0.10295383 -0.11161132 -0.17666392 -0.079691
욕 -0.06095496 -0.09809825 -0.091428526 0.072664924 0.02226592 -0.044737194 -0.067085184 0.20308697 0.0135023715 -0.018688053 0.03555152 -0.058444317 -0.14608827 -0.079262234 0.07929696 -0.08363099
훌륭 -0.11043248 -0.002232251 -0.06531284 -0.118118495 0.2579445 -0.09944172 0.101371154 -0.08547985 -0.08721006 -0.10704325 -0.05685331 -0.09748867 0.019971287 0.1979868 -0.14284942 -0.08432296
너무나 -0.12183021 -0.13387123 0.009712981 -0.10993661 0.11421414 -0.12401824 -0.124360755 -0.05244051 -0.1031283 -0.11057287 -0.11857937 -0.08987694 -0.13985083 -0.10786665 -0.14050789 -0.10413339
강추 -0.011468237 -0.11835377 0.09992366 -0.046890195 0.21905471 0.2523547 0.035743743 -0.0999122 -0.116770744 -0.11400261 -0.12619843 -0.041527156 -0.007025828 -0.02777277 -0.06585031 0.001994908
감 -0.074850716 -0.13169721 -0.054558594 -0.003836077 -0.119963355 -0.11213605 0.07769482 -0.061631672 -0.07521959 -0.06131609 -0.024852578 -0.07308954 -0.14535712 -0.12986784 -0.124316074 -0.05969952
됨 -0.07404387 -0.11114503 -0.034917023 -0.0903819 -0.0054661725 0.033249713 0.0036737346 -0.0920176 -0.10030832 -0.11247913 0.042578932 0.048465967 -0.055620737 0.029618323 -0.121055186 -0.07624185
ㅡ 0.122866616 -0.12650838 -0.13221323 -0.04950071 -0.13472852 -0.019904725 -0.08243523 -0.096738964 -0.0682792 -0.03702995 -0.07350513 -0.045956 -0.15114024 -0.12615454 0.0044787717 0.02937318
따뜻 0.082389675 0.20242172 0.083541766 -0.013394455 0.23155569 0.1864777 -0.13178273 0.0004413868 -0.012396036 0.027426276 0.0014160741 -0.046105485 -0.14644271 -0.021604024 -0.02553236 0.14385197
빼 0.13347049 -0.101650685 -0.020948498 -0.03911475 -0.08968956 -0.062410112 -0.006597007 -0.07987556 -0.08161817 -0.060653184 0.14223808 -0.07874285 -0.12219669 -0.06346338 -0.016035516 -0.06914439
느끼 -0.119197465 0.04940898 0.06676545 -0.10469704 -0.116076134 -0.06979643 0.05572703 -0.037348606 -0.012902663 -0.08421056 -0.05898946 0.07772747 0.0883773 -0.08758407 -0.097007655 0.0025243408
해야 -0.0882903 0.062942356 -0.048321337 0.033235446 -0.11182498 -0.08572059 -0.0989956 -0.073673494 -0.10323741 -0.032533683 -0.03483389 -0.027965736 -0.10109963 -0.042026542 0.044884358 -0.10903927
드 -0.100830406 -0.10974743 -0.12036646 -0.093478 -0.083433785 -0.014998286 0.017753402 -0.072109185 -0.027461436 0.0050354935 -0.08834392 -0.10192213 0.022307971 -0.1189993 0.01867879 -0.09642507
도대체 -0.08764764 -0.11420945 0.12725954 0.27679107 -0.028716903 -0.11182311 0.17502297 0.082170464 -0.111198835 0.17650703 -0.07498951 -0.09393768 -0.15274104 -0.11215417 0.03240689 -0.06940532
어야 -0.13066222 -0.0561407 -0.02772842 0.05386159 -0.09730718 0.07775321 -0.11735828 -0.013514131 0.059542395 -0.026781889 -0.052507654 -0.0810938 -0.096210726 -0.11448596 0.1628187 -0.09937281
답답 0.113107786 -0.1139005 -0.118312016 0.024293473 -0.114229105 -0.11402655 -0.13090709 0.13668399 0.064196534 -0.027951593 0.012752607 -0.104691096 -0.1388708 -0.12278206 0.05160981 0.18809071
마다 -0.065075226 -0.063112736 -0.03757864 -0.10443863 -0.008408631 -0.08892456 0.03475936 -0.09363394 -0.067497045 -0.10221811 -0.071656406 0.0445046 -0.058711052 0.0074118176 -0.115196116 -0.08509717
준다 -0.10152707 -0.10773258 -0.048767794 -0.07961011 0.021891737 -0.11094888 -0.015177559 0.07333261 -0.11619702 -0.12352953 -0.065286964 -0.08377913 -0.13697477 -0.1161632 -0.13274091 -0.06068374
글 -0.048074573 -0.024322093 -0.13511439 0.052657872 -0.094142035 -0.10693295 -0.113350004 0.07979448 0.028488128 -0.09106592 -0.088886015 -0.07831158 -0.10911636 -0.118683636 0.052967656 -0.058026522
전쟁 -0.11893471 -0.12017157 -0.089376636 0.004699729 -0.115090676 -0.089548066 -0.07637517 0.02335202 0.04530846 -0.11707187 -0.09807345 0.06072489 0.1325338 -0.11803854 -0.01788091 0.029796882
놈 0.13168593 0.08105421 0.10521611 0.09384002 -0.004538133 -0.034997117 -0.050416347 -0.103027366 0.08048273 -0.11337779 -0.040645875 -0.0062896735 -0.12300904 0.058658276 -0.09821474 0.066035874
설정 -0.07825351 -0.115266025 -0.09517096 0.08012187 -0.10506078 -0.10399919 -0.11891491 -0.08691248 0.20465453 0.053972453 0.038145803 -0.0889663 -0.10821376 -0.1100132 -0.12323103 0.19375628
무엇 -0.10936936 -0.0981151 0.10159502 -0.0612535 -0.10926727 0.0059103486 -0.10093282 -0.089912616 -0.09956713 -0.101666816 -0.1015582 0.013603493 -0.011184005 -0.1157666 -0.11244261 -0.059448484
수작 -0.103021264 0.19030583 0.064550616 -0.09279411 0.22341381 0.19170158 -0.023047792 -0.01060174 -0.11564134 -0.09979499 -0.110141695 0.21553622 -0.08719378 0.14459911 -0.13096605 -0.071190596
만화 -0.10926887 -0.10817333 -0.13246073 0.13441354 -0.0680081 -0.120740615 -0.12035203 -0.056739368 -0.08891735 -0.08934811 0.00696021 -0.064989164 -0.14274278 -0.13971266 -0.05830767 -0.09348598
흥미 -0.10935596 0.0133076245 -0.10389386 -0.10216422 -0.06939965 0.033725217 -0.13442564 -0.08861479 -0.09350214 -0.10006415 -0.06708824 -0.04885996 -0.09089411 -0.0265455 -0.12865582 -0.09865529
그저 0.045909125 -0.12816583 -0.12523071 0.14166532 -0.14945486 -0.10911447 -0.10118196 -0.12780564 0.040291928 -0.010136331 -0.020827217 -0.09997383 -0.13987471 -0.06926064 -0.024633966 0.06739371
감정 -0.10476876 0.036188103 -0.09157171 -0.07986273 0.06450856 0.043677803 0.052352313 -0.07143994 -0.04920556 -0.09287133 -0.08022882 0.08941526 -0.115645126 0.062553056 -0.089113474 -0.08267093
미국 -0.087053545 -0.048300996 -0.11671351 -0.0980799 -0.11557083 0.10874354 -0.11554725 0.01308141 0.06475828 -0.043927204 -0.031031042 -0.09499188 -0.13616525 -0.1166181 -0.007417886 -0.039238896
신선 -0.06576689 0.17768626 -0.081663184 -0.11463181 -0.12751563 -0.055776056 -0.09130057 -0.09260627 -0.097969145 -0.110801816 -0.07496838 -0.095571846 0.11189895 0.02915249 -0.13259567 -0.09978145
행복 0.012297451 0.029037483 0.12740782 -0.12721097 -0.022500724 0.23725569 0.0100432215 -0.07308453 -0.08271182 -0.107664056 -0.0799697 0.017724017 -0.016832177 0.011742788 -0.12784044 -0.110170305
뻔 0.030978505 -0.118365675 -0.12479271 0.07071091 -0.12173494 -0.0896038 -0.081921585 -0.09042479 0.14116563 -0.0748832 -0.1095974 -0.09462839 -0.12763934 -0.06059349 -0.108443 0.066709824
형 -0.10754402 0.06342714 -0.064082995 -0.106577426 -0.016554868 -0.091635294 -0.105327465 -0.110227615 -0.12966923 -0.13134801 -0.09662822 0.11011882 -0.11059341 -0.086800285 -0.15151644 -0.0769072
앞 -0.0800595 0.06591018 0.020075738 -0.09930846 -0.026137618 -0.03214976 -0.02526433 -0.08040468 -0.08538942 -0.08872155 -0.08682844 -0.08009109 0.017061742 -0.1213549 -0.11649762 -0.08807905
허접 0.06312574 -0.1260932 -0.11010015 0.23135355 -0.11680682 -0.12678102 -0.12263962 0.08475489 0.17778358 0.17586532 0.021082321 -0.11457085 -0.12784007 -0.13750698 0.012245563 0.014372932
어도 -0.08048457 -0.10954252 -0.10480222 -0.1270292 -0.07431336 -0.047514983 -0.11067977 -0.00047422398 -0.06687653 -0.05672696 0.07390882 -0.08939801 -0.08847906 -0.08306802 -0.08847513 -0.08619062
군 0.09359048 0.019074252 -0.054177854 0.14772502 -0.044060916 0.04854735 -0.047458027 -0.11748448 -0.041444186 0.0006211541 0.028897123 -0.045759104 -0.04660644 -0.03265284 -0.0706341 -0.13469969
시절 -0.11824166 -0.102304496 -0.06634058 -0.10713381 -0.01875905 -0.094046965 0.12036896 -0.08730247 -0.095572084 -0.10403936 -0.0788119 0.075747386 -0.04575929 -0.10526197 -0.113029435 -0.075597875
관객 -0.110361464 -0.08542392 -0.0970978 0.052403655 -0.043501012 -0.037089176 -0.09654066 0.05016595 0.12053845 -0.018037394 0.035021875 0.02186914 -0.07418217 -0.041047703 0.18046731 -0.10014764
배경 0.0077840504 -0.026285702 -0.08144192 -0.042664066 0.032106917 -0.07906368 -0.07085315 -0.07584007 -0.07936831 -0.11869479 -0.12875815 -0.10446005 -0.042375755 0.09131124 -0.040841956 -0.008772451
6 -0.11564793 0.049465638 -0.13973765 -0.038646452 -0.10462238 0.122961 -0.093952745 -0.10309667 0.028291011 -0.040527914 -0.09825793 -0.10680494 0.049069412 0.03915867 -0.13859335 -0.008122673
초반 -0.10919058 -0.10404374 -0.09581618 0.014140246 -0.078787945 -0.092860594 -0.009783393 -0.060148295 0.15770233 -0.011662816 -0.045794975 -0.07819954 -0.11803891 -0.019243198 -0.046881247 -0.064276814
사실 -0.03602251 0.08243582 -0.042345818 -0.09724866 -0.12468071 0.1025616 -0.08734496 -0.07625707 -0.096463144 -0.10508054 -0.06899999 0.12598254 -0.06754546 -0.10764575 -0.11765012 -0.047600854
웃음 -0.0807204 -0.11247737 0.030400831 -0.12366914 -0.10522756 -0.11257913 -0.06292315 -0.09014167 -0.09219296 -0.11741471 -0.07732246 -0.07777918 -0.040809717 -0.121467605 -0.13254578 0.022248562
답 -0.04768782 -0.13160358 -0.11548774 -0.030615928 -0.13018526 -0.11161769 -0.11582261 0.03706273 -0.08806297 -0.12116965 -0.036596715 -0.0864918 -0.14379059 -0.1264065 -0.083190456 -0.06562309
엄청 -0.13094239 -0.03973953 -0.08918816 -0.06773698 0.01552902 -0.10288597 0.00039750256 -0.030077212 -0.102645874 -0.11837698 -0.09433185 -0.051502157 -0.07852597 -0.124725714 -0.14600211 0.012324612
더라 -0.11821631 -0.037035078 -0.10790664 -0.13761988 -0.1273629 -0.05347003 -0.12718149 -0.091645 -0.11651611 -0.001595877 -0.11518317 0.023032837 -0.12695126 -0.12517026 0.0027282683 0.046098884
라니 0.002938563 -0.07484953 -0.10706995 -0.110299535 -0.12468414 -0.07536573 -0.038288902 -0.06347246 0.040314835 -0.012721872 -0.10605016 0.019700374 -0.13487615 0.0632796 -0.058357507 0.048067644
질 -0.056997787 -0.12220106 -0.10130665 -0.007286412 -0.09129458 -0.023752594 -0.03816491 0.01988482 0.0013511402 0.0013394024 0.010555165 -0.084295645 -0.13572517 -0.07524823 0.0026023302 0.23260748
자신 -0.071868666 -0.07598545 -0.106084965 -0.036633696 -0.06504925 -0.091421746 -0.08579641 -0.0761784 0.042633403 -0.092835054 -0.08774755 -0.089042164 -0.10914009 -0.08288365 -0.039020848 -0.046827305
추억 -0.10525551 0.05496648 0.052225016 -0.107446395 -0.046948995 0.08021078 0.08415589 -0.091199666 -0.112877555 -0.11440105 -0.12873434 -0.039078183 0.010203995 -0.04211039 -0.14623347 -0.07081835
캐스팅 0.16308677 -0.104578786 -0.065841384 -0.0103215845 0.008045714 -0.087396726 0.06305632 -0.04333215 0.16023426 0.0032831735 -0.07151821 -0.12308024 -0.0033775722 -0.12819482 -0.06903337 -0.032334156
첨 -0.09746468 -0.053023346 -0.057395034 0.072188295 -0.11770086 -0.047315914 -0.061301928 0.032289512 -0.062026083 -0.079792164 0.09706161 -0.07340039 -0.040197514 -0.1012631 -0.077166036 -0.048465542
멋있 -0.13320747 -0.069850974 0.2465898 -0.03477693 0.20100509 -0.11660392 0.080820665 0.009893681 0.03161995 -0.13125706 -0.11471806 -0.093998596 -0.14893219 0.11731206 -0.16599351 -0.11519336
류 -0.10463889 -0.12802711 -0.10109127 -0.10097567 -0.12247817 -0.09729832 -0.118592225 -0.07298114 -0.09740246 -0.107098766 0.29504853 -0.019722296 -0.1347586 -0.07378398 -0.11644973 -0.03854083
어색 -0.056544073 -0.12177954 -0.088348955 -0.038470414 -0.13582397 -0.084982745 -0.09927594 0.28596485 -0.04411849 0.04474802 -0.0639093 0.11236237 -0.12455863 -0.11679658 0.061857026 0.11371669
시나리오 -0.10300854 -0.102625094 -0.09985586 -0.1243239 -0.1031096 -0.08821665 -0.09345 -0.08098068 0.12577103 -0.10968614 -0.112425916 -0.105631255 -0.11728542 -0.09046764 0.12892655 -0.07076423
머 0.11655399 -0.102517046 -0.045700252 0.04170646 -0.116647534 0.04196915 -0.100789964 0.0494348 -0.02719356 0.09474341 -0.12536153 -0.06275282 -0.115555026 -0.13376741 -0.10730181 -0.13384053
밖에 -0.04655765 0.09638693 0.009079443 0.0005170888 -0.10735475 -0.10733931 0.021972464 0.010225005 -0.021865822 -0.07254319 -0.005169414 -0.094622515 0.056163583 -0.14180575 -0.08033556 -0.07268689
OOO 0.11545068 -0.123004094 -0.15604368 0.044760205 -0.12614028 -0.13319546 -0.122784264 -0.058427863 0.15851584 -0.0057466463 0.044774864 -0.1200065 -0.13885881 -0.13430093 -0.025295714 0.0911606
슬프 0.12251003 -0.1480686 -0.17029008 0.021640273 0.35338452 -0.08098302 -0.1298831 0.008552063 -0.030611765 -0.13834782 0.057239432 0.11464336 -0.14486301 0.18986662 -0.04790016 0.010743973
정신 0.046907734 -0.12102644 -0.0036889585 0.1590119 -0.12696368 -0.11079358 -0.10895896 -0.10116291 -0.07729721 -0.10747823 -0.061479602 -0.0833515 -0.13251816 -0.10910529 -0.08528211 0.113510914
분위기 -0.13196233 -0.0012528118 -0.035778683 -0.107978195 -0.11261601 -0.026828945 -0.014234154 -0.10870054 -0.102852546 -0.12157739 -0.09863062 -0.0072272574 -0.006673471 0.026672779 -0.13959257 -0.10413076
소름 -0.11995585 -0.052137576 -0.08565677 -0.05240479 0.29196113 0.12173509 0.029265193 -0.097137295 -0.10292691 -0.10555944 0.0142920725 0.11743347 -0.07371031 0.029749209 -0.12243315 -0.121296406
멋진 -0.122882515 -0.09383609 0.08455866 -0.11506807 0.03454348 -0.0778503 -0.05732887 -0.10119075 -0.10424729 -0.12233446 -0.11760043 0.20320718 -0.07173305 0.13322246 -0.16252805 -0.11462592
힘들 -0.065975755 -0.07451367 -0.09990155 -0.002243938 -0.106434524 -0.079584785 -0.114635155 -0.073620304 0.08855863 0.10973429 0.0077040507 -0.052515324 -0.11272933 -0.13148767 0.00883081 0.07545672
오늘 -0.106299065 -0.14235272 -0.07301806 -0.095294215 0.0045877257 0.019238213 -0.10538936 -0.06332313 -0.10973373 -0.10339393 -0.06994483 -0.09516576 -0.14464258 -0.12745993 -0.14564636 -0.05928872
어이없 -0.03777594 -0.12441446 -0.10881438 0.13821737 -0.12082551 -0.10734034 -0.12375434 0.15965974 -0.02866193 -0.056804664 0.06276652 -0.10254003 -0.13915335 -0.13778488 0.1443503 0.21068509
봐서 0.06182093 -0.11282715 -0.010427737 -0.08456727 0.044708133 -0.10692272 -0.096700005 -0.08385488 -0.10459088 -0.10071764 -0.06328721 0.106155835 -0.12584817 0.06795922 -0.08562154 -0.08211528
걍 0.07755674 -0.1329424 -0.12221621 0.049028944 -0.11154498 -0.11260478 -0.096168324 -0.12363268 -0.11107459 -0.112442024 0.072792344 -0.07167937 -0.13313639 -0.08936145 -0.07008539 0.14959987
잡 -0.031272773 -0.04514967 -0.048580926 -0.1272914 -0.052804597 -0.114258714 -0.06019133 0.03796921 -0.077672765 -0.122086346 -0.1044999 -0.11102592 -0.09713188 -0.11065389 -0.117743604 -0.12562639
구성 -0.032057405 -0.12456309 -0.09405161 -0.098483264 -0.08561909 -0.09352388 -0.014523502 -0.076388024 -0.10778464 -0.033926114 -0.082411826 -0.08404507 -0.093985386 -0.10406863 -0.11741978 -0.06979312
엄마 -0.1136077 -0.1056402 0.033923008 -0.098954156 -0.09083233 -0.002428075 -0.06466272 -0.10034304 -0.09658198 -0.10474458 -0.099132635 0.13547708 -0.10309252 -0.044051766 -0.109565996 -0.093744345
함께 -0.031380072 0.0041031083 -0.08151053 -0.062920295 -0.062912725 0.20895173 0.017515222 0.00468321 -0.11747734 -0.050287813 -0.012295944 -0.07160718 -0.08552 -0.038174268 -0.059265964 -0.06274253
