9996 16
. -0.07309996 0.0061135073 -0.032509606 0.017594649 -0.004780387 0.023054527 0.055914614 0.01034371 -0.007776519 0.019678839 0.08596167 0.018305425 0.073112324 -0.02752694 -0.023855641 0.015268016
이 -0.026190864 0.008979501 0.011768904 0.038726907 -0.008612644 -0.025574163 -0.025516605 -0.049243204 0.008608071 -0.011134232 0.05163727 0.045623265 -0.031284224 0.015398253 -0.0020144861 -0.026285626
는 -0.029335793 -0.0034870096 -0.03548017 0.04152581 -0.033767845 -0.03917965 -0.042221565 0.028208055 -0.03431271 0.012534282 -0.046397597 -0.02939067 -0.037413333 -0.026100036 0.03659051 0.0331425
영화 -0.02554813 0.03726273 0.022221522 0.09274065 0.004327266 0.012686955 -0.03811784 -0.032522406 0.022257185 0.0004017175 0.06833285 -0.03678532 0.0431687 -0.04431778 -0.08400836 0.05393242
다 -0.1104425 0.011971775 0.00035225376 0.055564538 0.055316746 -0.017510563 -0.04095755 -0.04048022 -0.0113526005 0.01568674 0.03856704 0.07036046 0.027142651 -0.031664245 -0.003980205 -0.03479732
고 0.023491329 -0.053216346 -0.007598658 0.05070535 0.0027971098 -0.038233567 0.058216464 0.008879606 0.009326068 0.018036315 0.012099188 0.056099337 -0.017039485 -0.011776525 -0.04072322 -0.020031279
하 -0.011653303 -0.018243363 0.034856744 0.011128686 -0.022582209 -0.043494985 -0.011001062 0.043692134 0.010198807 -0.024769485 -0.002885385 0.035193626 -0.04343703 -0.041084293 0.058575194 0.0017567223
도 0.033937316 -0.022851838 -0.0133631695 -0.020939076 0.01646889 0.018525632 0.1473458 0.029578725 -0.00047694906 0.06977214 -0.021976788 -0.032296762 0.020251084 -0.027404532 0.0010293088 -0.04620126
의 -0.017016262 0.026033713 -0.022045651 0.001661742 -0.013328585 -0.066785924 0.021242313 0.0021527715 0.031228965 0.007869105 0.02350621 0.038979992 -0.050138783 0.028316662 0.0066394876 -0.006801375
가 -0.01555224 0.027931916 -0.017481968 -0.023478603 0.01875533 -0.037697725 -0.009331847 0.041763224 0.0011716263 0.04056473 0.01416313 0.03026477 0.020427132 -0.045490127 -0.0011202451 -0.022061307
은 -0.022817936 0.023211218 0.009436184 -0.02827705 -0.04131441 -0.026475152 -0.048630767 -0.0333153 -0.03864275 -0.028995654 -0.028722582 0.012171514 -0.01949087 0.010112315 0.039151922 0.009663935
에 0.029134667 0.03508147 -0.027425753 0.0015898522 0.04877989 0.0067520724 -0.007465311 -0.0045699077 -0.024044191 -0.0037067449 0.014124507 0.02085508 -0.022276176 -0.024112212 0.028279973 -0.031362593
을 -0.00049453764 -0.050647154 0.015266191 -0.019090746 0.024633614 -0.054549977 -0.034718975 0.04793341 0.027323207 0.002687738 -0.00199453 -0.015144819 -0.0012284324 -0.05583716 0.0025374189 0.010002324
보 -0.020947807 0.010297666 -0.006744791 0.016972711 0.0050541093 0.01156155 0.031067353 -0.019695872 -0.0069247037 -0.018166922 -0.015563401 -0.057660334 0.027900536 -0.03282633 -0.012190433 -0.053331573
한 -0.000965866 0.0015305066 0.026891638 0.01711089 0.010314516 -0.029874377 -0.0026909967 -0.024742026 -0.0035788892 -0.02127948 0.06660804 -0.008613426 0.008387857 -0.0050714766 -0.030714953 0.034136802
.. 0.0044041257 0.0040366976 0.039328456 0.07397456 -0.010571385 -0.02073942 -0.021842647 0.047694787 -0.059625465 0.047672246 0.02083815 0.046034828 -0.016135937 -0.026357297 -0.028355658 -0.035502683
게 -0.009597725 0.01791608 0.0027968227 0.0059639774 0.028250266 0.00088921504 0.021368658 -0.05301947 -0.041975707 -0.039220262 0.009482349 0.032164454 -0.006429098 -0.02469259 -0.01800563 -0.02367089
, -0.019521466 -0.007964356 0.020941092 0.047512427 -0.012268282 -0.004919359 -0.02219856 -0.05038962 -0.0011867832 -0.032035027 -0.011908448 -0.0057997527 0.029265633 -0.029071229 -0.009527991 -0.005141568
들 -0.038796846 0.014631777 0.0070915306 -0.060540322 0.028542021 0.00579883 -0.06980774 0.0559803 0.031033233 -0.03917175 -0.010224111 -0.00058878114 -0.024497464 -0.021265892 0.005569125 -0.03312371
! -0.03431007 0.07637123 0.044383336 0.07511943 -0.014616637 -0.021082107 0.026716148 -0.016705936 0.024858613 -0.041305725 0.0007905148 -0.036707256 -0.057973035 0.057770368 -0.04872485 0.038742997
지 0.10107496 -0.08217404 0.013893841 -0.09772577 0.031506386 0.035044022 0.038777728 0.05818156 0.01315308 -0.02131109 -0.08942963 -0.0847891 -0.0767575 0.006256237 0.0070220246 -0.03242831
를 0.04295961 -0.032343697 -0.012631674 -0.02172177 -0.01203833 0.022225736 -0.034667704 -0.04022071 0.03409704 -0.03597948 0.03932705 -0.04064168 -0.0066779237 -0.034456182 0.02917198 -0.0014231486
있 -0.04988476 0.054507688 -0.016116733 -0.0030927558 0.0029387737 0.003428579 0.014956286 -0.069264464 0.081950806 -0.005283806 -0.09611099 -0.08828928 -0.06767943 0.015292968 -0.034406766 0.021946134
없 0.056826133 -0.12799877 0.018074384 -0.0943906 -0.08987852 0.013913153 -0.1253451 0.1202732 -0.028598616 0.033762187 0.038827755 0.0894247 0.10288148 -0.08798456 0.11074046 0.042359456
? 0.011264333 -0.087864876 0.014493938 -0.042484343 -0.045741245 -0.018892772 0.012653639 0.004754133 -0.009134388 -0.0037603802 0.0011455157 0.026917253 0.051008917 -0.0074188653 0.07684131 0.008239068
좋 -0.07168375 0.08321376 0.0009853444 0.16272885 0.10653299 -0.059912473 0.1903547 -0.041325048 0.113076955 -0.12207853 -0.09287406 -0.08467751 -0.06740576 0.039413672 -0.08033345 -0.021040991
나 -0.021352768 -0.07368059 0.012906435 0.0019427013 -0.028203003 0.00688073 -0.044644266 -0.008791262 -0.030743677 -0.019432493 -0.06680682 0.015163708 0.016744286 0.011286632 -0.0029211915 -0.018657692
었 0.00038080473 0.07223111 0.0062501146 -0.01361965 -0.020481763 0.013229719 0.004918416 -0.033031013 -0.010931357 0.007796123 -0.010718047 -0.051229544 0.008223571 0.02090868 -0.08047261 0.001340982
만 -0.008399776 0.020840216 0.0256425 0.026469126 -0.05306568 0.056050334 -0.10898539 0.043187696 -0.008715125 0.033037517 0.092011735 0.11642628 0.099657886 -0.013330021 -0.031271953 0.046214648
는데 0.07042963 -0.080832005 -0.02532251 -0.11566512 0.02822533 -0.024248062 0.082122445 0.033585526 0.048487995 0.003588986 -0.19150057 -0.025217481 -0.03276544 0.06235483 0.065507166 -0.036307834
너무 0.0015504282 0.015595984 -0.0018390928 0.10430219 0.058156684 0.031568035 0.20157753 0.00072676095 0.014654992 0.055943113 0.01686241 -0.009792595 0.025977597 -0.058631606 0.07921392 0.0020945126
봤 0.002134788 0.038826127 0.028393876 0.006594383 0.034137897 -0.0026570982 0.11020644 0.0077063935 0.037731946 -0.03797578 -0.07906283 -0.022007689 -0.056184933 0.009432348 0.030474128 -0.038835872
적 -0.0016083833 0.010961174 0.016243335 -0.04263519 0.03514942 -0.02141964 0.018082468 -0.026834065 -0.018299464 -0.01861058 -0.017632782 -0.026900038 -0.0015177517 0.012088923 -0.021718549 -0.03136215
안 0.070138946 -0.043934856 0.018013103 -0.16040403 -0.048246074 0.014367883 -0.20770366 0.06175137 -0.08784008 0.025389988 0.12850343 0.16383111 0.065873906 -0.10146842 0.020096293 0.074043736
정말 0.007474566 -0.025603618 -0.032823477 0.05582521 0.016478091 -0.045477703 0.10732114 0.033387236 0.050515037 -0.042927507 0.025569398 -0.027567418 0.0072843367 -0.005653203 0.03910214 -0.07000395
로 -0.008952557 -0.021762324 -0.0007199627 0.01980539 -0.026395367 0.027759759 -0.05482145 0.01512514 0.011080644 -0.0037432027 0.03948192 0.0043007648 -0.013426684 -0.05850503 0.023167662 0.0037147345
음 -0.052421436 0.013909079 0.02896855 0.09054589 0.035010032 -0.056840975 0.0065515446 -0.017697813 -0.043582268 -0.035206284 0.11282902 0.04275826 0.06430016 -0.07539791 -0.019330842 0.006094608
으로 -0.02102802 0.022158004 -0.013322339 0.051170744 0.059292108 -0.05107209 0.03658833 0.045478374 -0.035076294 -0.0323287 -0.01135299 0.015031589 -0.06254115 0.019880671 0.006115696 -0.006850232
것 0.014807478 -0.0026618417 -0.010153657 -0.0006382432 0.039571732 -0.037080992 -0.006176895 -0.017037319 -0.014987358 0.0048809955 -0.020717397 0.005192701 0.017005948 -0.026253581 0.072903655 -0.049198452
아 -0.01460859 -0.023282139 0.025469685 -0.03488618 0.016897477 -0.04813324 -0.0021334295 0.00079111813 0.037060004 0.025786046 -0.052452117 0.031611282 0.0011630754 -0.016626248 0.00663571 -0.023492167
네요 -0.10468706 0.07220799 0.005466939 0.100553 0.011739578 0.0119154 0.028034791 -0.060591493 -0.078435995 0.05606538 0.127899 0.00860601 0.004649589 -0.05706933 -0.038360007 0.0040329434
재밌 -0.14302543 0.18042018 -0.14419729 0.13469459 0.13481808 -0.12321248 0.068717815 -0.103281245 0.1315611 -0.1424291 -0.09938147 -0.1564967 -0.061058212 0.08548512 -0.15811336 -0.13087243
어 -0.029411498 0.011344009 -0.017912379 0.014741352 -0.041863337 -0.06381543 5.6776218e-05 -0.012822325 0.00091528543 -0.03733601 0.0791025 -0.015300091 0.00980563 0.001169336 0.02858435 -0.056361306
같 -0.033343557 0.055798512 -0.021064641 0.030985937 0.02007197 0.010505377 0.016075697 0.03219212 -0.03880727 0.020284658 -0.010346625 0.04900555 -0.024742717 -0.03560238 -0.028309438 0.018602204
점 -0.0075318026 -0.0239175 0.02083261 0.06534126 0.005737167 0.050331105 -0.07110313 -0.03306479 -0.024361463 -0.018051306 0.083087526 0.024133634 0.073992215 -0.010972608 -0.039910126 0.011629322
지만 0.16359407 -0.15178792 -0.038771365 -0.24302995 -0.0033258656 -0.0052356254 0.09104329 0.030582394 0.01728926 -0.0705443 -0.27470088 -0.051019374 -0.18296945 0.11781371 0.08793155 -0.03258993
진짜 -0.010497526 -0.027314613 -0.034701012 -0.0067040855 0.029765753 -0.041336514 0.05439626 0.019659998 -0.007062555 -0.0386633 -0.051245894 -0.023384852 -0.039863393 -0.022518998 0.0506252 -0.08030918
했 -0.008068592 0.01203856 -0.0013401918 0.012692957 -0.02511291 -0.025601052 0.0068431273 -0.0288275 -0.045436677 0.042326067 -0.034060165 0.004865379 -0.043857533 0.03725497 0.009997268 0.058561083
에서 -0.019768093 0.0130066825 0.017486893 -0.029464666 -0.01844365 -0.06533808 0.008167643 -0.019240309 0.05047245 0.0072948616 0.008995409 -0.030094413 0.0017047841 0.05053675 0.013520064 -0.044666454
기 -0.018299095 -0.0052165193 0.045441054 -0.0066435826 0.03558773 -0.00579376 0.016428392 0.002772891 -0.042555895 0.048114143 0.06032578 0.04851619 0.08080654 0.010578634 -0.027021714 -0.018632986
네 -0.051735487 -0.015808228 -0.035658803 0.005258943 -0.0047476706 0.011829091 -0.025705162 0.031039832 0.030038185 0.0037057875 0.045662485 0.02368847 0.06311761 -0.03255672 0.043027375 0.010467805
않 0.096589126 -0.12380264 -0.052472003 -0.21990298 -0.019882739 0.016209085 -0.09473852 0.024246762 0.03838318 -0.012010301 -0.11830194 0.020630628 -0.06665055 0.04754954 0.11591668 -0.0019731696
거 -0.024478119 -0.07454632 0.02670341 0.04869338 -0.029957308 0.024434537 0.03676617 -0.004219392 -0.027246475 0.027095791 -0.042493746 -0.022197727 -0.023824425 0.022993747 -0.007914199 0.014410049
았 0.03349817 -0.039916478 0.011426539 -0.008975718 -0.02944606 -0.022512684 0.027544795 -0.04483837 -0.004049416 -0.005821886 -0.058910735 0.0052628447 -0.00783409 -0.009674886 0.013254132 -0.021109153
수 -0.0936574 0.097428866 -0.048305884 0.021600084 0.023183418 -0.06228215 -0.09181743 -0.0011132398 0.048391085 -0.032299116 -0.015141253 -0.0033311006 0.021590246 0.009680413 -0.008884014 -0.06585541
되 -0.042379215 0.038862202 -0.053166848 0.05045098 0.012877483 0.0023942294 0.1028961 -0.040678978 0.026396554 0.03222171 -0.037310377 -0.024904834 -0.042775452 0.006114089 0.0355677 0.028480258
면 -0.021424608 -0.01866634 -0.020327827 -0.076702274 -0.023513043 0.017453527 -0.121599466 0.033350136 -0.025527574 -0.03445356 -0.0063714944 0.017319094 0.052934866 -0.033547223 0.05422891 -0.018996965
ㅋㅋ -0.024967246 0.017293055 -0.008053722 0.054086577 -0.013214484 0.0145964315 0.007885668 -0.0179625 -0.013487598 -0.024810497 0.030962909 -0.047895655 0.0054885685 0.048065253 -0.06465881 0.050665952
과 -0.037998024 0.045543775 0.012320692 -0.013021891 0.040713977 0.0016034495 0.007952509 -0.04309465 -0.0020971831 0.011642304 -0.045754105 0.02120304 -0.023654053 0.034757677 -0.011066191 -0.023985982
말 0.00574988 0.01689623 -0.02177906 0.013388821 0.00033044087 -0.04780899 0.01671608 -0.025341447 0.0047029066 0.0238459 -0.015060381 0.002048469 -0.065400034 0.051993564 2.0146443e-05 -0.03476693
연기 0.007098497 0.063274436 -0.033139225 0.09020569 0.014611501 0.022065705 0.089104086 -0.0388507 0.026378643 0.015966818 -0.0023457874 -0.051542852 0.018757915 0.025969345 -0.004510451 0.004077257
인 0.002952347 0.023886235 -0.023331312 0.03507286 0.04107706 0.021485554 -0.03728086 -0.017680982 0.030818878 0.00502593 -0.027235603 -0.052527737 -0.042547844 -0.0086051505 -0.037970558 0.041666724
잘 -0.10090127 0.10047867 -0.04737896 0.11106227 0.064385094 -0.08649279 0.075862154 -0.03699862 0.027831577 -0.018653447 0.0015322324 -0.113031104 -0.10148902 0.060309444 -0.035832997 -0.077192046
주 -0.010675867 -0.022070177 0.061066482 0.11875008 -0.014364632 -0.003868748 0.07879327 0.014723937 0.006358089 -0.057067607 -0.03066991 -0.005106258 0.0006195295 0.022075802 0.022958469 -0.0037370517
내 0.03492258 -0.00076398515 -0.017615939 0.020398378 -0.010620499 -0.048204247 -0.015629847 -0.020815907 -0.019989986 0.0028759164 0.030969707 -0.005315807 -0.03673947 0.0073545077 0.028142046 -0.013060816
최고 -0.13714102 0.10116852 -0.15769845 0.095639 0.17967856 -0.18427365 0.040549178 -0.12639184 0.13844995 -0.14121772 -0.19070417 -0.16359241 -0.1316886 0.1935721 -0.21046121 -0.14923353
~ 0.059259452 0.0018800902 0.03292363 0.113015555 0.036966477 0.024631437 0.06108607 -0.017091937 0.03245667 -0.031736523 0.061930906 0.02703019 0.017251944 0.005512792 -0.01931287 -0.018422162
평점 -0.011381265 0.00685908 0.049400605 0.010589762 0.017814847 -0.029345084 0.040312465 -0.05767752 -0.031556617 0.0021632835 -0.024733793 -0.06195463 -0.008474907 0.003942781 -0.006128043 -0.01747428
이런 0.01284248 0.02504411 -0.018977474 0.024287783 0.02223999 0.034821816 0.045906816 0.034712385 0.0043374645 0.037499715 -0.04370818 -0.010556404 -0.026349759 -0.022057602 -0.009723362 -0.015838396
던 0.027670678 0.012720883 0.0083248755 -0.026835125 0.0027790433 0.047808245 -0.032713585 -0.026856206 0.058878563 -0.01737924 -0.05746536 -0.03500598 0.00394458 0.056600258 -0.0066261627 -0.044096377
와 0.0029374368 -0.0010423375 -0.029969532 -0.010426576 0.026001068 0.0131936595 0.047171194 -0.0018872211 0.029759312 -0.02306319 -0.06578936 -0.032348506 0.037079513 -0.015287451 -0.037697352 -0.04526368
어요 -0.101994894 0.13463211 -0.018559868 0.15387283 0.028980404 -0.040364176 -0.00053938443 -0.06339395 -0.058315493 0.038438223 0.16339514 -0.0051011946 0.010385186 -0.019725706 -0.009333047 -0.03364002
할 -0.021610593 -0.04066614 -0.04031666 -0.025091726 -0.032812037 -0.066855624 -0.037615974 0.008776854 -0.024333088 -0.009468311 0.012595001 -0.020302508 -0.031314895 0.008737027 0.030733207 -0.021583956
왜 -0.004185662 0.0887159 -0.029279849 0.009711055 -0.024543203 0.026510043 -0.073868185 0.025984054 -0.00058382703 0.030736802 0.1118179 0.01919148 0.00211476 0.023211187 -0.07143334 -0.0237678
겠 0.097161986 -0.0916847 0.02439194 -0.025984764 -0.02490589 0.045407157 0.03339992 0.09007093 -0.05646827 0.008303077 0.020615883 0.04234989 -0.010713622 -0.083359234 0.06263933 0.027024565
1 0.06764721 -0.066401176 0.071168944 -0.12913562 -0.06973565 0.09189251 -0.22390027 0.12600973 -0.042347457 0.07935459 0.091580935 0.064109005 0.12667182 -0.030111415 0.09236541 0.056785107
스토리 0.015457016 0.023824 0.037017826 -0.034713607 0.01165443 0.04454046 -0.041713547 -0.006721824 0.0008177818 -0.001593092 0.0060354937 -0.0071184533 0.06775342 -0.044926822 0.05447561 -0.0442018
해 0.010264453 -0.03414953 -0.051905576 -0.016776977 -0.049659964 -0.045859657 0.03224103 0.023564935 0.019007362 -0.036654733 0.029651739 0.04268362 -0.013203187 0.01928878 0.04204399 0.023511726
습니다 -0.03470616 0.100261286 -0.015728166 0.03428711 -0.00061099895 -0.054514118 0.03675435 -0.067540355 0.044134345 -0.0144530665 0.04714226 0.02489477 0.021782437 0.036937207 -0.03180327 -0.015790267
ㅋㅋㅋ 0.037893806 0.030532753 0.04708854 0.01112325 0.018342683 -0.021357592 -0.013385859 0.02852307 0.035583984 0.007290292 0.014191238 -0.016981509 -0.049631324 0.05180993 0.015824223 -0.012678155
... -0.008742895 -0.028328814 0.031769324 0.06264295 0.0062054666 -0.024125375 -0.011286116 0.026579823 -0.025607325 0.018103262 0.0654836 -0.008375665 0.003877639 -0.043586668 0.0014295505 -0.013648382
드라마 -0.0059330235 0.06820052 -0.026021058 0.14920236 0.0019402278 0.008891938 0.07246565 -0.06357354 0.01440489 -0.015441933 0.07729235 0.005111863 -0.02296972 -0.0035167634 -0.04417522 -0.0126921795
생각 -0.028413557 0.077020645 -0.09207054 0.084444486 0.03226345 -0.05919664 -0.05893461 -0.0415419 0.04230006 -0.01526509 0.014769839 -0.010030965 -0.06048397 0.051180802 -0.057133075 0.022641035
아니 0.07202722 -0.08200497 0.04512541 -0.17439009 -0.003917979 -0.034886934 -0.10879254 0.020685812 0.021015346 0.03896427 -0.010136525 0.03203002 -0.014178339 -0.003125611 0.09106451 0.0034967207
더 -0.05243736 0.038020942 0.017711394 -0.020764329 -0.07939418 -0.059290297 -0.097800456 0.020387063 0.010721806 0.023450626 0.044910558 0.072036065 0.022901176 -0.055457 -0.03760194 0.013978162
그 -0.043335326 0.057995826 0.008060199 -0.012353073 0.012190732 -0.063867845 0.042625673 0.02163489 0.029697593 -0.049419656 -0.015172394 -0.036525205 0.026968878 -0.013835884 0.002582971 -0.0288475
싶 -0.034825116 0.027599746 0.0005173487 0.10690187 0.07546443 -0.010240652 0.07415765 -0.0020384206 0.012681702 -0.010098396 0.11134204 0.050489116 0.0070301816 0.03641325 0.016631842 0.012776786
사람 -0.012735765 -0.014351299 -0.0032542727 -0.029048746 0.009446328 -0.035955135 -0.1335985 -0.044753715 -0.0037679942 -0.004308471 0.023959398 -0.022490516 -0.012393505 0.031238494 0.0016052581 -0.05066738
듯 -0.029859561 -0.031782966 0.0162453 -0.020291263 0.029963326 -0.03642042 0.02787442 0.012830845 -0.0076676873 0.03073759 0.018289985 0.033634115 0.041495185 -0.03243896 0.0483915 -0.05582821
때 -0.027016997 0.049604222 -0.011964278 0.04143927 -0.046626993 -0.064614706 -0.047165964 -0.038477067 0.04350599 -0.057970073 -0.030073628 0.03388625 0.013518097 -0.029314829 -0.028859288 0.011443325
감동 -0.00857451 0.037928168 -0.01319918 0.10219389 0.12762272 -0.06324717 0.2990229 -0.010941057 0.093486905 -0.087245636 -0.18523826 -0.15041396 -0.09346323 0.078277655 -0.05752307 -0.07996653
함 -0.051776562 -6.9881295e-05 0.019610751 0.018433427 0.029473793 0.031320278 0.016775912 -0.0018378961 -0.01427841 -0.029311808 0.013480957 -0.00022343772 -0.020885805 0.034333155 0.04669942 0.017592005
배우 0.026997516 0.0452712 0.06409552 0.033902023 0.033482313 -0.02569855 0.0767967 0.031583697 -0.05808876 -0.039908137 0.037646703 0.009900496 -0.04622424 -0.027677543 -0.01729993 0.003442009
본 -0.08268784 0.0151076205 -0.022941574 0.081428185 0.030478518 -0.051150884 0.059141304 0.012007043 -0.0040232935 -0.065995984 0.004007925 0.004538431 -0.060349185 0.013399462 -0.022861337 0.005476757
까지 -0.0054254676 -0.03754643 -0.013325781 0.02137393 0.03291139 -0.01885681 0.021727365 -0.03618124 0.0013296496 -0.021514231 -0.036035888 -0.061462376 0.010596634 -0.020653205 0.06642553 0.004131956
좀 0.046409212 0.019553721 -0.044304766 -0.0135441115 0.01578259 0.049738158 -0.048490126 -0.017383851 0.0069347825 0.047741868 0.009487033 0.07903108 0.03207937 0.005664554 -0.004600251 0.023097605
뭐 0.005769199 -0.060293287 0.037086163 -0.043009575 -0.047853343 0.045391396 -0.059238918 0.008636186 -0.115527116 0.040344745 0.067511104 0.123459235 0.08948305 -0.06346397 0.01026898 0.028210312
알 0.019796323 -0.048412457 0.0162725 0.008498721 0.041643813 -0.033600863 0.023461165 0.04734234 -0.020341396 0.02666793 -0.074435115 0.02991672 0.014535977 -0.018355343 -0.027810946 0.014582061
만들 0.051275276 6.508737e-05 0.047605876 0.060065355 0.0033586184 0.05143066 0.026050549 -0.0062635024 0.00044282625 0.007850287 0.09945725 -0.022857886 0.06753269 -0.05375525 0.019444898 0.08213075
내용 0.010138486 -0.03164884 0.042529926 -0.049617812 -0.040288925 0.08210766 0.10925946 0.011283349 -0.0055738315 0.06424361 -0.013365668 0.052642845 -0.012542281 -0.05250233 0.05878566 -0.02472075
볼 -0.0368391 0.048740514 -0.06779097 0.07337158 0.06806668 0.0030832845 0.13219279 -0.049180944 0.059720308 -0.09752383 -0.02307383 -0.0227672 -0.08883102 0.019596715 0.009236033 -0.06777924
감독 0.036709234 0.0119967535 0.05893302 0.06807013 0.010294602 0.078686364 0.058109786 0.02606965 -0.06095398 0.030537007 0.08565782 0.07844793 0.03447376 -0.10146424 0.027388984 0.104659535
보다 0.0064088576 -0.07226137 -0.0069165276 -0.043213543 0.037645444 0.016785901 0.05543485 0.035485897 0.043050826 -0.038829252 -0.032761935 -0.056283265 -0.032264877 -0.016394591 -0.013877835 -0.061018337
라 0.04289631 -0.030137496 -0.0059455675 -0.037366137 -0.029934447 -0.032056503 -0.044228528 -0.048027355 0.045447975 0.0058682086 -0.056606688 0.0062102135 -0.07688855 0.07280234 0.028037712 0.011094412
그냥 0.05173986 -0.06595959 0.018979643 0.0385195 0.011321268 0.07932914 0.16484576 0.022157269 -0.061034266 0.07437935 0.0045494586 -0.0035008206 -0.023433037 -0.031531677 0.036923073 0.0060256035
재미 0.09913805 -0.060634524 0.041191645 0.12305094 0.048645873 0.052970145 0.17765824 -0.024956107 0.04444589 0.039039414 -0.121856146 -0.09295782 -0.009112906 0.001470487 0.059592616 -0.027547823
시간 -0.025233872 -0.0005950986 -0.0002706481 -0.00047302913 -0.026725823 0.0017739399 -0.09440576 0.055816967 -0.06428386 0.014655764 0.10988072 0.108929045 0.035611585 -0.050975792 0.0537769 0.021876078
지루 0.10871041 -0.17896317 0.115961604 -0.2595347 -0.15104663 0.15754683 -0.15074551 0.2086897 -0.17822729 0.162786 0.14225735 0.25204137 0.1482138 -0.21447738 0.21397793 0.12226714
중 -0.011990511 0.050302982 -0.049248997 0.06330994 0.08331978 -0.049930613 0.09900038 -0.008842154 0.008179125 -0.004102532 -0.06840486 -0.07006161 -0.04194607 -0.012171455 0.01512889 -0.07747755
재미있 -0.12804253 0.13533758 -0.13558611 0.112628356 0.10340882 -0.06663751 0.13475685 -0.11866942 0.10595732 -0.06681477 -0.15980098 -0.06592356 -0.14146434 0.1188078 -0.14062242 -0.10479475
년 -0.0115867 0.011286169 -0.03553924 0.04280358 -0.039841183 -0.047580905 -0.017133987 -0.0077700177 -0.021712834 -0.01647423 -0.024019098 0.018990867 -0.008038416 0.046224687 0.008959946 0.020670144
10 -0.10206052 0.021486847 -0.07785408 0.07518455 0.062297944 -0.02480052 0.21226719 -0.08766054 0.11973452 -0.05674834 -0.20600255 -0.2061236 -0.17407034 0.16935071 -0.10824282 -0.09975875
였 -0.039207462 0.029404165 0.022287317 0.012536879 0.030077882 -0.04782493 0.01024179 0.014937711 -0.034881964 -0.041621264 0.011083256 -0.022275789 -0.048531674 0.030721152 -0.047378283 -0.042207647
잼 -0.045457434 0.05282335 -0.029646676 0.14837778 0.103084385 -0.028440665 0.14183813 -0.1014869 0.09241459 -0.060414758 0.024327362 -0.06929763 -0.02358326 0.06355886 -0.090945646 -0.07874553
사랑 -0.02445034 0.00097325374 -0.05553031 0.046646845 0.06418139 -0.05394112 0.07150168 -0.03680905 0.060853515 -0.1084756 -0.12338169 -0.10202653 -0.13651703 0.13505991 -0.048776 -0.10304237
못 0.095291466 -0.08717166 0.020693254 -0.14453064 -0.035800558 -0.0046926504 -0.17148608 0.11904311 -0.04613726 0.049770072 0.027292036 0.12759817 0.06442356 -0.006566559 0.030134816 0.033237554
냐 0.08765415 -0.10171473 0.05438984 -0.08661787 -0.03858693 0.02400606 -0.056277398 0.03131727 -0.0439937 0.015278925 0.054517433 0.088660315 0.008707 -0.060026772 0.024130793 0.07959107
재미없 0.24770933 -0.22921218 0.17398465 -0.27638426 -0.26344115 0.2197076 -0.23491472 0.18852212 -0.13904527 0.21974565 0.18587443 0.24407785 0.18009175 -0.2357217 0.24717623 0.18602589
쓰레기 0.17634375 -0.23084986 0.21001478 -0.28794804 -0.27886358 0.13477539 -0.25021827 0.19941911 -0.20517805 0.20444521 0.21085605 0.26487112 0.14556625 -0.21929492 0.18116355 0.22410902
서 -0.011612064 -0.018030703 0.0059493487 0.026733276 -0.04267567 0.057653666 0.01296733 -0.034727495 0.0018600817 -0.035282217 -0.0673358 -0.06867915 0.024821963 0.055047464 0.035758145 -0.030778766
2 -0.008842086 -0.06490505 0.029968165 -0.11052432 -0.024238653 0.0054399427 -0.111031905 0.057746377 0.009921115 -0.007144405 0.11270659 0.07049571 0.07843097 -0.0047292127 0.012492957 -0.014413349
라고 0.028102193 -0.025369303 0.06956786 -0.063787386 -0.035086133 0.05125123 -0.085200146 0.07376149 0.030059507 0.048282284 -0.0019031923 -0.00091445586 -0.034208313 -0.035801455 0.064349204 -0.0128476685
야 -0.025824936 -0.03375741 -0.010812371 -0.041184817 -0.008926911 -0.0003325172 -0.054084033 0.0022882682 -0.020737909 0.039341036 -0.0070970524 0.033487618 -0.015260181 0.018275693 -0.021943333 0.034434497
니 -0.03246036 0.021404408 -0.032093383 0.027186932 -0.053368855 0.022883575 -0.045436278 0.017891418 0.016770292 0.0088172145 -0.017498767 -0.017893959 0.042388067 -0.021230746 -0.009519805 -0.020661809
면서 -0.04676833 0.042196024 -0.07107924 0.033957805 0.0060237898 -0.01853665 0.022237496 -0.07478157 0.01610366 0.010097189 0.0050147832 0.0021599685 -0.04400593 0.08926304 0.0133466795 -0.00056198996
번 -0.086366616 0.051036395 -0.011381524 0.05903507 -0.0074608936 -0.08120151 -0.0032935936 -0.0795483 0.026863283 0.009198963 -0.07100417 -0.04858892 -0.04879249 -0.008484421 -0.030492414 -0.036970414
다시 -0.019473953 0.002712957 -0.06380112 0.0019575462 0.009749177 -0.13829662 -0.0047697565 -0.0822148 0.10838571 -0.050918806 -0.08057692 -0.12281207 -0.06820108 0.06745809 -0.06568435 -0.1266643
나오 0.04722695 -0.01162432 -0.024338594 0.053343017 0.042124256 0.03266376 0.06205043 0.014601239 0.012071119 0.02018784 -0.012128625 -0.014493409 0.02252074 0.0008419797 0.017988583 0.040881783
작품 -0.04082823 0.039309993 -0.06483537 -0.001360401 -0.0036295438 2.0214091e-05 0.0821178 0.012125022 0.07195284 -0.015823808 -0.032729715 -0.05890924 -0.042101115 0.038443055 -0.03806547 -0.009881093
이거 0.0057581984 -0.0055462406 -0.038452074 -0.020968525 -0.0055266917 0.03902401 0.03629687 -0.011794121 -0.00079623586 -0.0027271162 0.021186296 -0.076743804 0.0361195 0.022631016 -0.009851854 0.015341266
하나 -0.007600073 -0.04735013 0.0402042 -0.038462017 0.019175231 -0.019535668 -0.056855246 0.025234824 -0.0019528875 0.04301263 -0.036595486 0.011184521 -0.023526814 -0.06046959 -0.006401336 -0.010839339
줄 0.019441051 -0.062212814 0.00020024748 -0.08010655 -0.049736407 -0.034269493 -0.061170354 0.028692732 -0.019692887 0.031914823 -0.043884102 -0.014513573 -0.014886046 -0.024554765 0.069618605 -0.05871119
해서 0.025985796 -0.050842334 0.02352173 -0.03992716 -0.0077569894 0.018768476 0.073424235 -0.0007285753 0.02445975 0.03543533 -0.058830436 -0.05281739 -0.05587827 0.032192316 -0.005186627 -0.043909658
개 0.02095877 -0.03453168 -0.037973125 -0.013623357 -0.04023699 0.01444491 -0.006605651 0.03490926 0.037946403 -0.018290577 0.033766013 0.044541076 0.048734073 0.025832701 0.03636038 0.038319837
남 -0.036239833 -0.0028878143 0.031092219 0.06640164 -0.026528118 0.029507192 0.113417245 -0.036452845 -0.026466485 -0.028358657 0.0022126625 -0.015733302 -0.025004936 -0.004659543 0.03236762 0.028537072
정도 0.018348314 0.0017546945 0.009715348 -0.056453895 0.030282376 -0.0129741905 -0.08528891 -0.014920604 0.004560388 -0.029585429 0.09091407 0.09913355 0.03338067 -0.054136164 -0.026940273 0.0136452345
마지막 -0.094673716 0.04904447 -0.072023034 0.058940344 -0.0010231041 -0.09488577 -0.047307428 -0.09758685 0.0064176037 -0.053376086 0.027981477 0.0052146143 -0.038197573 0.059413794 -0.049935002 -0.02035147
끝 -0.0025835717 -0.029384578 0.0055505745 -0.04687296 0.009059409 0.016033182 -0.056736127 -0.017132437 -0.0113052 -0.009900155 0.08748546 0.06349593 0.076267876 -0.07686764 0.006136024 0.018648362
이건 0.11029042 -0.102765776 0.05514341 -0.06703214 -0.07199107 0.07287634 0.12710989 0.09247196 -0.009622182 0.064532496 -0.061669003 0.028824884 0.0152574275 -0.018406747 0.08682171 0.023495184
액션 -0.049302768 0.030195113 -0.0019101583 -0.0016737333 -0.02786304 0.02100074 0.039792337 -0.035950355 -0.0002967875 -0.064139515 0.0058282088 0.03956483 -0.0043162447 0.04693667 -0.051352598 -0.055668887
임 -0.02740319 0.06257173 0.008124288 0.0041861655 0.056077622 -0.046765756 0.023446677 -0.042865224 -0.012667607 0.028611904 0.03802031 0.046522014 -0.032802407 0.0027089652 0.0308278 -0.053478975
ㅋ -0.014852847 0.0016907526 0.03034909 0.06944833 0.016348438 0.048606828 0.11894611 -0.0058206897 0.04753675 0.026084661 0.017384868 -0.06262441 -0.049953114 0.06018891 -0.043439187 0.017946305
3 0.030478733 0.018452391 -0.024994386 -0.085672826 -0.024957046 -0.0065903272 -0.06777474 0.07079092 -0.04965003 0.05032534 0.049339656 0.09539275 0.048764784 -0.07504319 0.028494373 -0.020680169
기대 0.06826717 -0.08803128 0.0485539 0.0026847373 0.060535286 0.08938761 0.18179278 -0.024094164 -0.031496916 -0.044033818 -0.08345748 -0.06590044 -0.11672849 0.017164536 0.04075751 0.030681504
입니다 -0.04146879 0.07000236 -0.012660241 0.07536105 0.024294455 -0.04243981 0.04065851 -0.03785991 0.020712733 -0.003776096 0.06594148 -0.066603266 -0.013232119 0.057421304 -0.048871536 -0.027645316
건 -0.0009799576 -0.05743661 0.045932192 -0.09551005 0.005645988 0.061499286 -0.058219664 -0.012119083 -0.0033580854 0.008647731 0.0015684824 0.023978503 0.012193522 0.035093796 0.010062324 0.04635265
라는 -0.05197285 -0.032329798 0.009835921 0.039227575 -0.008950844 0.012128096 -0.027184403 -0.021139244 -0.008173351 0.0027262077 0.034301773 0.06909167 0.030704046 -0.044435054 -0.013273713 0.018531188
분 0.073221415 -0.15353496 0.05738346 -0.086735696 -0.036871895 0.027173115 -0.06421855 0.09121594 -0.064449176 0.049940206 0.026731618 0.035025768 0.018808443 0.0025161263 0.03715334 0.114865206
완전 -0.022232633 0.015102712 -0.030368337 0.044567112 0.06824461 0.018373907 0.14131212 -0.058598433 0.0098473225 0.047308367 0.0076187267 -0.07437444 -0.05362898 0.02480239 0.04650841 -0.059617445
다는 0.08453503 -0.023010207 0.024822898 -0.067715555 -0.017449485 -0.020139689 -0.026976515 0.03384292 0.020137548 0.0012814092 -0.0494563 0.016205141 -0.045496207 0.044474147 0.042866092 0.045915246
참 0.012701015 -0.006853462 -0.023080898 0.027178764 -0.033556838 0.033188056 -0.019450122 0.014544581 0.004754205 0.018624624 0.013808854 0.06030514 0.076328576 -0.007894012 0.022465123 -0.012390988
많 -0.03409698 0.02603197 -0.09592785 -0.037698273 -0.009347972 -0.07005749 -0.08634225 -0.054055143 0.012851906 -0.045164604 -0.025072828 0.055048037 0.031650785 -0.004311759 -0.06466728 -0.064088546
처음 -0.049131904 -0.042564534 0.034533747 -0.03854079 -0.07159272 0.0030950976 -0.07052013 -0.009145542 0.0010651761 -0.028036036 0.043013822 0.049652826 0.09407655 -0.037332274 -0.0315883 -0.02586448
장면 0.037936505 -0.01788463 0.0017897828 0.003046162 0.027974553 0.008377512 0.03445114 0.00096893177 -0.046396155 -0.017223485 -0.026209751 0.024810975 0.01246355 0.005942017 0.028145254 -0.02370113
대 0.06372631 -0.07826678 0.046477444 -0.08589389 -0.04023339 0.023107987 0.011244276 0.06295646 0.0487246 -0.044699688 -0.11812875 -0.066120066 0.02231485 0.0473595 -0.031974338 0.0025535342
아깝 0.0042018993 -0.11426671 0.07117523 -0.03473163 -0.07592702 0.04626885 -0.038255837 0.084769525 -0.111865826 0.14018692 0.1692041 0.20903447 0.10251262 -0.13382809 0.109943636 0.090367034
다가 0.027282508 -0.08276897 0.020444447 -0.062467325 -0.022602892 0.08525189 0.005983471 0.043468244 0.019669224 0.04387819 -0.067024544 -0.007828753 -0.004493434 -0.08044818 0.06718901 -0.014287019
으면 0.04546994 -0.009980948 0.04039683 0.024823656 0.013688939 -0.013690091 -0.061055765 0.0023777513 -0.024744263 -0.0066758217 0.03324395 0.04042909 0.006236919 -0.019249536 -0.03589174 0.015076907
지금 -0.06389143 0.0031899733 -0.09436762 0.026312808 0.023648575 -0.0038932762 0.020111497 -0.042501584 0.055489324 -0.0044853063 -0.067169935 0.0031955538 -0.024549447 0.026226709 -0.07074726 -0.050469104
모르 0.018718822 -0.019102097 -0.010989291 -0.09308081 -0.028273774 -0.054576423 -0.0068274625 0.055187088 0.0036104952 -0.03613412 -0.101354316 -0.015365832 -0.0049389405 0.030614562 0.014224337 -0.049857132
이렇게 0.0655357 -0.064870596 -0.0149190435 0.076719366 0.06904575 0.052566018 0.1692191 -0.019384762 0.041079104 0.048174616 -0.106581286 -0.016783306 -0.0911164 -0.05305601 0.0066456087 -0.040046766
' -0.046374775 -0.05211495 0.027833896 -0.029112661 0.03902224 -0.046116244 0.012091682 -0.03293484 -0.015196157 -0.042022478 -0.040898804 0.028567104 0.015315558 -0.0044253296 0.051787976 -0.024439398
편 0.0055635218 0.081428185 -0.033529777 0.038433034 0.037190836 0.010986845 -0.009290225 -0.052811943 0.02979744 -0.050760712 0.027224382 -0.017388428 -0.005444877 0.07166363 -0.03126043 -0.017072434
일 0.039211407 -0.04534662 -0.0041520903 -0.013393273 -0.017264834 -0.05098369 -0.06016852 -0.02674421 0.027971156 0.007263088 -0.025806509 0.007383389 -0.031229636 -0.049154032 0.00055838336 -0.04411681
돈 0.07011423 -0.06448771 0.06907522 -0.044947065 -0.09078263 0.07693832 -0.103882864 0.11195111 -0.08303344 0.10583972 0.14013904 0.07449279 0.10178486 -0.09115847 0.11716355 0.1564346
이게 0.018292874 -0.02084262 0.04271216 -0.0058243554 -0.049839742 -0.003880469 -0.037249826 0.03804792 -0.015727492 -0.008866047 -0.001544059 0.0297582 0.023913998 -0.04410887 0.027782878 0.0029694398
성 0.02014785 -0.05738017 0.001246277 0.019772522 0.027703645 0.06506182 0.09946346 0.035406087 -0.010285058 -0.011689788 -0.047964066 0.01974465 -0.029799072 -0.07498742 0.05445611 -0.008775496
느낌 -0.017357666 0.014868295 0.011629933 -0.02227672 -0.032556243 0.05533805 0.027446672 0.025171082 -0.052715342 -0.032034554 0.099443294 -0.015814487 0.01652375 -0.059294276 -0.012499634 -0.013618151
시 0.014123764 -0.034405958 -0.025439568 -0.011463445 -0.0067572645 0.035568267 -0.035415642 0.05885218 0.0017745346 -0.03348175 -0.01635706 -0.007540034 -0.028614582 -0.029405555 -0.023117429 0.026083488
이야기 -0.0036998692 0.03131403 0.041756496 0.008174751 0.018434612 -0.026909405 0.07468134 0.0154679315 -0.005652626 -0.011137104 -0.056149784 0.020849036 -0.053194914 -0.032566164 -0.02769541 -0.045236826
최악 0.28456745 -0.226264 0.3599478 -0.20429006 -0.34975767 0.34451234 -0.23458228 0.24515796 -0.27425915 0.3504791 0.31913072 0.33751312 0.32515207 -0.38554567 0.35852233 0.31517053
된 -0.023569996 -0.0495851 0.015741281 0.026379397 0.027958645 0.0051433924 -0.008032221 -0.031993743 -0.042862583 -0.0046272366 -0.034463402 0.026196929 -0.01211873 -0.020507269 0.013508915 -0.038634486
봐도 -0.15799177 0.09214306 -0.05047946 0.19381766 0.016328145 -0.031983513 0.0465927 -0.035623137 0.030533101 -0.0702695 0.058215253 0.028122239 -0.04082189 -0.0001566608 -0.08741997 -0.093652956
님 -0.015470598 0.017434457 0.0004576832 0.032887258 0.07295565 -0.036716904 0.01504369 -0.05905005 0.008425954 -0.020850515 0.0128057925 -0.009052578 -0.07399022 0.012161296 -0.065955944 -0.029816248
어서 -0.07945707 0.042031758 -0.047890622 0.046627704 0.045906626 0.017665986 -0.028102564 0.028538665 -0.013202534 0.052095614 0.10194934 0.08572984 0.014417138 0.015540797 0.012091374 -0.035832208
애 0.024960719 -0.047788616 0.029573107 0.023556722 -0.025521211 0.02441317 0.070200026 0.048186094 -0.09094387 -0.007252731 -0.012322033 0.021296132 0.01193378 0.014915384 -0.012008365 0.067024626
전 0.041949015 0.053663455 -0.010781637 0.057537135 -0.027870743 -0.025888927 0.004455672 -0.02782425 -0.021035481 -0.03579232 -0.013520436 0.0083507355 -0.0044964943 -0.018605566 0.036389906 -0.037703164
넘 -0.04906125 0.03496456 0.007847739 0.058033362 0.053093597 0.033937935 0.13567817 0.000551231 0.04612404 -0.014858455 -0.09341742 -0.06197116 -0.042871065 -0.020625625 -0.030523133 -0.022053782
ㅠㅠ -0.02407054 0.08770191 -0.022837022 0.023395881 0.044214055 -0.06354369 0.07499108 -0.020887291 0.04867596 -0.04400239 -0.01564656 -0.03963143 -0.03917567 0.09520276 0.001027805 -0.015626976
인데 -0.014297709 -0.055945102 -0.027643818 -0.06549676 -0.020495065 0.021090258 -0.024585983 -0.029449426 0.030237818 -0.01904571 0.029348856 0.01803734 -0.034273304 0.007884001 0.05201486 -0.032561176
다고 0.17997772 -0.09849843 0.031557627 -0.16864568 -0.059805498 0.08777765 -0.07450155 0.109799944 0.029004743 0.014308584 -0.2322419 -0.05586751 -0.12724575 0.023906223 0.10655627 0.0669516
이해 0.02691406 -0.0031332874 -0.016682388 -0.03455297 0.012414393 -0.019435493 0.00998095 -0.011733304 -0.036256682 0.0019020261 -0.049293466 -0.04093208 0.0066188173 0.049535044 0.029339101 0.0308877
자 0.09390908 -0.047201037 -0.005406725 -0.037760776 0.016955664 0.028693872 0.008413199 0.038007393 0.009997683 0.07415326 -0.028540587 -0.015944866 0.06412864 -0.058737986 -0.0005773978 0.016714869
별로 0.13119523 -0.15369728 0.17691933 -0.25970322 -0.25631982 0.1710614 -0.25884116 0.2134461 -0.1565352 0.14616244 0.16714606 0.24073073 0.16542755 -0.15705557 0.1543714 0.121303834
그리고 -0.008229402 0.012253236 -0.057604693 0.13506152 0.055103097 -0.04980575 0.1682231 -0.015992742 0.01693224 -0.056304295 -0.035987675 -0.03572815 -0.032019753 0.01768152 0.018198952 -0.016654566
명작 -0.08888781 0.13239774 -0.09621428 0.12861928 0.20401105 -0.16800015 0.15015692 -0.16873023 0.105900034 -0.11920647 -0.19234386 -0.16118437 -0.1774556 0.15916452 -0.18402733 -0.10871727
여자 0.010802227 -0.021540785 0.049400084 -0.046547897 -0.046861887 0.059770353 -0.042391967 0.010748218 -0.07151266 0.016654601 -0.051730007 0.002779314 -0.019867 -0.048799668 0.0021470767 0.027482525
^^ -0.05736759 0.061744876 -0.021012986 -0.007354751 0.068070635 -0.087084584 0.023488801 -0.048139747 0.070452295 -0.10101927 -0.07679274 -0.019969407 -0.031354144 0.056265373 -0.044894792 -0.11003442
역시 -0.057345755 0.09248896 -0.013779743 0.07561179 0.044390634 -0.0525621 0.10429555 -0.056485847 0.017619684 -0.080540724 -0.0058815624 -0.09095642 -0.11214258 0.09553279 -0.017383616 -0.0341891
난 0.0020054625 0.0019717882 -0.064946815 -0.014300988 0.04278952 -0.046213 0.038184322 -0.044361115 0.039908282 0.012999018 -0.03374626 -0.028325915 0.013628322 0.053672705 -0.03599341 -0.019887
이상 0.013439249 0.03571526 0.028659876 0.027833646 0.047897425 0.0046433904 -0.071223505 -0.01966103 -0.023335995 -0.03096371 -0.012506385 0.01908495 0.016235866 -0.018733958 -0.023148809 0.018231882
또 -0.030894613 0.03938314 -0.07456888 0.08073402 0.0662359 -0.023856984 0.07805278 -0.031187216 0.025514394 -0.027115721 0.028057957 0.04711817 0.01509834 0.037611663 -0.06175293 -0.043594707
걸 0.050681073 0.0075539113 -0.016239436 -0.03736232 -0.05428397 0.009873644 -0.02917802 0.0069379625 0.030439738 0.02873173 0.020941412 0.04370686 -0.021353932 -0.0054618474 0.023935592 -0.0025205337
한국 0.018840633 0.057129946 -0.05732176 -0.04718491 -0.014286241 -0.030944632 -0.006031643 0.009638382 -0.016535938 0.0039281105 -0.05604865 -0.03416205 -0.022415485 0.05669817 -0.031277858 0.031408694
는지 -0.0118805785 -0.0052623823 0.049988758 -0.016007036 -0.01290694 0.08443116 -0.006819362 0.07599333 -0.020493563 0.050929252 0.06619296 0.04928513 0.03461633 -0.033832397 0.014156871 0.007875489
많이 -0.03130685 0.034084048 -0.03126747 -0.018341625 -0.008240942 0.018204324 -0.007624478 -0.061421115 0.034081876 0.028028432 -0.0066861557 0.04905475 -0.008988529 0.01627415 0.031436767 -0.0031290073
에게 -0.073581174 0.016613217 0.0038467401 0.07474136 0.018902596 -0.0006460049 0.0024524634 -0.019035717 -0.038681827 -0.049229246 0.026873078 -0.04667689 0.02864942 0.0049188547 -0.0703773 0.018261116
부터 0.022428337 0.003820326 0.041468255 -0.07745994 -0.04079212 0.0016542128 0.043151252 0.044335105 0.0061388677 0.046745334 0.006261938 0.028251864 -0.04466223 0.037605874 0.018199945 -0.05309765
만든 0.01555798 0.023422418 7.711904e-06 0.0854184 -0.036526673 0.034642104 0.09069404 -0.009837553 -0.057779767 -0.0056471643 0.031492528 -0.0030499797 0.05353567 -0.062148437 0.07676013 0.037279595
주인공 0.0049985084 -0.06679787 0.00030090046 0.013652297 -0.0031095634 0.018407812 -0.025749985 0.068128355 -0.06935597 -0.00090825977 0.09582948 0.00051829556 0.060026404 -0.057027247 0.011282855 -0.0017573377
받 -0.06526589 0.031016883 -0.0039693275 -0.023131128 -0.026963681 0.008000853 -0.0026580212 -0.037007924 -0.015799249 -0.046574917 -0.017671147 -0.044581685 0.032807164 -0.03689204 -0.00554517 -0.056198124
합니다 -0.018151416 0.062225625 -0.00053115265 0.029826108 -0.0029925143 -0.01911052 0.0567702 -0.048077922 0.07384212 -0.07175149 -0.003355607 -0.012929731 0.0049292566 0.04914035 0.019237773 -0.063425
우리 -0.09721691 0.10000391 -0.057469036 0.07420409 0.020000236 -0.043557487 -0.035898887 -0.029165052 0.10272613 -0.058642693 0.021010734 -0.060976833 -0.07685014 0.063224696 -0.036635008 -0.049218208
두 0.05297725 -0.019432733 -0.03610071 -0.05469833 0.020009466 0.033762928 -0.06574708 0.043139573 -0.027551666 -0.016881976 -0.058930144 -0.05596896 -0.030413987 -0.019040098 0.031953078 0.012196128
살 -0.07268955 0.010277368 -0.046863332 0.11313046 0.012234462 -0.004023738 0.090494245 -0.0021489584 0.047519416 0.02119805 -0.034058094 -0.0046549765 -0.028471297 0.006457921 0.035519302 0.015076381
!! 0.07463203 0.037818663 0.06149553 0.029110705 0.036329255 0.05665162 0.013938412 0.0007293214 -0.031924248 -0.043759756 0.009673468 0.025049204 -0.05757674 0.042921193 0.017781138 -0.006082595
길 -0.03224893 -0.02449361 0.02206187 0.0066345194 -0.036435477 -0.020723091 0.020245817 0.014441011 0.0046624127 -0.022523003 -0.013897837 -0.00175701 -0.017719727 0.032253984 -0.03325108 0.061629355
엔 0.024519663 0.009862172 0.015372224 -0.08032549 -0.0034383363 -0.020561326 -0.1725071 -0.026627736 -0.028925871 0.013579994 0.09295907 0.07288209 -0.007726374 0.011372508 -0.056954842 0.023794333
괜찮 -0.12668519 0.060423095 -0.10186295 0.087559156 0.06683426 -0.07559981 0.10409403 -0.12759386 0.13852035 -0.073412 -0.100239165 -0.08712396 -0.10863286 0.10784271 -0.0924404 -0.13944186
기억 -0.06597697 -0.0033736834 -0.047811937 0.08635366 0.019851873 -0.035591405 0.1210089 -0.025178602 0.033808257 -0.041090168 -0.038516127 -0.071026266 -0.029292388 0.067646526 -0.051074028 -0.07356283
연출 0.041798916 -0.016925124 0.023526441 -0.044279348 -0.066362314 -0.002542958 0.07135705 -0.0019852717 -0.029618144 -0.013809117 -0.018668938 -0.004667756 -0.018451696 0.016760174 -0.008591363 0.028161032
한다 0.02189502 -0.012645413 0.014960332 0.03241663 -0.039826643 -0.04764485 -0.009996007 0.032074854 0.05619507 -0.0544379 -0.03104968 0.01850166 -0.054775335 0.053755585 0.028980931 -0.061245073
때문 -0.01799881 0.00086416944 0.011738793 0.03642484 0.07516579 0.061095074 0.110994615 -0.004450588 -0.014775792 -0.011820504 -0.06215866 -0.046179 -0.06979078 0.01221247 -0.04805613 0.03455815
이나 0.036142725 -0.010430523 0.006782909 -0.04898691 -0.03458072 0.04412938 -0.01567276 0.0053288555 -0.048230864 0.009307758 0.051078297 0.032432213 0.062692225 0.00544626 0.05937788 0.009703933
ㅎㅎ -0.047036946 0.106203675 -0.039352864 0.10493405 0.022111446 -0.020763291 0.023805715 -0.030119041 0.026901122 -0.06681666 -0.011607233 -0.039530147 -0.06557587 0.032483544 -0.10000745 -0.04433544
요 -0.04104782 0.08024642 0.024896095 0.061947312 0.04789468 -0.0070055122 0.06625027 -0.0033373532 0.055314098 -0.043938167 -0.020769725 -0.04618345 -0.014156603 0.000104101666 -0.0015332126 0.0071152556
저 -0.05794706 0.032346487 -0.039596204 -0.051203433 -0.016199332 -0.054143727 -0.0583291 -0.09157355 0.07119856 -0.020168103 -0.006459916 0.03430481 0.0024331622 0.020896316 -0.008171831 -0.046795763
재 -0.079285614 0.051797573 -0.07442576 0.11842455 0.04142122 -0.06398857 0.05254164 -0.017398601 0.0627667 0.0026213094 0.038237352 -0.015318296 -0.017577926 0.0657174 -0.078314446 -0.0031851497
꼭 -0.107151 0.05938574 -0.09407388 0.07728726 0.043525435 -0.04833613 0.12432501 -0.11696983 0.057050668 -0.04697089 -0.07454635 -0.06565106 -0.12560882 0.07210912 -0.10821652 -0.098350294
랑 0.042870443 -0.047037818 0.040197205 -0.0097715305 -0.023255602 -0.024648625 0.030234551 -0.016136594 -0.025448019 -0.01883914 -0.0026496497 -0.057887018 -0.021270636 -0.0035903973 -0.0044350703 0.038874585
며 -0.038383096 0.011147913 -0.03298316 0.030701125 0.036507703 0.044980694 0.0044542965 -0.022652537 0.046004493 -0.026962638 -0.04186506 0.016393509 -0.06339332 -0.032250986 0.0095743295 -0.0007264252
현실 -0.017811904 0.031547025 -0.06281324 -0.018016104 0.07415752 -0.048856318 -0.0033561285 -0.023913423 0.023639103 -0.050349746 -0.062279623 -0.0696245 -0.0049065207 0.04026923 -0.09425713 -0.08501592
긴 0.07641434 -0.05778959 0.024525853 -0.17577073 -0.07820999 0.012876321 -0.0993344 0.09366227 0.00297648 0.008806862 -0.049282387 0.06882583 0.054969646 0.0060235285 0.034628864 0.021996645
ㅡㅡ 0.004328458 -0.0026254314 0.12552354 -0.09500226 -0.03914773 0.11144264 -0.08883171 0.08859545 -0.05883746 0.074811034 0.091559425 0.050131403 0.08319112 -0.07278116 0.033497803 0.11870526
무슨 0.123712406 -0.042366486 0.07773436 -0.08698571 -0.03608069 0.09105315 -0.012267611 0.075220674 -0.05405208 0.052139234 0.044017464 0.08431487 0.01273033 -0.07148707 0.0660192 0.03351761
내내 -0.034494154 0.014995733 -0.019934153 0.045362037 0.0087389685 -0.029167071 0.1212884 0.04661375 0.0014877815 -0.00404596 0.032412603 -0.01524839 0.0066214404 -0.017804729 0.010977599 -0.0068327533
결말 -0.045719698 0.046853077 -0.054338355 0.04263586 0.0042419205 -0.012154087 -0.09524155 -0.019743592 -0.047132224 0.0032011797 0.059075244 0.0060815043 0.060310546 -0.02713538 -0.031339735 -0.0029926652
죽 0.026782557 0.031391904 0.0061404374 0.029853262 0.015657682 0.01995965 -0.010645617 -0.0017829526 -0.07800598 0.039781637 0.0035055026 -0.013434527 0.027894333 0.015514195 -0.015360597 -0.0017609842
남자 -0.04750098 0.050234377 0.004912138 0.09070566 -0.04149229 0.0023831383 0.08593113 -0.053779073 0.012901617 0.010095513 0.040686194 0.045567762 -0.008204663 0.005434718 0.023980528 -0.037749276
세요 0.043710742 -0.019483367 0.026158538 -0.003646407 -0.049707595 0.0076891854 -0.018817972 0.027494108 -0.0054143444 -0.050259475 -0.046468087 -0.025371632 -0.062453955 0.0105544785 0.03274781 -0.039732754
전개 0.056074057 -0.043573305 0.041971162 0.018851554 -0.07921309 0.048911992 0.02758335 0.0664106 -0.02162282 0.017303407 0.009920555 0.053356647 -0.013160739 -0.07269696 0.053028837 0.038846537
마음 -0.11789653 0.03872145 -0.13487779 0.0039016923 -0.0032109 -0.12707472 -0.04916919 -0.085856155 0.031872008 -0.10269886 0.020922888 -0.036758427 -0.06723336 0.02527561 -0.04893113 -0.1022449
소재 0.13532673 -0.15320596 0.08943328 -0.1321287 -0.04085772 0.09276949 -0.04417269 0.09649652 0.01181237 0.07139479 0.0021458883 0.042299878 -0.028558593 -4.6548572e-05 0.04175626 0.010624792
속 -0.0129200835 0.05199818 0.03302748 0.012408496 -0.03096625 -0.050223827 -0.018288154 0.022625746 -0.017125472 0.03523465 0.077075034 -0.029290147 -0.020366006 -0.04354073 -0.03676248 0.016491529
공포 0.032775473 0.024966853 0.049271118 0.037490293 0.0195872 0.06799527 0.019983606 -0.0033768055 -0.020154124 0.042149134 0.05971266 0.018865723 0.060208675 -0.0091625415 0.08024701 -0.005643004
아서 0.0025394736 -0.051277477 0.012893573 -0.028992528 -0.02706272 -0.032021135 0.04011819 -0.011872185 0.032863136 0.056732208 -0.066327155 0.060357407 -0.017979186 -0.0030369363 -0.0008984289 -0.011544564
다른 -0.047209844 0.01332579 -0.04379557 -0.005265617 -0.027192041 -0.054653607 -0.13258843 0.039222613 0.03269331 0.024875112 0.08069223 0.022618193 -0.0032802662 0.018028608 -0.015109834 0.018812174
씨 -0.0019785815 0.008420976 0.014732956 0.06483918 0.02009878 -0.044306077 -0.050894443 -0.03578922 0.009686813 0.033866163 0.0364684 0.072072364 0.031026488 0.014052587 0.016089588 0.023503419
인생 -0.0019911984 0.020525534 -0.104029484 -0.055187196 0.06770426 -0.12026894 -0.097284704 -0.06348401 0.05716855 -0.05092255 -0.10383005 -0.060090866 -0.07632511 0.098274335 -0.043661296 -0.07686829
~~ -0.018209955 0.07310185 -0.0063817804 0.04577733 0.019461151 0.02149752 0.13153496 -0.012302398 0.01727075 -0.02396263 0.025820604 -0.030987145 -0.0024530534 -0.022383833 0.00076037046 -0.039332613
짜증 0.11789318 -0.13073382 0.16213235 -0.1365385 -0.13820295 0.15786387 -0.09450742 0.1577505 -0.07505632 0.10097796 0.14105895 0.13756058 0.12750056 -0.1551523 0.14647436 0.10186579
짱 -0.101515375 0.108354256 -0.06854015 0.15174513 0.11370237 -0.08849981 0.23174599 -0.08860911 0.10286225 -0.06340037 -0.06584104 -0.12765536 -0.14593373 0.084006585 -0.10624323 -0.057876218
뿐 0.017763436 -0.04084311 0.057090174 -0.0925662 -0.009850928 -0.010161268 -0.06850185 0.057652038 -0.062736414 0.06424188 0.022028148 -0.001563549 0.06261072 -0.07417671 0.07879113 0.0040716534
은데 0.008933431 -0.046910636 -0.051423922 -0.06442149 0.029155722 0.031204898 0.08162059 -0.009568872 0.022649512 0.023112638 -0.14247248 -0.025287138 -0.016267743 0.06940123 0.029473208 -0.046146087
별 -0.0061062737 -0.03586631 0.053386096 -0.03470458 -0.013941869 -0.0070983106 -0.030046565 -0.023093218 0.020921705 0.031989068 0.064979956 0.041362945 0.073010005 -0.026515331 0.047887564 -0.021285223
아요 -0.07321549 0.06829472 -0.010388689 0.047434773 0.041356266 -0.062913574 -0.037776705 -0.031338125 0.00728202 -0.04217929 -0.012823029 0.026057411 -0.008126158 -0.003230772 -0.05666895 -0.0454062
유치 0.15895821 -0.2000247 0.116600305 -0.18488714 -0.18096691 0.084901005 -0.08624253 0.11284695 -0.15856482 0.17902313 0.06207239 0.19366962 0.08533324 -0.13097382 0.16460489 0.10774003
가장 -0.043581415 -0.004953039 -0.053995956 0.072266445 0.060494196 -0.04635233 0.054646228 -0.011104604 -0.0246606 0.00773365 0.05668655 0.0042747664 -0.041236453 -0.001676624 0.029492058 -0.001901549
필요 -0.17234418 0.15096954 -0.15252185 0.12318282 0.10443103 -0.15919966 0.028230429 -0.1340194 0.054226406 -0.10626043 -0.006246311 -0.079696074 -0.100170866 0.10989684 -0.11220493 -0.0831246
음악 -0.040970527 0.05920658 -0.12463364 -0.019062368 -0.012356151 -0.040919416 -0.08960915 -0.04883963 0.0679676 -0.04107155 -0.06319343 0.02106087 -0.035560995 0.07571062 -0.06455209 -0.026296522
) 0.027702417 -0.052534513 -0.027822316 -0.02889129 0.032168802 0.046632774 0.026734151 -0.022333182 0.02160161 0.051676884 -0.0707369 -0.029367026 0.036993694 -0.013841813 -0.0049662692 0.051490713
일본 0.018897021 -0.019444529 -0.03882313 0.0062283836 -0.039732527 0.048268642 -0.031994965 -0.0030908044 -0.061652325 0.02141273 0.06408746 -0.018869381 0.027448645 0.024302386 0.0060760537 0.051373135
낮 -0.101181485 0.17019467 -0.14127095 0.12932141 0.0775646 -0.19532621 -0.06105649 -0.11317145 0.12555143 -0.11182816 -0.024640525 -0.11371124 -0.022121271 0.1103819 -0.16183983 -0.15889697
아이 -0.010081719 0.016023744 -0.035381783 0.11145564 -0.034897055 0.011629301 0.056776676 -0.048234105 0.010154931 0.05061563 0.03615937 0.007259123 -0.04204029 0.021816589 0.02319698 -0.004130821
;; -0.010908895 0.0066045015 0.024963573 0.029260501 -0.03190275 -0.027040783 -0.031069277 -0.04478935 -0.010949693 0.06983345 0.04094303 0.062798396 0.07090233 -0.03235302 0.033568233 -0.0038898122
오 -0.0031967605 0.07019174 -0.019425914 0.016897162 0.06521783 -0.036239862 0.02768822 -0.06853312 -0.009457424 -0.0017753794 0.0661967 -0.04411712 -0.01989556 -0.036032766 0.014981584 -0.023154374
반전 0.03499049 -0.031069947 -0.03638026 0.006489492 0.003891571 0.017316269 0.065589145 -0.04356138 0.07022951 -0.052477956 -0.11483553 0.023329666 -0.012327265 0.06710191 0.009950918 -0.06138123
수준 0.0684402 -0.04999707 0.092524365 -0.055670157 -0.06799214 0.11891857 -0.090095505 0.09866725 -0.08599671 0.05130112 0.04665096 0.044747766 0.08229637 -0.034854393 0.07414931 0.13043837
다니 -0.009045191 -0.01030484 0.0006094863 -0.053195897 0.0085203005 -0.020781912 -0.04388713 0.06212084 0.054325845 -0.003920923 0.011673241 0.006551992 0.034025144 -0.028063644 -0.03019703 -0.038867917
웃 -0.0012703903 0.039168064 -0.012039789 0.0010846086 0.066142604 -0.028906034 0.0145029025 -0.03339385 -0.010234664 -0.052755892 -0.06163779 0.021667022 0.029436447 0.07064054 -0.026417935 -0.041748215
매력 -0.014321078 0.042191487 0.0145469885 0.07787667 0.08477998 -0.054816242 0.174301 -0.090111375 0.03344152 -0.10080086 -0.22547889 -0.1604592 -0.080204815 0.100497246 0.023237616 -0.052221995
맞 0.051428974 -0.072820626 0.021489931 -0.0348345 -0.021705367 0.06335022 -0.00053626194 0.017527102 -0.03693421 0.010455711 0.017670358 -0.03288048 -0.025010405 -0.0078021064 0.089180574 -0.015175881
인지 -0.042886607 0.031535856 -0.0064886347 0.030465545 -0.02885295 0.011466145 0.026125116 -0.022971757 -0.04265473 -0.008685456 0.07656315 0.035519186 0.07119135 -0.053796344 0.021445936 0.049036603
가슴 -0.1433157 0.14291932 -0.03840157 0.13374837 0.10859986 -0.10656918 0.1496672 -0.10549552 0.12104875 -0.055399064 -0.083433285 -0.034199372 -0.024884606 0.12357252 -0.0891296 -0.10838459
없이 0.041445576 -0.06567281 -0.012399509 -0.14695695 -0.007915792 0.0068567004 -0.056577962 0.036375757 0.056598064 -0.041777246 -0.04651233 0.013236711 -0.026873423 0.010408867 0.007624555 -0.01016487
원작 0.103036776 -0.0944299 0.046455503 -0.054473236 -0.071243964 0.0841737 -0.119962364 0.056397215 -0.08946384 0.014739452 0.07145773 0.0153116165 -0.00415455 -0.071541674 0.07737785 0.07650096
ㄷ -0.013244523 -0.005519504 -0.07390301 0.025592491 -0.02597096 -0.022637252 0.026513472 0.01349729 0.058180217 -0.023299871 -0.01869768 -0.006871369 -0.014306575 0.011467837 -0.040404297 -0.040600352
인간 0.035079036 -0.019141242 -0.11138762 -0.055468924 0.047421914 -0.048572637 -0.15947135 0.026073406 0.09417663 -0.0043985364 -0.075722605 -0.0034301365 -0.038848072 0.030363677 -0.05736637 -0.07208898
데 -0.027625795 -0.050571166 0.0019990734 0.021141537 0.004102348 -0.025250768 0.037057884 0.032190315 0.019972758 -0.03318323 -0.020288208 0.00097112084 -0.036085963 0.027851822 0.038903214 0.008925863
굿 -0.048802745 0.07082722 -0.18748638 0.086225614 0.13955562 -0.11544384 0.054390464 -0.13234988 0.13473968 -0.15735658 -0.1548681 -0.117484525 -0.09723749 0.20234609 -0.17269258 -0.16926827
ㅠ -0.030175263 -0.009201049 -0.050274186 0.021404527 0.03159882 0.011605892 0.029690234 -0.0046888376 -0.017473143 -0.025926923 -0.07139625 -0.025780944 -0.032644793 0.05309624 -0.018672008 -0.043502897
높 0.08816987 -0.08187843 0.054337706 -0.13299105 -0.033167705 0.055673838 -0.05559401 0.068389855 -0.067827486 0.053490512 0.04374653 0.073231526 0.06507907 -0.05903598 0.12463342 0.028959563
밋 -0.095573016 0.056954663 -0.08788643 -0.0113688065 0.08211813 -0.11896218 -0.0035026954 -0.077901125 0.04997195 -0.041725885 -0.02862158 -0.046015266 -0.009472846 0.04350094 -0.14609106 -0.05542562
( 0.005576114 0.0008326368 -0.017369676 -0.008105704 0.017799022 -0.045481123 -0.024596766 -0.026488317 0.0011663145 -0.013114728 0.017075302 -0.040876213 -0.029489074 0.010206141 0.032869525 -0.0038704635
만드 -0.02058576 0.027751602 0.010671712 0.022078257 -0.00051008695 0.046599865 0.099324115 -0.0020257873 -0.024487333 0.00084104325 0.03778641 -0.047079325 0.0361905 -0.06186883 -0.020927174 -6.698724e-05
급 0.026232764 0.058283374 0.0044255923 0.057167917 -0.024122925 -0.037731335 0.014136124 0.006708609 0.021040069 0.06513545 0.017688816 -0.017221691 -0.013418825 0.0021177586 0.0026939423 0.019941153
눈물 -0.10227123 0.10957764 -0.094612025 0.15320097 0.10503106 -0.07974321 0.16551948 -0.07186713 0.085033104 -0.14837654 -0.06623782 -0.110542566 -0.10906703 0.1364843 -0.13192965 -0.07224675
보여 0.004345044 -0.014839584 -0.022298908 0.027646212 0.0011132546 0.023159716 0.028887166 0.048297092 0.03571646 -0.02215111 -0.033735067 -0.0063359393 0.028877227 -0.025468193 0.009164876 -0.037984394
준 0.08036837 0.0013750424 0.019996962 -0.016870322 0.00033136763 0.021469321 0.045584172 -0.006774644 -0.007689884 -0.009074329 -0.12902588 -0.021608854 -0.06836602 0.015567439 -0.017978745 0.03928828
찍 0.013625614 -0.028920064 0.07588049 -0.01729272 -0.01225235 0.030985696 0.0078026 0.03864222 -0.08902986 0.077354945 0.09099878 0.05639245 0.03325175 -0.09290851 0.054925404 0.04454675
인가 -0.0268923 0.00726859 0.035088863 0.008186699 -0.045075834 -0.023983179 0.024144633 0.014908661 0.020466952 -0.028327143 0.036428522 0.057340536 0.044883646 -0.058276415 -0.013449821 0.0035518236
노 0.18627018 -0.17298794 0.18116483 -0.25182605 -0.18688348 0.1780654 -0.21411121 0.17363086 -0.17185023 0.18541022 0.11656561 0.18680212 0.19475134 -0.2170457 0.21519521 0.16977897
을까 0.006512954 -0.014833018 -0.025722638 0.046340693 -0.032935437 0.04203813 0.07188527 -0.034501825 -0.0011874451 0.05193035 -0.0016655766 -0.0026302142 0.026315143 0.028621899 0.030035218 -0.009825054
용 0.034997527 -0.049627997 0.08249114 0.013894417 -0.04817126 0.055975486 0.013371466 0.0066118855 -0.03150895 -0.012770325 0.06946227 0.008497884 0.00988639 -0.024167564 -0.016302375 0.028523253
코미디 0.04225986 -0.03535358 0.04532896 -0.0055830586 -0.007299767 0.019515581 -0.023484709 0.04325855 0.016905827 0.033518646 0.06496345 -0.035563547 0.005226383 0.024376405 0.0014124464 -0.014682687
마 0.016788578 -0.10385362 -0.01713318 -0.02169429 -0.02293643 0.04185301 -0.087137975 0.06961559 -0.040297322 0.00096058607 0.011034278 0.007415791 0.084805615 -0.055565603 0.06472359 0.072852485
화 -0.010201368 -0.01110518 0.0032570257 0.034207523 -0.053791415 0.005599983 0.018162604 0.052916873 -0.06256063 0.03596086 0.09612358 0.00838475 0.063164845 -0.0209083 -0.0041531464 0.08157314
신 -0.05274475 0.032760534 -0.010934114 0.061270516 -0.01212794 0.019057946 0.060503364 -0.0182555 0.016358884 -0.010724522 -0.044870976 -0.037298698 0.021228695 0.08335588 -0.038395837 -0.034116164
모든 -0.0015888112 0.014604666 -0.0077093067 0.06033058 0.038735297 -0.04159647 0.023597011 -0.06758887 0.059281897 -0.0553721 0.005500674 -0.016970526 -0.023971692 0.04778385 -0.028951827 -0.09041439
쓰 0.046438742 -0.02384915 0.038153846 -0.035131145 -0.05183868 0.012191893 -0.0133868335 -0.019738331 -0.084787086 0.05202075 0.06696851 0.009173727 -0.014278955 0.0023516985 0.021344159 0.06479155
여 0.050114565 0.05309333 -0.0076808683 -0.005432576 0.03889185 -0.027541794 -0.023696927 -0.007777469 -0.014454424 0.040113464 -0.0076823137 0.028893953 0.038176503 0.03663577 0.026278932 -0.0035065957
5 -0.00492673 0.09889728 0.013851592 0.104391254 0.008641425 0.0028549493 0.09292897 -0.0121549135 0.0037654594 -0.047020756 -0.030444546 -0.039492514 -0.089064516 0.02326617 -0.080621235 -0.019150186
아직 -0.03790879 0.052406784 -0.044625644 -0.04454471 -0.013625783 -0.0735408 0.036887057 -0.0042183246 0.06529889 -0.06827373 -0.049744993 -0.08197339 -0.10638417 0.023547024 -0.040905904 -0.01814753
추천 -0.07949944 0.026449136 -0.04867524 0.11851453 0.014055221 -0.06640485 0.076453425 -0.013497872 0.019000001 -0.026477117 -0.07495577 -0.09750769 -0.031804934 0.08992327 -0.067891546 -0.08351575
처럼 0.038632024 0.028494857 -0.052026022 -0.07083918 0.018239593 -0.040844508 0.029174918 -0.029816162 -0.020045971 -0.049237523 -0.06343405 -0.009169093 0.022443121 -0.00020518863 0.014578186 0.031172287
눈 0.057223283 -0.04430791 0.02416671 -0.100315414 -0.104912534 0.009188017 -0.18323652 0.03031743 0.022769723 0.009711304 0.014980557 0.018722147 -0.00024122582 -0.00035124068 0.030758992 0.030000279
아닌 0.09064334 -0.12341998 0.014920679 -0.20909762 -0.1190555 0.013383955 -0.18953365 0.07655731 -0.010719257 0.09406585 0.016362911 0.09475997 0.064568646 -0.09152494 0.030880518 -0.010836559
자체 -0.012272965 0.03476616 -0.01537409 0.051080942 0.015881902 0.03736086 0.06542848 -0.028696612 0.023410195 -0.00067881355 -0.009101575 0.0055145533 0.034086213 0.009618787 -0.011292236 0.04784858
울 -0.12749542 0.09964489 -0.09204038 0.18732847 0.13163276 -0.04006918 0.080550075 -0.11237519 0.05220801 -0.12546769 0.021551095 -0.04751285 -0.093677364 0.0860605 -0.066727646 -0.11677439
몰입 0.025413472 0.069651835 -0.046149343 0.08838557 0.08838316 -0.0021841377 0.24443848 -0.056318574 0.07916577 0.0141226165 -0.011980696 -0.08603286 -0.03934713 0.027601305 -0.041042145 -0.066145875
4 0.03783231 -0.009284694 0.016251344 -0.099961616 -0.02448245 0.002743432 -0.15813608 0.06506296 -0.027096452 0.020190282 0.11402489 0.03735825 0.046715356 -0.089578025 0.0738967 0.01758434
대박 -0.12072471 0.12513192 -0.11199753 0.019477017 0.06373184 -0.16859062 0.06661299 -0.14654505 0.098890886 -0.13452408 -0.09714105 -0.03709951 -0.06524177 0.055333834 -0.08410208 -0.102267586
몇 -0.03840943 0.043109123 -0.015748262 0.06597962 -0.006323016 0.02120796 0.18225345 -0.0688555 0.034664907 -0.0545571 -0.04588175 -0.026695805 -0.048074502 0.03002217 0.01725093 -0.06967063
스럽 0.016935311 0.0043166517 0.03204423 -0.026088491 0.04956628 0.015591707 -0.041144013 -0.012654466 0.02539948 -0.033056512 0.019531576 0.008981834 0.047301866 -0.025499772 -0.035068654 -0.04705374
실망 0.17634128 -0.11858954 0.16040625 -0.16236529 -0.24303626 0.17890526 -0.21081196 0.15899561 -0.1461074 0.18081422 0.18166251 0.19985819 0.22776987 -0.20271482 0.14688376 0.21592955
는다 -0.06922412 0.05678322 0.01730539 0.019082187 -0.0262205 -0.019998183 0.01857286 0.03642147 -0.027797863 -0.022289028 0.038505692 0.05488683 0.04525539 -0.051845998 0.011388979 0.008232954
대한 -0.014203328 0.040644143 -0.03759998 0.042341117 0.0075782673 0.01421531 0.09559437 0.0050486405 0.0013902996 -0.03591103 -0.02073008 -0.021520078 -0.050899204 0.045522824 -0.0053591174 0.008212095
죠 -0.08162925 -0.012486511 -0.039033704 -0.038610984 0.022742495 -0.093646616 0.03648866 -0.023510227 0.06996447 -0.031291336 -0.02669868 -0.027159728 -0.034689862 0.023787856 -0.050570153 -0.06556334
란 -0.046326485 0.040453542 -0.0201645 -0.0052090622 -0.01634508 0.023906382 -0.024401505 0.036468893 -0.043833688 -0.031114122 0.053670622 0.009300705 0.028042309 -0.014158162 -0.028569734 0.006967057
그런 0.01647641 -0.0141421165 0.017498482 -0.048000697 -0.025790993 -0.024211677 -0.045245465 0.04635863 -0.01714972 -0.041676957 0.01775222 0.049717676 -0.050419368 0.020807909 -0.019626742 0.013449487
솔직히 0.005443941 -0.07926355 0.051791906 -0.08273059 -0.0048520914 0.022988651 -0.042484753 -0.013287178 0.014915738 0.005880997 -0.017973058 -0.022291405 -0.0006603371 -0.0094454335 0.075519815 -0.01059628
캐릭터 0.040066794 -0.01856828 0.05536882 0.06386405 0.04831313 -0.0041678385 0.119076446 0.039194718 0.028688848 -0.027482152 0.032756094 0.056742746 0.004437383 0.014138092 0.0791747 0.04510404
ㅎ -0.042874 0.066275395 -0.019868875 0.07204672 0.026978467 0.0010331167 0.099958144 -0.03339168 -0.040954128 -0.0589243 -0.00010794168 -0.070894785 -0.017231733 0.00465882 -0.025253952 -0.015997898
모두 -0.022235947 0.051594336 -0.06293828 0.018923119 0.028680937 -0.024252841 0.108215444 -0.06389385 0.08101619 -0.060782906 -0.13634562 -0.11863273 -0.10353991 0.07377236 0.0168946 -0.068068035
아주 -0.026680939 -0.017075809 -0.026781654 -0.010144492 0.054412596 -0.025398662 0.06081794 -0.048396643 0.009565339 -0.045198094 -0.008061369 0.019631445 -0.075207874 0.06903058 0.016749447 0.026221132
- 0.0032599764 0.03081702 -0.0030465766 -0.05336185 -0.025002029 0.034333628 -0.016296651 -0.017792948 0.030593187 -0.055699997 -0.028532919 -0.02216279 0.026508301 -0.016436145 -0.029046867 0.03701401
가족 -0.013755375 0.02301006 -0.07884855 0.11185099 0.060729794 0.016708495 0.120211296 -0.0998733 0.0847355 -0.00089854386 -0.09419943 -0.022926107 -0.08073257 0.033546425 -0.02920296 -0.048686832
여운 -0.15714133 0.14850485 -0.15098788 0.17124487 0.19318798 -0.19738746 0.31089118 -0.14463077 0.23579365 -0.15652491 -0.28155333 -0.16638874 -0.2292352 0.21257395 -0.20713584 -0.19623971
건지 0.01712288 -0.07505698 0.028584305 -0.05521268 -0.020750342 0.061349753 -0.06484228 0.05249319 -0.06713154 0.012012752 0.08531674 0.030966887 0.06335834 -0.028351344 -0.012453848 0.044678334
전혀 0.074595384 -0.07985737 0.06181712 -0.12314488 -0.045297664 0.081781276 -0.08152588 0.07534473 -0.057335693 0.0752724 0.044912003 0.115843676 0.100397475 -0.05754194 0.12593119 0.08222861
연기력 0.044958606 0.00039451785 0.00882134 0.037787043 -0.026147287 -0.034673706 0.07909874 0.03112579 0.0036542981 0.043452382 -0.027333524 0.023848759 0.021767968 -0.0030414695 -0.032014035 -0.023537248
나라 -0.025751006 -0.0037637155 -0.011501544 -0.03542756 -0.05754891 -0.024600653 -0.08178098 -0.01911676 -0.026699167 0.0023713931 0.05867054 -0.019081768 0.0725325 0.004175052 -0.046643645 -0.038121752
후 0.013371656 -0.021631805 0.02378588 -0.05282104 -0.06111798 0.013464166 -0.17652814 0.045417175 -0.024830673 0.030558567 -0.017095866 0.00053523143 -0.007399093 -0.019287411 0.019307049 0.05832519
될 -0.016069924 -0.010675952 -0.04269498 -0.027567446 -0.008084642 0.02796727 -0.10928373 0.024632303 -0.022144413 0.032810014 -0.004904451 0.016125198 -0.023714347 -0.010540939 0.015882934 0.030301617
다면 -0.020836728 -0.038813334 0.015461286 -0.07834557 -0.0064554773 -0.039492197 -0.103671886 0.024873124 -0.036765665 0.026867196 0.011600213 0.045032527 0.033833556 -0.016973866 0.025315523 -0.021096595
뭔가 -0.054343395 -0.03796702 -0.014631469 0.026259575 0.0410323 -0.009190337 0.105390996 -0.023500513 0.050886765 0.025124311 -0.016740702 -0.058141876 -0.038815554 0.04408495 -0.008292302 -0.024659185
그래도 0.05042589 -0.033742692 0.019261796 0.023436582 0.014235998 0.007653305 0.12845905 -0.031786527 0.08187491 -0.022185238 -0.10067022 -0.057905328 -0.068901 0.08059316 -0.00859225 -0.013558798
; 0.05172849 -0.07499182 -0.024575321 -0.041870173 -0.00653853 0.048426326 -0.07542233 0.021884944 -0.009488503 -0.0015082059 0.040709645 -0.0034487313 0.0041258708 0.020255208 0.00985401 0.044506647
시리즈 -0.016585274 0.059726577 -0.028762067 0.006378705 0.019108703 -0.07693315 0.069542825 -0.0045599514 0.04156774 -0.0013181512 0.0006323406 -0.010717175 -0.038294535 0.021504562 -0.02217316 -0.054310843
근데 -0.088221 0.045685276 -0.009419479 0.02507011 0.034525394 -0.040339842 -0.04720627 0.0034527625 0.004499572 -0.059611488 0.066521615 0.049299438 -0.052736834 0.003150928 -0.073953174 0.0038139902
작 -0.00077839545 -0.010742575 0.027302971 -0.039159913 -0.024623554 -0.04209799 -0.069556504 -0.043844223 -0.02015375 -0.024278047 0.035890687 0.07206081 0.06652825 0.01771486 -0.045318916 -0.0031001444
표현 -0.040339593 -0.016781585 -0.081818745 0.02362995 0.07175061 -0.06713999 0.02711543 -0.085250385 0.032455698 -0.03075444 -0.09298797 -0.11834659 -0.04988836 0.0970834 -0.018057274 -0.08336598
모습 -0.039559253 0.030466225 -0.015309502 0.08493162 0.005380825 0.0034606482 0.048555594 -0.006649173 0.014349848 -0.03816848 0.047713775 -0.059602838 -0.083221935 -0.0067986343 -0.04599757 0.021182967
공감 -0.04517488 0.09269409 0.00576392 0.14075235 0.020345528 0.027145956 0.1787704 -0.09893964 0.031807374 -0.03732162 -0.058121867 -0.072847344 -0.103938565 0.052421235 0.010692356 -0.005056239
계속 -0.06671354 -0.012726682 -0.029533647 0.16835703 0.01586698 -0.039933175 0.1993766 -0.0445714 0.015568285 -0.046354335 0.015660796 -0.060170725 -0.04043121 -0.024317011 -0.0155301625 0.01905162
먹 0.029291568 -0.058103207 -0.026177175 -0.014930023 -0.05715246 -0.007634756 -0.022130795 0.035850454 -0.017632054 0.05331822 0.00852894 0.03207446 -0.018522384 -0.03104169 0.03771386 -0.00785672
"" 0.013702812 -0.019945204 0.056580454 -0.032477956 0.011171899 0.0496691 0.043325894 0.042239327 -0.029429182 -0.0025603115 -0.06656246 -0.034592766 -0.049862616 -0.03113404 0.01496036 0.03292635
제목 0.02324229 0.04502216 0.0068760077 -0.028285991 -0.0016985884 0.023932917 -0.04377447 0.0048849676 -0.026075216 -0.021529313 0.008522462 0.005569305 0.06660607 -0.02411677 -0.006905334 0.027333628
7 -0.027505191 0.041571476 -0.061525352 -0.0786102 -0.028402595 -0.06567531 -0.08456295 -0.005754251 0.014460343 -0.064077534 -0.064042926 -0.03155486 -0.06066747 0.019446533 -0.08138327 -0.0456123
이랑 -0.044005316 -0.011321507 0.034134094 -0.03664035 -0.005263818 0.02871591 -0.12872304 0.0048033493 -0.016630016 -0.027339399 0.07435783 0.06119337 0.03604369 -0.045752842 -0.009825464 0.01984237
극장 0.020377662 0.018382 0.029420411 0.037084945 -0.038808085 -0.0077598942 -0.03238285 0.075524166 -0.0596349 0.05761405 0.0005431497 0.054557104 0.057594378 0.00444175 0.06732524 -0.020613877
치 0.034772664 -0.03324321 0.01992298 -0.002731532 0.0027189588 0.003742458 -0.027475469 0.02705235 -0.051923625 0.02129504 0.06472407 0.08884691 -0.021259787 -0.027158124 0.044411425 0.016531736
비 -0.008021174 -0.017801939 0.033943426 -0.042403903 -0.011819259 0.059245724 -0.122622676 0.045163225 -0.05284399 0.013438886 0.03999252 0.050676916 0.03873361 -0.070452385 0.047074154 -0.008189714
이걸 0.05997704 -0.038953226 0.06632506 -0.06798864 -0.007311578 0.04055544 -0.06267035 0.06570442 -0.022964686 0.004931866 0.06595248 0.08252727 0.10824027 -0.03189762 0.03904588 0.10034098
진 0.03395083 -0.005588241 0.005728963 0.019938203 -0.05187721 -0.017117264 0.050380126 -0.0058521284 0.04624078 -0.03707609 0.0076734154 -0.012471403 -0.015742036 -0.04131994 0.042785786 0.0026117512
바 0.073043466 -0.08300591 0.08146288 0.013610356 -0.039065138 0.12033093 -0.0016205877 0.10347503 -0.12953152 0.11223534 0.13779098 0.06000495 0.10803039 -0.10179133 0.07660032 0.09060837
대사 0.024987333 -0.020619567 0.04957891 0.11260395 0.0023907814 -0.024928829 0.022821322 -0.0074426993 -0.0025462552 -0.013756038 0.06387739 -0.00934982 -0.00775081 -0.053712472 -0.034322336 0.014457587
부분 -0.0036170448 0.020078294 0.026720755 -0.057193223 0.03777423 0.026169777 0.019977452 0.015220528 0.01811841 0.017740149 0.021507166 0.029397735 -0.037104107 -0.04721951 0.017069912 0.047827408
그렇 0.05649536 -0.07439315 0.0612327 -0.10362142 -0.0855683 0.004859942 -0.032507066 -0.0015241003 -0.07534275 0.04042918 0.064134516 0.046427015 0.107078955 -0.076093405 -0.009032392 0.023708628
개봉 -0.0013269641 -0.053243343 0.024668772 0.022131436 0.001528886 0.042866725 -0.0069161044 -0.02132387 -0.07470297 0.029506754 0.01324537 0.09927148 0.011572434 -0.046857316 -0.009191957 0.032265596
0 0.15383676 -0.0365083 0.14477594 0.165643 -0.012135932 0.1680125 0.1329258 0.051476896 -0.17776434 0.07518506 0.11260368 -0.02888211 0.052039452 -0.102899544 0.10568487 0.14430629
OO 0.11120542 -0.077320516 0.0013349804 -0.117527604 -0.05806712 0.07423062 -0.15179278 0.10517692 -0.0050806296 0.083245985 0.029630814 -0.008073192 0.01828895 -0.007657037 0.056085475 0.0073189847
대단 -0.07931149 0.10337486 -0.10064232 0.038252305 0.04526391 -0.012817524 0.054865655 -0.05775316 0.06943668 -0.06563581 -0.12423218 -0.040465094 -0.044342313 0.052082255 -0.052260786 -0.04095353
어디 0.009433097 -0.01533899 -0.0123162 0.05514094 0.014523242 0.055230036 -0.029190212 -0.023989396 0.0342208 -0.02850247 -0.049497865 0.006772814 -0.009368107 0.006383973 0.011728262 -0.03410919
작가 0.052190162 -2.3172795e-05 0.0670212 0.069283046 -0.03116216 0.04047292 0.04980897 -0.01121106 -0.027756574 0.026580257 0.04985555 0.022385482 0.08694509 -0.08261725 0.03076045 0.089110695
된다 -0.09222948 0.005283226 -0.03737459 0.039904077 -0.010900554 -0.08493585 -0.059906803 -0.03655823 0.084985256 -0.042633753 0.050625797 0.006913152 0.027859377 0.05598067 -0.042057745 -0.032784108
아쉽 -0.0336362 -0.012392018 -0.072445504 -0.09515869 -0.027164873 -0.12919362 -0.0570359 -0.07628553 0.00048202073 -0.08633748 -0.02276115 -0.0097496575 -0.058408543 0.0008410537 -0.04622644 -0.01943697
기분 0.013960934 0.058369398 0.01374038 0.032960955 -0.0121775 0.026135748 0.0044076047 -0.020476459 0.009770348 0.031519834 0.066846125 0.06288292 0.0743926 0.008152638 -0.019075086 0.029398754
제 0.06628756 -0.025316823 -0.063139915 -0.075554535 -0.0070974436 -0.03620089 -0.055604808 -0.0021687085 0.0042147967 0.023319507 -0.051683657 -0.00097488647 0.007932266 -0.0007672304 0.03714059 0.019658964
진심 -0.016846605 0.010579654 0.016662765 0.018416625 0.044132393 0.03462446 -0.013539519 0.025973463 0.030131595 0.034208823 -0.02969764 0.014222162 0.033383522 -0.041138336 -0.010693942 0.04300797
타임 -0.027686527 0.012820776 -0.034818448 0.019653833 0.039249457 0.016970702 -0.05653771 0.006435703 -0.013601976 0.010406353 0.091679335 0.02782501 0.06839663 -0.047444347 0.0006926932 -0.04255088
/ 0.013413423 0.0018260713 -0.026489345 0.01565943 0.030537467 0.010099677 -0.021717671 -0.049325075 -0.047419075 0.012522415 -0.04026125 0.0210239 0.040959608 0.0070476225 0.00572447 -0.0063934904
웃기 -0.018185105 0.096904926 0.033620864 0.10959548 0.030360445 0.01643479 0.043591708 -0.0006048975 0.0078447005 -0.02642711 0.050661124 -0.0018955378 -0.061571002 -0.023600996 -0.059526034 -0.026204709
보이 -0.0075337607 0.016970428 0.049087085 0.038312066 -0.010014917 0.016979685 0.09022607 0.025830232 -0.0038863611 -0.00860296 -0.036166854 -0.038556628 -0.016920488 -0.010801835 0.0059956545 0.008149134
놓 0.03185386 -0.01770646 -0.00796678 -0.13651688 -0.027497802 0.050764486 -0.102084145 0.011331693 0.0024595878 0.0038752793 0.05298633 0.02870705 0.0072407057 -0.04267896 -0.015148975 0.028155047
해도 0.06268884 -0.09637887 0.03980585 -0.11887867 0.0043029017 -0.02131119 0.023315962 0.042796545 -0.008419477 -0.0039535863 -0.08132081 0.0042744796 -0.011191164 -0.015329114 0.043944653 0.056046337
이제 -0.012316473 0.03277088 0.026658736 0.05965697 0.02849355 0.029335534 0.066547334 -0.060101993 -0.00033875325 0.0028815598 0.042276274 0.011449567 -0.052779052 -0.002060452 0.012314481 0.052636586
물 0.003850631 -0.04948793 0.013222432 -0.03670035 0.000899978 0.020178946 -0.0705148 -0.003386236 -0.05823397 -0.004380088 0.029872634 0.014597405 0.0012601588 -0.04662399 -0.008317557 0.024973094
봐야 -0.061611712 0.054525018 -0.08213555 0.05969977 0.0355086 -0.05457481 0.021270368 -0.059900124 0.09173377 -0.046353422 0.005436122 -0.0384926 -0.039483808 0.0128732445 -0.1184031 -0.09324693
막장 0.15181847 -0.13152985 0.07512138 -0.16732942 -0.1585012 0.1330952 -0.22454792 0.10592147 -0.06837639 0.13681176 0.108676516 0.14638348 0.16134687 -0.13482167 0.07837578 0.07394841
삶 -0.042107277 0.08007729 -0.052945506 -0.0149303265 0.033584252 -0.1490564 0.06567426 -0.036590658 0.08902691 -0.09212106 -0.1522212 -0.07591726 -0.075923234 0.1371471 -0.049663607 -0.062917456
친구 -0.019980887 -0.051185366 0.052480526 -0.0045912284 -0.009136363 0.040804166 0.0422527 0.003303337 -0.0029718382 -0.025805429 -0.04243586 -0.030075705 0.008096311 -0.038720515 0.020766756 0.0329214
잔잔 -0.044896167 0.03397582 -0.039745994 0.023286588 0.053893536 -0.06837375 -0.02909476 -0.012062817 0.0860498 -0.06300569 -0.057711124 -0.026029345 -0.02653849 0.062490355 -0.041578896 -0.09271751
조금 -0.06274336 -0.010593497 -0.004776507 -0.048983708 0.011237204 -0.0812979 -0.17731857 -0.0007324207 0.021001367 -0.068881206 0.02895127 0.020510985 -0.0138417 -0.0059624203 -0.0010733871 -0.027591093
씬 -0.016953595 0.01242074 0.007192384 0.009529774 0.03595817 0.024468068 0.037246805 -0.04097834 -0.021723052 0.0008987391 0.018375495 -0.054816168 -0.060063187 0.022020517 0.0027376947 -0.02696837
딱 0.032218162 0.00627294 0.09867137 0.03858865 -0.0027907104 0.04129044 0.037856594 0.037089556 -0.0058137584 0.05630634 0.024557514 -0.03208101 0.017177586 0.012045864 0.030289713 0.054578908
영상 0.0337078 0.017082104 0.014153908 0.08509521 0.0367968 0.00786332 0.071577586 0.042512123 -0.0015330309 -0.024263376 0.032333195 -0.0140964305 0.0022207838 0.03417378 0.032987576 0.019258099
억지 0.08266316 -0.07980919 0.13674445 -0.12176205 -0.15008536 0.06769906 -0.21167558 0.06933774 -0.080905974 0.13604599 0.17109674 0.1208101 0.14566271 -0.139731 0.10457913 0.12695491
찾 -0.0689329 0.036898438 -0.024704382 0.045231346 -0.013811 -0.0017696017 0.008177314 0.021038726 -0.028241385 0.0021978016 0.016012736 -0.062562704 -0.0065277787 0.011189236 0.0069907885 -0.055020534
요즘 -0.12843375 0.068760075 -0.113819405 0.0512659 0.112446964 -0.106222905 0.013049012 -0.04712248 0.07027941 -0.1304018 0.032614045 0.002206908 -0.067554735 0.04744112 -0.12864134 -0.11914245
같이 -0.028625902 0.036887873 -0.038158376 0.015010567 -0.005521552 0.01884367 -0.0077544134 -0.023604518 0.009319522 0.0063840896 -0.04096344 -0.049659096 0.0057859146 0.039562028 0.016542077 0.024516495
중간 0.0032238709 0.06464882 0.03872043 -0.01818365 -0.058753107 -0.017803492 -0.1514202 -0.032218195 -0.03228505 0.046422485 0.04375428 0.06939609 0.031670757 -0.03467436 0.003971608 -0.00668202
" -0.033734806 0.040517557 0.0038187103 0.014647385 -0.026271854 -0.045120735 0.016598236 -0.013055285 0.047030922 0.009450644 -0.09635706 0.017399054 -0.0105129285 0.0033696103 0.002426471 0.009870676
구 -0.031016389 0.056434266 -0.022938862 0.090958714 0.06844147 0.009595368 0.08115804 0.029248076 0.014326774 -0.029523905 0.018274361 0.030663373 -0.019755535 0.0125173135 0.021238849 -0.023228908
라도 0.036042567 -0.043604944 -0.013183449 0.021540187 -0.024752114 -0.006984647 0.027808405 -0.020420644 -0.010302466 0.043533277 -0.021778066 -0.014922795 -0.001809319 -0.01321934 -0.014496669 0.05277368
스릴러 0.025146747 0.045251105 0.04025878 -0.040491126 -0.028741507 0.044587877 0.060398657 -0.029216155 0.067928106 0.030816814 -0.061328087 -0.07093858 0.014358187 -0.013056688 -0.025825804 -0.040386938
가지 0.010865083 -0.02125317 -0.013103878 0.09852522 0.004146035 0.017104542 0.1393969 -0.006721734 -0.018497441 -0.028359218 0.053556133 -0.029240012 -0.05472017 0.020172736 -0.007479184 -0.048214752
8 -0.07998564 3.739439e-05 -0.10190831 -0.039926432 0.07987659 -0.07437669 -0.06147457 -0.07765759 0.038972143 -0.0792373 -0.10063419 -0.03485913 -0.06947302 0.05487283 -0.07656781 -0.06791901
믿 0.0033391032 0.07314242 -0.064311974 0.09049494 0.028435513 0.01848972 0.044578366 -0.057655647 0.010055277 -0.03879052 -0.041050535 -0.017548406 -0.06604384 0.05758224 -0.08143392 -0.036265057
싫 0.14456503 -0.1407563 0.038218874 -0.24922125 -0.13809408 0.11232267 -0.2773725 0.09668248 -0.116737485 0.092174664 0.11008907 0.069909014 0.06766961 -0.04729546 0.035452 0.11423594
.... 0.052971616 0.000559798 0.04779299 0.051871542 0.0030097517 0.023158612 0.0031112435 0.0005817528 -0.014972422 0.06986131 0.0051353793 0.033235226 0.065485984 0.0014261052 0.025101239 -0.0041295756
나왔 0.022320002 0.049318615 0.016783325 0.026638567 -0.052061975 0.015400578 0.035288554 0.023172507 0.0072100633 -0.0071791145 0.05659821 -0.020830287 0.023657832 -0.056118205 -0.03407912 0.03964271
아까운 -0.027091336 0.019701114 0.074952714 0.009784273 -0.06811437 0.06027791 -0.06165631 0.08820023 -0.12839195 0.13084288 0.13756905 0.07536011 0.10877007 -0.12149033 0.019617192 0.06240063
긴장감 -0.042617157 -0.036100835 -0.052261308 0.068793535 0.0484373 -0.059250142 0.13776705 -0.035638515 0.020755721 -0.029068021 -0.068886645 -0.071741715 -0.054406114 0.09190479 0.00970034 -0.0532618
점수 0.04900545 -0.063758545 -0.019956512 -0.005021005 0.0055614016 -0.027367668 -0.051546093 0.011689786 -0.029695004 -0.022350555 0.05434785 0.006772525 -0.01234543 -0.014772155 0.054135293 0.023935296
개인 -0.031267717 0.02002443 0.0071576354 0.064864084 -0.025033234 0.0012388041 0.01687634 0.054805316 0.014280432 -0.02050406 0.0003837812 -0.01942976 0.03476239 -0.03219439 -0.017464524 0.039250683
제대로 -0.053839013 0.024512986 -0.010482393 0.052314706 0.0137627395 0.00091130356 0.0754711 -0.037599105 0.049565032 -0.048881218 -0.05706596 -0.10773007 -0.07797407 0.06272677 0.013258431 -0.010098196
부족 0.008215611 -0.050069552 0.07055361 -0.12009144 -0.09502731 0.051498614 -0.06714924 0.058072906 -0.059094343 0.06502173 0.04622117 0.052414455 0.049347296 -0.08564804 0.031678993 0.048093297
이유 -0.014232177 -0.02893352 0.03745799 0.047936667 -0.0015946955 0.025932245 0.041582607 0.049975835 -0.022153039 0.011864369 0.082390554 0.059234645 0.02977705 -0.022086129 -0.025799736 0.053790398
노래 -0.006699082 0.00083633186 -0.0040168874 0.043768 -0.0070740115 -0.006145576 -0.019973556 0.035581067 -0.02515899 -0.031358495 0.03212705 -0.03572355 0.007220343 0.03849403 -0.025034886 -0.03249425
만큼 -0.04645062 0.00160935 -0.026888274 0.02520664 0.009649449 -0.03615966 0.07418659 -0.0059882724 0.046528418 -0.07269375 -0.0744343 -0.038138304 -0.031973667 0.020719754 -0.020373404 -0.061460342
라면 -0.060487073 0.07159709 -0.024182586 -0.0076554744 -0.017244471 -0.05280867 -0.058908127 -0.028963014 -0.018860256 0.003117884 0.031728197 0.012069441 -0.038707554 0.002670881 -0.019136982 -0.017578991
시작 0.0011364492 0.016388796 0.012044592 0.092325404 0.007247797 0.026367202 0.014438424 0.0347698 0.003528134 -0.041487724 0.02745845 0.03652842 -0.0064622094 -0.02276794 -0.008724865 0.0036939795
구나 -0.023683384 -0.0572632 0.010186985 -0.04889043 -0.040210903 0.030231362 0.010074433 -0.024192097 -0.029486123 0.01977813 0.003453039 0.041518606 0.0068546324 -0.039498366 -0.030758837 0.0046255453
잇 -0.009047031 0.04038017 -0.05057893 0.054398 0.05384803 -0.06321564 0.069109604 -0.042775974 0.03766418 -0.017566409 0.012943811 0.021818463 -0.057769846 -0.0002681559 -0.0048541133 0.014165343
특히 -0.07193356 0.1276592 -0.007815378 0.17024907 0.08904632 -0.011664209 0.07737238 -0.12450391 0.036145844 -0.055859234 0.087258756 -0.0041114013 -0.028366897 0.052411333 -0.09082846 -0.032016814
한테 0.002697301 0.0029016163 -0.018400585 -0.035763565 -0.040336188 -0.00068751577 -0.0119033335 0.04342075 -0.027971074 -0.014409659 0.014281406 -0.028824784 0.01845665 0.023005268 -0.014947739 0.059164673
날 -0.06470841 0.0327004 -0.06048011 0.010788513 -0.010921151 -0.091822185 -0.0698321 0.03072621 0.080449216 -0.06338403 0.05848809 -0.010346806 0.035667047 0.026000101 -0.0027321083 -0.007301774
려고 0.041186176 -0.040482398 0.032150604 -0.09952319 -0.074516475 0.11370308 -0.03408471 0.07083532 -0.036003824 0.08131022 -0.011371851 0.033391103 -0.022742234 -0.03241385 0.07377643 0.003620414
제일 -0.014935745 0.022942362 0.035155363 0.04535158 0.02728808 -0.021081131 -0.00043706808 0.017886441 0.0060086823 -0.035885785 0.023558386 0.010682484 -0.018019313 0.0313013 0.021631436 -0.015213428
아름다운 -0.020173948 0.03567236 -0.08845126 0.14767031 0.068079494 0.0011136099 0.24854173 -0.051939216 0.11078825 -0.09457819 -0.11572156 -0.15454225 -0.12705812 0.045969803 -0.06917213 -0.058669794
시대 -0.0033045923 -0.011840186 -0.03963321 -0.082925215 -0.0040603173 0.04243335 -0.053666793 0.011039013 0.025926322 0.041903794 -0.035828296 0.0478798 -0.04458068 -0.00042820786 0.02317034 -0.022381961
ㅜㅜ -0.03875038 0.039072152 0.027739868 0.048646525 0.012702201 0.021262843 0.0883744 -0.018260485 -0.03619666 -0.011030989 0.0718738 -0.01581188 -0.024851015 -0.027907304 -0.048632752 -0.03607434
어떻게 -0.0021646372 0.013578556 0.0016173536 0.028610071 0.029848518 -0.02699404 -0.028293911 -0.008771222 -0.051673137 -0.046787392 0.021549344 0.012038018 -0.0048107677 0.044562478 -0.007713847 0.030389735
엔딩 -0.007216415 0.0013229954 -0.038499653 0.05986694 0.062781766 -0.05101672 -0.0019177701 0.007785629 0.0055793333 0.0048160036 0.060094804 -0.008141744 0.02946087 0.049374394 -0.008753169 0.0044849548
당시 -0.025455017 0.096082635 0.016574392 0.07831372 -0.0031793485 -0.049393713 0.014733498 -0.015551114 0.030231392 0.028728064 0.014168207 -0.04254105 0.00018510115 -0.03952427 -0.0047462913 -0.02727799
하지만 0.039608233 -0.05773552 -0.01760087 -0.22055122 0.0046575707 0.02403658 -0.120443285 0.06333385 0.053679008 0.0069349403 -0.16297455 -0.0852683 -0.049806036 0.032812864 0.023653792 -0.007388328
나름 0.014930761 -0.051221695 0.00032276165 0.061911944 -0.012439327 -0.010420934 0.06422307 0.00051457575 -0.030193148 -0.05201252 -0.011951836 0.011191252 0.0010991872 -0.008946206 -0.03367691 -0.057801902
봐 0.0390206 -0.016063247 -0.0025570935 0.063734524 -0.0109409625 0.04946554 0.061507273 0.028367514 0.024799025 0.034467965 -0.005489908 -0.060081463 -0.08945283 0.07450349 0.03718316 0.023986304
무섭 -0.0642595 0.07228564 -0.02900482 0.12848918 0.019783646 0.027951092 0.10456517 -0.0047342097 -0.03225619 -0.028018497 0.04266668 -0.0632755 -0.033455484 0.054666456 0.011648448 0.024880808
나온 -0.08046929 0.018392483 -0.046923757 0.009411878 -0.024104673 -0.03657423 -0.03458403 0.028347585 0.0049015554 0.058013808 0.09071604 0.057211976 0.061437085 -0.046711918 -0.043573115 -0.0035086062
명 0.06549195 -0.06394713 0.029872328 -0.07622965 -0.058215965 0.007295971 -0.0078097554 0.021874558 0.02438411 0.013583657 -0.06249513 -0.044420555 0.04434642 -0.044990268 0.031816635 -0.025086606
사 -0.0052130152 -0.016199773 -0.025220646 0.056309327 0.031328946 -0.06534485 0.04411746 0.02426175 0.045235828 -0.0801255 -0.11034526 -0.055658884 -0.07890917 0.07007689 -0.035219103 -0.010463342
니까 0.06823362 -0.00764817 -0.016087374 -0.04737429 0.009314194 -0.009114921 8.8893736e-05 -0.022661176 0.029081898 -0.07055662 -0.07551592 -0.06956775 -0.099995546 0.115364194 -0.046728816 0.01766781
오랜만 -0.100591436 0.030310258 -0.061027203 0.07504108 0.09313608 -0.051583275 0.053633075 -0.07138936 0.06689127 -0.05419144 -0.046451014 -0.024490539 -0.029622795 0.07147155 -0.101632535 -0.040468384
이것 -0.031033168 0.0062980484 0.04170206 0.07525724 0.0073425253 0.031662226 0.12271285 0.021847758 -0.055638958 -0.011019701 0.032974493 0.014985097 -0.048736427 -0.007342282 0.015700351 0.03476343
해요 -0.022425512 0.011520554 -0.02351954 0.085359186 0.007967592 0.019850176 0.06331807 -0.002072596 -0.0013220281 -0.018166775 0.022799307 -0.0040155123 0.016880544 -0.03524245 0.02858364 -0.032560393
9 -0.07249686 0.099091746 -0.07471176 0.06540607 0.105981104 -0.05437702 0.12452236 -0.08858556 0.15007389 -0.11533192 -0.19991192 -0.22600505 -0.20769598 0.14161356 -0.12158018 -0.07841628
팬 0.025222268 -0.0044993437 0.02350134 0.043057848 0.032409098 0.056095175 0.093222946 0.00262339 -0.011204924 0.02851504 -0.018417139 0.006290931 -0.06017019 0.05075059 0.024911413 -0.008257274
차라리 0.24429949 -0.2052195 0.24971482 -0.16204298 -0.18787853 0.18822092 -0.2425147 0.17881358 -0.2701756 0.19884492 0.29689956 0.25889832 0.21915309 -0.24032247 0.20200859 0.21475784
절대 0.018834423 -0.010230189 0.042393167 0.03304337 0.026875962 -0.027548129 -0.012484136 0.021230076 -0.05248834 0.04132166 0.053622622 -0.011783613 0.029187433 -0.027784808 0.004711103 0.021465665
세상 -0.08794133 0.047425248 -0.024812194 0.08760289 0.042308126 -0.02387942 -0.018760886 -0.0049285344 0.082985945 -0.0012476097 -0.0030743286 -0.042495992 -0.088706486 0.020936346 -0.0054721213 -0.055585045
세 -0.0052959104 -0.02648051 -0.050718866 -0.0021502082 0.025167339 -0.061738044 0.0022380208 -0.052361373 -0.014670311 0.027076442 -0.057735275 0.023768758 -0.03320927 0.044301752 0.022037588 -0.023924557
못하 0.03347089 -0.03926659 0.009764847 -0.13433935 -0.10943894 0.053938616 -0.11280022 0.076643124 -0.07146304 0.029686904 0.029918887 0.08265493 0.08368207 -0.09624755 0.053794302 0.008718468
의미 0.0066875094 0.028329352 0.009434334 0.048815783 0.035271063 -0.022101149 0.0530218 -0.027709499 0.0003125753 -0.0050179935 -0.03703728 -0.001908422 0.0064155716 -0.025384145 0.0033217785 -0.022298396
던데 -0.05904326 0.09715266 -0.0789403 0.083096534 0.05084441 -0.03310732 -0.016268222 -0.054573238 -0.01693581 -0.0061718575 0.13274018 0.038081147 0.05249598 0.040346306 -0.083627805 -0.03561237
봄 -0.039802182 0.04594521 0.020145891 0.05313627 0.048577305 -0.033417735 0.086741276 0.02015967 0.007858775 0.022796944 0.079537645 0.02221369 -0.05908177 0.040584028 -0.022612166 0.0149188135
욕 0.12933838 -0.11240581 0.1171217 -0.15053818 -0.145251 0.04667361 -0.17813307 0.15010683 -0.04490354 0.04165554 0.06538099 0.13903281 0.119932346 -0.07100986 0.06537884 0.097598374
훌륭 -0.08765893 0.099148914 -0.08542229 0.11965745 0.06428584 -0.055369847 0.16498362 -0.119335175 0.09263408 -0.0875783 -0.096007615 -0.14038403 -0.14094031 0.10531162 -0.08835773 -0.036266595
너무나 -0.002506874 0.043879338 0.027493462 0.039360255 0.029847102 -0.07336976 0.14727119 -0.012614502 0.07493869 0.007412748 -0.002958526 -0.03106612 -0.05304726 0.033044405 -0.025332078 -0.05053353
강추 -0.09565381 0.05366706 -0.1739673 0.06440321 0.09012192 -0.09992906 0.038455475 -0.102375016 0.10524827 -0.06689196 -0.089145295 -0.12750027 -0.11677703 0.08407255 -0.1409895 -0.10630154
감 -0.033317763 -0.04140678 -0.0025322454 -0.015927274 -0.022572836 0.036903575 -0.0007208644 0.00013738146 -0.040170927 0.015413654 -0.06351558 -0.057209253 0.011559432 0.01263207 -0.027455624 0.04437515
됨 -0.033149652 0.040117513 -0.03918597 0.050141 0.0811293 -0.0075195 0.02350961 -0.058696155 0.0148867415 -0.043251775 -0.019842705 -0.00354636 0.0015823445 0.021072613 -0.012142173 0.019918121
ㅡ -0.0033906414 -0.0013906636 0.08029 0.01791715 0.010114807 0.04824245 -0.022800598 0.0072157127 -0.07579185 -0.010568266 0.05570228 0.0006888973 0.033218157 0.018014407 0.046758726 0.02575904
따뜻 -0.12705386 0.07072564 -0.08552181 0.058779597 0.14540757 -0.15810962 0.1216493 -0.14568608 0.099417605 -0.115842775 -0.13431208 -0.17226651 -0.09468868 0.10138417 -0.10047479 -0.09327598
빼 0.05094096 -0.10361642 0.056383654 -0.02917122 0.018672965 0.046661947 0.099697515 0.03733237 -0.0076890127 0.029232005 -0.036980413 -0.062192425 -0.03556099 0.0017629191 0.112625346 0.0036750867
느끼 -0.009013889 0.01124349 -0.04191583 -0.021911148 -0.00580768 -0.051026057 -0.0042087417 -0.08074634 0.07059079 -0.078693196 -0.03959888 -0.060211927 -0.06429813 0.045027908 -0.0852578 -0.06789775
해야 0.012735902 -0.0139809325 -0.01018305 -0.024703847 -0.018874649 -0.0061525106 -0.029115979 0.03537532 0.06473654 -0.03599731 -0.023893928 -0.026339302 -0.03618891 -0.0029354463 -0.010782512 -0.032208994
드 -0.097776845 0.045848604 0.01762986 0.12088247 -0.04100758 0.012886634 0.049795512 0.029300274 -0.007316379 0.0386209 0.11887585 0.029408945 0.06365861 -0.020552158 -0.03229911 0.06531685
도대체 0.14436767 -0.16193452 0.06730595 -0.06396114 -0.11811771 0.0870224 -0.058924075 0.050529193 -0.12241464 0.13276824 0.036368478 0.08552869 0.027838273 -0.1347664 0.122804835 0.09418376
어야 0.013930301 -0.029129088 0.06841303 0.0024646088 -0.040941477 0.027302315 0.026347442 0.024429161 -0.0735009 0.03614402 0.07091054 0.05039727 0.048006807 -0.041410297 0.03556913 0.008730833
답답 0.071582824 -0.039438922 0.061629076 -0.068831384 -0.1386687 0.077048376 -0.07540777 0.09793578 -0.07107779 0.13009548 0.10144332 0.10767159 0.106825344 -0.13285923 0.12810266 0.038974218
마다 -0.003995892 -0.0024270166 0.026138786 0.0744342 0.030403199 0.0059153535 0.04444154 -0.02852174 0.023463495 0.023192907 -0.02939631 -0.011496143 -0.033562716 -0.052629124 0.024933057 0.010856299
준다 -0.050830103 -0.00022042345 0.0069437283 0.042052742 -0.036725253 0.025794612 0.009197383 -0.030045768 -0.023481501 0.071362026 0.07789325 0.031236593 0.038661297 -0.029342644 -0.027652556 0.082584545
글 0.0165189 -0.0795248 0.018469056 -0.09578857 0.009025984 0.031007143 -0.09056164 0.06769284 0.009704038 0.037103977 0.023838965 0.022951577 0.017057408 -0.042919632 -0.00710794 0.018793589
전쟁 -0.009624293 0.0014450916 -0.065750234 -0.050981756 -0.045510963 -0.05798906 -0.07637622 0.002703276 -0.0054848604 0.031198883 -0.0014054725 -0.021939132 0.03192613 0.02698067 -0.013929285 -0.044977263
놈 0.042031534 -0.043664485 0.0326769 -0.118896514 -0.034253072 0.009743656 -0.116253875 0.08312437 0.0023666609 -0.03818429 -0.05550172 -0.013545007 0.017708985 -0.012803949 0.051623512 0.011749064
설정 0.007357253 -0.029983645 0.03181818 -0.02699328 -0.04701257 0.09243639 0.11153351 0.05362992 -0.057227604 0.04710701 0.039603803 0.004638671 0.005976294 -0.07688879 0.06660929 0.052270167
무엇 -0.03445074 0.094036445 -0.04930421 0.16464056 0.01764945 -0.027986197 0.124042705 -0.053920414 -0.044750284 -0.03360072 0.05039685 0.015093761 -0.014163794 0.035786487 -0.0049622925 -0.043734293
수작 -0.21112429 0.16469887 -0.21663769 0.1801639 0.19483939 -0.16507606 0.18903486 -0.23096097 0.20242171 -0.2253403 -0.22529614 -0.20362613 -0.17713165 0.24397117 -0.17086422 -0.15831196
만화 0.030046847 0.018051403 0.077972285 -0.009686634 -0.007960415 0.009226439 0.04038995 0.06788344 -0.026612133 0.0146491565 -0.065608345 -0.030228611 -0.054892316 0.03149807 0.009528231 0.04305014
흥미 0.022829695 -0.07556156 -0.00618531 -0.033729985 0.035651255 0.0016539918 0.08150456 0.042934068 -0.027845914 -0.034709256 -0.07690494 -0.056029808 0.0050362283 0.03448864 0.06058811 -0.05097239
그저 0.05762936 -0.10273972 0.05910031 -0.1698643 -0.058019042 0.064049155 -0.24234971 0.040416423 -0.06016198 0.064209975 0.054793958 0.070898786 0.08924847 -0.047650415 0.029868132 0.10615488
감정 -0.019978268 0.041717492 -0.06880063 0.025765005 0.013180076 -0.00854149 0.058119643 -0.07173226 0.06936566 0.011709341 0.02517595 0.008628263 -0.009670305 0.049918167 -0.02621613 -0.08642416
미국 0.02368664 -0.015385387 -0.021809638 -0.11568039 -0.08034413 -0.018454855 -0.13633716 -0.041284896 -0.03980126 -0.059651703 0.035064843 0.029661898 0.03605319 -0.0050858897 -0.06748821 0.03344489
신선 -0.02054136 0.07086013 -0.08787084 0.12605022 0.12409384 -0.075632714 0.14492136 -0.0515141 0.02795825 -0.0541266 -0.12374139 -0.06649525 -0.052337058 0.02891978 -0.07434956 -0.11187405
행복 -0.094015375 0.12139994 -0.06389861 0.06828464 0.1359427 -0.12466819 0.13299718 -0.11138256 0.07352401 -0.11608237 -0.033740908 -0.114993796 -0.07475159 0.064813204 -0.081992425 -0.063180014
뻔 0.073830836 -0.06262779 0.009199568 -0.102471516 -0.056755956 0.0146611035 -0.12204896 0.05179573 -0.054639664 0.047094338 0.027064877 0.06770608 0.089506984 -0.06496037 0.016206454 -0.013969871
형 0.036186364 0.038727615 -0.07142996 -0.010235136 0.049515534 0.00090441055 -0.032888755 0.013540991 0.0052878708 -0.035284642 -0.09078949 -0.023293322 -0.04153607 0.03198906 -0.012677478 -0.018366251
앞 0.039156113 0.032051828 0.030778326 -0.0022426345 -0.00013639449 0.022267248 0.05102432 -0.046819862 0.03872517 -0.0574352 -0.12544185 -0.07396603 -0.037727825 0.017669255 0.03400059 -0.011159749
허접 0.15508458 -0.15360953 0.22482271 -0.11817627 -0.15996866 0.13065077 -0.1967747 0.13949978 -0.1558919 0.18537952 0.1706127 0.22401887 0.15573202 -0.18448445 0.1622554 0.21797536
어도 -0.026682349 -0.0071051354 -0.025897354 0.033751875 0.036303822 0.056125786 0.02361379 -0.014369337 -0.036925532 -0.035347544 0.051474962 0.04519364 0.033463918 -0.01280042 0.0074882875 0.014492446
군 0.0071077966 -0.102099635 0.012752612 -0.029509459 -0.0048660585 0.020298347 -0.08372547 0.063803315 -0.018181495 0.0379223 -0.061244193 -0.017122285 0.04542916 -0.015486923 0.046610415 0.048600543
시절 -0.053965222 0.09038002 0.013815393 0.14215705 0.013113702 -0.023951713 0.061550915 0.0026985293 0.056412023 -0.0475349 -0.026491841 -0.020822661 -0.05565598 -0.032982774 0.011753941 0.0029976652
관객 0.072501 -0.06319135 0.025686871 -0.036562335 -0.08104773 0.07588465 -0.038899876 0.07371759 -0.08844835 0.07602182 0.035388906 0.04503852 0.08398388 -0.011129437 0.052871577 0.09123764
배경 -0.019643458 -0.006084158 -0.0645632 -0.010706425 -0.048458982 -0.002803301 -0.018130666 -0.0057404786 -0.02494593 -0.034846272 -0.026372204 -0.024085157 -0.04241499 0.041075487 0.0393019 0.004852488
6 0.005027427 0.011656912 -0.06570121 -0.008687886 0.049899846 -0.03163777 -0.020421749 0.02627449 -0.014633595 -0.005976449 -0.002881584 -0.003991893 0.03365839 0.020409437 -0.034051757 -0.05778764
초반 -0.009915933 -0.011308971 0.038420014 -0.103807785 -0.059432883 0.012634453 -0.1574783 0.034991484 -0.049984887 -0.004220846 0.081678204 0.031938653 0.08047744 -0.029133232 0.046313945 0.02249274
사실 -0.027229518 0.051179465 -0.018549202 0.032622553 0.07768353 0.016121212 0.10713854 -0.06764729 0.017466804 -0.098604105 -0.124468766 -0.056928117 -0.1165696 0.044711076 -0.052031074 -0.086864024
웃음 -0.015493295 0.017082727 -0.04955747 -0.02094834 0.027622703 -0.0017130831 -0.0009388392 0.046630774 0.035675704 0.019631222 0.048169546 0.05433307 -0.010053658 0.04399692 -0.030074783 0.007762291
답 -0.022018582 -0.020411925 0.051822156 0.07628599 -0.03147359 0.010144784 0.07474645 0.010088858 0.038803473 0.024616636 0.066204794 0.02309056 0.0047533037 0.020043772 0.04231206 -0.025342232
엄청 0.012485751 0.018168569 0.017226914 0.032620534 -0.014222667 -0.028243883 0.12322779 -0.01847533 0.023846567 -0.046686538 0.051747136 0.007477835 0.011623083 0.012766861 -0.04688528 -0.05507094
더라 -0.029066902 -0.048505135 -0.0009516169 0.011145696 0.01168443 -0.053609453 0.030727938 -0.0016386121 -0.03541939 -0.013843666 0.06634 0.03634142 -0.0030896668 -0.06382221 -0.044883072 -0.05306681
라니 0.035332263 -0.050422344 -0.038293716 -0.13682711 -0.039075017 -0.06321599 -0.13868527 -0.027168505 0.07090288 -0.057448607 -0.09506609 0.032827098 0.030996107 0.02828254 -0.06830687 -0.031518046
질 0.04575724 -0.02017835 0.015066467 -0.0031878676 -0.06617943 0.027673658 -0.0806954 0.06194202 -0.054120556 0.0714309 0.029240422 0.050780207 0.0077708154 -0.05942008 0.073806964 0.08205386
자신 -0.012134606 0.032398824 0.012312203 0.0013056127 0.073945545 0.012398476 -0.036580857 -0.049670402 0.033730146 -0.056380596 0.02427681 0.02977825 -0.04734704 0.015529616 -0.017813565 -0.02736629
추억 -0.01926465 0.029389692 -0.086141095 0.09268727 0.06879999 0.005113857 0.09522223 -0.10336013 0.036842965 -0.053868257 -0.028388985 -0.06406814 -0.062483083 0.07755907 -0.016835267 -0.040817667
캐스팅 0.060869 -0.04663383 0.038963005 -0.04360454 -0.035604138 0.0898081 0.01087913 0.07910672 -0.084076546 0.024876675 -0.014448009 0.018516606 0.06490403 -0.08053579 0.06232014 0.09155023
첨 0.04349044 -0.015589292 0.03839148 -0.06567552 -0.06281792 0.046088208 -0.15572782 0.09143969 -0.05753273 -0.013067359 0.07989427 0.03578458 0.007549119 -0.021429798 0.0011258817 -0.013749523
멋있 -0.15553634 0.07056257 -0.12598835 0.10061943 0.107511505 -0.10659166 0.151454 -0.14779629 0.10224197 -0.12860556 -0.0991048 -0.087378696 -0.087358914 0.07081439 -0.09003111 -0.14553863
류 0.043393023 -0.024799965 0.06077749 -0.0022688473 -0.0077826846 -0.0006439956 -0.0054855514 0.014306994 -0.069839075 -0.00025470048 0.07963658 0.04476136 0.004365962 -0.010751592 0.072545305 0.031826958
어색 0.07658732 -0.0604411 0.11985148 -0.025013058 -0.11051833 0.14486556 -0.035252545 0.12678726 -0.09235636 0.12786429 0.17594951 0.14876144 0.09351156 -0.12601428 0.09519128 0.089805126
시나리오 0.027302487 0.00657025 0.018847674 0.018851897 0.009137643 0.11428666 0.038533825 0.047490794 -0.08708051 0.022888368 0.010066174 0.055454712 0.053360585 -0.04511172 0.07008028 0.07850961
머 0.024770945 -0.038981233 0.06113525 -0.036896493 0.019407986 0.01320903 0.034580037 0.078536846 -0.0067351023 -0.007794394 0.025305836 0.08538699 0.093430445 -0.054538433 0.042477265 0.0601222
밖에 -0.049769364 0.033544347 -0.076397344 0.031984102 0.0656507 0.007960315 -0.006121592 -0.017225154 0.08202977 -0.0049955794 -0.035732467 -0.03857843 -0.092558086 0.022430612 -0.06947133 0.0010182792
OOO 0.115017734 -0.09441927 0.06593374 -0.118664846 -0.16256067 0.07343823 -0.16968186 0.14022855 -0.07042735 0.13193014 0.09137579 0.14697 0.1455353 -0.09702456 0.050258853 0.088746615
슬프 -0.06845258 0.04815217 -0.1736994 0.071365915 0.06622715 -0.14201532 -0.038898353 -0.12888382 0.12082168 -0.12784263 -0.07101653 -0.06575117 -0.110507086 0.14579445 -0.09621572 -0.08739038
정신 0.009234797 -0.042522628 0.073299356 -0.0060782055 -0.039027397 0.07823621 -0.0044469675 0.0656156 -0.021357046 0.034095075 0.1031054 0.054847013 0.022046067 -0.034347236 0.014297737 0.02334404
분위기 -0.015209835 -0.002879717 0.02193686 0.08289187 0.07473639 -0.025904803 0.16063575 0.000515716 -0.04057212 -0.004347877 0.041326538 -0.058203448 -0.054514755 0.0026977432 -0.017676298 0.029382557
소름 -0.14990309 0.10773526 -0.10983494 0.11058067 0.096195206 -0.098646715 0.056253277 -0.12111612 0.09133588 -0.1079806 -0.20337696 -0.10619517 -0.1569897 0.14953794 -0.10546945 -0.13282426
멋진 -0.055205222 0.07269271 -0.045174517 0.07884061 0.136747 -0.076550834 0.16453749 -0.10039902 0.048785448 -0.10121233 -0.140514 -0.077037424 -0.07589527 0.15133674 -0.101639315 -0.04327482
힘들 0.06831267 -0.01563406 0.052478496 -0.16519856 -0.04533098 0.03815917 -0.21646538 0.038724445 -0.012552039 0.044644844 0.10763776 0.089877166 0.081958726 -0.05289135 -0.008056615 0.010246848
오늘 0.04579882 -0.03634759 -0.023592625 -0.0070450483 0.041512933 -0.025763586 -0.05204066 0.0030367172 -0.003552768 -0.045832746 -0.066488616 0.03189795 0.023775477 -0.017782822 -0.030344369 -0.0066686245
어이없 0.17325279 -0.15942574 0.18502922 -0.09873038 -0.13462462 0.16205512 -0.05516733 0.17296074 -0.119299814 0.18138525 0.06959372 0.13587578 0.065090746 -0.16489361 0.18600674 0.1333539
봐서 -0.019101134 0.028194375 0.010852416 0.017246483 0.019482434 -0.021170823 -0.03569549 -0.024873355 0.0542738 0.011806168 0.031064877 -0.06277493 -0.01139972 0.060479283 -0.069506854 -0.025042657
걍 -0.024673028 0.030389778 0.00749608 0.034966946 0.017230146 0.06651166 0.046027277 0.06325053 -0.0045100525 0.025706515 0.07170087 -0.010920368 -0.012060625 0.004339515 0.06633827 0.05985433
