9996 16
. -0.049608503 -0.046586964 -0.0014896225 -0.022664336 -0.025995253 0.031369496 0.055612184 -0.004624147 -0.016933763 -0.060976658 0.049955916 -0.026543088 -0.003095542 0.053677134 -0.0063060517 0.03699014
이 -0.13422357 -0.0013028329 0.028543955 -0.08314196 0.025571834 0.009796137 -0.0023005481 0.04463731 0.0330271 0.030214172 -0.03150162 -0.0012342903 -0.016878909 0.03835947 0.009039074 -0.04656242
는 -0.05451104 -0.04035498 0.0019118604 0.018131081 0.01525524 -0.050679833 0.05499093 0.0073584137 0.06671163 -0.0019184109 -0.012155297 0.04241466 -0.029525993 -0.04409519 -0.014790004 -0.020514252
영화 -0.0588375 0.009193204 0.058653846 0.002720158 0.013670508 -0.0016050055 -0.0020090486 0.017884126 0.088043794 -0.043771595 0.06477815 -0.05819019 -0.07859785 0.10811372 -0.0106363725 -0.043237604
다 -0.20887478 -0.02655195 0.09116019 -0.026340064 -0.015845874 -0.026009478 0.0136437025 0.01430317 0.04799011 -0.019828744 -0.01729418 -0.04850788 -0.067046024 0.083694704 -0.014072856 0.049412396
고 -0.07869365 -0.041581254 0.033541404 -0.004889369 0.038409337 0.024101684 0.04986565 0.021850094 -0.02833698 -0.029571867 -0.015346723 -0.010181209 -0.07456314 -0.0037806896 0.035881095 0.047278818
하 0.030771865 0.0087300185 -0.029202878 0.014239549 0.041882504 0.038042184 0.055222332 0.045877185 0.08815205 -0.051826157 0.021922668 -0.045123607 -0.03167088 -0.0044361963 -0.05461695 -0.052413106
도 0.07680484 0.04468366 0.12880677 0.03480492 0.018790063 0.011920219 0.052698255 -0.0039028917 0.068907164 0.015489462 -0.030189453 -0.09119902 -0.059933044 0.006377597 -0.04303447 0.045748834
의 -0.02815992 -0.011428556 0.045167077 0.050831705 0.030854048 -0.015652707 0.047737505 -9.0176705e-05 0.0018689444 -0.0043830043 -0.0075184144 0.004201986 -0.06734938 0.0026760772 -0.010940891 0.03823288
가 -0.05061981 -0.0024176042 0.05087564 -0.04513094 0.05532242 -0.009156612 0.015919182 0.0019067354 -0.0006672763 0.035956234 -0.033007905 -0.02933695 0.036197383 -0.028014561 -0.027265 -0.018784655
은 -0.03133087 -0.046352435 0.06454903 0.018880995 0.065162845 0.010269694 -0.051789753 -0.03853898 0.0370764 0.003435269 -0.046084605 -0.032730352 0.030649101 -0.013413684 0.03724931 -0.03920108
에 0.05040785 -0.046629872 -0.004571687 0.0155383935 0.021512682 0.037169397 0.05310293 0.048508417 0.0111499345 -0.030256722 0.04309648 -0.020956978 0.0055024475 0.074726164 0.0013026642 -0.01526854
을 -0.07133805 0.08643463 0.03925785 -0.048163585 0.024964113 0.02425745 -0.039190236 -0.030044332 -0.029678248 -0.032055933 -0.03991384 -0.044343032 -0.002358812 0.0028338348 -0.053254746 -0.022020042
보 -0.10839469 0.050582472 -0.0022694776 -0.11343296 0.048880234 -0.0038394954 0.041644983 -0.014409321 0.039416313 0.019485256 0.013295417 0.012986997 0.029854065 -0.033730756 -0.0043139104 0.07648025
한 -0.057064645 -0.038277704 0.024787437 -0.017779933 0.05829611 0.008438017 0.08401339 0.09885884 0.024419567 0.020968895 0.044673983 0.02152922 0.02283636 -0.058534954 0.016058538 -0.004487746
.. 0.06544591 -0.029369084 0.02659718 0.046686698 -0.028048562 0.021551065 0.029300032 -0.036733244 0.03327575 -0.07229101 -0.014572721 -0.0017589218 0.0025350235 0.048536524 0.016473835 -0.030288622
게 -0.036932576 -0.016086439 0.061387964 0.030172568 -0.046901982 0.0397485 -0.010553625 -0.029660026 -0.07244441 0.027667934 0.024919765 -0.028997457 -0.058322806 0.029721057 0.025576862 0.018372318
, -0.030382669 0.01325585 -0.020811604 0.015304832 -0.046632092 0.019099433 -0.018638404 -0.05448182 0.07435893 0.025640167 0.021746244 0.0017651096 -0.020636393 0.025491524 0.008064874 -0.025391974
들 0.033053964 0.0011078072 0.012490991 0.029097056 0.051998395 0.007114538 -0.026528334 0.0478123 0.07528786 -0.009628605 -0.03181121 -0.007299532 0.006998806 0.029497903 -0.06618553 -0.02479122
! -0.085076645 -0.17955504 0.037228875 -0.018589633 0.035580497 -0.049961437 0.041545834 0.02820821 -0.07667536 0.04742712 -0.059293456 0.0586263 -0.09523726 0.058080856 0.09628532 -0.024913598
지 0.3087088 0.017411308 -0.07573714 -0.122939974 -0.003395576 0.023530694 0.042462934 0.0646583 -0.0074192705 0.14461684 0.050227553 0.051993452 0.10001244 -0.025492927 -0.098416865 0.02878897
를 -0.051428743 0.02750707 -0.035988968 0.029393906 -0.01764842 0.008412054 0.012184168 0.04898569 0.04602794 0.028295256 0.039561544 -0.030192642 -0.043621756 -0.07436561 -0.03432733 0.009656601
있 -0.08383925 0.018086702 -0.00545151 0.005249245 0.00410981 0.026460404 -0.015350292 -0.06235021 -0.06915717 0.004189227 0.0037463764 0.044868864 -0.124708965 0.03768068 -0.035457514 0.031007705
없 -0.012813518 0.0067131473 -0.029885452 0.09815865 0.033396073 -0.02249122 0.008022814 -0.056314114 0.0650405 -0.02532529 -0.08887234 -0.07134476 0.13375725 -0.08195059 0.043182496 -0.036770247
? -0.09220444 0.033368792 0.015950687 0.039526477 -0.0036425288 0.033264816 0.004755859 -0.045868736 -0.020883473 -0.08216974 0.06659954 -0.059149675 0.07656267 0.021488987 0.060459744 0.012880529
좋 -0.0873051 -0.033856682 0.10933246 0.014638318 0.1334 0.090705454 -0.06465087 0.021917267 -0.05912859 0.059187192 0.06864139 0.022588681 -0.18436594 0.076404504 -0.10328661 0.10025904
나 -0.023696763 0.097414024 -0.04405636 -0.038011793 -0.016123775 0.005179516 0.004116922 0.014688085 0.06256843 0.0514799 -0.012262943 -0.028965615 -0.061650097 -0.02517862 0.04907814 -0.029007196
었 -0.12376952 -0.0002399743 0.015747447 0.006731163 -0.080659784 0.054276697 0.027620014 0.016581118 0.07301468 -0.030040642 0.052753706 0.02484118 -0.054506827 -0.015168996 0.034620203 0.07794753
만 -0.15572718 -0.06209527 -0.03848767 0.11429546 0.0025431516 0.042033993 -0.052069116 0.07518261 -0.014912411 -0.034293737 -0.0539907 -0.013904261 0.05902721 -0.061865732 -0.006435001 -0.084447235
는데 0.08622706 -0.029584868 -0.005140149 0.026330108 0.054892726 -0.085087866 0.04752209 -0.005146529 0.007439001 0.08458992 0.027179977 -0.034817047 0.062138308 0.039632805 -0.03464496 0.12353919
너무 0.17554942 0.1742423 0.18916048 -0.09557408 -0.02496109 -0.0059826365 0.083108224 0.044336196 0.033031803 0.025702126 0.026494553 -0.058953382 -0.060918875 0.01836972 0.04886172 -0.0012915394
봤 -0.08256636 -0.0058608623 0.028025847 0.07714611 0.020454403 -0.010221253 0.076198526 -0.009895717 -0.012163738 0.026696267 0.08937286 -0.058275644 -0.010848644 0.10710749 0.068770334 0.06985492
적 -0.029492185 -0.05599229 0.013856738 0.06865706 0.015709499 0.034136426 -0.038501512 0.05334895 -0.007763425 -0.046170037 -0.019170763 -0.036886808 -0.078031845 0.01799631 -0.023650644 0.052315295
안 -0.05620953 0.056448083 -0.14987458 0.050187502 0.020385114 -0.011525899 -0.09021192 -0.029080564 -0.043001566 0.027069088 -0.09024836 -0.030907288 0.093928844 -0.012742141 -0.032073755 -0.070338935
정말 0.107799076 0.030248538 0.06045387 -0.039873656 -0.020010961 0.013304526 0.09598589 -0.018747268 0.021246193 0.02303396 0.050228287 -0.0054138405 -0.07929132 0.04547126 0.05780754 0.12375966
로 0.060338724 0.0047554513 0.043249384 -0.043343946 0.0830679 -0.017925534 0.02176695 0.0404796 0.046557218 -0.0015241755 0.0037213124 -0.08242307 0.042043198 -0.05943544 -0.05722523 0.04473454
음 -0.098243795 -0.0641679 0.06689691 -0.055128373 0.13306879 -0.014370235 0.07856603 0.09763587 0.088049576 -0.058091525 -0.02095851 0.01530437 -0.09979444 0.011710977 -0.00947638 -0.0058917063
으로 0.006233032 0.07079016 0.02769745 0.008529438 0.087565586 0.021110123 0.026226133 -0.024380593 0.079030976 0.008022747 0.07199583 0.0019981507 0.023529997 -0.0024772952 -0.008620842 0.037459534
것 0.08558482 0.007837284 -0.06348404 -0.027115805 0.07143415 -0.025571112 0.0919979 -0.061874777 -0.0033505242 0.028049648 0.0021488091 0.031321693 0.0516884 0.030094365 -0.05015219 -0.0009326859
아 0.024462694 0.028265437 0.014697572 0.028500414 0.034881927 -0.008866786 -0.0039104563 -0.06567301 -0.0006476238 0.030445796 -0.021930436 0.006357756 -0.037892763 -0.045584254 0.0030632943 -0.0030945092
네요 -0.13268146 -0.16169219 0.07759991 -0.08391845 0.023924524 0.021955637 0.031249925 -0.0104232505 -0.009718113 0.0047433637 -0.011848193 0.021730501 -0.037083883 0.06823329 0.10783997 -0.0004370554
재밌 -0.007942757 0.061409365 0.063114226 -0.08466255 0.1478418 0.036505163 -0.051483233 0.08919484 0.05650223 0.0656557 0.15138981 0.114093825 -0.12199657 0.13894475 -0.06727855 0.11690447
어 -0.045789752 0.020292707 0.020891154 0.009585195 0.027435845 -0.029698735 0.04027802 -0.06482054 -0.062307898 0.012811184 0.07300888 0.057721384 0.05866374 -0.005660093 -0.06124657 -0.041046035
같 -0.08520875 0.022680053 -0.009088363 -0.07923662 -0.04122121 -0.051148586 -0.020308588 -0.04672311 0.09494526 0.015871665 -0.004615757 -0.02671261 0.044047233 0.017145412 -0.025467856 0.0015418584
점 -0.31305677 -0.20768729 -0.012537071 -0.111217715 0.025853649 0.08435292 0.08664685 0.12063741 -0.005987304 -0.07926349 -0.018806808 0.013960027 -0.078321986 0.046201423 0.0043633576 -0.04168193
지만 0.1549759 0.110624775 0.01585203 0.08320028 -0.09634256 0.021581044 -0.030404966 -0.025276717 0.012336972 0.11181233 -0.026819969 -0.059694678 -0.010283502 -0.04139085 -0.12931417 0.117013186
진짜 0.07183586 -0.00046864004 0.0751857 0.044706177 -0.019122763 0.082003035 0.035160027 -0.049968515 0.0044993497 -0.009738941 0.099692106 -0.025110139 -0.07526433 0.027682686 0.09287146 0.16320932
했 -0.071703635 -0.04391746 -0.01396015 0.0024808256 0.10609526 0.05677269 0.05608547 0.026347524 0.08025599 -0.05504138 0.010780505 0.02558224 -0.0005681717 0.06679354 0.007403038 0.008330998
에서 0.06046862 0.04433405 -0.0010557851 -0.015995441 -0.02271503 0.06040225 -0.008362896 -0.0024671364 0.0012967247 0.039501563 -0.040804613 0.029082729 -0.050905637 -0.027821768 0.04103813 -0.0028308092
기 -0.116298445 -0.020753471 0.0093867155 0.06614913 0.093219295 -0.004171698 0.009621563 0.049381766 0.02765082 0.015590733 -0.006012354 -0.06794384 -0.05809454 0.0036283839 0.014271065 -0.07487441
네 -0.12852105 -0.01672455 -0.016039345 -0.012285677 0.024000632 0.046699762 0.028818788 0.016109096 -0.12814036 -0.055857 0.00031404512 0.0023594599 0.031287055 0.024399024 0.015272791 0.056195006
않 0.07350339 0.008343894 -0.12575741 0.0012760634 0.024138207 0.0984215 -0.07325777 -0.03454179 0.114132375 -0.015167043 -0.083496295 8.317565e-05 0.0045577446 -0.06662692 -0.001009703 0.024424955
거 0.07831591 0.056412302 0.002786591 -0.005638257 -0.062408958 -0.08350221 -0.06850931 0.022190433 -0.07116346 0.014409236 0.030489044 -0.08362159 -0.053993143 -0.011257313 -0.040790386 -0.03585429
았 0.058683347 0.034320585 0.031653307 -0.037708774 0.031442933 -0.044721574 0.03853455 0.012935598 0.073904395 -0.00087577815 0.0033341812 0.0125365835 0.018344063 -0.008772016 0.057191256 0.06842748
수 -0.01758528 -0.04536297 -0.07518716 0.03275196 0.07304926 0.03149061 -0.09450658 0.05146566 -0.13540871 -0.042066913 -0.07557667 0.04955434 -0.028768953 0.03220285 -0.070563585 -0.027964372
되 -0.10747366 0.0041061635 -0.018764602 0.017356418 0.0070610405 0.037976354 -0.032920975 0.029933121 0.0054305117 0.06881034 0.029105153 -0.058365084 -0.012379599 -0.04220013 -0.06753957 0.072409295
면 0.023579938 0.109409206 -0.06311594 0.032775015 0.045627303 0.0062118173 0.013479232 -0.04522092 0.01677375 -0.016029883 -0.033466626 0.029557161 0.03555006 0.040127978 0.044135284 -0.028829733
ㅋㅋ -0.03141132 -0.08254703 0.0977616 0.03893756 -0.009402048 -0.03187667 0.087467805 -0.032007243 0.07458812 0.053326186 -0.012188886 0.041545384 -0.03330184 0.06142418 -0.04023801 0.060959563
과 -0.014619557 0.055567306 -0.006482761 -0.014927071 -0.004557698 0.006689038 -0.03904322 -0.02993081 0.08338392 0.008361717 0.09014571 -0.023913564 -0.0341409 -0.010715852 0.009080037 0.0330588
말 0.07979112 0.022069812 0.06868463 0.013684936 -0.110647805 0.08427041 0.014595183 -0.019167706 0.032406215 -0.04030404 -0.0005573972 0.06709095 0.008453247 0.040586818 -0.06329575 0.026218586
연기 -0.05165393 -0.0015462497 -0.010478762 -0.022584753 0.04541692 -0.078095905 0.08696953 -0.0005300231 0.029453875 0.024360087 -0.011973346 0.034014326 -0.07286601 -0.075529434 0.0048530605 0.057694368
인 -0.034551635 -0.028626941 0.017231185 0.025333837 0.043610647 -0.06537218 0.0076393397 0.060844798 0.08668042 -0.022758523 0.012373098 0.010517252 0.0067424127 0.07699843 -0.010661966 -0.022817507
잘 -0.05312185 0.047750093 0.032608494 -0.12687641 0.102923706 0.1405923 -0.021507174 0.01891342 0.1091631 0.09393171 0.043399435 0.033409365 -0.051400628 0.092724025 -0.020943519 0.060337815
주 -0.034415938 -0.005955891 -0.031266384 -0.029079909 -0.0035503572 -0.054358073 -0.048206564 -0.0020453054 0.09003314 0.068404846 0.097751535 0.005781796 -0.032688126 0.00036681042 -0.030765116 -0.04133475
내 0.001340535 -0.031641733 -0.040078506 0.038619615 -0.08602376 0.03168367 0.011495479 0.00839723 0.04266695 0.046066664 0.0076643624 -0.028475696 -0.0050074183 0.00967759 0.010075122 0.00624137
최고 0.07575993 0.0151917245 0.015628245 -0.12877579 0.073929615 0.14466287 -0.05446934 0.06949234 0.049729824 0.18568628 0.1306385 0.16919653 -0.12718321 0.20402494 -0.030124616 0.14417481
~ -0.07312547 -0.09589789 0.06570336 -0.060797848 0.06292783 -0.077225566 0.032491084 0.050725747 0.08273095 0.05636638 -0.039491855 0.043359105 -0.06783948 0.023558678 0.09824666 -0.02400443
평점 0.027176553 -0.030343108 -0.0044111796 -0.07946906 -0.06263382 -0.06570573 0.034008402 0.05573799 0.14260353 -0.0020656504 0.090598166 -0.014113806 -0.048525408 0.041632317 -0.06398666 -0.031252287
이런 0.13005577 0.034427367 0.043154683 -0.07396132 -0.0011437326 0.10062572 0.035524134 0.003129343 0.016305411 -0.019037865 -0.0419571 0.024423229 0.1032845 -0.046716865 -0.04902734 0.0496796
던 -0.053422533 0.0129786115 0.018065669 -0.05515479 0.02480603 0.008522225 0.014652294 -0.03678985 0.05373715 -0.0012637913 -0.011595501 0.02839953 -0.0101759825 0.038182836 0.05740791 -0.010086837
와 -0.076291874 -0.071223475 0.014408058 -0.036389917 0.062367134 -0.012612421 -0.015516806 -0.07495273 0.057868697 -0.018780647 0.02210519 0.034723032 -0.0941053 0.02345786 -0.011180719 0.03805089
어요 -0.1871635 -0.17390816 0.084134206 -0.07394467 0.12892531 -0.048884775 0.094445646 0.10716827 0.050666917 0.04704603 0.097651705 0.10736994 -0.047772527 0.052459825 0.015331552 0.03481046
할 0.011368461 0.02614042 0.04981445 0.049313836 -0.045679577 0.057582226 -0.030029353 0.02376598 0.015836265 0.026748823 -0.010995208 -0.02710176 -0.03928244 -0.04452896 -0.010891802 0.02674992
왜 -0.0038495408 -0.12826192 0.015815984 0.0084195435 -0.04714228 -0.039318316 0.01725074 0.0025568854 0.07016849 0.047043756 0.07772303 0.03345035 0.0147589 0.067528814 -0.055065233 -0.0073502026
겠 0.034058988 -0.011055056 -0.015331112 0.017491523 -0.03582043 -0.052974176 -0.005741986 -0.08192829 -0.044986144 0.011205097 -0.010269806 -0.10364633 0.06145901 -0.03310701 -0.057034228 -0.03826877
1 -0.016580425 0.040504985 -0.05847327 0.0195524 -0.07035151 -0.052623622 -0.032970328 0.05171746 -0.07606761 0.012986744 -0.051755782 -0.060914382 0.081417635 -0.012860476 0.009648077 0.027530668
스토리 -0.093548365 0.013278945 0.07732158 -0.02466162 -0.043696966 -0.05780474 -0.0006581008 -0.027702538 0.13094284 -0.019913597 0.039955646 -0.08458686 0.08888089 0.015660034 -0.053206727 -0.0070329276
해 -0.018011453 -0.058248922 -0.016240794 0.011202916 0.023122584 0.011281275 0.021501346 0.0659483 -0.009836513 0.017448723 -0.064469725 0.07341476 0.008029916 0.012610309 0.020072484 0.032970987
습니다 -0.15741096 -0.106280304 -0.022438254 -0.06872564 0.009384658 0.09492071 0.012242367 0.009390664 0.034927707 0.02710754 0.05286967 0.07393536 -0.033854716 0.06767835 -0.032463696 0.06747436
ㅋㅋㅋ 0.024328513 -0.03116911 0.037961133 -0.056958534 -0.037515186 -0.093867585 0.041178435 0.03542156 0.00562673 0.0048500136 0.012278947 -0.004009514 0.0015874447 0.015583356 0.0521573 -0.049282808
... -0.046218164 0.052031517 0.07044945 -0.052736703 -0.061666735 -0.02245591 -0.029287636 0.006699833 0.07928476 -0.10048891 0.03461996 0.0017748481 0.0045408476 -0.013616899 -0.025807101 -0.03638096
드라마 -0.092918195 0.018439205 0.07300048 -0.013406992 0.089782335 0.025082989 -0.036752768 -0.041074675 -0.056048095 0.013085525 0.021968119 -0.023468157 -0.12560858 0.103306875 0.0155979805 -0.07415003
생각 0.015855461 -0.0015242501 -0.07816371 0.023620836 -0.0056447885 0.09578698 -0.04595785 -0.030267095 0.019692097 0.08425988 -0.006466149 -0.0032744107 -0.0469442 0.0633288 -0.0063322764 0.05296598
아니 0.10169503 0.048479382 0.0040120427 0.06458289 -0.02400366 -0.02607022 -0.04545404 0.029270282 -0.06844442 -0.019851673 -0.09897585 -0.056519844 0.06970085 -0.031688623 -0.01019947 0.025028702
더 -0.03627601 0.019076627 -0.14375558 -0.07163121 0.01877306 0.102666296 -0.052531976 -0.06072385 -0.08460667 0.05016647 -0.04037198 0.008442787 0.005317395 0.0023577309 0.026417011 -0.033904534
그 -0.12157193 -0.0131176915 -0.029325427 0.047963288 -0.008167827 -0.026438031 0.019095043 0.10645396 -0.043533858 0.058672737 0.03311574 0.013607575 -0.032908954 -0.010256847 -0.013956942 0.034264468
싶 0.042826183 0.039088022 0.12998778 -0.04836076 0.0030834114 0.041921344 -0.0405369 0.03725187 0.03765284 -0.03903528 -0.091430105 -0.03499496 -0.066706724 -0.018031165 -0.0067229806 0.04053229
사람 -0.013017844 -0.06297659 -0.018446313 -0.064689994 0.015536168 0.03990183 -0.037640255 0.0044015353 0.06688382 0.067407906 -0.052261956 0.023084762 -0.036893904 0.00013676271 -0.034872495 -0.021288678
듯 -0.019172173 0.051785454 -0.03351603 -0.07572707 0.047778398 -0.024869341 0.039572325 0.04602875 -0.019693192 -0.04834574 -0.00073497545 -0.0042479923 -0.0040083593 -0.027699152 -0.006888504 0.017402014
때 0.018291522 -0.010931035 0.065133736 -0.037438314 0.010707778 0.080853075 -0.039110504 -0.0027294916 -0.022596875 0.055604585 -0.015456402 -0.0037762662 -0.061124153 0.045660038 0.044251 0.05563025
감동 -0.04881092 -0.0477215 0.027953012 -0.1589036 -0.0044164145 0.09364838 -0.0927474 0.02960796 0.11255349 0.15761018 0.0517832 0.08786339 -0.115633965 0.08451836 -1.6588281e-05 0.14335378
함 -0.025575887 -0.023335444 -0.027350826 -0.004741479 -0.041140135 0.003494351 0.043535233 0.019593894 0.098518625 -0.012287016 0.0034930713 -0.009370429 -0.011926476 -0.0011176344 0.02525703 0.018128395
배우 -0.048229627 0.023897175 -0.051014148 -0.0562835 0.0016487475 -0.008986058 0.048032396 -0.13395868 0.050888836 -0.06450915 0.00074261014 -0.03703371 -0.026335623 -0.012270482 -0.020998273 0.030988615
본 -0.04807254 -0.0085948985 0.03591129 0.049029373 0.032176904 0.0028750687 -0.081146136 -0.036884844 0.0737838 0.020999294 0.0027818512 -0.00628583 -0.007305853 0.069387086 0.041762576 0.009458754
까지 0.027266948 -0.01755578 0.06722693 0.008069404 0.05271918 -0.0041917977 0.016301144 -0.0029113565 -0.014026693 -0.0017617834 -0.062314793 -0.024658939 -0.025937244 -0.018735591 -0.07798051 -0.062001634
좀 0.04771294 -0.09185029 -0.0651531 -0.04655003 0.076375656 -0.02977073 0.037340973 0.09276047 -0.05712162 0.016859083 -0.06576333 -0.03326268 -0.00048764143 -0.021972032 -0.026497029 -0.0770619
뭐 0.0888784 -0.023543581 -0.028649868 -0.12320605 -0.060111184 0.047150154 0.04359606 -0.016998477 -0.09360823 -0.051383577 -0.047511235 -0.010454532 0.029746732 -0.043061715 0.089309394 -0.06438144
알 -0.01185691 0.09614797 0.055132437 0.08164455 -0.032843724 -0.033117507 -0.03904465 -0.023363918 0.03806788 -0.00033114266 -0.041705254 -0.03655354 0.01015174 0.012175701 -0.007755502 0.0020622003
만들 -0.10054226 -0.06653176 0.02479791 0.0010554539 -0.069406964 0.04009142 0.056284588 -0.044363342 0.046135996 -0.010256818 0.030008454 -0.12370855 -0.023501772 0.006113031 0.020721734 -0.07067704
내용 -0.0012565777 0.030553788 0.008823811 -0.041226577 0.054549906 -0.007831171 0.008642043 -0.10494896 0.10070826 -0.07106054 0.038519423 -0.09799239 0.058926933 -0.05240855 0.07074905 0.016603723
볼 -0.11121739 -0.09632993 -0.13872053 -0.06834265 0.022490479 0.045146897 -0.08924048 -0.11661656 0.05078724 0.110364996 0.0021156862 0.0098705385 -0.0648332 0.0612909 -0.10160874 0.08984628
감독 0.016145457 -0.08661633 -0.0032429975 0.09884602 -0.0060005332 -0.09986294 0.030427653 -0.032787938 -0.02517546 -0.08491485 0.033530187 -0.0111776125 0.03569856 -0.06441494 0.07952091 -0.04870303
보다 0.07526139 0.067431785 0.013231125 0.060039796 -0.050737754 -0.035982233 0.023494106 -0.02999169 0.09537911 0.048624437 0.007573854 0.009953153 -0.03819979 0.081429556 -0.0653479 0.10668564
라 0.16331957 0.06426865 0.024561118 -0.019239068 0.0026061854 0.030239591 -0.060416114 -0.007806562 -0.024986176 -0.020785362 -0.022727072 -0.01347558 -0.005881108 -0.0014545573 0.03294403 -0.038785893
그냥 0.103324175 0.050468627 0.21094358 -0.09573597 0.04467053 -0.057993643 0.027206667 0.065042816 0.16655979 -0.028185071 0.028739415 -0.06113337 0.009565346 -0.07075024 0.03801216 0.0057504405
재미 0.15052785 -0.005083887 0.040415093 -0.047119077 0.0017670282 0.11675721 0.12178221 -0.06566006 0.051296648 -0.018634817 0.13647622 0.017367726 -0.09119869 0.06982268 -0.008177997 0.06772379
시간 0.11522738 0.10167337 0.025296468 0.09632602 0.021533761 0.016310077 0.1302561 -0.011317142 0.09024729 0.023963213 -0.011610422 -0.031027019 0.012945499 -0.03918974 0.1028462 -0.06400015
지루 0.04248465 0.43607673 -0.117078245 -0.0037967828 -0.10551852 -0.13857439 0.028770136 -0.06085724 -0.020195728 -0.09899187 -0.07702159 -0.07716294 0.07808916 0.049151424 0.07530253 -0.048668474
중 0.016807918 0.0032565023 0.08159179 0.028201263 0.028799105 -0.06376293 0.056670263 0.046880472 0.005506983 0.037972845 0.043560877 0.031691965 -0.059085734 0.01574678 -0.05246312 0.08674501
재미있 -0.025739834 0.06227562 0.055003565 -0.086999625 0.06601028 0.13602217 -0.083959326 0.08698555 -0.004542239 0.11407276 0.10460598 0.057293657 -0.12873465 0.07273069 -0.050680358 0.17260267
년 -0.05463102 0.034106124 0.007367524 0.028033165 0.004931096 0.00090198516 0.028773956 0.031642742 -0.02609867 0.021436598 0.0011002091 0.022265514 -0.065510206 -0.023065729 -0.06197052 0.030465506
10 -0.015125748 0.013620898 0.20287806 -0.0050293133 0.09974903 0.061242007 -0.06044089 0.039063584 0.01259765 0.10253572 0.18239129 0.020333469 -0.17833796 0.059893418 -0.09907648 0.03416167
였 -0.0034245353 -0.032303393 -0.036284566 -0.056509446 0.06710318 0.037155 0.029991897 0.007017204 0.057281144 -0.012975372 0.029704953 0.016963543 -0.05251782 0.057087004 -0.042299435 -0.03253678
잼 -0.011929641 0.014845599 0.06982227 -0.13156845 0.06126659 -0.019202452 0.007864851 0.12083033 0.20327508 0.023683632 0.13485269 0.06945919 -0.09846819 0.12291623 -0.07600513 0.11960973
사랑 0.08770779 -0.05373852 0.037541706 -0.049392216 0.053315833 0.0643813 -0.09407914 0.0014799498 -0.027514357 0.047725186 0.11003365 0.073927075 -0.09048314 0.13035591 0.002770573 0.07346448
못 3.602053e-05 0.02408825 -0.087249465 -0.026658554 -0.04659832 -0.017227376 0.007859203 0.028461998 -0.03618169 -0.03860798 -0.031752136 0.0012829932 0.050035678 -0.051019315 0.06922242 -0.013799569
냐 0.023001574 0.1578945 0.024234518 -0.091469996 0.010084755 0.048841313 -0.017333861 0.023196086 0.0033551338 -0.029522812 -0.070692 -0.02417262 0.12588838 -0.037692305 0.095980965 -0.028191913
재미없 0.03162103 -0.14118908 -0.023873258 0.074008055 -0.08897246 -0.1274706 -0.0002721794 -0.057858776 -0.10119705 -0.097052716 -0.15973839 -0.09687806 0.09645417 -0.06528705 0.08713433 -0.13382556
쓰레기 -0.15138353 0.10617643 -0.11851046 0.15280241 -0.05801553 -0.067866065 0.15162472 -0.027358344 -0.06475097 -0.16066144 -0.061452188 -0.096202224 0.15805805 -0.10751374 0.041778367 -0.09900452
서 0.08377429 -0.012455998 0.03502017 -0.03638442 0.0893295 -0.007008047 0.05815565 -0.03674865 -0.043481953 0.01378847 0.02130859 0.07827248 0.0093687065 -0.0068366984 -0.0028533314 -0.039405875
2 -0.029400524 0.072967626 -0.026376994 0.006439468 -0.031552598 0.040914442 -0.005532249 0.10532972 -0.09970281 0.013004426 -0.112130836 0.014444819 0.017002407 -0.0411959 -0.004645562 -0.04606484
라고 0.15414985 0.070328936 -0.04551237 0.10124374 -0.06936944 -0.01381013 -0.009403874 0.0041529457 -0.029168878 -0.04687287 -0.042693514 0.0027611963 0.040496424 -0.01035898 0.008146264 0.029150821
야 -0.052099675 -0.023883728 -0.043093722 -0.054774355 -0.005148248 0.02851868 -0.031701963 0.07031834 0.0077184457 0.03339838 -0.04727071 -0.049273748 0.03670637 0.023742095 -0.007771093 -0.039462376
니 -0.02603697 0.03904568 0.02717989 0.07798066 -0.041190222 -0.010852557 0.045321897 0.04639168 -0.026231991 0.043673716 0.040736273 0.0559152 0.050173987 0.023554198 -0.0055498225 -0.0294462
면서 0.037197508 0.06574364 0.036480777 -0.07651642 0.052068435 -0.0032628458 -0.033267006 0.049047697 0.028852338 0.00033442205 0.01054258 0.021809798 0.013415258 0.027250156 -0.015229943 0.022882996
번 0.037918948 -0.05316877 -0.023108717 -0.010248037 0.042248912 -0.01776412 -0.10056226 -0.00033852883 -0.039117433 0.040289335 0.0059008324 0.04318622 -0.04782233 0.07442369 0.022050247 -0.027468538
다시 0.14755161 0.052513484 -0.028875241 -0.059984364 -0.01184779 0.07348797 -0.028771304 -0.014200371 0.033835605 0.09745009 0.093490474 0.08555246 -0.05905515 0.14285256 -0.029081477 0.0891125
나오 -0.009924536 0.005247968 -0.028466806 -0.09963557 -0.038536362 0.06530295 0.011808577 -0.034926917 -0.061440285 0.0059251385 -0.0027939074 -0.034876764 -0.03454137 -0.06752843 0.07324934 0.050130356
작품 -0.034105454 -0.0009387976 0.012123467 -0.02102469 0.08039378 -0.04573884 -0.019839566 -0.024727605 0.060713764 0.067764506 0.033529386 0.04832699 -0.06753989 0.056320313 0.027171262 0.06793108
이거 -0.0044262153 -0.028872138 0.021454336 0.06970882 -0.008848939 0.012954226 -0.009293414 -0.04217607 0.063478895 0.010746599 0.09581902 -0.015253424 -0.069848835 0.04497542 -0.0061659203 0.0059507973
하나 0.066455856 -0.062330402 -0.06083443 0.025769433 -0.02721156 0.0068859276 0.072339155 -0.009331311 0.015738474 0.046179533 -0.018044343 0.012098397 0.06198565 -0.027093768 -0.060873218 -0.021917542
줄 0.12218609 0.08242096 0.023967428 0.0041704406 -0.012805458 0.005563137 -0.047966093 0.0059482795 -0.042395324 -0.032518443 -0.0032831873 0.043912236 0.06060709 -0.08879494 0.059409425 0.042979628
해서 -0.008331901 0.018133601 0.049036264 0.072536 -0.03146483 -0.05774646 0.010267545 0.016642116 0.08803912 0.03538992 0.023951242 -0.08666904 -0.056452133 -0.07002586 -0.07747325 0.03774497
개 -0.030668566 0.07121264 0.08799874 -0.014481632 -0.05196238 0.05791427 0.080495045 0.08313769 0.030298458 -0.07429262 -0.032424945 0.018028947 -0.001107072 -0.06557617 -0.029317025 -0.024196973
남 -0.12136919 -0.08248252 0.011378463 0.10645641 0.05729298 0.019278316 -0.011122592 -0.042264424 0.06406172 -0.009672174 0.049586117 -0.0056952257 -0.016215324 0.056053385 0.0051778364 0.0072567933
정도 -0.025735881 0.018738827 0.015287606 0.057983946 0.04430792 0.004506677 0.10643395 -0.015325699 -0.021446174 -0.008188835 -0.034429077 -0.051179647 0.06313086 0.031155586 -0.021232363 0.017823907
마지막 -0.0012267539 0.10111331 0.028006611 -0.0073657576 -0.0027709347 0.008665555 -0.06717048 0.019510403 0.06674831 0.009746521 0.0009035279 0.10282072 0.023638623 0.023454096 -0.05100391 0.017398892
끝 -0.014902105 0.04627892 -0.05050305 0.019013213 -0.018683972 -0.048737623 0.011583264 0.023648003 0.0028387974 0.02460916 -0.033714812 -0.04359348 0.009488654 -0.068089545 0.029490484 -0.024016755
이건 -0.0125068985 0.063090704 0.16579531 0.106469706 -0.0069035594 -0.04981451 0.07267536 -0.05449323 0.25616428 -0.031073742 0.0712394 -0.11250163 0.04869328 -0.0035627624 0.06340424 0.024525478
액션 -0.115589306 0.0039879195 0.0013007633 -0.026472853 0.08072028 0.04253744 0.022269 0.009790892 -0.051350642 -0.023575898 0.039727345 0.045288246 -0.044759065 0.08451529 -0.066725954 -0.033562083
임 -0.038847774 -0.08543619 0.10626623 -0.0036623871 0.038123045 0.059790198 0.02286157 0.11560872 -0.07833014 -0.07956564 0.1194403 0.024585314 -0.05286481 -0.005512315 -0.03520352 -0.0022536358
ㅋ -0.092832185 -0.22173189 0.090207666 -0.09885087 0.02751087 0.05241376 0.012738582 0.0183768 0.015062165 0.008890481 -0.019792715 -0.023957646 -0.1071287 0.03365644 0.009853595 -0.0099044405
3 0.0020493653 0.1660618 0.021319604 -0.01993463 0.062405538 -0.07593652 0.02684657 0.04152352 -0.06642965 -0.046524838 -0.0077202334 -0.0011015276 0.07889745 -0.06103494 0.010595764 0.0006004361
기대 0.12274377 -0.16428073 -0.09882135 0.031560067 0.0011516775 -0.050718784 -0.12902792 -0.04333987 -0.03078727 0.0455886 0.058503736 -0.025225606 0.03889847 -0.05008449 -0.058850892 0.07001651
입니다 -0.16534023 -0.06924423 0.07649505 -0.099971585 0.0019000975 0.04456966 -0.015565746 -0.013255877 -0.11247249 0.062001914 0.02351512 0.016663853 -0.1332373 0.059965596 0.10181032 0.03182812
건 -0.026134778 0.052654844 -0.061855715 0.00011967108 -0.030699361 -0.057112336 -0.09065002 -0.018303577 0.010876203 -0.041146364 -0.06361528 -0.055553734 0.09320169 -0.005893114 -0.0020590476 -0.029384594
라는 -0.06719495 -0.03155892 0.014670088 0.0004925168 -0.022697814 0.08491381 -0.0210195 0.053872067 0.03074931 0.014516972 -0.020280886 -0.033395376 0.04964208 -0.0480878 0.02848332 0.034270465
분 -0.0018060391 0.022884144 -0.05510625 0.07073218 -0.07428108 0.0012552936 -0.04541784 -0.03132722 -0.027806712 -0.05438146 0.0014673125 -0.026263004 0.035048705 -0.080596425 0.017234774 -0.09004871
완전 0.12400295 0.10707024 0.18007948 -0.018508395 -0.014128485 -0.060870394 0.13598837 0.028768 0.04165159 0.026558481 0.08499578 0.024714975 0.002226442 0.039009538 0.048567392 0.161404
다는 0.016940108 0.09151649 -0.12443316 0.053920254 -0.059060033 -0.08387218 -0.07642933 -0.1026833 0.013479762 -0.019669043 -0.064540476 -0.0033537643 0.021458538 0.024846004 -0.09393895 -0.016213262
참 0.03968114 0.008944486 0.06136985 -0.048488747 -0.03802873 -0.041228864 0.055326182 0.04516353 0.050027154 -0.011364713 -0.018201765 -0.08656655 0.011515965 -0.084254846 -0.024977304 0.052847512
많 0.0076469486 0.026023122 -0.0683046 0.048276782 0.06901331 0.027192261 -0.0022755456 -0.034743544 0.12199599 0.049249187 0.017085517 0.077072196 0.029982625 0.06308009 -0.0106685 0.03299606
처음 0.028475253 0.033791114 -0.013444078 -0.018718358 -0.11689888 -0.011175097 0.0070654657 0.08944554 -0.013074776 -0.078622594 0.0029867655 0.005278918 -0.010465916 0.006411494 -0.036714803 -0.013514226
장면 0.023881368 -0.026466656 0.11221714 0.02785763 -0.006858322 0.011774143 -0.0070817973 0.019720305 0.02604104 0.06405821 -0.01173832 -0.00737904 -0.024985319 0.0018148902 0.008963652 -0.034090597
대 0.019218087 -0.06528318 0.023143131 0.061102863 -0.050995562 -0.0533386 0.027473183 0.04790816 0.06587804 0.036447894 0.031837143 0.0149905095 0.015488333 -0.033856362 -0.001005677 -0.009090646
아깝 0.10271805 0.0151401125 -0.055361874 0.01837164 0.008552836 -0.118529916 0.04493736 0.02863867 -0.055624865 -0.14297861 0.038388975 -0.04987102 0.13783696 -0.17959446 0.062466808 -0.06301534
다가 0.049382515 0.08775805 0.023035064 0.044340137 -0.12631556 -0.04299647 0.052132063 -0.0010726035 0.08462676 -0.030141203 -0.019039413 -0.1308462 0.06218967 -0.06547104 -0.01592103 0.012047604
으면 0.068681724 0.031112809 -0.09303948 0.004748925 0.021570604 -0.10585451 -0.120571025 -0.044607516 0.02146458 0.06607112 -0.058985066 0.05503973 0.0119569935 -0.007169757 0.029290305 -0.03715029
지금 -0.028853241 0.030455828 0.002990107 -0.060657408 -0.0054006795 0.04398744 -0.021701764 0.088716626 0.08980869 0.021206874 0.0030135452 0.049440037 -0.08070321 0.041382268 0.052283593 0.08726184
모르 0.12591358 0.13273332 0.11595818 -0.021404585 0.045833834 0.01315919 -0.0026388871 0.037425227 0.115359664 0.0906782 -0.031564705 -0.00066378457 -0.040228833 0.007627325 -0.06393937 0.09791404
이렇게 0.22044185 0.12882024 0.047810163 -0.11501123 -0.001628049 -0.013182805 0.055591125 -0.0013559798 0.14178911 0.020152856 0.026334258 -0.0073447665 -0.0077971276 0.0128271505 0.0015870907 -0.012705916
' 0.014505087 -0.038809393 0.045453362 0.009094647 -0.019308945 -0.0047408207 -0.0075779473 0.051330958 0.059011225 -0.010451741 0.0543644 0.024808915 0.03252546 -0.06730953 -0.055573985 -0.0036617338
편 0.059536073 -0.08362526 0.039032564 -0.016304173 0.0039653536 0.055751294 -0.007824706 -0.046102457 -0.0202972 0.035209756 0.03017536 -0.0070994366 -0.028880531 0.074539445 -0.026755689 0.046882432
일 0.10959123 0.072249025 -0.021943819 0.101169914 0.009123526 -0.031617653 -0.04627702 -0.05803098 -0.011095145 -0.00910269 -0.051925175 0.032064203 0.07168062 0.03754526 -0.039991546 0.026525807
돈 0.08986698 0.051065315 -0.08471987 -0.013306244 -0.022156818 0.0429593 0.08412421 0.04809191 -0.10345704 -0.087966725 -0.08528148 -0.0154372025 0.10180159 -0.10954563 0.012362814 -0.1394076
이게 0.0061324434 0.05582207 -0.08227671 -0.0009182548 -0.021743555 -0.01907027 -0.019682238 -0.028374799 -0.019359056 -0.06695652 0.00076880644 -0.045232154 0.002870232 0.011056189 0.053196587 -0.07036172
성 -0.034913287 -0.011915269 0.14060465 0.011522992 -0.08304033 0.023836736 0.05825748 -0.07842913 0.14103688 -0.06013429 0.1136579 0.006065596 -0.025258966 -0.04148989 0.066930525 0.015161585
느낌 -0.09655861 -0.024268778 -0.021558613 0.018472195 -0.0043189456 -0.0045246873 -0.020886872 -0.030363703 0.041920006 0.02923875 -0.06521743 -0.010646576 0.03301657 0.02786774 0.03442609 0.050577834
시 0.018697197 0.01751798 0.024954751 0.0017338513 0.05821144 -0.103029944 -0.06895537 0.072205484 0.07299311 -0.011827998 -0.072039865 0.024340287 -0.011251672 0.006790852 -0.02975454 -0.009046843
이야기 0.016201092 0.0047661895 0.019415826 -0.06566163 0.035537288 0.05439978 -0.044294234 -0.05938679 0.023459068 -0.009492821 -0.016285712 -0.0072388267 0.00863773 -0.0029805577 -0.06723679 0.030519994
최악 0.059565168 -0.077765346 -0.19313157 0.04323989 -0.2072165 -0.1682431 0.12379832 -0.23471518 -0.2054282 -0.1550289 -0.1791409 -0.18418086 0.17999648 -0.16733886 0.19074479 -0.10500596
된 -0.049558368 -0.0535388 -0.015256152 -0.060523823 0.014960208 -0.016559668 -0.011541303 0.001934328 0.10636245 0.06174032 -0.03182163 -0.020327153 -0.044183396 -0.032673936 0.0007439251 0.047293223
봐도 -0.04479963 -0.061979625 0.07047001 -0.14393489 0.02195103 0.04400101 0.05166734 0.07995151 0.043629486 0.05157532 -0.023893189 0.101679556 -0.08091383 0.10260978 -0.03416892 0.1375096
님 -0.0008628856 0.014969872 -0.04781313 -0.103530146 0.032442294 -0.03780002 -0.0126785375 0.07633956 -0.086573906 0.04949644 0.0023705505 0.060531493 -0.06016011 0.003736574 -0.043570668 0.053649385
어서 -0.1462543 -0.0011483517 0.033252556 0.013993516 -0.015932675 0.056301404 -0.03723286 0.04724532 0.0054492787 -0.042078078 0.056794874 -0.0343771 -0.012585107 0.03785072 0.048143398 -0.01810544
애 0.01029876 -0.047931068 0.0034451159 -0.08746948 -0.03552107 -0.054019004 0.07128443 -0.026606549 -0.026701715 -0.01701992 -0.026641352 0.013411306 0.026619425 -0.024985097 0.018760806 -0.0333681
전 0.15192863 0.022272013 0.032742467 -0.010191881 -0.063304566 -0.0039270627 -0.06706828 -0.08672236 0.0030753259 0.05483552 -0.06894179 -0.054333292 0.05650808 0.077297434 -0.04934421 0.019682905
넘 0.16301657 0.12919778 0.05837493 -0.029221483 -0.004203788 0.026073948 0.09279588 -0.0038851527 0.026354002 0.01878276 0.08087186 0.038518112 -0.06167088 0.049133398 0.07214625 0.10136063
ㅠㅠ -0.015513809 -0.1977807 -0.0067665405 -0.011398008 0.041971568 -0.08828241 -0.013409061 0.09727859 -0.026074052 0.035497844 0.016862374 0.084482946 -0.016348818 -0.0028165358 0.021577986 0.064611785
인데 -0.03377026 -0.0036409455 -0.025183752 -0.04721693 0.05879684 -0.0015818587 -0.020122014 0.06350641 0.098086745 0.004738668 0.010557255 -0.07445655 0.042875353 0.05379317 0.0032265342 0.0012422953
다고 0.28698137 0.13527545 -0.07178993 0.08399052 -0.076010026 -0.06171823 -0.13268803 -0.068973236 -0.041697107 0.012083414 0.013152201 0.024739144 0.010328083 -0.030974757 -0.082007684 -0.027615443
이해 -0.02335417 -0.07138738 0.0043761935 -0.017425641 0.0111536095 -0.03205468 0.009792983 0.0272377 -0.07975414 -0.058103535 0.0052124523 0.01900186 0.0451884 0.06022287 -0.02183619 -0.031727538
자 0.063187286 0.0040151863 -0.034571603 -0.0075707305 0.018768786 -0.008034697 0.0765133 -0.035434444 0.014905468 0.018237963 -0.051620368 -0.045178093 0.020931713 -0.010700556 0.009267651 0.015259595
별로 -0.09697293 -0.033907205 -0.0650921 0.09093472 -0.038955692 -0.007215562 0.11167966 -0.0832559 -0.11596353 -0.06005353 -0.16749051 -0.08099697 0.112866856 -0.06247295 0.10105979 -0.12759268
그리고 -0.04015204 0.019941108 0.004783967 -0.0406915 0.011041275 -0.06461444 -0.043575708 0.039497875 0.042366963 0.07285893 0.025833523 0.026562518 -0.06564668 0.074209064 -0.08624954 0.042052247
명작 -0.086332165 -0.043950886 0.08459016 -0.11933154 0.052650984 0.028960204 -0.10338315 0.113241196 -0.023536738 0.17517535 0.12804548 0.10380802 -0.12403394 0.14838696 -0.08703023 0.098163165
여자 0.06351206 -0.07033315 0.03590024 0.075508825 -0.022551704 -0.03288284 -0.01882282 -0.001269763 0.009785128 -0.10469578 -0.0620028 -0.04739175 -0.014626773 -0.047794107 0.053608164 -0.034623995
^^ -0.06611122 0.0023433066 0.014531831 0.017180698 0.1011257 0.04213025 -0.10934532 -0.002252536 -0.012003099 0.13125093 0.066975944 0.06312799 -0.095734216 0.050791338 -0.023001995 0.10828187
역시 -0.028770693 0.089750595 -0.01562953 -0.019158486 0.05972779 0.0041835248 -0.07810883 0.0165624 0.050259557 0.1051884 0.03852452 -0.017109606 -0.03276184 0.092773445 -0.05507622 0.048606604
난 -0.024446277 0.088373005 0.082208574 0.031674694 0.027962154 0.118664324 0.026355742 0.033737335 0.14612988 0.05632954 0.076857716 -0.042551186 -0.053705543 0.016647976 -0.06570469 0.08655683
이상 -0.018749759 0.10234469 -0.10376524 -0.0031458002 -0.023677288 0.0011323078 0.0016645833 0.006349543 -0.090733714 0.008458945 -0.016084893 0.012263749 -0.015887223 -0.020208599 0.052215867 -0.006675076
또 -0.012945441 -0.01661491 -0.0028106957 -0.031242888 -0.05289575 -0.034258153 -0.059290208 0.09427734 -0.011590409 0.031837467 0.009257237 0.016565196 -0.10611065 0.06589623 0.019506888 0.07780113
걸 -0.075181246 0.038860932 -0.06701805 0.040476125 0.015651098 -0.05480437 0.0058465158 -0.08313388 0.03079694 -0.04176346 0.0061615985 0.005458209 -0.0027470617 -0.05055572 -0.013496567 0.008211083
한국 -0.0033451605 -0.09127732 -0.10709484 -0.055829655 0.07904915 -0.027970443 -0.068688124 0.03953256 -0.0703649 0.011436504 -0.021127738 0.03390802 0.003722801 0.036462855 -0.048142232 0.024438055
는지 0.18770956 -0.034030925 0.0154871475 0.111523435 -0.04463319 0.06181034 -0.007961395 -0.017994335 0.0034348094 0.0102812275 -0.07136161 -0.0271473 0.047609847 -0.0025858302 0.02546579 -0.0997577
많이 0.061523955 0.0778397 0.08761452 0.011984943 0.00126769 -0.026659623 -0.06269178 -1.8925988e-05 0.12299035 -0.033553015 0.028984232 -0.056137204 -0.031595018 0.028250692 0.049061045 -0.008742262
에게 0.03596954 0.08192545 0.019736372 0.036495797 -0.03872422 0.048590157 0.012829406 0.06090041 0.08091284 0.0046670367 -0.032051727 0.055389147 -0.05826521 -0.0016048441 0.060281835 0.0055969316
부터 0.021360544 0.020154368 -0.04546624 -0.045418624 -0.041355245 -0.006823158 -0.034832776 -0.08840977 0.02582091 0.012964086 -0.016201962 -0.038189877 0.06622695 0.007542988 -0.032320607 -0.029108977
만든 -0.17325506 -0.046954643 0.20455769 -0.012871692 0.050265122 -0.033527505 0.07930132 0.0053702756 0.043687154 -0.023876192 0.013423817 0.040004626 -0.016011676 -0.055651776 0.08712251 0.03544985
주인공 0.04527783 -0.07157006 -0.0007094999 0.06434278 0.05077404 -0.00020502124 0.08262636 0.00608449 0.050063223 -0.044933073 -0.04280045 -0.056912053 0.08607465 0.003406317 -0.006502414 -0.00751559
받 -0.054769713 -0.0090700155 0.07520927 0.004521681 0.097300746 -0.02557232 -0.010448843 0.0738615 -0.141357 0.011101986 -0.058232535 -0.0148467 -0.045074835 0.017469317 -0.024201177 -0.0014661078
합니다 0.08106291 0.015858078 0.067991935 -0.03603017 0.029409342 -0.019409547 -0.025347354 0.054788902 0.0067765424 0.05301057 0.027555991 0.039908186 -0.0075247097 0.09910607 0.093838155 -0.02481055
우리 0.04156376 0.031023357 -0.055644847 -0.034530558 0.021364748 -0.050384533 -0.012520158 0.10431668 0.00013108697 0.10640494 -0.016689885 0.07176612 -0.10329849 0.060047913 -0.0298126 0.10576083
두 -0.028167972 0.0104948515 -0.038496055 -0.002836883 -0.025849566 0.01150783 -0.035117798 0.0011895543 -0.020471694 0.038313273 -0.05513836 -0.023798056 -0.024769733 0.0021386656 -0.03940786 -0.03084643
살 0.091010086 -0.062319044 0.032019094 0.048805777 0.02037924 0.01431925 -0.1399923 0.034284968 -0.08262981 -0.04264338 0.0411152 0.08304827 0.046756677 0.017031288 -0.02744478 0.04875166
!! 0.008941576 -0.08585278 0.007983821 -0.18170941 0.0027972672 -0.03458503 -0.007941179 0.016453229 0.013916274 -0.025741184 -0.05830872 -0.06772008 0.005253437 0.028120197 0.042366773 -0.019390717
길 0.017162262 -0.04815129 0.0067534656 0.016488925 0.06396601 -0.049387272 0.056351617 0.0002873841 0.028995683 0.008447369 0.024237303 0.027186142 0.00035216706 -0.014957328 0.01048866 -0.06820986
엔 -0.05440466 -0.07127595 -0.029389743 -0.041597784 0.04676371 0.06468321 -0.026006043 -0.041325297 -0.097907946 -0.004056774 -0.040273357 -0.012538872 -0.0110939685 0.041154396 0.03101427 -0.075125076
괜찮 0.0093363095 0.06161433 0.010060698 -0.04998438 0.09667916 0.1016471 -0.03325664 0.087484285 -0.08985194 0.08881071 0.10400493 0.14038473 -0.11033523 0.08904295 -0.107199974 0.070692636
기억 -0.09278458 0.006409374 0.033453796 -0.15076065 0.043117575 0.15293637 -0.050850216 -0.0452795 0.011227618 0.05371186 -0.012735418 -0.02836953 -0.11207142 0.065355875 0.002297836 0.0070271133
연출 -0.06769073 0.04474389 0.000520251 -0.040844116 -0.039257955 -0.040703114 0.058251195 -0.030449826 0.12604344 0.043410305 0.06423349 -0.085425906 0.03220775 -0.0946529 0.004493686 0.04027583
한다 0.0004003309 -0.008809359 0.068070196 0.015954718 0.01761127 0.07283344 0.008858041 0.011656859 -0.0040431716 -0.0499471 -0.06469181 0.050177548 -0.031314176 0.026204398 0.02836651 0.011530057
때문 0.019468702 -0.041364808 0.028398577 0.087886065 0.09025646 -0.0062005306 -0.035075363 0.015765222 0.08623001 0.039518934 0.023555879 -0.038400315 -0.07050971 -0.030745285 -0.06788447 -0.052852217
이나 0.025378956 -0.010555366 -0.031687066 0.06567615 0.056787662 0.06124488 0.05038664 0.09309385 -0.022329537 -0.039328597 -0.10519363 -0.0753784 0.039377194 -0.012624591 0.077837884 -0.050101586
ㅎㅎ -0.12050206 -0.15422468 0.0739884 -0.048214927 0.1135169 0.124358796 -0.08642491 0.0026597613 -0.076709494 0.12289212 0.066622265 0.11550603 -0.09656302 0.067954965 0.007039231 0.05692264
요 -0.04706323 -0.11137645 0.06746231 -0.023361113 -0.00056559057 -0.09433412 -0.043181863 0.0290481 -0.039101742 0.009144869 -0.009348711 0.023147771 -0.10913547 0.02358898 0.043967456 -3.3260556e-05
저 0.056333 0.0059001916 0.019079827 -0.00059319264 -0.020467808 0.07901903 0.026616398 0.04116596 0.0911195 0.04653445 0.071797356 0.04576026 -0.025984762 0.009876289 -0.008984731 0.06804352
재 0.006948999 -0.060163964 -0.020552577 -0.019086396 0.022785027 0.012146933 0.035471834 0.06606248 -0.03572489 0.048157327 0.02744263 0.08909877 -0.12300809 0.06310781 -0.00027076108 0.11069871
꼭 0.12524849 0.11055942 0.11824992 -0.032995358 0.07415457 0.0056711184 -0.07386693 0.09839841 0.010842456 0.0338092 0.07170703 0.087649874 -0.027885513 0.116913326 -0.07666178 0.07544984
랑 -0.030690284 -0.018231256 -0.05293521 -0.022912761 0.072677456 -0.015172553 0.008560825 -0.012504415 0.0252539 0.007828921 0.020680524 -0.05360236 0.041248508 -0.060885068 -0.02767636 0.047790933
며 0.011512853 0.0033646724 0.030064749 -0.002180631 -0.022587394 0.0138962185 0.053173754 -0.015877193 0.013782652 0.03985954 0.021132505 0.006602822 -0.048766762 -0.030790616 -0.06835556 0.037669506
현실 0.110831715 0.13369709 -0.03706309 -0.04482448 -0.028811889 0.120772034 -0.031173622 0.06146814 -0.014692793 0.07954277 -0.013767116 0.03926058 -0.078541234 0.042175185 -0.03208474 0.07855749
긴 0.059997484 0.064682014 -0.09149805 0.11835507 -0.076755874 0.013761374 0.012950464 0.037181877 0.040395696 0.021952892 -0.0809184 -0.020248523 0.07703446 -0.020618342 -0.002063598 -0.047372136
ㅡㅡ -0.08089834 0.023035608 -0.10352658 0.07399357 0.0069024093 0.115327284 0.08478781 -0.14662737 -0.009581149 -0.10398214 -0.050555985 -0.034550056 0.07446238 -0.084767304 0.04802217 -0.0012522633
무슨 -0.097570084 -0.040875237 -0.036250085 0.108486265 0.022350479 -0.02534707 0.023688259 -0.11202002 0.049952317 -0.05029467 -0.024881165 -0.08239745 0.08600349 -0.11483903 0.023365786 -0.117912866
내내 0.08401303 0.053743783 0.08475582 -0.015333379 -0.078831434 -0.0024948001 0.049605493 0.018885696 0.05995132 -0.00052009843 0.03269421 0.024069866 0.0068739797 -0.060162894 0.08026572 0.054339886
결말 -0.0043394086 -0.052646264 0.07173747 -0.004709294 0.010103479 -0.033587165 -0.010392704 0.003945535 -0.06577739 -0.03992691 -0.055118542 0.043821525 -0.04867616 -0.024829213 -0.041305125 -0.062486656
죽 -0.032784965 -0.04815014 -0.031749688 0.017922139 -0.04823335 0.038780592 -0.03885651 -0.06989475 -0.12459342 -0.08367888 0.03180592 -0.025924759 -0.0052132085 0.0049781594 -0.09236197 -0.061858226
남자 0.024133775 0.046467546 0.02424415 -0.045978773 0.008188433 -0.042805556 -0.08288554 0.039894644 0.05924699 -0.04517158 -0.06873013 0.0051413453 -0.0134081 0.016585927 -0.05301648 0.00996575
세요 -0.09989043 -0.04184785 -0.0028076328 -0.06893794 0.010500781 -0.07327418 0.039435282 -0.032216214 0.15221323 -0.007119592 -0.01406309 0.017040925 0.02455069 -0.0060141166 0.08241839 0.0061883284
전개 -0.10265974 -0.07454864 -0.03751156 -0.00270034 0.0026517222 -0.018968195 0.04250089 -0.0639221 -0.015230214 -0.03225428 -0.05877252 -0.03804352 0.018802432 0.009258413 0.11289106 -0.03178231
마음 -0.061141334 0.008986168 0.011758994 -0.02301151 0.01929439 0.13333584 -0.077204086 0.046210676 0.016557481 0.09045672 -0.04047094 0.03817863 -0.11419909 0.06312657 -0.065572895 0.026821507
소재 -0.0049569765 0.045553252 -0.073504046 -0.022626316 -0.019957546 -0.07885141 0.006046404 0.024083745 0.025661401 -0.05275573 -0.06147617 -0.08419612 0.06562317 -0.08435411 0.027395917 -0.021777075
속 -0.03640945 0.035119206 0.031163646 -0.050997738 0.014808139 0.056103975 0.02514919 -0.039363656 0.18466963 -0.044175863 0.002666903 -0.023153894 -0.04636818 0.090148196 0.076015316 0.024910096
공포 0.006975048 -0.07365949 0.043645736 -0.009585178 0.003733666 -0.037410468 -0.008427086 0.078589864 0.084363185 -0.037408825 -0.03808259 -0.056877818 0.060355313 -0.065285735 0.02460777 0.0038719547
아서 0.037402038 -0.00854391 0.041174237 -0.08227889 0.013894583 0.038347676 0.029135462 0.03976395 0.11439603 -0.06945883 0.02589829 0.042237222 0.025448155 0.02442086 0.03666191 0.026481079
다른 -0.066063546 -0.01587354 0.021842908 0.09393776 0.014411331 0.13847972 -0.022416025 0.016568337 -0.05448506 0.016118485 -0.06251768 0.060942195 0.007999508 0.07914496 -0.034530956 -0.032974128
씨 -0.019610755 0.07107687 -0.02369138 0.026204929 -0.033041015 -0.068047084 -0.024980756 0.013147226 -0.021275084 0.030037275 -0.04888831 -0.023782719 0.038614918 0.012018457 0.051769476 -0.012395658
인생 -0.02019168 0.0029977157 -0.018022547 -0.036954127 0.0889433 0.018450253 -0.081092216 -0.053710863 0.026575485 0.1549837 0.04092647 0.05545267 -0.10150395 0.067341685 0.0014566104 0.047857486
~~ -0.06580648 -0.07921515 0.07379934 -0.05897068 0.015316561 0.0133489035 0.0073767253 0.07608587 0.094683394 0.016364064 -0.017042194 0.071325794 -0.016069014 0.055464104 0.044453297 -0.0005709793
짜증 0.048923247 -0.09500045 -0.07892387 -0.10472885 -0.09216321 -0.049139343 0.09454824 -0.013117603 -0.009643867 -0.069695905 -0.09944359 -0.13258277 0.16557941 -0.12866507 0.13593286 -0.114634946
짱 0.02681182 -0.113084115 0.18147206 -0.037508924 0.08518457 0.017590959 -0.014889017 0.12948847 0.027857041 0.07979187 0.16223201 0.1463564 -0.14208533 0.10299197 -0.061465364 0.085316174
뿐 -0.14003101 -0.03258021 -0.031571217 0.062629156 -0.0026701482 -0.04527966 0.0057481294 0.0057078116 0.0063829855 -0.060101733 -0.004764326 -0.117709786 0.081236504 -0.07110168 0.016430503 -0.0011050655
은데 -0.056943685 -0.048241556 0.12065271 -0.06924806 -0.082629204 0.0022963814 -0.001186444 -0.06587452 -0.003881958 0.04934716 0.122795366 0.0040715304 -0.031212023 0.046763208 -0.08021307 -0.03519975
별 0.1223251 0.050122827 0.10560841 -0.058481548 -0.045208294 0.023669017 0.041509096 0.04748216 0.1280423 0.01786246 -0.064099655 -0.029696118 0.10396645 -0.08479253 -0.0386855 -0.022189716
아요 -0.13674511 -0.06832944 0.0063207657 -0.05092379 0.0021725758 0.110865556 -0.013757128 0.068258785 -0.009921743 0.027701842 -0.037830457 0.052548546 -0.044034723 0.045982413 -0.016295698 0.08681978
유치 0.12302328 0.17067926 0.023354392 0.07446425 -0.08775563 -0.048488263 0.11569389 -0.07619384 -0.025452886 -0.08018419 -0.052989487 -0.11202155 0.09502329 -0.044522934 0.091912016 -0.10730742
가장 0.1269716 0.05385792 0.0037601546 -0.047746446 0.006784713 -0.006333866 0.044345696 0.017459037 0.06981853 -0.0069613527 0.06973333 -0.030285098 -0.009266683 0.07011415 0.0165093 0.040448133
필요 -0.081310816 -0.17212352 -0.05821608 -0.026601478 0.12627973 0.054058854 -0.068715855 0.06652511 0.06078398 0.013185999 0.050611544 0.077333845 -0.09865996 0.11322142 -0.062043626 0.02959062
음악 0.058451068 0.07270024 -0.0034953202 -0.05075064 0.06736098 -0.045887634 -0.04430582 0.07036785 0.0081716515 0.0069298996 -0.020027531 0.0026169429 -0.029109616 0.077983245 0.0152633665 0.05516855
) -0.03593404 0.056507897 -0.0817309 -0.036053784 -0.017225593 0.023011493 -0.01233021 0.016279062 -0.012401761 0.019436471 0.041738555 -0.03139981 0.057170805 -0.02439154 0.019113667 0.026818844
일본 0.022905687 -0.07548289 0.04631828 0.04897156 -0.0013956528 0.05177245 -0.027902965 0.01214376 -0.032356143 -0.018152423 -0.023170022 -0.048859093 0.012322876 -0.074416526 -0.103892505 -0.09890211
낮 -0.10698714 -0.019122157 0.037543114 -0.09522112 0.10623543 0.10280681 -0.14448653 0.062670976 0.07365432 0.13333008 -0.00852086 0.094880484 -0.10716256 0.10284031 -0.099777244 0.04199905
아이 -0.030640503 -0.020049011 0.037167147 -0.02947462 0.016817568 0.09833952 -0.0040858747 0.035427894 0.020550627 -0.022902459 0.056702428 0.012938193 -0.0044510667 0.0003530514 0.0047261813 -0.05071741
;; -0.12941392 0.116243176 -0.03950391 0.030852092 0.009597942 0.08655599 0.024147552 -0.013157474 -0.07947475 -0.084882416 0.04776713 -0.032821584 -0.003674593 -0.03905715 0.045931995 -0.05650613
오 0.0120262625 0.010884686 0.035970286 0.035748232 0.016117815 0.025295729 -0.008493579 -0.010582007 0.010204431 0.0007736841 -0.021179073 -0.05250305 -0.013298872 0.03485696 -0.003276438 0.014512457
반전 0.079001755 0.057405435 0.04343374 -0.02572391 -0.022385381 0.008159358 -0.052764952 -0.024272768 -0.037402518 0.048071064 0.04176991 0.026267834 0.00797554 0.009381135 0.027861426 0.027895534
수준 -0.08853279 -0.026994335 -0.070055485 -0.008416317 -0.079070106 0.0017386008 0.01252504 0.01221691 -0.0929115 -0.03854322 -0.025902202 -0.07816915 0.097450934 -0.05610251 0.036868464 -0.06980449
다니 -0.0019093924 -0.04534537 -0.044966947 0.0021929154 -0.030666392 0.09591348 0.06567523 0.02145852 -0.0063763205 0.007936837 0.033622433 0.048541907 0.04582381 -0.015425763 -0.028571371 0.031362273
웃 0.054929677 -0.0150142815 0.086609185 0.02222503 0.04867567 0.043169342 0.014191274 0.062306862 0.058547046 0.05076946 0.06551191 0.053794194 -0.0592304 -0.0065909023 0.02120161 0.056686155
매력 -0.0423666 0.043562748 0.14257082 -0.0931579 -0.035443462 0.11798065 0.0059674503 -0.029258495 0.07866639 0.19514224 0.00044438994 0.002007873 -0.16640842 0.05351472 -0.03616406 0.14244966
맞 0.029690856 -0.06840961 -0.09638305 0.0075052287 -0.06235474 0.037708953 0.11896609 -0.10394526 0.13119294 -0.065249115 0.049492568 -0.04421143 0.018825313 -0.050369807 0.02246991 0.0034262566
인지 -0.0998434 -0.0369964 -0.08721314 -0.05617155 -0.0189117 -0.04023768 -0.01762541 -0.018355919 -0.050661337 -0.09471723 -0.006329767 0.016102009 0.06277435 -0.0078010615 0.011195974 0.0015366152
가슴 0.003064775 0.13408877 0.09559277 -0.069941245 -0.007548767 -0.05337929 0.0028253344 0.08562847 0.043610863 0.11696396 0.12054146 0.09706711 -0.071058005 0.14577371 -0.032641955 0.14624651
없이 0.050792556 0.13088812 -0.030277655 0.014635911 0.009706283 -0.01483849 -0.044060186 -0.04876455 -0.0038870792 0.03355805 -0.026572604 0.005893394 0.056261666 0.027489703 0.07479668 -0.0276437
원작 0.053953767 0.0077425507 -0.08924347 -0.003929015 -0.058503147 -0.041993015 -0.041181445 -0.05456459 -0.08653258 -0.0517527 0.0018586835 -0.029634938 0.007914923 -0.07524252 -0.006408436 -0.09247591
ㄷ 0.06265053 -0.010414343 -0.067864895 -0.015647033 0.03492693 0.001153054 -0.037790667 0.008366271 0.061160363 0.006764316 -0.035126287 0.07329643 -0.0730773 0.031917997 0.013802834 0.041347757
인간 0.10048623 0.105717815 -0.019826774 0.014445768 0.027860187 0.047045395 -0.039717473 0.055794727 0.046106234 0.06013848 0.000510881 0.08598956 0.0007861488 0.070025 -0.085385606 0.042168144
데 0.022386886 0.030294055 -0.040896058 0.064627066 0.017656714 -0.006736881 -0.0073656673 0.054841332 -0.042150613 0.0037584133 -0.016430784 -0.07067484 -0.053589795 -0.030226626 -0.03756653 0.058738887
굿 -0.08257239 -0.13635513 0.20646125 -0.048788633 0.08488537 -0.021867845 -0.039885715 0.12031447 -0.080345996 0.18101443 0.13070968 0.17562518 -0.15328574 0.109770246 0.010614435 0.13382445
ㅠ 0.061325263 -0.036008883 0.090627134 0.026109794 0.005790913 -0.005349977 0.011174618 0.01633031 -0.0077477773 0.008052725 -0.0020421406 0.076587036 -0.03908345 0.08750615 -0.024544852 -0.04809556
높 0.05565764 0.064442664 0.069514364 0.062609285 -0.0048886393 -0.06899402 0.08414513 -0.11255436 -0.058489125 -0.09656346 -0.01540968 -0.081760004 0.08786099 -0.033655822 0.05007298 -0.005682013
밋 -0.00030860218 0.105254635 -0.040015504 0.005913425 0.114624806 0.10206904 0.013391604 0.081964284 0.13078573 0.0649444 0.07732246 0.11510001 -0.06711137 0.041885313 -0.11815227 0.13093925
( -0.017706027 -0.017439384 0.020905042 -0.02393391 0.024691148 0.066390574 0.025364872 -0.028296428 -0.09626108 -0.063898265 0.047324713 0.025004424 0.0003047397 0.033970743 -0.010340735 0.013550155
만드 -0.024173439 -0.027579736 -0.009052461 0.16589588 0.06661978 -0.038029943 0.019221945 0.023904527 0.13019463 -0.016872052 0.08908259 -0.05640912 0.0355711 -0.01520033 0.01637611 -0.031714052
급 -0.06695318 0.00361324 0.049990434 -0.14918002 0.072012834 -0.010341637 0.019382294 0.024000328 0.0897933 -0.022956599 0.06917979 -0.027026813 -0.000987867 0.051616672 0.09550479 -0.02304878
눈물 -0.08717782 -0.0026405512 0.04922649 -0.04827255 0.04220054 0.08856196 -0.16127318 0.044123244 0.023601841 0.060862027 0.058343764 0.10569893 -0.115322426 0.08090576 -0.03111392 0.1372258
보여 0.040309783 0.06029912 0.038051836 0.050171442 -0.0051311874 -0.08100756 -0.10230594 -0.042172223 0.0058843214 -0.0087057585 0.027633727 -0.029532554 0.01277777 -0.057463598 0.038954347 0.014037712
준 0.1651831 0.0025721886 -0.07280234 0.012569641 -0.0020362395 -0.038001444 -0.06665896 0.054131277 0.06317684 0.04066267 -0.061039317 0.001136725 0.01598672 0.027569346 0.057723936 0.015202424
찍 -0.11918767 -0.1380578 -0.07029737 0.014187104 -0.038194645 -0.014998702 0.08834912 -0.045834493 -0.04029941 -0.066886686 -0.017048208 -0.026005108 0.052713748 -0.045393445 0.0010237287 -0.017417382
인가 -0.004286525 -0.06902703 0.029314995 -0.01837797 0.039154086 -0.000116328316 -0.010655563 0.004907554 0.015115108 0.0014061163 -0.01891525 0.0067133554 0.07650335 -0.02138669 0.06031285 0.029251708
노 -0.08665869 -0.06217117 -0.16824047 0.18679696 -0.045081593 -0.13120747 0.0036577685 -0.18716158 0.008553986 -0.06476133 -0.118366666 -0.14690888 0.06278226 -0.18174939 0.11177831 -0.0988527
을까 0.034312908 -0.009151637 -0.074421935 0.06250525 -0.035555337 -0.022917341 0.023268394 -0.03592406 -0.025119757 -0.02105313 -0.03246407 -0.043026105 -0.007472736 0.006057667 -0.047695868 0.0034829301
용 0.057623405 -0.033196718 -0.07968871 -0.0340317 0.02174024 -0.06634639 -0.060980875 -0.08473134 0.0074941367 0.017623788 -0.05401261 -0.03257412 -0.02093487 0.008451565 -0.018383145 -0.058105502
코미디 0.059336666 -0.079391345 0.017878937 0.012941307 -0.056025695 0.11082108 0.051949188 0.0032828427 0.038490843 -0.04703602 -0.032532007 0.0008414381 0.0010473856 -0.0008927719 0.036726546 -0.031420156
마 0.02623359 0.040275935 -0.028118985 0.076211825 -0.06338058 0.030056745 0.033932824 0.039792407 -0.11810661 -0.06893781 0.034394223 -0.06892037 0.019584194 0.067438215 0.030377759 -0.019316327
화 -0.018271875 -0.025635963 0.024008948 0.060746517 0.023003763 -0.12360101 0.011531128 -0.046471134 0.01678483 -0.017679762 0.024153931 -0.005115573 0.08926805 -0.016550604 0.04843915 -0.07345369
신 0.09040291 -0.044854157 0.05323638 -0.035997134 0.034980252 0.0627155 -0.0070225154 0.013870702 0.0052581965 0.06996655 0.010740414 0.047983572 -0.025991147 0.0234261 -0.08218327 -0.02287102
모든 -0.09099979 -0.07271748 -0.009758463 -0.022755073 0.018124854 0.0006989037 -0.024569023 -0.056251816 -0.094444476 0.13729735 0.045991722 0.0031028318 -0.04543185 0.06119011 -0.03714479 0.077487
쓰 0.023350555 -0.00017854536 -0.06172875 -0.046631403 -0.06348291 0.017944533 -0.014560512 -0.048425864 -0.0044617294 -0.038953424 -0.080439545 0.018664109 0.009622759 -0.0027730966 -0.0020744493 -0.08282383
여 -0.045337196 -0.038517814 0.06590202 0.06774584 0.0074616815 -0.02898955 -0.0104452595 -0.04515551 -0.03631574 -0.016962696 -0.0138983615 0.0246637 -0.010008067 0.012703751 0.007799198 0.008388186
5 -0.01577291 -0.078349896 -0.0110844225 -0.011236302 0.05284064 0.05018427 -0.08315492 -0.012233712 0.009767723 0.037758764 0.03264819 -0.009006691 -0.14426377 0.011699002 -0.035798836 0.03230162
아직 0.021248884 0.05950268 0.0019886263 0.037285812 0.011912771 0.093942754 -0.022867396 -0.03199485 0.013455486 0.03866328 -0.012069856 0.09177515 -0.07831366 0.050849415 -0.035487667 0.038754687
추천 -0.039911516 -0.11829009 0.061866384 -0.07870575 0.031494368 0.02230636 0.03425236 0.08780721 0.043630738 0.071079955 0.038979217 0.0830152 -0.078244716 0.12660073 0.0074724024 0.03950775
처럼 0.0510489 0.02299615 0.07145198 -0.0069762086 0.023641933 0.04854773 -0.086258695 -0.075890034 0.03200016 -0.05037792 0.067259535 -0.050452843 -0.063018575 0.009848001 0.0554232 0.01931535
눈 0.028106693 0.052337073 0.004576998 0.051263966 0.005967794 -0.064095266 0.055637322 0.042524688 0.0018457347 -0.067239806 -0.058534477 0.0005858992 -0.060337614 -0.073319964 0.05412124 0.025365552
아닌 0.108208485 0.03435624 0.062123097 0.06441522 -0.06292483 0.063488096 0.07105048 0.06040172 -0.02513625 0.045342095 -0.08656316 0.018061295 0.07082598 0.008325754 0.10247175 -0.008843623
자체 -0.023291195 -0.03461978 0.03711497 0.033777244 0.050259028 -0.0076475833 0.08927874 -0.09655459 0.10086286 0.056145977 -0.017358784 0.003828098 -0.045730658 0.005098319 0.09381346 0.08239694
울 -0.049263876 -0.031811334 0.112992145 0.0015616263 -0.008116925 0.089565895 -0.04112887 0.10313067 -0.08664369 0.07304094 0.16382675 0.07056593 -0.042800035 0.10251479 -0.12634519 0.13804516
몰입 -0.06833606 0.046314932 0.11350578 0.024190353 -0.0054180385 0.21012294 0.0017683383 -0.07811183 0.14843172 0.11502514 0.104999855 0.01482781 -0.0659145 0.07247607 -0.014597404 0.056983694
4 0.012873429 0.00638532 -0.06632126 0.07182011 -0.097619556 0.04581515 -0.027765026 -0.053455994 0.021146256 -0.056401234 -0.08841141 -0.07646098 0.0065259966 -0.019533161 -0.010232518 -0.066828854
대박 0.05648 -0.029813213 0.1037705 -0.016222306 0.031850617 0.020057188 -0.014903066 0.08957608 -0.045106396 0.1311857 0.07874791 0.1817626 -0.080805354 0.11288076 -0.05558658 0.10195537
몇 -0.0055200686 -0.097600915 0.014793637 -0.060639028 0.08721429 -0.06090215 -0.038354676 0.0075331056 0.06904743 0.08737508 -0.03740252 0.041923117 -0.026827486 0.00091837795 -0.04932212 0.059986
스럽 -0.04333953 -0.024236878 0.00025374338 -0.029878045 0.079555966 0.07533817 0.050638426 -0.028170574 0.0019794775 -0.03397381 -0.005827221 0.020027181 0.009197362 0.028668182 -0.07979284 0.007946669
실망 -0.09965187 -0.0073599205 -0.07828776 0.022275036 -0.05163526 -0.06317621 0.11536044 -0.15976802 -0.06092301 -0.075784996 -0.08083131 -0.1790378 0.1528466 -0.11702045 0.064354226 -0.11434213
는다 -0.111067735 -0.0674998 -0.025845287 -0.09782101 0.1244156 0.015637845 0.025022874 0.040761497 0.04713919 -0.04280699 0.033545192 -0.019753698 -0.010415355 0.055946957 -0.022026611 0.057094935
대한 0.04453659 -0.010126366 0.05263117 0.003883099 0.010751148 -0.010424966 -0.012495372 0.00439257 0.029807044 -0.000781338 0.0669265 0.0630248 -0.04491574 0.07829214 0.032374185 0.013842773
죠 0.0853725 0.050574515 -0.02557968 -0.031148212 0.08285911 0.026757725 -0.02033059 -0.029182889 0.0044463626 0.03526366 0.05149242 0.097103596 -0.027641406 0.018348683 -0.042178307 0.09534745
란 -0.052068472 -0.050373886 0.014795321 -0.014108562 -0.06892735 -0.011443974 0.021116458 -0.024085794 -0.0640431 0.024475256 -0.00072597037 0.0051448047 0.035907228 -0.0068397177 -0.0011588236 0.055339806
그런 -0.00032380933 -0.050515004 -0.045398485 0.0010071191 -0.014807198 -0.05646423 0.04649833 -0.0033914612 -0.099010244 -0.007922344 0.038798954 0.02589185 0.050838906 0.0071563204 -0.0030026347 0.008033411
솔직히 0.018178158 0.0054200566 -0.054725043 0.03929726 -0.008870317 -0.036952112 0.04799795 -0.031642783 -0.0117642945 -0.0038707044 -0.005790929 -0.008479326 0.06340381 -0.052515086 -0.032871865 -0.024874074
캐릭터 0.01592041 0.02566015 -0.021340718 0.011446374 -0.04537093 0.018718129 0.019899257 -0.03099685 0.040875647 -0.047383692 -0.0074098925 -0.019232836 0.042883825 -0.016796662 -0.025129767 -0.02214433
ㅎ 0.05757571 -0.17957301 0.12359486 -0.05317525 0.11139459 0.06618681 0.030708881 0.06671747 -0.05309494 0.10625528 0.014835158 0.0776545 -0.046018492 0.0920904 0.076805644 0.011127325
모두 0.020407638 0.0505279 0.087494835 -0.042310953 0.033094328 0.00724733 0.041315895 0.025414806 0.038939636 0.0550255 0.058771145 0.059894845 -0.04382274 0.1419438 0.0033909406 0.08057828
아주 0.013800831 0.108903445 0.0058972742 -0.05504719 0.019133767 -0.09541308 -0.046053156 0.08114647 -0.03854399 0.06679679 -0.019879555 0.064465076 -0.02718019 0.010975908 0.023379268 0.021187516
- 0.010484057 -0.10704341 -0.07439162 -0.016965084 0.028900644 -0.035465173 -0.02114793 -0.0804937 -0.04675005 0.009019363 -0.07134653 0.015049769 -0.0138349775 0.014298502 -0.015851187 -0.065750115
가족 0.025716724 0.002905779 -0.07447825 -0.051584348 0.06997462 0.029854074 0.004615481 -0.032197732 0.0802198 0.07266909 0.050982613 0.053097777 -0.007874253 0.006966179 -0.10810566 0.085352585
여운 -0.05641241 0.11887827 0.059812766 -0.105001405 0.101081505 0.0070031052 -0.10178756 0.15121973 -0.06472458 0.14478013 0.108792685 0.13550483 -0.10533589 0.15105566 -0.14785278 0.11607201
건지 -0.028332628 0.017420007 -0.024567267 0.13307409 -0.044599675 -0.04026184 0.047246102 -0.009145445 -0.04367183 -0.060272414 0.0006944585 -0.026420563 0.025114251 -0.08896935 0.04158451 -0.015449882
전혀 0.0025917399 -0.08479745 -0.16922668 0.00704187 -0.03952262 -0.026663296 -0.07505444 -0.06490763 -0.09171048 -0.03941037 -0.033531487 -0.06025183 0.0674942 -0.035279278 -0.04687889 -0.04006674
연기력 -0.07568207 -0.025480775 0.05764671 0.037555307 -0.03345494 0.04209677 0.059847746 -0.018760411 0.050559152 0.011974888 0.049037673 0.04034468 -0.03886734 0.013400661 -0.039431732 0.036151975
나라 0.035885762 0.18568467 0.05735492 -0.019650578 -0.009557669 0.020676173 -0.06874497 -0.019656464 -0.054408696 -0.0044538653 -0.05946555 0.046139743 -0.018016892 -0.043941557 -0.0062100105 -0.058740415
후 0.07653786 0.073075004 -0.039230473 0.042451225 0.07851578 -0.13113646 -0.065408364 0.024910845 -0.038836762 0.012834621 -0.039990563 -0.02569569 0.049544495 0.03192726 0.052832704 -0.0426762
될 0.020678062 -0.0580801 -0.011450584 0.0055331 0.051281944 -0.08764948 -0.011329059 -0.062942125 0.016629571 0.035343762 -0.061935198 0.027313575 0.050244104 -0.043325216 0.015236183 -0.09838808
다면 -0.032034796 0.020271359 -0.12289767 -0.052866776 0.061517414 -0.018404456 -0.08710249 -0.045207012 0.015096043 -0.064040825 -0.027576648 0.031244176 -0.025446251 -0.04264361 -0.07786536 -0.0052146562
뭔가 -0.058671318 -0.05939904 0.04459186 0.018706651 0.089071244 0.0019764537 0.018914912 0.067885906 0.10437678 0.023646273 -0.05012055 0.032951728 0.007135569 0.007780917 0.034116223 -0.036762096
그래도 0.043948207 0.028695846 0.104255185 -0.07056353 -0.014150271 0.082282394 0.02404831 0.059877183 0.012303853 0.034811746 0.0616395 0.036458757 -0.030448016 0.052503172 -0.016873298 0.05772321
; 0.0013284337 0.00759481 -0.049087975 0.03840116 -0.07765492 0.09717678 0.049023803 0.0044344254 0.0020757709 -0.019797124 0.009837337 0.00853835 0.011856709 -0.053280152 -0.03148403 -0.036327697
시리즈 -0.038150437 -0.0054269866 -0.008657056 0.0036857137 0.032146778 0.07544171 -0.07865662 0.036547184 0.03887267 0.007236393 0.082800105 -0.0403178 -0.03226387 0.11591065 0.0025818173 -0.0016945413
근데 -0.035908353 0.042253647 0.1817099 -0.03530298 0.024193289 0.028065722 -0.035682794 0.13017903 -0.09490409 0.134953 0.024840321 0.017303068 -0.028175691 0.013327819 0.019338991 0.08438496
작 -0.06618768 0.023419572 -0.071051516 0.015802152 0.07271611 0.09588823 0.019264754 0.10971064 -0.105015956 -0.019778647 0.0146466615 -0.035054144 0.00024692327 0.063729286 0.0050757434 -0.080763906
표현 -0.0068460964 0.04317146 0.07138967 0.045585714 0.028755965 -0.00042831432 -0.058463126 0.026716411 -0.03149995 0.0062770434 -0.024453765 0.03878673 -0.027451137 0.10046396 -0.08145599 0.096884355
모습 0.11890855 0.028821623 0.020870866 0.016909897 0.002103996 0.04457187 0.009102367 -0.029866474 -0.024208365 0.0220151 0.017660834 0.01818354 -0.051577594 -0.0038705294 -0.020537306 0.09094398
공감 -0.09037521 0.04104454 0.005701763 -0.037398387 0.04045197 0.04355704 0.022481965 -0.055562593 0.14654595 0.043465205 0.11508109 -0.0425013 -0.08104849 0.040146347 -0.040723816 0.040942088
계속 0.052744944 -0.02542566 0.0976715 0.0026166488 0.03826441 0.015240886 -0.0146386465 0.06270621 -0.061582 0.010278734 0.017307566 0.055692475 -0.05787949 0.07305022 -0.0098175425 0.020433968
먹 -0.035355188 0.032684468 -0.03321833 0.026730252 -0.05238649 0.009237391 -0.054777883 0.018493753 -0.0542254 -0.027894676 -0.029452167 -0.035411365 -0.00024552149 0.018489717 -0.02818125 -0.05921755
"" 0.07427329 0.09369533 0.037030883 0.0029356077 0.0020714772 0.03268759 0.006296273 -0.026468778 -0.091428034 0.006400976 -0.06248936 0.001732549 -0.00433901 -0.031155821 0.00380272 -0.032018024
제목 -0.048083175 0.025664521 0.023436388 -0.050130658 -0.06393741 -0.049003523 0.013345235 0.012419919 0.00025637308 -0.08661484 0.010657341 -0.04768173 -0.01890431 0.048943188 0.0099970335 -0.0026129717
7 0.032129887 0.17345384 0.0684465 -0.08361089 -0.03647191 0.0077989683 -0.03590994 0.02191765 0.09556467 0.0099305995 0.0005892826 0.052170444 -0.05690713 0.064353764 -0.013465133 -0.0002066725
이랑 0.016879063 0.038660526 -0.037836384 -0.04816995 0.0927424 -0.022856843 0.069802985 0.0075616026 0.03388006 -0.02089351 -0.056896936 -0.032518446 0.01028296 -0.03044299 -0.001684906 -0.04570904
극장 -0.030215396 0.024539603 -0.057085034 0.062216353 -0.014098308 0.0066130897 0.048908543 -0.0043011047 0.022659263 -0.07591122 -0.03910654 0.010742736 0.04228259 -0.042910326 0.012589566 -0.040600155
치 -0.04715536 -0.022519058 -0.021225937 0.05758722 -0.023728393 0.006843521 -0.007881116 -0.009428456 -0.025423752 -0.0019102467 0.023745907 -0.05974514 0.088612124 -0.09074424 0.0351851 -0.015627086
비 -0.051068775 0.00845294 -0.018848347 0.09983333 -0.018685242 0.040837634 -0.01831379 -0.037275314 0.011292488 -0.029292805 -0.042960145 0.003900006 0.060238138 -0.11204305 -0.022091469 -0.08666299
이걸 0.037975505 -0.14025605 -0.028192023 0.07733614 -0.08544153 0.027561203 0.089314684 -0.010599295 0.061247457 -0.06479369 0.04935631 -0.0004015747 0.04946432 -0.09228521 0.072858915 -0.09302223
진 0.010677672 0.17299086 -0.100148164 -0.10039029 -0.052067116 -0.068065025 -0.038780734 -0.052244715 0.0017517875 -0.010248503 -0.03281931 0.023137191 -0.008506564 0.045176893 0.036314707 0.06209317
바 -0.01937007 -0.07771126 -0.12690744 0.08281662 -0.04643647 -0.08150772 0.067419834 -0.11192833 -0.0012478924 -0.018048843 -0.036787946 -0.053574383 0.09093871 -0.13189627 -0.037660047 -0.024145149
대사 -0.026570573 0.025876237 -0.033859175 0.06196797 -0.031647254 -0.03423499 0.020603154 -0.04022151 0.10553671 0.010082298 -0.034410924 0.014959505 -0.019600915 -0.025939677 0.08282832 -0.0037878593
부분 0.011654462 0.038693987 0.06686754 0.049059827 -0.027821545 -0.05713804 -0.060190935 -0.007782795 0.02057549 -0.032966547 -0.050470326 -0.0003260858 0.013489872 -0.10726574 -0.022547616 -0.038685963
그렇 -0.1475723 -0.012172304 -0.0006936297 0.018807989 -0.03283407 0.034059457 0.0023190237 0.062332816 -0.07026196 -0.09243326 -0.013571922 0.02383175 0.08317096 -0.05141363 0.017523266 -0.061878316
개봉 -0.014167349 -0.025118869 0.022050783 0.029128186 0.046077345 -0.052441355 0.040126085 0.048929926 0.0022914424 -0.10177846 -0.03633826 0.017206594 0.026390705 -0.0801118 0.07232204 -0.026673043
0 0.09096601 0.05984749 -0.035303764 0.1635606 0.00022885381 -0.030260773 0.037091415 -0.15014137 -0.0772504 -0.12267614 -0.046268277 0.01815905 0.050269634 -0.05325392 0.072801806 -0.114395484
OO 0.07667196 0.090558484 0.04894588 0.083211996 -0.057880666 -0.025678318 0.075705364 -0.05017615 0.0054016695 -0.042271882 -0.0022979423 -0.07121925 0.062394604 -0.010313181 0.022795457 -0.05814404
대단 0.021916412 -0.0006765657 -0.016148828 -0.0841447 0.08371558 -0.08387369 0.0007371454 0.025483076 0.020172274 0.05168386 0.10817947 0.09592812 -0.113052644 0.051983394 -0.00246961 0.083029814
어디 -0.011971008 -0.029040763 -0.022745723 0.11379845 -0.012105127 -0.049755428 -0.021604678 0.009895889 -0.047237854 -0.044466272 0.016785484 -0.06841829 0.05021655 0.02251314 -0.03633533 0.0008566742
작가 0.024795612 -0.108437434 -0.029615076 -0.059361305 -0.0008863327 -0.027037289 0.07931488 -0.04549056 -0.048626315 -0.059554826 -0.027656326 -0.04786351 -0.020383272 -0.12829013 -0.038004655 -0.025715996
된다 -0.13028434 0.09341236 -0.067118004 -0.014406763 0.07253065 0.15240681 0.05146847 0.05405303 -0.044355325 0.020345192 0.022098774 0.04678596 -0.0051198592 0.07448042 -0.08558862 0.019513195
아쉽 -0.07527369 0.03885535 -0.063114546 0.015382852 -0.02096289 0.15006956 -0.09944218 -0.03720278 -0.05166647 0.078859776 -0.021117326 0.020320805 -0.020424772 0.008136347 -0.014641335 0.076549895
기분 0.004523113 0.1111015 0.078366436 -0.051071003 -0.057916727 -0.04404751 0.10542944 0.056340307 -0.023920301 -0.0081057185 0.0027629556 -0.062179994 -0.007847586 0.011216118 0.117278345 0.039374888
제 0.09908576 0.048410494 -0.011277241 0.021159511 -0.08236193 0.0064073284 -0.040063113 -0.081369445 0.12071051 0.0014666558 0.05797827 -0.027535327 -0.056863718 -0.026825247 -0.03041143 0.02385198
진심 0.10158462 0.13742696 0.059047822 -0.040877968 -0.081024036 0.06475375 0.058689 -0.072255895 0.089547716 -0.036884904 0.017338078 0.0939875 0.00072072353 0.019240513 0.022287363 -0.043372113
타임 0.06659927 0.09854829 -0.04293774 0.002758852 -0.017264472 0.025739422 0.028744007 -0.028683897 -0.048230685 0.07274695 0.039240662 0.0038262918 -0.00338181 0.029557317 0.018788323 -0.05198272
/ -0.017789187 0.0010686486 -0.06336577 0.039302267 -0.012329071 -0.06656638 -0.08471806 -0.07718168 0.10783906 -0.053737964 -0.002409621 0.018803896 -0.03058475 -0.022257622 -0.07902857 -0.03469723
웃기 -0.12327706 -0.009518519 0.10564694 -0.082407 0.059316102 0.11023266 0.017392138 -0.069524236 0.058152176 0.039334368 0.052854236 -0.019149983 -0.048877053 -0.02845946 0.016360898 0.0061854147
보이 0.023707664 0.1123134 0.05386995 -0.12275436 0.006156358 0.047631923 0.01777294 -0.080604896 0.023100559 -0.0011082825 -0.028382907 -0.035268333 -0.009266988 -0.031987067 -0.030932652 -0.014562664
놓 -0.09827983 0.089108996 0.039844893 0.019036869 -0.014494671 0.067101754 0.03557066 -0.0487136 -0.07929008 -0.07236557 -0.00908351 0.012848167 0.059878126 -0.018964095 0.027299592 -0.017799411
해도 0.16116786 0.014233236 -0.030989178 -0.036044188 -0.041515842 0.025132177 0.051456373 -0.09080854 0.016967338 -0.018400563 0.018434392 0.024566475 0.051025342 -0.06766985 0.024019988 -0.016091295
이제 -0.043373056 -0.0118973125 -0.030908778 -0.08881994 -0.017122949 0.021320183 -0.0629116 -0.06994514 -0.045069754 -0.019885937 -0.09528795 -0.04465 0.00942146 -0.07133665 0.0388377 -0.024678322
물 0.07912952 0.040291335 0.0073730918 0.039122656 0.012902251 -0.002874376 0.026861718 -0.04948096 -0.020996977 -0.07848789 0.016868552 0.012897457 -0.026233535 -0.012139371 0.0053454684 -0.058082003
봐야 -0.084094636 0.04211868 0.019117013 -0.11570531 0.05327507 0.07708883 -0.03168546 -0.020835614 0.02154046 0.052344777 0.023232033 -0.0020412065 -0.14865492 0.094575725 -0.041721992 0.09930476
막장 -0.011396038 -0.036848214 -0.027273837 0.027739203 -0.1444385 -0.038350884 0.12259321 -0.049700715 -0.07350143 -0.070088744 -0.13148563 -0.039592717 0.073880754 -0.027779015 0.07468051 -0.094052464
삶 0.0872894 0.06006667 0.00062311714 -0.036420975 0.06786597 0.0027008627 -0.019901644 0.0155784665 -0.03337278 0.063775085 -0.0023794738 0.0911219 -0.030395087 0.069406115 -0.063958146 0.1027463
친구 0.07467578 -0.07247207 -0.04584472 -0.08815096 0.05766645 -0.027238375 -0.0061434135 0.09567737 -0.012359043 -0.047219038 -0.10121045 0.06000209 0.054048166 -0.008579178 -0.02299222 -0.00031261492
잔잔 0.055229 0.1649828 -0.10581224 0.024583478 0.02495024 0.027904864 0.004417376 0.116603196 -0.08527379 0.0933987 -0.038313292 0.0056953616 -0.05843608 0.014595342 -0.045580793 0.03959141
조금 -0.06012157 -0.010227995 -0.15460362 0.03208051 -0.007354989 0.044699583 -0.014366116 0.046473414 -0.00039964388 0.01924335 -0.0151536055 0.017453436 0.003960891 0.045534525 -0.10461629 0.0100971
씬 -0.12161684 -0.010508899 0.018670276 -0.037564762 -0.016783997 0.06832352 0.028456945 -0.017349873 0.06992065 -0.038557198 0.035872042 0.05372553 -0.006261344 0.047220122 0.01416329 -0.0053506694
딱 0.028925287 -0.124736145 -0.039098106 0.027694445 -0.08084498 -0.024322838 -0.035618246 -0.047037248 -0.017769614 -0.07793134 -0.018187344 -0.054212306 -0.0016762073 0.036871374 -0.022685451 -8.112806e-05
영상 0.0967184 -0.05122866 0.0024991133 0.011303836 -0.0790474 0.024597216 0.074497946 0.029731678 0.0061949356 -0.039145794 0.013392585 -0.05119822 -0.0198612 0.023550257 0.0309261 0.035765696
억지 0.11582807 0.020172084 -0.12760724 0.09221731 -0.08595497 -0.10366647 0.08943678 -0.06371445 -0.06168069 -0.07654891 -0.113446705 -0.08628401 0.02540471 -0.072378114 0.014100709 -0.10366703
찾 -0.01873232 0.038958732 -0.047756884 0.08970658 0.039693207 0.05622869 -0.005512868 0.0071607823 0.07185357 0.08834778 -0.002339638 -0.038535453 -0.0013459638 -0.0026312901 -0.042211145 -0.0029503778
요즘 -0.035247862 0.041990887 0.025222901 -0.0016390651 0.041385904 0.033705674 -0.088265836 0.056682076 -0.054900136 0.11615258 0.12921527 0.08342741 -0.110363305 0.08957678 -0.061512817 0.09666761
같이 -0.007399888 0.04404437 0.029935392 -0.13417366 -0.0510245 0.051156867 0.041357953 0.0019732998 -0.095611334 -0.034655806 -0.032682702 0.0013256564 0.026589999 0.05516473 0.059485193 0.0076252134
중간 -0.030234907 -0.022739183 -0.05981175 0.09693028 0.00930935 -0.048316475 0.022909222 -0.051252883 -0.046332657 -0.036249433 -0.00391698 -0.06460829 -0.021115111 -0.01923687 0.027706925 -0.0027605256
" 0.021858009 -0.05206585 0.12220074 0.022373274 -0.046985798 -0.089331366 0.08231678 0.0043779905 -0.08339793 -0.03824801 -0.00752873 0.02393239 -0.026125152 0.030097954 -0.0027557728 -0.02160532
구 -0.07080248 -0.08246792 -0.008651163 -0.051714778 0.017560517 -0.022657748 0.011476133 -0.07458434 0.0013356529 0.028785203 0.0009389381 0.03160664 -0.03329999 0.0034292657 -0.013288765 -0.016245613
라도 0.06778953 -0.050258 0.028826145 0.06861294 -0.014775225 0.07410467 0.051208947 -0.031180182 -0.070146345 0.008469846 -0.014790617 -0.0138697615 0.05519975 -0.030279638 -0.0009472647 -0.04461138
스릴러 -0.11897076 0.0513788 0.086491525 -0.0321102 -0.043805253 0.07447798 0.05162742 0.017227445 0.07846023 -0.027609395 0.040425617 -0.0008961634 -0.016346293 0.031839956 0.008630231 0.077043295
가지 -0.04339236 -0.051508646 0.06300154 0.050406437 -0.015532564 -0.033383694 0.013691971 0.017230442 0.022662494 0.025162077 0.071540035 0.053235237 -0.0006720095 -0.041836068 0.05295804 0.05847815
8 0.030043738 0.1135114 -0.009171594 -0.07429196 -0.024369217 0.08079566 -0.06525365 0.020099148 0.08824497 0.12181713 0.079861246 0.035977248 -0.0036801698 0.051093757 -0.0110714175 0.009208108
믿 -0.1016077 0.012448499 0.032015763 -0.10081628 0.08339034 -0.0041602356 -0.13152023 -0.026872022 0.009968187 -0.061975304 -0.03517842 0.048581753 0.025808213 0.010172764 0.018070955 0.020876853
싫 -0.051803768 -0.03796891 -0.100908265 0.08725501 -0.10331344 -0.066581346 0.024211029 -0.10103093 -0.045688022 -0.021508731 -0.043430433 -0.01633903 0.05123826 -0.053197127 0.043708246 -0.069997504
.... 0.013300353 0.046113618 0.011269636 -0.06143663 -0.07174254 0.109396875 0.09426425 -0.09320869 -0.010492887 -0.049690057 -0.035421185 0.014534721 0.031213772 -0.02203459 0.047309395 -0.06588244
나왔 -0.11941962 -0.013063084 -0.022269363 0.1728428 -0.047828294 0.034757044 0.009038563 -0.034940686 0.07500339 -0.044335175 0.014304867 -0.06615964 0.01700688 0.031824697 -0.031586412 -0.05523546
아까운 -0.07977577 0.00836556 -0.057490796 -0.015159129 -0.022833008 0.023696361 0.14239547 -0.10642241 0.024541324 -0.11562997 -0.028644267 -0.109922916 0.04511296 -0.05592297 0.06285718 -0.11631019
긴장감 0.11153889 0.08665098 0.096808694 -0.058817167 0.020476883 0.13491924 0.0063720173 -0.043735433 0.09357184 0.1239222 -0.030845053 -0.03159317 -0.066311985 0.050184216 -0.014696143 0.12606436
점수 0.14766249 0.12686026 0.014010733 -0.030018255 -0.074544534 0.02631521 0.01423092 -0.04231527 -0.0043802983 0.036354348 -0.04172992 -0.011475389 0.05734451 -0.037021715 -0.029025925 -0.0019918247
개인 -0.018940913 0.010943491 -0.079918884 -0.040235832 0.06054607 0.047099557 0.003987739 -0.050719235 0.1256573 -0.013062765 0.068851575 -0.028331991 0.0104966005 0.017845318 -0.008647003 0.05254119
제대로 -0.014507773 -0.029518055 0.13639706 -0.08402587 0.036236897 -0.030742427 -0.08193924 0.009572529 0.083549246 -0.031986475 -0.0028159537 -0.012785253 -0.011119658 0.048898164 -0.08640181 0.036776036
부족 0.04083923 0.1134394 -0.009014835 0.020272044 -0.051734924 0.07090367 0.0010897232 0.043514416 -0.036098935 -0.023938358 -0.097748406 -0.009746414 0.04130965 -0.11566335 0.038963445 -0.07953861
이유 -0.042774644 -0.04185888 -0.11119353 0.07760785 0.021251526 0.009234444 0.108398296 0.006104852 0.0040690606 0.017789051 0.011991741 -0.06122957 0.0039793556 -0.08956522 -0.08323097 -0.01354461
노래 0.02789944 0.044222534 -0.061769113 0.060711384 -0.0007341137 -0.1065253 -0.018061304 0.030380433 0.0030234486 0.05630432 -0.0010579798 0.0081045255 -0.08225875 0.010976851 -0.044422258 -0.047653686
만큼 0.09895745 0.045385316 0.0724345 -0.029928882 0.032493696 -0.09042555 0.019580176 0.051427267 0.071910985 0.07029525 0.11944468 -0.010847187 -0.102759086 0.04732578 0.015070957 0.09486535
라면 0.004823674 0.07885188 -0.014136137 0.047706258 0.041628152 0.029314613 0.07786387 -0.022038667 0.026599485 0.0017915372 0.0064986576 -0.03864224 -0.046683494 -0.025918333 -0.048378445 -0.008933939
시작 0.043696493 -0.053227663 0.052456934 -0.012565406 -0.006836453 0.018070301 0.019801186 -0.040681567 0.009672175 0.049151994 0.00070477684 -0.028242009 -0.021540666 0.008971472 -0.063745566 -0.010516385
구나 -0.033482056 -0.021492666 -0.023079801 0.0043679364 -0.07959825 0.004879704 0.006592807 -0.009585468 0.026756778 -0.06094162 0.012739655 -0.039422147 0.037769098 0.038582888 0.012413317 0.0064273356
잇 -0.013466428 -0.014874529 0.022638172 -0.062076952 0.022384709 0.0033731493 -0.02569858 0.02320058 0.07855903 0.04407208 0.15745622 0.017417306 -0.029514704 0.05944609 -0.072764985 0.022491781
특히 0.022286648 -0.03430298 0.010184875 -0.014100471 0.045555115 0.116023526 -0.060011856 0.009858818 -0.02455745 0.05180811 0.059675056 0.048158564 -0.04043773 0.11311018 -0.031374663 0.0669889
한테 0.022806523 0.07528988 -0.0052510845 0.053944837 -0.012670978 0.066627614 -0.044433136 -0.022553068 0.08050144 0.013518501 -0.01490282 -0.0059177116 0.046751253 -0.06313922 0.04332371 -0.030706093
날 -0.064998746 0.00403965 -0.031676657 0.067293055 0.062060196 0.109085485 0.004040326 -0.012323604 -0.03066988 0.06723162 0.011287986 -0.0066523035 -0.021480985 0.11329426 -0.0070478655 0.059317097
려고 0.026224703 0.11763892 0.004516836 0.037991945 -0.10193604 0.11121927 -0.047529947 -0.020472238 -0.061708417 -0.0776671 0.0034865115 -0.008111305 0.05336079 -0.048107468 0.04906068 -0.06666374
제일 0.04733616 0.059843894 0.015902761 -0.17667432 0.041285373 0.05267374 0.06270969 -0.008090846 0.1241068 0.018652244 -0.012135332 -0.022443196 0.008739867 0.071707524 0.025981678 0.00015083126
아름다운 -0.0041932124 0.107376486 0.14567065 -0.06316868 0.12961271 -0.0023996886 -0.10337529 0.06332901 0.049815 0.06950273 0.1251002 0.054778747 -0.12921175 0.14754365 -0.091742195 0.10464884
시대 0.0509102 -0.024101233 -0.031664394 0.032308105 0.011308234 0.038315527 0.09985961 -0.0072526685 0.0032881703 -0.001166552 -0.024259415 0.036835812 0.0017713251 -0.03110462 0.038907524 0.032540824
ㅜㅜ 0.044706486 -0.021831855 0.004441538 -0.05220061 0.083174475 -0.048285928 -0.075164214 -0.035283864 0.032650493 -0.020072559 -0.024978898 0.052474033 -0.0644333 -0.027700538 0.0134031065 0.048983056
어떻게 -0.03931589 -0.0830339 0.030093761 -0.002449084 0.08137139 0.011523124 -0.021699382 0.055442102 0.006197218 0.039717715 0.022085756 -0.012375366 -0.03932707 -0.054360565 -0.052663516 -0.010702733
엔딩 0.018891767 0.10104879 -0.03562783 -0.030443879 -0.04457686 -0.06440688 -0.058691833 0.061829787 -0.14146692 -0.017440902 -0.0741372 0.059266955 -0.030444667 0.025313903 -0.013540043 0.04578865
당시 -0.041679516 -0.05587206 -0.017845288 -0.015267521 -0.055795815 0.029123941 -0.016165923 0.0036534313 0.072275415 -0.017240211 0.03316591 -0.044576596 -0.07544842 0.07588122 -0.013375308 0.043579526
하지만 -0.10185816 0.1921212 0.07192296 0.02401936 0.007405826 0.10848401 0.0023908443 0.039938174 0.09289259 -0.021600092 -0.0009973618 -0.031647585 -0.027162788 -0.007979257 0.008083209 0.077748545
나름 -0.087112136 -0.07582392 0.05597865 -0.00060310005 0.0641599 -0.063000806 -0.0685894 0.07065753 -0.09544 0.0586584 -0.0072901794 0.06484445 0.019248255 -0.028030617 -0.04459315 -0.0011864428
봐 0.06168163 -0.048827454 -0.09408832 0.013082099 0.047055446 -0.032824285 -0.057205617 -0.027202666 0.06319817 0.004176988 -0.012966848 -0.02262266 -0.042454876 -0.06256568 -0.038586795 0.011572169
무섭 -0.10878911 0.032075606 -0.021605738 -0.037046526 0.09695576 0.006778244 0.015841277 -0.042061392 0.08426008 0.050935864 0.11900572 -0.020979982 -0.06840099 -0.021751393 0.006130364 -0.013377274
나온 -0.0074729053 -0.058125153 -0.05562178 0.03930354 -0.06362887 0.021492891 0.08529734 0.0142124845 0.010918831 0.013478933 -0.0654477 -0.0026632906 -0.003613669 0.04839565 0.016369225 -0.017105125
명 -0.0008746307 -0.049264822 -0.03810388 -0.035096735 0.026406879 -0.07147323 0.029961161 -0.0010804001 0.031501427 -0.024803376 -0.061923966 -0.0060876166 -0.0015566158 0.03544639 0.026353052 -0.013551725
사 -0.045291714 0.0011692854 -0.034001876 -0.06925267 0.051295944 0.043356515 -0.086608626 -0.0016675591 0.07145942 0.023393989 0.028138516 0.0033412834 -0.061569795 0.026794894 -0.06992233 0.046813525
니까 0.051051766 -0.014668957 0.003525058 -0.0112817595 0.033809185 0.046178933 -0.037076585 0.03720766 0.11737397 0.08596649 0.090922564 0.049437463 -0.09550736 0.15213795 0.010368681 -0.034240127
오랜만 -0.020041782 0.15914194 0.06639016 -0.053477723 -0.006956357 0.081655525 -0.00011008753 -0.002290239 0.04254908 0.06181266 0.035842154 0.09107089 -0.014569861 0.075620726 0.0044492246 0.072735205
이것 -0.024958206 0.0017577527 -0.03800407 -0.027061308 0.008685583 -0.0035879398 -0.051287614 -0.09633953 -0.0025422536 0.030704226 -0.05145943 0.0037765866 -0.006733925 0.0076980614 -5.5503842e-05 -0.048204165
해요 -0.051899437 -0.02514744 0.11449076 -0.010517937 0.04959994 -0.13931696 -0.0012317621 0.026189595 -0.008901709 -0.022970049 0.058863707 0.06343802 -0.03133552 0.067988336 -0.020879494 -0.021354554
9 0.06312523 -0.04845722 0.06291992 -0.07341141 0.054869805 0.008400663 -0.015013685 0.010878415 -0.03619535 0.07940764 0.10804817 0.10601768 -0.11284567 0.08848494 -0.059821233 0.064670525
팬 0.043887414 -0.0030977596 -0.016418332 -0.06915001 -0.050136115 -0.019225381 0.023730561 0.037242543 -0.024136093 -0.04456639 0.025845656 -0.039221063 -0.012538448 0.009804421 0.020507066 0.008396436
차라리 0.09105657 -0.050928712 -0.09852481 0.16610673 -0.116106026 -0.1685248 0.12155969 -0.09787754 -0.029347135 -0.09843441 -0.107216515 -0.15713692 0.11896629 -0.15992531 0.07724937 -0.15733913
절대 0.08022558 -0.03521899 0.075406685 -0.0733419 0.01566188 -0.02967606 -0.0116189085 0.010510073 -0.01769533 0.008793188 -0.0652955 -0.058737542 0.008893575 -0.03176245 -0.03129606 -0.04006886
세상 0.07617063 0.1280242 0.01156578 -0.0066119283 -0.0045879516 0.0036633485 -0.00030576787 0.06986275 0.044532344 -0.0026003234 -0.004045788 0.043144196 0.014563074 0.057136916 0.0133291 -0.0018000327
세 -0.06437254 0.10374659 -0.004438296 -0.06356002 0.03223875 0.1170428 0.016747698 0.025788633 0.047735024 0.029901737 0.00037586206 0.0063377367 -0.028722312 -0.019143602 -0.059825454 0.07210493
못하 -0.054866362 0.058071505 -0.05817563 0.07703023 -0.056955524 0.040930487 0.08672281 0.08276729 -0.03773003 -0.041942637 -0.020982482 -0.033029556 0.024381833 -0.012555584 0.059233613 -0.02997398
의미 0.059578598 0.0677844 0.0032866988 -0.06888035 0.044680417 0.03706779 -0.015701862 -0.06467049 0.07931907 0.05196801 0.09327205 -0.051282417 -0.025505563 0.015129654 -0.056556873 -0.0008605787
던데 -0.16276939 -0.18088853 0.11409886 -0.0085803885 0.06745707 0.06251579 0.01068594 0.05825704 -0.10562696 -0.009929047 -0.014663734 0.09707228 -0.07196495 0.028852785 -0.045948815 -0.023193788
봄 -0.03509077 0.12312856 0.11023652 -0.025959525 -0.011067646 -0.09634909 0.03130382 0.056332443 0.03632535 -0.01802993 0.029613057 0.04390147 -0.022439059 0.11358281 -0.0048224977 0.042371176
욕 -0.031905413 0.033264857 -0.079167195 0.014190921 -0.06705722 0.0013176678 0.017677922 0.01760782 -0.06614745 -0.007487331 -0.028502537 -0.11557782 0.08967121 -0.14060548 -0.021666493 -0.05542716
훌륭 -0.062253613 -0.114048705 0.13673224 0.014941585 0.1162665 0.091074996 -0.00085045956 0.12516935 -0.049994677 0.14304945 0.13288003 0.12815352 -0.14294901 0.03886275 -0.050608248 0.113130346
너무나 0.054253038 0.07079931 0.14601615 0.029543858 -0.012103327 0.07902244 0.08701239 0.03850528 0.14292139 0.073506124 0.08133229 0.028309857 -0.016877368 0.0780258 0.0060513965 0.09824162
강추 -0.03613733 -0.052782938 0.05772212 -0.13013281 0.09960635 0.08426169 -0.07385786 0.0618954 0.05189076 0.119052045 0.10514405 0.100015566 -0.10320779 0.12704276 -0.056750275 0.08673146
감 -0.020369252 -0.077233136 0.009174025 0.00381466 -0.08325184 -0.011654322 0.004343342 0.077403046 0.049046334 0.028338905 -0.015111673 0.0025344242 0.028756345 0.056321967 0.008499224 0.022002138
됨 -0.05493293 0.01427123 0.023545638 0.06533353 0.057913955 0.017664747 0.06287778 0.044656385 -0.0008826041 0.050262652 0.019097941 -0.017020749 0.010167544 0.0871888 -0.05930136 0.045711014
ㅡ -0.039528627 -0.020486362 -0.0034415016 -0.08189041 0.013487203 -0.071358226 0.09468465 -0.09676702 -0.062538736 -0.07162577 0.021518635 -0.066613406 0.06444994 -0.106602244 -0.0039047806 0.020328648
따뜻 0.007207911 -0.039383873 0.022373946 -0.12948576 0.06848916 0.14262709 -0.09925719 0.118204996 0.037735645 0.06791336 0.12295866 0.046380095 -0.09312666 0.09415415 -0.038553994 0.15052098
빼 0.07100763 -0.07449753 -0.111306675 0.040291734 -0.060161516 -0.08561878 -0.04640916 -0.111265175 0.13267887 0.05886669 0.011428587 -0.037910294 -0.05349735 -0.022094702 -0.015026814 -0.008473795
느끼 0.00052519306 0.14750887 -0.03295457 0.13037197 -0.0037188747 0.035904665 -0.078017406 -0.0531109 -0.06543634 0.045395147 0.038721383 0.043583836 -0.071523994 0.07291549 0.03975819 0.084640555
해야 0.040905327 -0.03959461 0.008581586 0.07218041 0.04427006 -0.02113015 0.01432532 -0.045702957 0.023482714 -0.017594872 3.338929e-05 -0.025493504 -0.015987514 0.009191841 -0.12312312 0.07232439
드 0.055188008 -0.119159855 -0.068750545 -0.047121484 0.12382238 0.031940296 0.024140606 -0.05643465 0.07180089 0.016928066 0.014359547 0.035519682 -0.0033451535 -0.040162392 -0.052040126 0.04558505
도대체 -0.0061641904 -0.14643542 -0.01305624 0.006224818 -0.058827024 -0.05089382 0.06016259 -0.055347897 0.011300444 -0.09760426 0.018568387 -0.124603935 0.12288606 -0.0391073 -0.006389213 -0.007948233
어야 -0.042329002 -0.08119042 -0.087902054 0.09645792 -0.092056476 -0.07510424 0.02159322 -0.08387691 -0.013708603 -0.025508143 -0.039516646 -0.11170858 0.043576606 -0.047986727 0.007329572 -0.0113727115
답답 -0.07224924 -0.09477639 -0.122849725 0.042072136 -0.016595097 0.0034233737 0.05562596 -0.120036446 -0.07665367 -0.09617624 -0.04816089 -0.0926795 0.00850168 -0.096385755 0.081632495 -0.105591595
마다 -0.06699748 0.06983823 0.06496934 -0.0043677334 -0.011938969 0.111612976 0.034290466 -0.00040910556 0.04225262 -0.013350028 0.041566335 -0.013989546 -0.0328762 -0.025284242 0.008537022 0.021925136
준다 -0.14983368 -0.15100594 -0.025588373 -0.038232125 -0.04739483 -0.17331482 0.010725486 -0.059021156 -0.0018235418 -0.099557094 0.057824086 0.0020739431 -0.07762826 0.03939504 -0.02325993 -0.011665834
글 0.10085213 0.008154894 0.030490192 0.005653208 -0.030075675 0.010067146 0.022400595 0.028128227 -0.08717685 0.010578789 -0.028019307 0.0019371377 0.008601124 -0.039182466 0.020029586 -0.041115925
전쟁 -0.0066703893 0.09722395 -0.045546968 -0.039907187 0.002854931 0.04151796 -0.082176276 -0.023124475 0.038563926 0.062161114 0.0077647846 -0.0034668893 -0.053362973 -0.02372828 -0.047349304 0.053383194
놈 0.054092087 0.05287596 -0.02556374 -0.05968916 0.022235371 -0.09469552 -0.060474988 0.093912035 0.043697223 -0.016172105 -0.05304158 -0.0443669 0.027613278 -0.029805139 -0.006918289 0.040398445
설정 0.061596736 -0.037998006 -0.03405743 -0.03436949 -0.06413728 -0.06163485 0.049577273 -0.08009202 -0.12553266 -0.07315306 -0.025297625 -0.031623516 0.0680953 -0.0043452373 0.005018463 -0.0035494084
무엇 -0.008754912 -0.08954705 0.030943442 0.05139695 0.10183066 0.01912614 -0.092706695 -0.0011194122 -0.012049738 0.0021538432 0.01175637 -0.010012731 -0.039705046 0.019502865 -0.089070484 -0.0155432355
수작 -0.15916924 0.022847362 0.12535809 -0.1380336 0.14188676 0.1121509 -0.18234909 0.1032614 -0.054279465 0.22571261 0.1168727 0.1323395 -0.22894919 0.2273645 -0.07199147 0.13223305
만화 0.0127373915 -0.034481306 -0.010918911 -0.10540937 0.01730807 -0.10940874 -0.034328908 -0.027811367 -0.016982228 -0.056409445 -0.043479495 0.026677433 -0.02853588 -0.073845655 0.05465021 -0.081150874
흥미 0.012358039 -0.045005545 0.02646159 0.031684756 -0.0459375 -0.032024123 0.007557637 -0.019825408 0.0033598803 0.01416615 0.11021111 -0.00094784936 -0.02336329 0.036390923 -0.022942232 0.077159725
그저 0.02463972 0.13703938 -0.04941579 0.09762129 -0.018003566 -0.022752825 -0.011531727 -0.00962643 -0.07613916 -0.040256336 -0.112867355 -0.07701399 0.05316808 0.035462406 0.016795445 -0.008169531
감정 0.0017739371 0.025064139 -0.006724436 -0.06879957 0.1096708 0.00586895 -0.025076026 -0.020985512 0.04823539 0.10181158 0.0042565283 -0.033378787 -0.100729436 -0.02916364 -0.016913502 0.06689622
미국 0.020464016 0.009431038 -0.20632525 0.007565584 -0.04985679 -0.024726037 0.07288857 -0.007367145 0.11457845 0.047489867 -0.0007117533 0.056166835 -0.030376136 0.025265288 -0.06415584 0.02945259
신선 -0.0034494733 -0.1384962 0.01945331 -0.014997324 0.11005006 0.03007982 -0.021298228 0.04391723 -0.034915153 0.09395542 0.121686764 0.075269535 -0.037801664 0.053621422 -0.13229859 0.09279409
행복 -0.1049247 0.015243325 -0.029655743 -0.03982146 0.02322049 0.13221931 -0.10432616 0.012504869 -0.036410492 0.05949325 0.090019666 0.041194975 -0.06288193 0.0929964 0.0063163554 0.09210907
뻔 0.03766219 0.014717218 -0.08519199 -0.010302732 0.014941722 0.00925694 -0.00010697788 0.12059584 -0.009895684 -0.09945957 -0.068600096 0.008950292 0.07464636 -0.02536797 -0.02904413 -0.056435358
형 0.021091223 0.010290297 -0.068794765 -0.018221825 -0.020600572 0.04534062 -0.05118519 0.0025065935 0.04958853 0.034005806 -0.029004158 0.032254584 -0.024329688 -0.012963876 -0.021949101 0.07216353
앞 -0.033148788 0.025030944 -0.021999491 -0.10024282 0.033425614 -0.03243928 0.025047574 0.04501531 0.012402733 -0.008842365 -0.030674418 -0.025424708 0.02515488 -0.05904159 0.010079497 0.11808756
허접 -0.004459642 0.0033788295 -0.080113515 0.118344925 -0.033513494 -0.1141079 0.03947881 -0.0090010865 -0.001791752 -0.11727767 -0.12712814 -0.15009743 0.16103113 -0.09937599 0.056643106 -0.13827807
어도 0.06713004 -0.039162908 0.04669114 -0.070273675 0.052529864 0.06339451 0.041575525 0.010793698 0.06566209 0.032261405 0.0033272724 -0.026079128 0.018507462 0.015656414 0.0007247166 0.014181035
군 -0.04618123 -0.021345958 0.029493218 -0.047028456 -0.026759272 -0.006832926 -0.022302818 0.03721887 -0.05891249 -0.053401943 0.0015848228 0.009575248 0.07277062 0.0066959755 0.009377272 -0.06375574
시절 0.0086266715 0.053602163 0.021029444 -0.00043569296 0.033540875 0.010304005 0.08508466 -0.014332134 -0.02203878 0.07438761 -0.020545734 -0.006860835 -0.0719869 0.0048635816 -0.06999713 0.036740888
관객 -0.018119143 -0.05192984 -0.08368044 0.1114706 -0.042993464 -0.0616242 0.052571658 -0.03340956 0.013226063 -0.05793195 -0.0423071 -0.10590225 0.058091268 0.045530204 -0.0051417775 -0.065641224
배경 0.10110981 -0.0050890027 0.003905493 -0.0138189 0.060676515 -0.02646369 0.020662213 0.030552171 0.007834453 0.083346926 -0.013674656 -0.035554145 0.044515565 -0.012447982 -0.041907143 0.037674475
6 -0.07560049 0.068738155 -0.031623594 0.014555475 0.0025669688 0.071907684 -0.028667778 -0.009173259 -0.02487909 -0.06393504 0.10902156 0.030481506 -0.072900645 -0.011517177 -0.067052014 0.014846496
초반 0.018916346 0.06625576 -0.037723888 0.05240579 -0.022025384 -0.028521117 0.03394173 0.054339044 -0.13859189 -0.052074548 -0.040123425 -0.0036467635 0.019849682 -0.017115526 0.023416279 -0.021057852
사실 -0.032975666 -0.069287956 0.052237686 -0.0958125 0.059513107 -0.034171756 -0.03573745 0.02184662 -0.00039481086 0.00526626 0.050636373 0.0635778 -0.0958678 0.09955538 -0.021874573 0.05101101
웃음 0.0031412418 0.084322505 -0.03282161 -0.04650182 0.04948173 0.04296614 0.016447386 -0.009695502 0.01492652 0.028370874 -0.019116893 0.07119015 -0.01856046 0.030494153 0.031769678 -0.012885362
답 0.0013091973 -0.061246604 0.018881341 -0.0049075354 -0.037573908 -0.032723747 -0.03658224 -0.044747893 -0.016046034 -0.05288404 0.027440935 0.0027208452 0.0653456 -0.0040839035 0.009599799 -0.046257522
엄청 0.040794276 0.14151356 0.0927167 -0.11557863 -0.03126805 0.094853036 0.04431167 0.08091583 0.013576395 0.0023102218 0.009708023 0.040460754 0.0013399939 0.029676301 0.056996513 0.027955912
더라 -0.1391613 -0.03906213 -0.017938785 0.017240543 0.038061343 0.07004417 -0.015404028 -0.020338584 0.0061705103 -0.009190077 0.043894522 -0.009673519 -0.0281176 0.012184759 -0.017334014 0.04029404
라니 -0.054750398 0.17118785 0.0020981142 -0.0010466886 -0.04584288 0.09079605 -0.06023714 0.060774658 -0.15133306 -0.041763313 -0.047312267 0.059716634 -0.00882709 0.01256032 0.009456932 0.08356968
질 -0.024432579 -0.09913446 -0.025355935 0.012278934 -0.03259456 -0.07663645 0.020559138 -0.041702334 0.030935748 -0.03388446 -0.053804614 -0.027048944 0.11058193 0.009695957 0.0491381 -0.056924824
자신 -0.08368694 0.04875011 -0.0025178415 -0.033558965 -0.061728526 0.057815935 -0.04726986 0.022906931 -0.022597298 -0.02323685 -0.0449927 0.05467021 -0.0040579783 -0.028532326 0.011846944 0.014566634
추억 -0.045974717 0.0670187 0.031393547 -0.022663128 0.046861753 -0.020628672 -0.060316585 0.088082366 0.0030558626 0.0077849557 -0.01593278 0.022413552 -0.067516804 0.07212341 -0.057096373 -0.005266097
캐스팅 0.037445214 -0.024934944 -0.007707523 0.0034983396 -0.040994447 -0.013130312 0.05596963 -0.03859593 -0.015599543 -0.02473528 0.0071847267 -0.11837969 0.06363814 -0.10449946 -0.01891335 -0.046259332
첨 0.106211096 0.12183476 0.0680364 -0.0021737672 -0.05006547 -0.06562099 -0.040085305 0.028193232 0.030826513 -0.07046627 -0.07423502 -0.018348819 0.071870975 0.010328182 0.04965273 0.008261264
멋있 -0.015661983 0.026020898 0.08395283 -0.045996238 0.17805222 0.15678993 -0.087890476 0.0735978 -0.0154808005 0.10144801 0.09992756 0.064402685 -0.052463654 0.08213321 -0.080711104 0.1443752
류 -0.07084585 -0.006986293 0.0006685285 -0.0018257365 -0.038531218 0.009700374 -0.009158454 0.106570736 0.039666988 -0.008007397 -0.08033734 -0.04533191 0.070343085 -0.05658169 0.030115232 -0.030007418
어색 0.03186366 -0.009441356 -0.046229392 -0.01323667 -0.068832286 -0.09026446 0.03349621 -0.07634677 -0.09503587 -0.11629015 -0.0773096 -0.052376606 0.09119913 -0.13474083 0.089266606 -0.100224674
시나리오 0.058046505 -0.043898195 0.029967668 -0.05886875 -0.07196806 -0.012316888 0.017118925 -0.10617583 -0.03805472 -0.026423713 -0.109697856 -0.02487209 0.027422015 -0.074865416 0.07836625 -0.025586244
머 0.02378495 -0.17094974 -0.010055519 0.076068774 0.043495785 -0.0063433754 0.10132009 -0.036894698 -0.009973163 -0.048980735 -0.054217886 0.014965678 0.005573569 -0.032058254 0.0415561 -0.07143649
밖에 0.07043556 -0.09546029 -0.024914902 -0.03926302 0.04482992 -0.037300434 -0.0018223596 0.017673312 0.021439975 -0.0021671767 0.089627214 0.029035892 0.017656937 0.0045787385 -0.048954323 -0.045176707
OOO -0.1729024 0.052076776 -0.016864449 0.034590304 -0.10940173 -0.052295506 0.13257186 -0.010193117 -0.038120955 -0.06596503 -0.06659246 -0.0019339107 0.085812666 -0.011990669 0.053540662 -0.027756624
슬프 0.08413207 0.08592492 0.076202095 -0.08722553 0.15427755 0.08087748 -0.05787444 0.057615098 0.007715941 0.11179687 0.08091567 0.09660102 -0.11505725 0.07606096 -0.051274493 0.06995154
정신 -0.00026700535 0.0045799646 -0.0013980878 0.09016672 -0.03113225 -0.069527455 -0.011190299 -0.15460402 0.08165815 -0.069622174 -0.080744326 -0.008628269 0.036144096 -0.06920732 0.07599135 -0.028477227
분위기 0.08084698 -0.035726946 -0.0010904088 -0.03438137 0.06637427 0.0850182 0.0049263053 -0.013908748 0.06438089 0.013415046 0.00427555 -0.0015150849 -0.0445951 -0.009578103 -0.086464986 0.002277655
소름 -0.09660434 0.042193945 -0.055528708 -0.04962983 0.026346752 0.02080733 -0.13691194 2.3653258e-05 0.031916857 0.08042546 0.03444903 0.035398435 -0.15372019 0.11316568 -0.013715718 0.10750305
멋진 -0.07907225 -0.0133461375 0.1251152 -0.04186326 0.098651454 0.10285813 -0.03196692 0.07307435 -0.07531058 0.09783353 0.07134251 0.12866785 -0.059577778 0.061166488 -0.071453504 0.029642858
힘들 -0.064195946 0.13416047 -0.08154006 0.035339147 0.018456187 0.065652825 0.075775675 0.07419553 -0.062498707 0.010711053 -0.014399277 -0.035043236 -0.0071532535 -0.08311336 0.07919309 -0.0035374195
오늘 -0.0322771 -0.04200377 0.106586754 0.061512806 -0.09366916 -0.011901448 0.0073087714 0.07128817 -0.09779292 -0.06341883 0.049222432 -0.022163074 -0.005203567 0.07726444 -0.008058935 0.05746948
어이없 0.07683744 -0.0587966 -0.11410612 0.09294767 -0.018577533 -0.09667458 0.028243866 -0.08514109 -0.019588841 -0.06897406 -0.13532035 -0.13818708 0.06637074 -0.05223121 0.043228555 -0.08683037
봐서 0.021090223 0.082152925 -0.039231885 -0.045750264 0.0056838877 0.017939273 -0.031783342 -0.09653488 -0.051546037 0.0008086605 -0.017644944 0.050110683 0.01636615 0.033363596 -0.03329892 0.023256179
걍 0.03425251 0.012304859 0.011255729 -0.11919425 -0.069984294 -0.06655568 0.0977738 -0.0033789033 0.17877433 -0.034104437 0.009292135 -0.04080924 -0.037024397 0.026242126 0.090785235 0.013851926
잡 0.031511392 0.04558146 0.029970651 -0.0062827207 -0.080077946 0.10024149 -0.08128371 0.058540545 0.01287513 -0.043507617 -0.056187306 -0.02301963 0.0028709164 -0.010997032 -0.016171383 0.004757871
